4039 24
3562 -0.364157 -0.258517 0.20586 -0.094554 -0.298941 -0.0115602 0.35804 0.264615 0.885332 -0.371861 -0.551664 0.646879 -0.154295 0.112773 -0.529023 -0.308272 0.347484 0.780439 -0.617846 0.176309 0.190474 0.0429069 0.891267 0.0387414
3639 -0.305875 -0.229334 0.247329 -0.0757274 -0.271825 0.0134271 0.336084 0.217937 0.818533 -0.342699 -0.528657 0.569784 -0.14978 0.0752261 -0.472163 -0.265307 0.318602 0.693647 -0.600455 0.168282 0.162481 0.0244485 0.86249 0.0377715
3516 -0.282484 -0.22262 0.299005 -0.05613 -0.310002 0.000763539 0.31972 0.256091 0.864678 -0.360767 -0.499437 0.626711 -0.138682 -0.0284196 -0.54295 -0.24985 0.372684 0.701123 -0.663165 0.133902 0.203437 -0.0005383 0.942824 0.0419321
3581 -0.243223 -0.181902 0.314334 -0.00173739 -0.251672 0.00329063 0.273917 0.231633 0.754377 -0.30176 -0.480807 0.528777 -0.124995 0.0212185 -0.44574 -0.274404 0.317682 0.585649 -0.597185 0.119013 0.142782 -0.0119026 0.818125 0.0276787
3479 -0.217461 -0.216369 0.334137 -0.034001 -0.266854 0.019365 0.254994 0.238278 0.727593 -0.275032 -0.44839 0.495209 -0.140497 -0.026748 -0.463162 -0.25792 0.3047 0.551483 -0.597182 0.135937 0.163157 -0.0385588 0.837376 0.0546598
3594 -0.298553 -0.234925 0.246116 -0.0589174 -0.27051 -0.00441969 0.279518 0.252869 0.825247 -0.319478 -0.510784 0.606183 -0.144262 0.0305372 -0.478428 -0.29032 0.368944 0.668788 -0.627933 0.145748 0.172204 -0.0230429 0.827791 0.0644449
3830 -0.927742 -0.532338 0.745224 -0.130391 -0.493315 -0.350964 -0.107155 0.864006 1.29159 -0.468792 -0.519511 1.08718 -0.0267625 -0.047844 -0.730402 -0.420118 0.949853 0.873263 -0.870841 -0.0234665 0.586829 -0.190698 0.749701 0.292761
3717 -0.122255 -0.1754 0.486525 0.0360241 -0.202972 -0.011278 0.126982 0.230318 0.574382 -0.10514 -0.266081 0.312419 -0.00161788 -0.170911 -0.320356 -0.175522 0.219869 0.235754 -0.481785 0.0424885 0.158684 -0.153877 0.580871 0.045315
3269 -0.0978724 -0.23309 0.940741 0.344323 -0.205853 -0.285259 0.124116 0.182223 0.709954 0.102946 -0.650483 0.0745776 0.310417 0.363993 0.109587 -0.418266 -0.0275269 0.133215 -0.52147 0.0719043 0.138658 0.0527014 0.485035 -0.359851
3010 -0.0956931 -0.211641 1.01615 0.386223 -0.210292 -0.2949 0.123177 0.163192 0.688498 0.149252 -0.68557 0.0608771 0.29032 0.427306 0.174736 -0.431385 -0.0457009 0.111469 -0.48938 0.102681 0.107063 0.046742 0.451207 -0.418532
3333 -0.10846 -0.260948 0.808097 0.328405 -0.20059 -0.244188 0.113676 0.139896 0.669224 0.130698 -0.551259 0.0598888 0.28469 0.357829 0.128262 -0.395009 -0.0286966 0.0931434 -0.4704 0.0625911 0.123237 0.0833156 0.409968 -0.293627
3447 0.00860689 -0.160847 0.685395 0.0314414 -0.142222 0.106677 0.166321 0.310922 0.675881 -0.00440533 -0.395893 0.297587 0.100791 -0.270581 -0.285612 -0.204755 0.255646 0.232076 -0.663774 -0.0279972 0.14382 -0.293686 0.890284 0.0238167
3437 -0.323663 -0.411633 0.674397 -0.0138639 -0.275691 -0.0207339 0.501666 0.581851 1.59768 0.0736259 -0.612948 0.870475 -0.0786326 -0.462998 -0.891147 -0.0925347 0.734586 0.900939 -1.15356 0.0642641 0.311649 0.0702794 1.78155 0.314907
3796 -0.295054 -0.347865 0.707739 0.0419571 -0.295817 -0.0641502 0.0252722 0.408067 0.69274 -0.108245 -0.303254 0.462034 -0.0193839 -0.260659 -0.437184 -0.206861 0.463523 0.23144 -0.608454 0.059759 0.229131 -0.197986 0.68522 0.123414
3721 -0.512494 -0.45693 0.835596 0.0192489 -0.383829 -0.0996263 -0.0525434 0.647708 0.899827 -0.170133 -0.320533 0.68175 -0.0617628 -0.316522 -0.583303 -0.256956 0.74739 0.388688 -0.722071 0.0407012 0.372292 -0.290736 0.726163 0.222592
3756 -0.706509 -0.586345 1.0569 -0.0305386 -0.463264 -0.182131 -0.129803 0.832804 1.07275 -0.238376 -0.333016 0.850629 -0.0254889 -0.332667 -0.695103 -0.30755 0.897844 0.464953 -0.868751 0.0512636 0.473606 -0.32069 0.740453 0.295322
3462 -0.406134 -0.360197 0.753697 0.04032 -0.305488 -0.0870975 0.0196018 0.529174 0.725236 -0.120708 -0.303598 0.603978 -0.0478458 -0.298535 -0.440064 -0.233525 0.639401 0.294877 -0.688875 0.0678573 0.281217 -0.300447 0.637681 0.211116
3604 -0.704148 -0.579806 1.01638 0.00413441 -0.455182 -0.239359 0.00139234 0.796724 1.06458 -0.0897009 -0.423529 0.914494 -0.0970393 -0.407332 -0.662025 -0.40961 0.965749 0.450519 -0.95117 0.093934 0.478455 -0.436775 0.772872 0.419124
3800 -0.6626 -0.517138 1.04309 -0.00600871 -0.432226 -0.210319 -0.14571 0.801044 0.996982 -0.122233 -0.330909 0.831491 -0.0483961 -0.343982 -0.55445 -0.345961 0.927557 0.422319 -0.852171 0.0463806 0.429586 -0.383398 0.688151 0.271164
3737 -0.600654 -0.521011 0.992678 0.0366806 -0.447651 -0.157325 -0.0663444 0.703575 0.986364 -0.102037 -0.31826 0.780364 -0.0701056 -0.363235 -0.566897 -0.348379 0.863036 0.374663 -0.868294 0.107348 0.431945 -0.3703 0.735219 0.253866
3873 -0.523338 -0.479382 0.879489 0.00802805 -0.359788 -0.166951 -0.0481772 0.682398 0.903107 -0.151021 -0.314334 0.707481 -0.0468424 -0.308997 -0.573853 -0.279695 0.790595 0.402976 -0.754111 0.0252328 0.38096 -0.261768 0.71657 0.26999
278 -0.0150535 -0.0629558 0.240672 0.37121 -0.121567 -0.298598 0.35528 -0.017738 1.21913 -0.286571 -0.779577 -0.268176 0.745769 1.03031 -0.14294 -0.35047 -0.566553 0.378265 -0.561694 -0.566549 0.25622 0.552099 0.360808 -0.439578
225 -0.0358489 -0.0442962 0.199558 0.32898 -0.0907063 -0.272554 0.372962 0.0343576 1.19151 -0.315054 -0.775259 -0.221044 0.705332 0.959552 -0.157785 -0.351326 -0.536459 0.401933 -0.542001 -0.5246 0.258661 0.513776 0.402673 -0.412518
0 0.10162 0.0715247 0.182014 0.663532 -0.0874196 -0.57457 0.57798 -0.00145752 1.75005 -0.421176 -1.28321 -0.354984 1.15397 1.57126 -0.607906 -0.703485 -1.02755 0.689879 -1.16755 -0.858239 0.3752 1.13715 0.86505 -0.519315
51 0.0214029 -0.0371969 0.213169 0.329911 -0.0805299 -0.341061 0.21442 -0.0408624 1.0045 -0.286837 -0.777471 -0.164105 0.74706 0.95791 -0.200969 -0.339548 -0.575013 0.263917 -0.423015 -0.434185 0.254317 0.554283 0.397648 -0.411191
237 0.0370432 -0.031575 0.246563 0.333952 -0.0938124 -0.340027 0.203576 -0.0438267 0.994979 -0.204404 -0.739487 -0.173156 0.703989 0.907157 -0.161769 -0.365544 -0.557401 0.270997 -0.445374 -0.388282 0.235628 0.523588 0.362496 -0.385308
25 0.177808 -0.108249 0.373808 0.621475 -0.13696 -0.679278 0.121228 -0.203841 1.19385 -0.245211 -1.1426 -0.189315 1.31315 1.48289 -0.428187 -0.515158 -0.932279 0.268365 -0.510021 -0.564363 0.386474 1.05467 0.52106 -0.648462
453 -0.2278 -0.659716 1.01084 0.263127 -0.353166 -0.0861162 -0.188268 -0.027772 0.33654 0.292666 -0.288349 -0.169187 -0.0620709 0.717553 0.11085 -0.978484 -0.0846577 0.164182 -0.749555 -0.175465 0.225311 0.145773 0.137047 -0.248209
498 -0.219542 -0.578749 0.947975 0.248657 -0.336259 -0.111637 -0.149678 -0.0106501 0.337763 0.271543 -0.274959 -0.162784 -0.030638 0.62157 0.160557 -0.852885 -0.0227571 0.107776 -0.676937 -0.100666 0.173582 0.148468 0.123861 -0.240118
348 -0.460332 -1.1598 1.3712 0.323068 -0.589514 0.0552574 -0.554052 -0.20982 0.240118 0.472816 -0.2384 -0.369895 -0.33376 1.12253 0.0963493 -1.83615 -0.116576 0.36507 -1.35934 -0.454903 0.383441 0.172233 -0.028036 -0.251243
489 -0.141868 -0.556062 0.766668 0.213557 -0.354732 -0.102566 -0.16964 -0.0388807 0.190208 0.341312 -0.179306 -0.21434 0.0286894 0.503921 0.145515 -0.800599 -0.0657338 0.113615 -0.575005 -0.0687511 0.103445 0.0958994 0.0268871 -0.250248
557 -0.14723 -0.631064 0.882716 0.218813 -0.411012 -0.072815 -0.255062 -0.0698667 0.151526 0.401624 -0.173855 -0.267501 -0.0720588 0.592762 0.172777 -0.996497 -0.0816884 0.174385 -0.674784 -0.116213 0.128257 0.107428 -0.0394879 -0.277401
410 -0.136108 -0.517292 0.813401 0.216137 -0.331503 -0.0950394 -0.155718 -0.0384567 0.290665 0.285107 -0.216779 -0.150423 0.0474189 0.474069 0.158489 -0.736867 -0.0611214 0.11864 -0.57573 -0.00847561 0.0934559 0.0924096 0.0692954 -0.220194
354 -0.162353 -0.6431 0.856791 0.227214 -0.403029 -0.0637855 -0.214079 -0.101866 0.147682 0.397795 -0.170398 -0.228495 -0.0650285 0.563411 0.156097 -0.974287 -0.0644383 0.15715 -0.644825 -0.0786933 0.128849 0.0948829 0.00308675 -0.223593
510 -0.127604 -0.612447 0.841417 0.24283 -0.394536 -0.106927 -0.194963 -0.0772764 0.152732 0.359811 -0.196371 -0.244725 -0.0173488 0.574297 0.143461 -0.93075 -0.0389404 0.126052 -0.65466 -0.0915388 0.0917986 0.115299 -0.0112459 -0.257666
1453 -0.0863989 -0.348616 0.704277 0.293516 -0.240779 -0.225042 -0.0170971 0.0349382 0.557576 0.148731 -0.447368 -0.0344351 0.287805 0.429686 0.121439 -0.451968 -0.0169369 0.0773165 -0.521635 0.0763743 0.13651 0.125003 0.289242 -0.288287
920 -0.0684228 -0.190819 0.548277 0.188728 -0.150313 -0.156514 0.0405922 0.0707956 0.469171 0.0714059 -0.356386 0.0482822 0.214221 0.249222 0.0370566 -0.263291 0.000522284 0.0562283 -0.361215 0.0422016 0.129913 0.0747395 0.307603 -0.201076
1594 -0.0645444 -0.205589 0.525651 0.231051 -0.165398 -0.147451 0.0300366 0.0439883 0.465827 0.0583735 -0.359653 0.015716 0.216921 0.304693 0.0670853 -0.278412 -0.0340489 0.0627984 -0.388338 0.0204565 0.10046 0.10476 0.254706 -0.197023
1419 -0.0878641 -0.242708 0.805764 0.293884 -0.176988 -0.23961 0.0846244 0.0939474 0.626546 0.133775 -0.527437 0.043693 0.286638 0.363426 0.151367 -0.382041 -0.0256634 0.0997959 -0.474826 0.0891092 0.118044 0.069502 0.355657 -0.306187
2971 -0.0600901 -0.155697 0.641929 0.257063 -0.127909 -0.208973 0.0787201 0.0945326 0.483874 0.102289 -0.468253 0.0117955 0.239231 0.312728 0.123736 -0.30662 -0.0465813 0.0909501 -0.344339 0.0280156 0.0653032 0.0657706 0.307541 -0.261554
2703 -0.123639 0.0536995 1.18567 0.48932 -0.212183 -0.477813 -0.129425 0.14103 0.395646 0.296145 -0.629867 -0.0818797 0.186043 0.540228 0.455351 -0.244017 0.0690186 0.0630328 -0.0795943 0.0903283 -0.129092 -0.163807 0.185033 -0.52207
2959 -0.0924191 0.0570702 1.19711 0.48007 -0.263139 -0.510436 -0.163884 0.150233 0.414711 0.305539 -0.640954 -0.0866015 0.214046 0.568962 0.463489 -0.172879 0.103487 0.0843007 -0.0554845 0.0679432 -0.144272 -0.164626 0.167846 -0.494223
3325 -0.0959461 0.0483995 1.21903 0.483204 -0.224033 -0.484646 -0.142857 0.187123 0.394779 0.311582 -0.632259 -0.0850034 0.192356 0.52526 0.457049 -0.220988 0.0644994 0.0867835 -0.0823478 0.090304 -0.161419 -0.173165 0.186622 -0.519861
3311 -0.101042 -0.0217613 1.07238 0.425269 -0.212677 -0.385926 -0.0744728 0.126146 0.40888 0.236204 -0.577504 -0.0840338 0.215136 0.464467 0.384388 -0.21147 0.039907 0.0348522 -0.141242 0.0788768 -0.114872 -0.124109 0.163216 -0.445687
2982 -0.118085 0.0463262 1.26231 0.518858 -0.239863 -0.518502 -0.18016 0.146029 0.395678 0.321207 -0.630345 -0.0993335 0.193849 0.58877 0.484026 -0.167751 0.104065 0.0716747 -0.00721881 0.0713825 -0.183703 -0.203916 0.142221 -0.531492
2834 -0.0663741 0.0147916 1.01427 0.40665 -0.176345 -0.389759 -0.0268145 0.173977 0.412868 0.215688 -0.60098 -0.0193834 0.18037 0.405753 0.34498 -0.208612 0.00558234 0.0702272 -0.129097 0.0694251 -0.103129 -0.120975 0.220662 -0.464672
2670 -0.0851544 0.0331431 1.20201 0.441223 -0.214468 -0.464362 -0.0917891 0.194667 0.406424 0.297456 -0.634564 -0.0812121 0.156694 0.503838 0.448751 -0.25437 0.0404237 0.0922316 -0.0560759 0.0783253 -0.155637 -0.18258 0.19212 -0.537787
3314 -0.101341 0.0653497 1.22696 0.471665 -0.225223 -0.493095 -0.141357 0.173867 0.353439 0.287705 -0.664178 -0.111578 0.168534 0.529207 0.481638 -0.19625 0.105657 0.0778849 -0.03844 0.0704286 -0.154967 -0.202123 0.185728 -0.5382
796 -0.462954 -0.469182 0.992542 0.202243 -0.284763 -0.17379 -0.0459443 0.0219588 0.718047 0.180929 -0.0788559 0.0245477 0.418703 0.354128 0.654865 -0.0168097 -0.238252 -0.381689 -0.267929 0.443525 0.127808 -0.00740189 -0.0449467 -0.11374
822 -0.642461 -0.669858 1.35579 0.283308 -0.400117 -0.254772 -0.0888657 -0.012863 0.996075 0.248827 -0.0990642 0.011554 0.586001 0.46209 0.885426 -0.0397018 -0.349355 -0.488058 -0.389607 0.628456 0.156669 -0.00304173 -0.082832 -0.163416
768 -0.631497 -0.683128 1.28 0.298516 -0.369998 -0.240133 -0.0879788 0.0294398 0.958667 0.233852 -0.109212 0.0206184 0.52262 0.458443 0.845962 -0.0134889 -0.281731 -0.471189 -0.363718 0.587068 0.193729 -0.0342886 -0.0752672 -0.130565
733 -0.521251 -0.559969 1.0171 0.218496 -0.27618 -0.176449 -0.0484238 0.0176456 0.734025 0.188646 -0.0894299 0.0194758 0.423369 0.369525 0.677177 -0.00530463 -0.206372 -0.408509 -0.299556 0.462889 0.169678 0.00587824 -0.0528579 -0.125563
795 -0.70411 -0.753112 1.38047 0.316149 -0.314619 -0.190472 -0.01737 0.0155901 0.980786 0.23604 -0.116381 0.110318 0.464364 0.509129 0.882771 0.0595623 -0.200203 -0.622233 -0.316343 0.596819 0.245956 -0.0438257 -0.0209681 -0.140879
694 -0.879567 -0.958375 1.66027 0.38473 -0.362469 -0.272117 -0.0469958 0.0143361 1.1417 0.275276 -0.138936 0.133227 0.557014 0.617899 1.1084 0.0997477 -0.215642 -0.796972 -0.370149 0.755368 0.311452 -0.0260853 -0.060682 -0.156697
780 -0.730439 -0.793225 1.43468 0.302007 -0.295896 -0.232547 -0.0503861 0.0262085 0.954489 0.237189 -0.148721 0.0964537 0.469257 0.502889 0.945171 0.0458162 -0.202993 -0.641161 -0.325443 0.662126 0.232066 -0.0588934 -0.0621785 -0.179582
838 -0.737801 -0.772783 1.39404 0.291262 -0.313849 -0.176651 -0.0735041 -0.00740778 0.961475 0.269979 -0.119885 0.0961631 0.430234 0.484805 0.933851 0.075081 -0.155648 -0.660832 -0.313579 0.658779 0.233905 -0.0411164 -0.0562336 -0.18097
840 -0.775001 -0.789047 1.44652 0.293106 -0.320624 -0.198253 -0.0664393 0.00864183 1.00324 0.250944 -0.121666 0.0954711 0.483855 0.479779 0.930576 0.111388 -0.151957 -0.671662 -0.344607 0.669895 0.247055 -0.0657546 -0.0392657 -0.169739
695 -0.828965 -0.892455 1.59533 0.346518 -0.372855 -0.223829 -0.0726992 6.14068e-05 1.08977 0.306648 -0.125848 0.104129 0.512449 0.549996 1.03522 0.0482307 -0.194535 -0.705958 -0.361614 0.721421 0.269332 -0.0877614 -0.0445251 -0.148611
3720 0.0617302 -0.263658 0.752672 0.222544 -0.330441 0.0471339 0.202788 0.269296 0.83168 -0.110598 -0.485849 0.400678 0.00922891 -0.351516 -0.476737 -0.210658 0.377515 0.370108 -0.792657 0.115138 0.249302 -0.13983 1.12403 -0.0405222
3923 0.0562756 -0.213504 0.765882 0.217447 -0.345831 -0.00060939 0.206144 0.284063 0.851006 -0.0919321 -0.514482 0.407188 0.0418674 -0.328523 -0.426699 -0.236924 0.314451 0.398224 -0.82009 0.0771373 0.25106 -0.186396 1.11223 -0.037116
3789 0.136568 -0.227226 0.851608 0.26613 -0.420426 0.0440958 0.252815 0.27281 0.992199 -0.142958 -0.621898 0.460771 0.0754977 -0.433337 -0.581639 -0.277633 0.331903 0.475525 -0.994296 0.05436 0.293369 -0.19888 1.34812 -0.0633618
3836 0.2822 -0.257901 0.748963 0.17859 -0.490938 -0.0585491 0.330585 0.141522 0.791456 -0.028972 -0.515276 0.471963 -0.0441327 -0.523903 -0.446036 -0.269118 0.360697 0.504968 -0.833818 -0.00642403 0.29437 -0.21082 1.29981 0.0855566
3774 0.262247 -0.261893 0.782828 0.158731 -0.503258 -0.0640211 0.300552 0.215371 0.824112 -0.0710681 -0.510204 0.494906 -0.064762 -0.566665 -0.485798 -0.253878 0.413048 0.510751 -0.823968 -0.00781212 0.299732 -0.257897 1.29426 0.0857908
3957 0.146431 -0.236157 0.701721 0.104455 -0.441395 -0.0605618 0.225436 0.234911 0.731091 -0.0610927 -0.435694 0.465342 -0.0693181 -0.462936 -0.414655 -0.229272 0.37287 0.456648 -0.712346 -0.0149316 0.296632 -0.239039 1.06922 0.0740896
1726 -0.0621015 -0.176092 0.836469 0.350839 -0.13286 -0.262139 0.094209 0.103931 0.585719 0.0844835 -0.604691 0.042426 0.298117 0.383093 0.239527 -0.375331 -0.0233728 0.103809 -0.370947 0.0719559 0.0777679 0.0535507 0.326143 -0.382062
1555 -0.0372366 -0.236234 0.769403 0.328103 -0.231765 -0.150171 0.0159366 0.0531449 0.608102 0.00821515 -0.495651 0.0447552 0.295189 0.328414 0.164971 -0.33782 0.14546 0.122819 -0.405356 0.126727 0.126592 -0.00618082 0.318548 -0.288475
1307 -0.0618206 -0.266564 0.722843 0.271067 -0.276655 -0.116662 -0.0185942 0.0544882 0.568743 -0.0482741 -0.471268 0.0884704 0.224004 0.294425 0.132786 -0.291 0.251177 0.115285 -0.377603 0.120223 0.139543 -0.0730042 0.279763 -0.22279
1421 -0.0550532 -0.243266 0.698784 0.258291 -0.230618 -0.141101 -0.0136319 0.0367465 0.540562 -0.0222541 -0.418595 0.0550189 0.23111 0.283173 0.0891142 -0.305599 0.175477 0.103412 -0.401781 0.0875909 0.154095 -0.0200251 0.3084 -0.23942
1494 -0.0554642 -0.273231 0.691986 0.28807 -0.277936 -0.140245 0.00758795 0.0630547 0.577514 -0.0450303 -0.467568 0.0995225 0.251034 0.271736 0.0606925 -0.293228 0.244644 0.125314 -0.419689 0.119847 0.138817 -0.0740225 0.316973 -0.223286
1360 -0.0646786 -0.266466 0.700549 0.29537 -0.23321 -0.14878 -0.0127465 0.0754148 0.543137 -0.00837205 -0.458331 0.06685 0.235846 0.282628 0.0981874 -0.329381 0.208046 0.124766 -0.422488 0.111266 0.136239 -0.0585188 0.331256 -0.199808
1045 -0.118959 -0.315918 0.853 0.341163 -0.251239 -0.24066 0.087306 0.099199 0.751832 0.0822998 -0.570857 0.0660783 0.355345 0.407995 0.114096 -0.406358 0.0259208 0.109821 -0.577731 0.0991432 0.200691 0.0916329 0.458781 -0.2965
1615 -0.0460894 -0.217067 0.674175 0.287511 -0.24409 -0.145375 -0.0204589 0.0513735 0.534246 0.0275761 -0.439362 0.0305235 0.272108 0.288086 0.154109 -0.34505 0.182396 0.0920298 -0.395254 0.134856 0.138263 -0.0131838 0.275317 -0.24528
900 -0.0753648 -0.267953 0.65906 0.25335 -0.211258 -0.144723 0.0314015 0.0558321 0.530029 0.0551494 -0.396088 0.0101268 0.23895 0.302928 0.0935905 -0.339079 0.0681251 0.0585602 -0.4279 0.107751 0.149647 0.0486899 0.302886 -0.234962
3501 -0.644262 -0.54711 0.957308 -0.000703233 -0.40992 -0.192709 -0.156644 0.746247 0.973838 -0.194912 -0.336145 0.782809 -0.0276657 -0.306079 -0.584212 -0.309174 0.824318 0.392885 -0.761754 0.0371177 0.435754 -0.297179 0.700179 0.249056
3533 -0.362502 -0.346769 0.657184 0.0433881 -0.272981 -0.099344 0.00179361 0.484152 0.762572 -0.149945 -0.320096 0.549931 -0.0157563 -0.258137 -0.464692 -0.232622 0.537378 0.337244 -0.640555 0.0407362 0.253685 -0.228375 0.690327 0.155441
3512 -0.219399 -0.291827 0.653969 0.0638835 -0.298495 0.00578487 0.0566273 0.379403 0.67183 -0.139806 -0.309437 0.463107 -0.0658867 -0.283373 -0.475287 -0.174158 0.410552 0.270976 -0.617443 0.0722009 0.231111 -0.191448 0.736442 0.0699112
3966 -0.593138 -0.499845 0.922572 -0.0111712 -0.405391 -0.204444 -0.0626512 0.771776 1.05199 -0.205139 -0.362487 0.807268 -0.0347982 -0.316063 -0.637564 -0.308516 0.861509 0.42056 -0.864731 0.027724 0.475661 -0.326802 0.730586 0.292038
3542 -0.583317 -0.504375 1.04431 0.0294106 -0.458868 -0.151924 -0.0345045 0.736792 0.963785 -0.104463 -0.338105 0.783792 -0.0864893 -0.360266 -0.591623 -0.318825 0.872579 0.349115 -0.882182 0.0950798 0.41178 -0.393634 0.724967 0.261817
3817 -0.276545 -0.338543 0.726933 0.0476138 -0.283907 -0.0593453 0.0454685 0.434804 0.693047 -0.0888703 -0.290943 0.489174 -0.0309415 -0.283189 -0.407805 -0.247241 0.504128 0.258474 -0.651588 0.0869306 0.247749 -0.25017 0.704125 0.137597
3687 -0.488177 -0.441961 0.858342 0.0398878 -0.381653 -0.11112 -0.0351334 0.648122 0.865805 -0.12344 -0.311609 0.702439 -0.0585089 -0.316184 -0.537039 -0.250147 0.765788 0.360327 -0.793992 0.0920561 0.377173 -0.312511 0.671276 0.207914
3860 -0.675042 -0.53436 1.03559 0.00914134 -0.417666 -0.210545 -0.128346 0.786454 0.99418 -0.109039 -0.296225 0.81127 -0.0567742 -0.315446 -0.559728 -0.345897 0.90523 0.348255 -0.845724 0.0707225 0.460978 -0.363308 0.665038 0.292171
1317 -0.126293 -0.282147 0.865946 0.342886 -0.220492 -0.227087 0.0774911 0.132578 0.716483 0.0844983 -0.562307 0.118658 0.276738 0.32651 0.130934 -0.401563 0.0830248 0.107608 -0.510141 0.106149 0.147269 0.030437 0.441944 -0.28434
1511 -0.0315783 -0.206512 0.687201 0.309522 -0.250894 -0.135383 -0.0140964 0.0477074 0.541999 -0.0529554 -0.467994 0.0686078 0.243277 0.269442 0.128586 -0.291193 0.255836 0.126297 -0.37847 0.119557 0.135516 -0.0942129 0.28645 -0.213334
1098 -0.0672821 -0.219405 0.716522 0.292523 -0.223413 -0.170571 0.0151057 0.0484057 0.532956 0.014365 -0.444921 0.0341465 0.244201 0.29638 0.147521 -0.314622 0.155035 0.0981211 -0.372462 0.123369 0.124258 -0.00579487 0.30004 -0.281167
1705 -0.0661257 -0.235715 0.702881 0.310906 -0.24804 -0.137055 0.0181171 0.0895274 0.599368 -0.0306344 -0.45099 0.0691339 0.24788 0.299759 0.117098 -0.305357 0.193083 0.126045 -0.422374 0.0910848 0.130825 -0.0393861 0.320775 -0.229399
1325 -0.0918171 -0.234257 0.689868 0.285789 -0.251858 -0.163414 -0.0052207 0.0812807 0.540587 0.0120564 -0.440004 0.0407007 0.237481 0.280439 0.0952396 -0.305217 0.12419 0.110501 -0.421474 0.0934132 0.140947 -0.00355698 0.311687 -0.233066
1678 -0.0858086 -0.294919 0.752179 0.299003 -0.208799 -0.215748 0.0374843 0.0993112 0.619064 0.0699886 -0.483426 0.034804 0.298519 0.367995 0.102065 -0.37697 0.0237691 0.0863923 -0.502269 0.0687159 0.161029 0.0612072 0.385823 -0.253582
3365 -0.0208467 -0.0193957 1.17313 0.385816 -0.0135287 -0.361684 0.140286 0.219629 0.436148 0.24881 -0.715925 -0.031913 0.287613 0.439192 0.552643 -0.408144 -0.177805 0.0246075 -0.148169 0.181801 -0.0624453 -0.0288097 0.197471 -0.632313
3107 -0.01944 -0.0262203 1.02121 0.358299 -0.0401135 -0.318574 0.128337 0.177236 0.42255 0.210248 -0.67502 -0.0118261 0.2813 0.375259 0.440528 -0.345532 -0.148447 0.0403758 -0.159167 0.154378 -0.0507792 -0.0279009 0.184487 -0.556588
2718 -0.0176003 -0.0288021 0.940455 0.342019 -0.0504959 -0.309411 0.0962962 0.147268 0.437128 0.166096 -0.630929 -0.00189576 0.258039 0.342353 0.37288 -0.323925 -0.120413 0.0437477 -0.195166 0.118237 -0.0262054 -0.0340972 0.223103 -0.480253
2758 -0.018078 -0.0448741 1.04157 0.367736 -0.0115598 -0.341393 0.0931992 0.191691 0.413628 0.231019 -0.668104 -0.045447 0.290741 0.382357 0.473541 -0.362152 -0.109249 0.0204923 -0.136675 0.157929 -0.0511297 -0.0137789 0.180796 -0.575873
2066 -0.0759727 -0.214882 0.544103 0.232916 -0.161218 -0.176344 0.0474091 0.0692193 0.465733 0.0699989 -0.37177 0.02025 0.237102 0.280367 0.0521756 -0.264323 0.00378985 0.0277643 -0.404182 0.0630489 0.120658 0.0825403 0.267267 -0.207493
2035 -0.0443404 -0.192644 0.594295 0.25077 -0.230715 -0.220182 -0.00465607 0.0522496 0.519065 0.0562176 -0.467241 -0.027033 0.352681 0.41667 0.131953 -0.407956 -0.0113943 -0.0812195 -0.4475 0.0316777 0.15393 0.0827456 0.320592 -0.324163
2231 -0.0546926 -0.164844 0.626144 0.228081 -0.226715 -0.249306 0.0127906 0.0705116 0.51014 0.0720716 -0.46342 -0.0451721 0.332683 0.467776 0.150214 -0.439357 -0.00491968 -0.0849801 -0.459345 0.0379463 0.170372 0.0728233 0.306675 -0.369065
2488 -0.0328403 -0.146659 0.569324 0.235202 -0.257282 -0.234603 -0.0141787 0.0484642 0.460179 0.0305449 -0.435159 -0.0266184 0.377554 0.457935 0.174296 -0.408979 -0.000324653 -0.155264 -0.430939 0.0458113 0.180969 0.0712562 0.284596 -0.359241
2448 -0.0438301 -0.131311 0.571957 0.234049 -0.246741 -0.271677 -0.0127937 0.0426124 0.492566 0.0448644 -0.504395 -0.0467284 0.375129 0.449119 0.185752 -0.432644 0.0346907 -0.130433 -0.460068 0.0587208 0.168367 0.0649045 0.303025 -0.369844
2380 -0.0532889 -0.168613 0.427212 0.153177 -0.111318 -0.106377 0.0501392 0.0379186 0.339452 0.046712 -0.260405 0.0342484 0.163091 0.186479 0.0482453 -0.205213 0.00674646 0.0600755 -0.302999 0.0354103 0.0848592 0.0336596 0.249335 -0.148538
1960 -0.0398664 -0.118271 0.569698 0.242246 -0.235211 -0.249285 0.0115449 0.020902 0.486598 0.0191534 -0.475793 -0.0180259 0.395205 0.451933 0.172243 -0.44757 0.0466317 -0.187263 -0.447191 0.0659226 0.169751 0.0563694 0.304531 -0.368267
2166 -0.0802132 -0.199466 0.597981 0.223943 -0.20597 -0.181723 0.037344 0.0811133 0.48447 0.0772055 -0.410032 0.0238732 0.248539 0.332626 0.0842291 -0.356882 0.00273504 0.00911048 -0.432266 0.0521162 0.138269 0.0806434 0.323794 -0.272849
3677 -0.758898 -0.627295 1.0532 -0.0433495 -0.47488 -0.228405 -0.162281 0.845422 1.09639 -0.168788 -0.32118 0.85693 -0.00876573 -0.304707 -0.611064 -0.290007 0.942437 0.464782 -0.825207 0.0452527 0.45828 -0.302907 0.737752 0.304219
3734 -0.654079 -0.547928 0.960192 -0.0248425 -0.435956 -0.220961 -0.146965 0.779132 1.0098 -0.196456 -0.346105 0.774043 -0.00522049 -0.320577 -0.606198 -0.29941 0.827519 0.416356 -0.775824 0.0573535 0.40197 -0.30579 0.677241 0.28635
3495 -0.836412 -0.664391 1.17151 -0.0258332 -0.520539 -0.22851 -0.209716 0.918386 1.17188 -0.272268 -0.321224 0.878914 0.0231173 -0.286723 -0.653304 -0.277111 0.965181 0.436284 -0.840702 0.0337801 0.523224 -0.311666 0.684641 0.300221
3684 -0.741649 -0.657069 1.10603 -0.0104363 -0.463324 -0.198164 -0.181065 0.855778 1.10284 -0.216492 -0.328443 0.854134 -0.0290677 -0.374639 -0.700784 -0.284952 1.0055 0.458314 -0.875852 0.0647132 0.506532 -0.315629 0.794293 0.297434
3656 -0.434223 -0.439829 0.817345 0.0090755 -0.350894 -0.125901 -0.0730129 0.553383 0.820085 -0.174507 -0.289542 0.583797 -0.0309736 -0.242656 -0.495106 -0.242762 0.677285 0.342468 -0.628806 0.0323684 0.318135 -0.262182 0.635606 0.193426
3948 -0.756381 -0.640341 1.07147 -0.0370066 -0.460376 -0.220548 -0.187981 0.836823 1.09888 -0.226253 -0.325566 0.844211 -0.0177817 -0.315885 -0.655511 -0.306526 0.932688 0.420546 -0.810534 0.0494487 0.494996 -0.298003 0.677414 0.287046
1085 -0.465948 -0.413854 0.854312 0.0818899 -0.363503 -0.124833 -0.115739 0.522378 0.813384 -0.223161 -0.365852 0.539817 0.0671994 -0.138832 -0.368869 -0.260558 0.74205 0.323731 -0.550093 0.0785056 0.346187 -0.27969 0.536264 0.13248
3540 -0.509692 -0.482596 0.854145 0.0147455 -0.398026 -0.168285 -0.0829721 0.678099 0.94496 -0.211188 -0.327229 0.701205 -0.0156673 -0.279084 -0.572908 -0.269267 0.775336 0.418681 -0.730875 0.0172673 0.362585 -0.279299 0.751099 0.241979
513 -0.11536 -0.82439 1.01264 0.216087 -0.541701 -0.0639647 -0.268302 -0.0629515 0.0924229 0.540339 -0.144021 -0.329849 -0.0324518 0.673674 0.14449 -1.17542 -0.0732015 0.179987 -0.799997 -0.0798052 0.088448 0.118715 -0.0550074 -0.313373
523 -0.10907 -0.643023 0.888698 0.208594 -0.426872 -0.0982918 -0.222445 -0.0858423 0.103969 0.43963 -0.161795 -0.264343 -0.021607 0.585883 0.194504 -0.977691 -0.0668187 0.115432 -0.649876 -0.0404614 0.0645209 0.11918 -0.0611341 -0.267638
444 -0.140438 -0.656785 0.7944 0.170091 -0.366549 -0.0726878 -0.237983 -0.0737371 0.0601146 0.411448 -0.106819 -0.280708 -0.0885637 0.588898 0.127177 -0.978235 -0.0753524 0.152082 -0.647788 -0.108621 0.097302 0.0746941 -0.0699667 -0.215179
363 -0.123438 -0.717661 0.857864 0.231136 -0.413099 -0.119417 -0.260411 -0.0820847 0.147066 0.437268 -0.148084 -0.314785 -0.0150585 0.661805 0.127354 -1.04909 -0.0380308 0.167272 -0.738205 -0.0685758 0.111211 0.135172 -0.0394241 -0.29343
496 -0.104197 -0.581422 0.806336 0.183826 -0.380199 -0.0725086 -0.192897 -0.0357727 0.133163 0.339587 -0.168704 -0.2395 -0.00855479 0.563509 0.101808 -0.864649 -0.0569065 0.141456 -0.59501 -0.078668 0.0741814 0.116943 0.000665468 -0.224313
360 -0.128176 -0.655054 0.871647 0.212831 -0.418525 -0.0561793 -0.203928 -0.0486394 0.0957677 0.402114 -0.125542 -0.257028 -0.0405325 0.52929 0.117503 -0.951181 -0.0334789 0.160005 -0.649842 -0.0637662 0.061428 0.0726174 -0.0209242 -0.248953
1386 -0.043333 -0.129144 0.319841 0.111433 -0.0784204 -0.0783562 0.0168918 0.050653 0.277856 0.0559326 -0.163413 0.012467 0.125941 0.157612 0.0279266 -0.168004 -0.0204372 0.0114122 -0.204563 0.047626 0.0584047 0.0275285 0.144489 -0.119982
1526 -0.0883282 -0.268126 0.572261 0.205365 -0.190209 -0.153257 0.0310225 0.0282211 0.425126 0.147091 -0.32833 -0.00435962 0.195687 0.328965 0.0857835 -0.357942 -0.0127904 0.0883232 -0.417328 0.0227494 0.110061 0.0796473 0.224523 -0.230964
1464 -0.0752682 -0.329094 0.660464 0.241481 -0.211129 -0.155759 -0.00807455 0.0306237 0.481285 0.133875 -0.341696 -0.0220241 0.217711 0.370032 0.0753059 -0.417458 -0.0121252 0.0689504 -0.501682 0.0579264 0.118571 0.0904962 0.242084 -0.229054
1695 -0.0604461 -0.314644 0.624231 0.249876 -0.194304 -0.177154 0.0042525 0.0370281 0.427477 0.134611 -0.343744 -0.0321095 0.198295 0.390039 0.0952813 -0.423041 -0.0251639 0.0810084 -0.491482 0.0468579 0.134935 0.0918982 0.237346 -0.228488
1574 -0.054392 -0.45019 0.719563 0.265875 -0.281329 -0.195865 -0.101232 -0.0288528 0.383356 0.257331 -0.308865 -0.111147 0.179259 0.460386 0.13452 -0.664054 0.0165391 0.121283 -0.593628 0.0412262 0.128958 0.0788401 0.141741 -0.309493
1095 -0.0670394 -0.326676 0.647492 0.211515 -0.208391 -0.140927 -0.0316016 0.0330051 0.43405 0.168893 -0.31072 -0.0270578 0.174423 0.355543 0.110855 -0.45421 -0.0451096 0.0923311 -0.471405 0.0440173 0.134567 0.0827386 0.226259 -0.226876
2181 -0.0880357 -0.233727 0.670348 0.276159 -0.239026 -0.232228 0.0445176 0.0483016 0.5816 0.072381 -0.491611 0.0170737 0.345169 0.425774 0.140731 -0.380493 -0.0111808 -0.025672 -0.49131 0.043126 0.14962 0.0716714 0.342576 -0.320222
2126 -0.0287273 -0.138495 0.607076 0.264935 -0.272628 -0.273961 -0.0301767 0.0451146 0.530518 0.03948 -0.48716 -0.0376806 0.404765 0.501085 0.176122 -0.448461 0.0312328 -0.18004 -0.459948 0.0376471 0.195533 0.0493119 0.295067 -0.398077
2091 -0.044528 -0.179177 0.583732 0.253222 -0.244698 -0.234998 -0.00284594 0.0496384 0.459054 0.0731286 -0.470006 -0.0424153 0.367716 0.456051 0.184537 -0.441598 0.0299679 -0.131312 -0.43983 0.07377 0.146805 0.0475616 0.257326 -0.39076
2146 -0.094251 -0.256401 0.690401 0.278274 -0.228214 -0.231285 0.0204646 0.0447214 0.575644 0.0844183 -0.495328 -0.00254395 0.356839 0.434197 0.14704 -0.437195 0.0188255 -0.0230586 -0.511595 0.0485329 0.145964 0.0693445 0.342384 -0.321199
2411 -0.0364972 -0.168655 0.635306 0.254599 -0.216284 -0.253265 0.0283372 0.0407705 0.52076 0.0655256 -0.491868 -0.0267357 0.346224 0.473001 0.149759 -0.435768 -0.0189787 -0.104643 -0.464132 0.0508943 0.174868 0.0821774 0.330138 -0.350866
2322 -0.0545686 -0.19369 0.636835 0.24729 -0.191015 -0.248014 0.0169142 0.0514712 0.547055 0.0675746 -0.472421 0.00644383 0.334266 0.384699 0.119286 -0.391143 0.0169604 -0.0363795 -0.487444 0.0423127 0.136212 0.087627 0.360662 -0.304435
2440 -0.0381508 -0.190169 0.625146 0.248057 -0.233937 -0.252246 -0.0101662 0.0450909 0.519093 0.0699756 -0.455812 -0.0122481 0.336591 0.430109 0.165426 -0.424067 0.0493091 -0.095754 -0.471307 0.051064 0.150544 0.0806575 0.295839 -0.344067
1975 -0.049452 -0.155156 0.648092 0.250068 -0.256798 -0.26739 -0.0018593 0.0387606 0.503934 0.0756866 -0.493174 -0.0216626 0.341246 0.456011 0.164085 -0.457387 0.00975233 -0.136133 -0.440301 0.056205 0.176183 0.0758027 0.309246 -0.3582
2534 -0.0954303 -0.260653 0.747837 0.262439 -0.218047 -0.215291 0.0620532 0.0760001 0.600159 0.10693 -0.467457 0.0134519 0.313005 0.402638 0.10854 -0.392779 -0.036462 0.0210934 -0.486798 0.0677754 0.146718 0.0850126 0.370934 -0.296912
1240 -0.124204 -0.297044 0.834914 0.317615 -0.227843 -0.21755 0.0649534 0.0939176 0.675951 0.0911449 -0.522429 0.0638383 0.309527 0.360114 0.0947689 -0.417541 -0.005292 0.11306 -0.527572 0.0833838 0.153911 0.102305 0.437453 -0.310593
1883 -0.0718592 -0.226739 0.57747 0.239794 -0.181294 -0.153174 0.0693584 0.0781604 0.493863 0.0900573 -0.366554 0.0517849 0.215889 0.261828 0.0794745 -0.288513 -0.0190239 0.0716786 -0.398949 0.043525 0.117148 0.0674143 0.329956 -0.193326
1171 -0.0458218 -0.115581 0.74503 0.346708 -0.12915 -0.298849 0.119559 0.117865 0.625304 0.046813 -0.621913 -0.0467283 0.353518 0.455398 0.194282 -0.329747 -0.123106 0.125013 -0.336576 -0.0161785 0.0594029 0.122589 0.306517 -0.396566
1387 -0.0752141 -0.20343 0.643278 0.264139 -0.170069 -0.192143 0.100808 0.080188 0.577908 0.0596638 -0.476064 0.0237452 0.295184 0.354728 0.0749106 -0.356465 -0.0806197 0.0893188 -0.448081 0.0160294 0.131736 0.115017 0.349065 -0.265069
1486 -0.02892 -0.113456 0.498368 0.233744 -0.120176 -0.19565 0.0509696 0.0678889 0.416579 0.0361592 -0.418103 -0.0200359 0.261739 0.329173 0.095262 -0.29474 -0.123408 0.0927578 -0.325557 -0.0490332 0.059392 0.106661 0.242646 -0.229711
1297 -0.0242121 -0.108665 0.482058 0.226114 -0.107805 -0.229097 0.0806992 0.0637448 0.580327 -0.0223948 -0.481436 -0.0484817 0.331659 0.41971 0.045338 -0.309685 -0.190219 0.0981842 -0.349754 -0.0996517 0.0967195 0.173072 0.248507 -0.286816
2503 -0.0738826 -0.243225 0.658119 0.244782 -0.199687 -0.217146 0.0227909 0.0800453 0.560627 0.0589182 -0.453627 0.0377638 0.303459 0.369834 0.0645736 -0.361471 0.0293071 0.0245745 -0.483343 0.0595339 0.176171 0.0677041 0.347566 -0.270635
2360 -0.0889275 -0.225644 0.631985 0.242674 -0.198568 -0.204455 0.0521906 0.0794912 0.53371 0.0614188 -0.420311 -0.020828 0.288922 0.379255 0.12989 -0.370052 0.00111647 -0.0111097 -0.425056 0.0667309 0.130633 0.0865573 0.309701 -0.28969
178 0.0652328 -0.0302612 0.241019 0.402259 -0.0907226 -0.402245 0.145771 -0.0935091 0.953371 -0.20501 -0.787586 -0.18605 0.820985 0.976193 -0.274703 -0.352631 -0.590288 0.259648 -0.393086 -0.425971 0.281311 0.642634 0.405663 -0.400819
329 0.150412 -0.05008 0.35072 0.521836 -0.160913 -0.617051 0.110998 -0.165432 1.06057 -0.21419 -1.02855 -0.215289 1.1253 1.31263 -0.376631 -0.474251 -0.820455 0.210269 -0.428491 -0.495073 0.337218 0.906658 0.505091 -0.554449
332 0.130858 -0.0769782 0.300956 0.532123 -0.119774 -0.584922 0.144157 -0.153202 1.15497 -0.284689 -1.00865 -0.189673 1.13907 1.34425 -0.348684 -0.47474 -0.862457 0.264261 -0.476284 -0.535279 0.345811 0.9224 0.474923 -0.534837
248 0.110759 -0.0370324 0.196924 0.447472 -0.092295 -0.499021 0.126329 -0.104385 0.925193 -0.221095 -0.851477 -0.138932 0.950623 1.08323 -0.348775 -0.368098 -0.694077 0.247649 -0.426905 -0.431313 0.315747 0.796565 0.428663 -0.433728
26 0.154377 -0.0824374 0.332537 0.629706 -0.142846 -0.655138 0.126244 -0.185235 1.09984 -0.223605 -1.09639 -0.139666 1.25375 1.38749 -0.420095 -0.452952 -0.884535 0.24988 -0.473842 -0.493531 0.374403 1.03205 0.538669 -0.550682
69 0.0703882 -0.0229562 0.212028 0.309868 -0.094742 -0.349003 0.13679 -0.0745355 0.849472 -0.210501 -0.673098 -0.138637 0.719745 0.857923 -0.227122 -0.295441 -0.5324 0.224584 -0.352401 -0.387038 0.224517 0.571414 0.328895 -0.365373
304 0.17215 -0.0842497 0.336381 0.603652 -0.154167 -0.614444 0.0831312 -0.187183 1.04531 -0.206526 -1.02735 -0.128413 1.20031 1.34484 -0.378372 -0.450726 -0.848624 0.226307 -0.439271 -0.46724 0.367132 0.981301 0.500044 -0.530941
200 0.159458 -0.0761811 0.321926 0.59222 -0.157156 -0.620845 0.122262 -0.135374 1.15453 -0.265118 -1.08295 -0.14203 1.2108 1.36494 -0.424738 -0.462115 -0.870961 0.258252 -0.457375 -0.514474 0.397648 0.998719 0.536854 -0.569653
67 0.167382 -0.100566 0.380859 0.633743 -0.189775 -0.681307 0.0689484 -0.184468 1.10379 -0.203067 -1.12094 -0.149453 1.29363 1.4443 -0.458803 -0.461221 -0.904655 0.231423 -0.454573 -0.474916 0.405799 1.0433 0.550259 -0.595645
169 0.146255 -0.0763417 0.326893 0.552614 -0.166759 -0.591932 0.0776935 -0.157467 0.98516 -0.170669 -0.990172 -0.129418 1.12419 1.257 -0.386954 -0.437728 -0.792887 0.255018 -0.442263 -0.416633 0.331629 0.917901 0.502293 -0.508677
3962 -0.638465 -0.556109 0.936888 0.0235155 -0.418573 -0.200966 -0.141157 0.745011 0.98154 -0.191277 -0.323541 0.751056 -0.0339499 -0.281893 -0.613897 -0.279935 0.867665 0.404191 -0.766657 0.0449933 0.426237 -0.251758 0.701597 0.26493
3702 -0.667053 -0.521098 0.931855 -0.0169092 -0.434752 -0.225924 -0.111399 0.771799 0.978585 -0.145014 -0.292957 0.839144 -0.0400118 -0.315576 -0.584732 -0.335328 0.911293 0.403795 -0.854563 0.0732689 0.442018 -0.354493 0.651243 0.296703
3488 -0.648411 -0.543936 1.01058 0.0336288 -0.431272 -0.204636 -0.0957733 0.772434 1.03277 -0.121173 -0.319052 0.815438 -0.0344769 -0.325937 -0.589199 -0.334192 0.895921 0.382309 -0.875085 0.041787 0.434352 -0.398702 0.699704 0.277261
3658 -0.410579 -0.394868 0.781786 0.0140935 -0.329086 -0.110521 -0.0397551 0.557423 0.807926 -0.114353 -0.299777 0.605204 -0.0348582 -0.267933 -0.487361 -0.2582 0.630729 0.289825 -0.720631 0.0237444 0.337076 -0.284504 0.640982 0.192091
3851 -0.731513 -0.569531 1.03601 -0.0468218 -0.484361 -0.210867 -0.171946 0.879132 1.07849 -0.225115 -0.334334 0.860584 0.00363517 -0.328111 -0.641024 -0.331233 0.982871 0.482171 -0.80966 0.0358391 0.468091 -0.353652 0.693146 0.280287
3577 -0.667249 -0.564026 1.03379 -0.0177084 -0.451835 -0.16942 -0.1068 0.742595 1.02952 -0.131177 -0.311105 0.794364 -0.0125741 -0.367173 -0.559185 -0.28882 0.858303 0.350204 -0.791268 0.0782548 0.426225 -0.343563 0.749243 0.284777
3733 -0.104505 -0.252821 0.654189 0.164726 -0.248695 -0.0581522 0.1214 0.195859 0.607648 -0.0202878 -0.387186 0.255147 0.0582407 -0.0469412 -0.218836 -0.249058 0.205905 0.202862 -0.615621 0.0946423 0.156523 -0.109958 0.661777 -0.033552
3900 0.161831 -0.218747 0.766578 0.223893 -0.158461 0.0105468 0.736032 0.0583426 0.719458 0.257046 -0.61085 0.43913 -0.171871 -0.535141 -0.348074 -0.464802 0.410407 0.0933552 -1.0771 0.348789 0.228022 -0.430165 1.40629 0.276334
3833 0.175808 -0.203289 0.717499 0.222341 -0.167743 0.0191673 0.694083 0.0533648 0.692838 0.241682 -0.609959 0.382334 -0.110169 -0.485072 -0.334783 -0.468128 0.380289 0.110497 -1.06634 0.31607 0.223086 -0.373129 1.35799 0.226118
3826 0.169099 -0.270693 0.682422 0.256871 -0.173275 0.00114139 0.709173 0.0403907 0.669103 0.25303 -0.55663 0.379698 -0.161047 -0.485414 -0.317048 -0.44942 0.433196 0.0942168 -1.04304 0.343847 0.248807 -0.386232 1.34716 0.269513
3705 0.21638 -0.419631 0.723622 0.330032 -0.259032 0.0644955 0.519914 0.0360482 0.701813 0.0719346 -0.480098 0.384804 -0.192076 -0.482137 -0.641828 -0.31224 0.599258 0.249875 -1.03266 0.328606 0.320041 -0.0913512 1.50636 0.0829428
3907 0.0406134 -0.603605 0.755149 0.394128 -0.35643 0.119246 0.202619 0.113521 0.704369 -0.150728 -0.280123 0.382948 -0.178095 -0.334466 -0.853793 -0.127929 0.664512 0.337389 -0.857742 0.281022 0.355407 0.156464 1.2522 -0.062042
3960 -0.0285321 -0.383423 0.68539 0.33997 -0.300393 0.177739 0.355499 0.0609126 0.682513 0.0607276 -0.34922 0.343173 -0.156466 -0.243817 -0.589837 -0.0959836 0.442502 0.347663 -0.692148 0.198804 0.128778 0.0261941 1.16248 0.0539285
3791 0.0115573 -0.425615 0.748849 0.352747 -0.348655 0.212368 0.343869 0.0755386 0.807423 0.0246444 -0.42721 0.356291 -0.151934 -0.26194 -0.669604 -0.0703038 0.403783 0.445939 -0.786739 0.178114 0.14284 0.000165079 1.32325 0.0272334
3442 0.109186 -0.717747 0.790436 0.563856 -0.41232 0.160535 0.231697 -0.00628992 0.759892 -0.194406 -0.304176 0.419954 -0.2292 -0.308916 -1.05596 -0.0849523 0.820963 0.38227 -0.997337 0.373013 0.426301 0.357069 1.50483 -0.153651
4031 0.0567778 -0.454474 0.534388 0.892631 0.284365 -0.67598 -0.533959 -0.136167 0.349323 0.916865 -0.78101 0.279264 0.500924 0.186536 0.830143 -0.940092 1.05831 0.233498 -1.32124 0.474983 0.19748 0.455797 0.497102 -0.973667
4027 0.0617287 -0.366122 0.442223 0.848404 0.276619 -0.654743 -0.515471 -0.126327 0.340403 0.846844 -0.717753 0.283423 0.516375 0.158005 0.819666 -0.810719 1.01525 0.208631 -1.20841 0.473096 0.200606 0.456407 0.466236 -0.937337
4006 0.0508791 -0.234092 0.282334 0.57748 0.214785 -0.465133 -0.386809 -0.0911928 0.178344 0.607844 -0.500476 0.166112 0.349388 0.113144 0.557787 -0.605741 0.70667 0.137092 -0.857353 0.303665 0.102841 0.322171 0.272893 -0.6556
3980 0.0573774 -0.695799 0.833484 1.25154 0.364204 -0.940802 -0.793149 -0.196641 0.595352 1.30211 -1.12463 0.389365 0.777341 0.260051 1.16491 -1.36667 1.60772 0.377091 -2.0459 0.729898 0.288702 0.701675 0.768138 -1.39266
4011 0.0502443 -0.351834 0.42273 0.651665 0.206314 -0.513617 -0.394754 -0.123656 0.284365 0.698741 -0.545448 0.163604 0.394869 0.183259 0.624397 -0.735157 0.733124 0.162599 -0.991646 0.33139 0.154869 0.359818 0.313041 -0.728756
4016 0.0249872 -0.280926 0.367054 0.647274 0.223623 -0.527144 -0.378464 -0.136321 0.340029 0.660153 -0.598589 0.15874 0.444653 0.124107 0.59346 -0.672704 0.788122 0.188834 -0.980136 0.341054 0.139486 0.403721 0.331191 -0.767516
4013 0.0628106 -0.304337 0.364029 0.714551 0.274495 -0.542606 -0.457725 -0.129362 0.321677 0.729824 -0.662051 0.263767 0.497192 0.148919 0.688016 -0.719152 0.919514 0.206582 -1.13811 0.400598 0.180189 0.390175 0.431864 -0.838236
2900 -0.0238201 -0.053114 0.800432 0.302181 -0.0601317 -0.218105 0.0974391 0.125058 0.41358 0.128063 -0.501667 0.000554172 0.201537 0.29671 0.270362 -0.315959 -0.0698077 0.0547211 -0.216978 0.105005 -0.00688727 -0.0198639 0.252606 -0.3522
3019 -0.0147355 0.0109006 1.1988 0.437289 0.0258887 -0.379528 0.108937 0.209483 0.487717 0.249082 -0.753629 -0.0109557 0.310732 0.421589 0.600382 -0.402991 -0.14606 0.0355188 -0.103773 0.20708 -0.0557651 -0.0724998 0.16232 -0.639929
2947 -0.0181392 -0.0381942 0.857262 0.325342 -0.0536364 -0.250126 0.10423 0.1314 0.420446 0.174183 -0.564107 -0.0219279 0.222204 0.318061 0.366469 -0.326949 -0.118522 0.0660968 -0.185738 0.11582 -0.016224 -0.0102693 0.198971 -0.44997
2951 0.0103946 0.0721954 1.21409 0.448346 0.0189743 -0.378824 0.138725 0.218667 0.410356 0.274149 -0.764309 -0.038802 0.297098 0.414395 0.640034 -0.403209 -0.190567 0.0155046 -0.0269701 0.198085 -0.107678 -0.0665979 0.117067 -0.688645
3177 0.0164278 0.0309768 1.08557 0.383993 -0.0170873 -0.320916 0.106178 0.169704 0.404735 0.21513 -0.679507 -0.0346134 0.222986 0.389352 0.503741 -0.354884 -0.177669 0.0433727 -0.0734382 0.119758 -0.0749631 -0.0551247 0.157622 -0.602134
3162 0.0146049 0.0361066 1.20236 0.436198 0.0105925 -0.385609 0.0883305 0.1835 0.420803 0.275979 -0.784382 -0.0489581 0.248552 0.416348 0.577723 -0.394388 -0.148967 0.0556513 -0.116137 0.156628 -0.106311 -0.0422415 0.154525 -0.640736
3144 -0.0379209 -0.0554164 0.820201 0.291954 -0.0817215 -0.252057 0.104621 0.138742 0.438067 0.123311 -0.515532 -0.0131514 0.22955 0.31822 0.300158 -0.291942 -0.0696679 0.044023 -0.205815 0.114091 0.0131544 0.00578206 0.238766 -0.370974
2876 -0.0500384 -0.086044 0.727348 0.282093 -0.079097 -0.224592 0.106064 0.141316 0.454224 0.0995207 -0.516678 -0.000697457 0.218368 0.317361 0.202033 -0.278021 -0.0741328 0.0573124 -0.252679 0.0766972 0.0419663 0.0309895 0.252369 -0.345672
3306 -0.0292238 -0.0860626 0.794994 0.304759 -0.0694343 -0.231955 0.0794591 0.143534 0.406135 0.132186 -0.543364 -0.0138187 0.225969 0.27789 0.28839 -0.300808 -0.0575684 0.0710788 -0.23988 0.0707987 0.00480782 0.00401997 0.223143 -0.373338
3780 -0.354937 -0.376438 0.764877 0.0137468 -0.320141 -0.0800076 0.00801121 0.501836 0.79461 -0.12871 -0.315789 0.543876 -0.0212875 -0.291833 -0.46873 -0.237078 0.583756 0.308915 -0.650936 0.0320705 0.281136 -0.262222 0.671932 0.207753
3449 -0.631137 -0.553349 0.961256 -0.0369278 -0.434242 -0.178616 -0.104755 0.708203 0.978171 -0.183467 -0.307375 0.751247 -0.00214919 -0.318949 -0.558208 -0.244806 0.821401 0.360569 -0.734557 0.0554452 0.382067 -0.311329 0.663466 0.268147
3618 -0.407709 -0.420624 0.733359 0.0373689 -0.322021 -0.105576 -0.0402603 0.517087 0.745349 -0.130855 -0.265862 0.565832 -0.031265 -0.263574 -0.461312 -0.242908 0.645937 0.296642 -0.638754 0.080851 0.310336 -0.240933 0.653575 0.19912
3971 -0.627954 -0.547344 0.951189 0.0143209 -0.421667 -0.1648 -0.122397 0.75353 0.989381 -0.222065 -0.334124 0.751897 -0.0357674 -0.306167 -0.628001 -0.299252 0.845426 0.390716 -0.781696 0.0345049 0.430637 -0.287136 0.715514 0.28249
3703 -0.321862 -0.369508 0.780929 0.0505822 -0.304398 -0.0624919 -0.00785334 0.479818 0.787447 -0.108966 -0.320994 0.570502 -0.0137189 -0.293346 -0.445786 -0.216756 0.544227 0.278161 -0.663235 0.0792229 0.257671 -0.272691 0.675981 0.119201
3755 -0.214046 -0.269417 0.593944 0.0799032 -0.232106 -0.07047 0.0843225 0.36 0.600825 -0.0747051 -0.265922 0.452957 -0.027521 -0.233445 -0.363227 -0.200166 0.45304 0.229285 -0.551566 0.0860203 0.215879 -0.179875 0.623108 0.114187
3926 -0.626496 -0.472811 0.972236 3.45399e-05 -0.45009 -0.180191 -0.0951089 0.775473 1.01626 -0.19697 -0.348266 0.81806 -0.0204619 -0.340476 -0.633457 -0.327764 0.878828 0.431444 -0.860643 0.0619466 0.434586 -0.350379 0.736345 0.237209
3730 -0.559605 -0.48872 0.920128 0.00909197 -0.414421 -0.15402 -0.0450465 0.643513 0.897353 -0.0615993 -0.303085 0.71022 -0.064928 -0.340994 -0.517386 -0.323619 0.823817 0.332804 -0.790726 0.0950275 0.385963 -0.378833 0.691235 0.265615
836 -0.594839 -0.644089 1.14304 0.257216 -0.274286 -0.162264 -0.0406259 0.00262607 0.767856 0.228812 -0.120769 0.0734676 0.394569 0.413194 0.777926 0.0433226 -0.144657 -0.526577 -0.262193 0.505587 0.184139 -0.0146176 -0.0405026 -0.172174
793 -0.7101 -0.762708 1.41776 0.314335 -0.293453 -0.22412 -0.0427474 -0.00829453 0.946324 0.246366 -0.154444 0.0939483 0.484341 0.556711 0.935093 0.0277114 -0.179962 -0.621391 -0.301181 0.603164 0.207158 -0.0224703 -0.0712292 -0.18461
850 -0.55695 -0.597112 1.18962 0.237133 -0.285969 -0.193082 -0.0495413 -0.00505203 0.81975 0.2169 -0.108826 0.00795353 0.460968 0.437333 0.788387 0.0079117 -0.217512 -0.476138 -0.274001 0.513727 0.169964 -0.0323114 -0.0632795 -0.172023
781 -0.891942 -0.983905 1.64974 0.338322 -0.36633 -0.218563 -0.0662097 -0.0172052 1.13953 0.331936 -0.118828 0.149521 0.565698 0.556437 1.11352 0.11397 -0.157086 -0.786562 -0.412783 0.807971 0.290947 -0.0762707 -0.0683876 -0.191107
849 -0.800165 -0.841635 1.4915 0.287859 -0.33388 -0.219703 -0.047014 0.0173303 1.07015 0.262067 -0.142137 0.129918 0.502039 0.513638 0.974349 0.120061 -0.158249 -0.697707 -0.368659 0.695558 0.273489 -0.0343119 -0.00826676 -0.142395
758 -0.650757 -0.702156 1.2515 0.2671 -0.31583 -0.204671 -0.0303169 -0.005908 0.858774 0.221183 -0.125185 0.0767415 0.429132 0.465694 0.851603 0.0628759 -0.187782 -0.585048 -0.321666 0.564849 0.228793 -0.0303437 -0.0604279 -0.139787
718 -0.765433 -0.87025 1.55181 0.325168 -0.382097 -0.232929 -0.0765933 0.00534993 0.98968 0.258157 -0.110281 0.109391 0.476903 0.551721 0.963837 0.0374644 -0.178816 -0.693897 -0.353171 0.683772 0.232297 -0.0541152 -0.0933008 -0.165482
719 -0.95307 -1.02467 1.79319 0.381645 -0.42181 -0.2745 -0.0644997 0.0271717 1.27482 0.345247 -0.136522 0.155499 0.593217 0.61706 1.17082 0.0926553 -0.165164 -0.822145 -0.455029 0.84393 0.335067 -0.0435651 -0.0428538 -0.185304
2740 -0.0284306 -0.0792867 0.557738 0.236771 -0.0588095 -0.224235 0.0971699 0.0988487 0.482905 0.0252976 -0.483342 -0.0614888 0.281197 0.371335 0.139064 -0.28106 -0.185065 0.0817071 -0.238233 -0.0494772 0.0379094 0.0953082 0.234738 -0.298952
1684 -0.017602 0.0705181 1.67079 0.768977 0.14394 -0.753168 0.0516437 0.277035 0.648455 0.469657 -1.19902 -0.109188 0.703371 0.845774 0.996976 -0.476887 -0.27014 0.0642437 -0.0439573 0.309605 -0.242178 0.0755702 0.125243 -1.09946
3323 -0.0522913 -0.0686199 0.681516 0.262173 -0.09515 -0.202918 0.0654097 0.102758 0.39192 0.0970534 -0.453952 0.00341046 0.169055 0.256664 0.166466 -0.251931 -0.0653213 0.0713418 -0.251173 0.0394974 0.0309591 0.0235562 0.234656 -0.296925
2702 -0.0700774 -0.099917 0.823741 0.302133 -0.0808384 -0.2732 0.0810662 0.129873 0.402698 0.140432 -0.534994 0.00491615 0.238554 0.342528 0.326586 -0.301103 -0.107141 0.00954092 -0.192918 0.104616 0.010902 -0.00655243 0.202375 -0.424798
3027 0.00200045 0.0255127 1.03111 0.377542 0.00929195 -0.350404 0.128214 0.204767 0.382584 0.188495 -0.711121 -0.0372697 0.27199 0.390355 0.477258 -0.324021 -0.132842 0.0456148 -0.0952477 0.158306 -0.0864813 -0.0271659 0.156768 -0.59694
311 0.0638554 -0.0068933 0.151403 0.325707 -0.0498379 -0.320107 0.14096 -0.0710285 0.723745 -0.199493 -0.60935 -0.142446 0.648247 0.789168 -0.198408 -0.268474 -0.516058 0.188942 -0.309999 -0.347488 0.188353 0.523073 0.290544 -0.334372
344 0.089517 -0.0217466 0.160094 0.374443 -0.101393 -0.36902 0.132693 -0.0980718 0.776327 -0.208709 -0.684626 -0.181722 0.765101 0.938172 -0.211772 -0.318796 -0.596085 0.191989 -0.324855 -0.354268 0.2233 0.628717 0.329878 -0.383305
185 0.122662 -0.0682292 0.283559 0.520722 -0.110305 -0.55246 0.113801 -0.144175 0.999475 -0.241518 -0.944801 -0.135703 1.04986 1.19866 -0.386657 -0.393192 -0.746058 0.265756 -0.40951 -0.46906 0.30529 0.839997 0.465286 -0.474005
322 0.195392 -0.101364 0.395387 0.646164 -0.182913 -0.737302 0.121129 -0.192687 1.1878 -0.228648 -1.16758 -0.186632 1.33996 1.52315 -0.457525 -0.491935 -0.952283 0.262609 -0.503279 -0.490186 0.397327 1.10931 0.589247 -0.625656
21 0.177975 -0.0577965 0.356387 0.621759 -0.141747 -0.659322 0.124765 -0.168055 1.15147 -0.198932 -1.08417 -0.177989 1.25635 1.43651 -0.466337 -0.488994 -0.933432 0.269166 -0.485149 -0.536101 0.381564 1.03226 0.568255 -0.581032
121 0.0461757 -0.0219358 0.200223 0.355568 -0.0756753 -0.360376 0.178024 -0.0754669 0.982538 -0.238936 -0.762129 -0.177157 0.760756 0.977802 -0.237707 -0.339222 -0.58439 0.28095 -0.407683 -0.440176 0.270868 0.650258 0.384286 -0.381767
82 0.136105 -0.0682053 0.285958 0.526487 -0.136206 -0.548932 0.121533 -0.119807 1.03205 -0.210377 -0.921905 -0.122854 1.07167 1.21419 -0.359263 -0.408796 -0.743948 0.251904 -0.464709 -0.46416 0.306458 0.861539 0.46233 -0.48613
238 0.135587 -0.0369955 0.286442 0.453454 -0.109057 -0.492549 0.12405 -0.106104 0.966312 -0.234301 -0.865719 -0.191973 0.955471 1.178 -0.272909 -0.391778 -0.736623 0.235443 -0.409121 -0.444443 0.283229 0.807825 0.385971 -0.454372
1755 -0.0214693 -0.0779784 0.261944 0.103963 -0.0479078 -0.0764972 0.0385751 0.0117339 0.226508 0.0319159 -0.154865 -0.00551515 0.120285 0.152576 0.0139528 -0.134429 -0.0257286 0.0431993 -0.180387 0.0412812 0.0431593 0.0424084 0.136992 -0.0868859
1060 -0.0729914 -0.241521 0.58424 0.192299 -0.164824 -0.164383 0.0149005 0.0649865 0.434815 0.11073 -0.318123 0.054102 0.19667 0.235387 0.0550048 -0.329407 0.0283838 0.0848021 -0.400385 0.0498512 0.0905478 0.0611098 0.271206 -0.171457
1313 -0.0495907 -0.408415 0.628786 0.206426 -0.266363 -0.134138 -0.0625786 0.0114954 0.290913 0.250214 -0.237292 -0.117687 0.139884 0.379443 0.119501 -0.571741 -0.0194985 0.0758708 -0.475345 0.0155177 0.0707391 0.0686385 0.135327 -0.233741
1673 -0.049596 -0.367192 0.627934 0.239042 -0.251841 -0.141779 -0.0855672 -0.024554 0.289683 0.215893 -0.274487 -0.106064 0.150138 0.392269 0.115506 -0.560407 -0.00947982 0.109283 -0.480593 0.0236677 0.122427 0.0783354 0.113105 -0.241493
3266 -0.0674254 -0.156698 0.925785 0.317943 -0.126285 -0.285359 0.0915983 0.125502 0.573989 0.139989 -0.567447 0.00872853 0.2656 0.35357 0.249753 -0.368168 -0.0967516 0.0531385 -0.334316 0.117877 0.0400315 0.0181359 0.316461 -0.408321
3081 -0.0356135 -0.0663444 0.985092 0.358171 -0.0533892 -0.324706 0.132456 0.169072 0.471059 0.197093 -0.654383 -0.0132945 0.243153 0.352839 0.390273 -0.39258 -0.122219 0.0662159 -0.215359 0.15376 -0.0191685 -0.0157213 0.23035 -0.526638
2979 -0.0861972 -0.105728 0.902666 0.342887 -0.127474 -0.280059 0.106688 0.141604 0.480219 0.169485 -0.569566 0.00786686 0.259433 0.365545 0.322314 -0.379387 -0.115666 0.0449447 -0.278211 0.136483 -0.00681316 0.0264528 0.245437 -0.445696
3341 -0.0323485 0.0135354 0.923126 0.348872 -0.00194802 -0.295256 0.09343 0.1459 0.41879 0.177272 -0.645253 0.000115757 0.264309 0.343722 0.409753 -0.349915 -0.129037 0.0601587 -0.126691 0.146458 -0.0589607 -0.00940464 0.208898 -0.531316
2730 -0.00660863 0.0377457 1.18978 0.443944 0.0519647 -0.390686 0.119595 0.218876 0.443906 0.237949 -0.783987 -0.0250534 0.352573 0.431199 0.62733 -0.394233 -0.179489 0.0133491 -0.0672691 0.198919 -0.10017 -0.0246562 0.134714 -0.710773
2728 -0.019687 -0.0182603 1.09266 0.40975 -0.0399015 -0.31943 0.132234 0.186134 0.450705 0.224392 -0.673581 -0.0238717 0.249382 0.416308 0.508453 -0.352866 -0.152012 0.0486004 -0.150396 0.159781 -0.0638489 -0.0364541 0.177204 -0.572042
1228 -0.0908824 -0.313873 0.706323 0.29875 -0.199471 -0.190401 0.0344342 0.0465517 0.579987 0.116318 -0.457668 0.0312701 0.278479 0.393066 0.101317 -0.403832 -0.0293301 0.0639666 -0.511296 0.0592845 0.154841 0.0905814 0.35342 -0.253185
1355 -0.0656 -0.338522 0.66305 0.274485 -0.217674 -0.179668 -0.0323673 0.0383257 0.559556 0.11977 -0.43815 0.0107724 0.288397 0.394055 0.0955336 -0.44808 -0.0275931 0.0892246 -0.536089 0.0615551 0.187848 0.0883133 0.286646 -0.227771
1131 -0.0735584 -0.311964 0.649476 0.308341 -0.193331 -0.182652 0.00609753 0.0471578 0.562103 0.0802627 -0.434348 -0.0199482 0.299898 0.416162 0.062827 -0.38825 -0.0291617 0.0679399 -0.511473 0.057266 0.14771 0.122478 0.327893 -0.247523
1090 -0.0943056 -0.310163 0.746756 0.291849 -0.239688 -0.205591 0.0512417 0.0873005 0.592564 0.138127 -0.483556 0.0318934 0.3086 0.380276 0.10024 -0.402552 -0.0131106 0.0805354 -0.551959 0.0590009 0.163093 0.127715 0.356253 -0.263483
1244 -0.0843614 -0.276092 0.678309 0.271523 -0.205581 -0.176759 0.0278776 0.0649541 0.567977 0.0931554 -0.432306 0.0113078 0.296111 0.358824 0.0922275 -0.378479 -0.0286941 0.096093 -0.505309 0.0569447 0.167869 0.116548 0.347153 -0.237361
1634 -0.083192 -0.320308 0.698794 0.300616 -0.193997 -0.170357 -0.00261769 0.0194528 0.556405 0.115656 -0.427862 -0.0110361 0.274254 0.411097 0.118263 -0.444256 -0.0306173 0.0662079 -0.515429 0.079895 0.166663 0.0938176 0.298101 -0.231727
986 -0.0667945 -0.268695 0.643546 0.243122 -0.21205 -0.17767 0.0262179 0.0887896 0.579412 0.0798955 -0.43126 0.0165556 0.267292 0.336585 0.0767869 -0.375171 -0.0165777 0.0704982 -0.470008 0.0535697 0.163062 0.0684433 0.355431 -0.225111
977 -0.0838822 -0.309432 0.67414 0.26991 -0.23145 -0.176864 -0.00550357 0.0640396 0.576961 0.108553 -0.45849 0.0171214 0.309563 0.389225 0.0869981 -0.405295 -0.00965845 0.0611763 -0.52656 0.0572896 0.17223 0.105949 0.311678 -0.265215
2152 -0.0675277 -0.242875 0.725183 0.308891 -0.258819 -0.232867 0.0286036 0.083509 0.634836 0.0645864 -0.516225 0.00523762 0.364731 0.442991 0.107346 -0.43689 0.00340626 0.0115069 -0.558634 0.0328751 0.158026 0.0861789 0.384201 -0.352575
2085 -0.101959 -0.237725 0.703986 0.264894 -0.229555 -0.242833 0.0429322 0.0712283 0.619058 0.0677829 -0.508904 0.0306614 0.310079 0.410416 0.0918441 -0.401055 0.00567661 0.0248808 -0.516377 0.0640079 0.153722 0.0759275 0.409288 -0.290877
59 0.11796 -0.00483791 0.209754 0.381883 -0.100835 -0.400155 0.16065 -0.0903 0.917975 -0.253932 -0.809685 -0.200812 0.844697 1.02607 -0.253674 -0.356939 -0.657574 0.253156 -0.385688 -0.458231 0.270898 0.674367 0.380527 -0.41697
325 0.1575 -0.0565767 0.313792 0.553621 -0.132564 -0.601974 0.15855 -0.126119 1.10167 -0.224144 -1.03276 -0.189882 1.1226 1.30597 -0.347523 -0.458605 -0.82649 0.265374 -0.475276 -0.52051 0.362468 0.902875 0.465671 -0.542351
268 0.113779 -0.0190222 0.194835 0.357137 -0.0821866 -0.399446 0.147674 -0.0966199 0.832052 -0.22562 -0.73235 -0.14619 0.795614 0.936013 -0.215203 -0.32495 -0.598918 0.235512 -0.36581 -0.409178 0.260711 0.650638 0.357031 -0.365535
223 0.110762 -0.0376835 0.277194 0.466684 -0.132817 -0.486064 0.13839 -0.118574 0.956241 -0.228215 -0.856141 -0.143206 0.955757 1.11273 -0.297823 -0.380326 -0.709461 0.254669 -0.408778 -0.433154 0.299107 0.74581 0.422789 -0.448231
119 0.180409 -0.0751198 0.351572 0.59655 -0.165258 -0.679153 0.137272 -0.14419 1.21508 -0.241342 -1.13414 -0.198845 1.26652 1.41721 -0.417813 -0.514521 -0.907841 0.290323 -0.499332 -0.586237 0.378668 0.999488 0.558869 -0.610503
79 0.102791 -0.0203597 0.204152 0.404139 -0.0965727 -0.423245 0.085933 -0.111539 0.794031 -0.180562 -0.697958 -0.156793 0.78095 0.924321 -0.20762 -0.296542 -0.60789 0.201195 -0.308668 -0.376516 0.24752 0.663168 0.32103 -0.374416
3646 0.104676 -0.204078 0.614134 0.178966 -0.178673 -0.00981689 0.468634 0.117054 0.585675 0.141058 -0.44201 0.329251 -0.0743099 -0.388765 -0.303045 -0.328406 0.362193 0.122364 -0.853482 0.213208 0.165418 -0.286054 1.05753 0.141482
3648 0.168364 -0.212111 0.617428 0.205924 -0.157051 0.0200707 0.607724 0.0692886 0.639092 0.184859 -0.500733 0.34494 -0.0821368 -0.448996 -0.320713 -0.38047 0.372222 0.121401 -0.932507 0.291407 0.177079 -0.333857 1.21308 0.196058
3816 -0.0540577 -0.193695 0.517337 0.125221 -0.180101 0.0148881 0.125926 0.166906 0.525642 -0.0599371 -0.311482 0.25369 0.00670731 -0.154578 -0.247792 -0.196608 0.224824 0.172838 -0.491089 0.0697395 0.119442 -0.0929309 0.613538 0.00737947
3694 -0.00389133 -0.258223 0.54643 0.175321 -0.198921 0.00494811 0.162254 0.172546 0.501715 -0.0454422 -0.321665 0.244596 -0.0132861 -0.174038 -0.344825 -0.170938 0.29423 0.195547 -0.557285 0.140739 0.157071 -0.0883557 0.722737 -0.01292
3867 0.0488443 -0.483697 0.692118 0.316991 -0.293879 0.110221 0.167797 0.122521 0.655635 -0.145051 -0.2915 0.320776 -0.136998 -0.258471 -0.73297 -0.091979 0.536291 0.254445 -0.765409 0.22819 0.281012 0.117046 1.11457 -0.0931803
3498 -0.00407041 -0.416233 0.612287 0.267708 -0.273001 0.061743 0.184296 0.169854 0.625177 -0.0985042 -0.321719 0.350541 -0.106421 -0.274972 -0.590449 -0.129533 0.481615 0.243667 -0.724258 0.211596 0.254394 0.0124748 0.999431 -0.0427233
3728 0.0253683 -0.473091 0.720306 0.326364 -0.305931 0.0706204 0.190657 0.152355 0.698092 -0.167393 -0.345807 0.395966 -0.138294 -0.288445 -0.77413 -0.128614 0.561287 0.286496 -0.856891 0.249816 0.313037 0.0943744 1.16366 -0.0566856
3663 -0.0146986 -0.430223 0.656208 0.271073 -0.29586 0.0804762 0.13818 0.169796 0.611583 -0.117833 -0.292797 0.340577 -0.0829269 -0.248439 -0.55767 -0.121514 0.464261 0.21445 -0.717775 0.218597 0.245145 0.0432102 0.949636 -0.0524234
3921 0.0957511 -0.520851 0.715286 0.407186 -0.316574 0.129783 0.232392 0.101537 0.720319 -0.183945 -0.349588 0.353707 -0.123524 -0.347061 -0.814438 -0.133635 0.569789 0.27744 -0.902327 0.285765 0.333511 0.137277 1.27341 -0.10191
3608 0.0396315 -0.475356 0.745568 0.325899 -0.303421 0.119837 0.183492 0.16945 0.716472 -0.141974 -0.321203 0.390371 -0.146302 -0.305045 -0.708771 -0.13905 0.557664 0.285668 -0.827873 0.2339 0.27884 0.0371361 1.14337 -0.0600332
644 0.133758 -0.757094 1.05033 0.225027 -0.575844 -0.312618 0.0709232 -0.0199598 0.0362125 0.674208 -0.0731168 -0.521551 0.130487 0.572092 -0.00427808 -0.836188 -0.160411 0.210987 -0.509469 0.0403979 -0.165313 0.296022 0.0807557 -0.432194
573 0.170828 -0.804982 1.1157 0.237309 -0.647308 -0.368992 0.150488 -0.0165905 0.033192 0.764432 -0.0585057 -0.572978 0.189416 0.542864 -0.0460492 -0.827597 -0.164143 0.209427 -0.500041 0.100036 -0.207928 0.343485 0.143968 -0.492844
630 0.215502 -0.861349 1.12519 0.300978 -0.612045 -0.381901 0.103774 -0.0264043 0.0512984 0.786224 -0.10603 -0.562523 0.186024 0.600289 -0.0104255 -0.931286 -0.116142 0.23147 -0.577206 0.0810617 -0.195584 0.372438 0.156536 -0.540337
678 0.135892 -0.796326 1.02653 0.260434 -0.560833 -0.269376 0.0877448 0.0112632 0.0913401 0.667509 -0.120269 -0.508321 0.177096 0.592699 -0.00647128 -0.839228 -0.116643 0.194326 -0.559424 0.0897153 -0.111359 0.279043 0.100669 -0.445217
679 0.0202275 -0.41965 0.696582 0.209177 -0.298771 -0.15782 0.0236069 0.00748476 0.198381 0.320441 -0.189939 -0.221883 0.131031 0.396218 0.0516624 -0.530079 -0.0399863 0.0941902 -0.439445 0.0625956 0.0101307 0.113896 0.125547 -0.272859
637 -0.0816649 -0.648438 0.867708 0.237929 -0.394869 -0.153501 -0.180984 -0.0534494 0.216593 0.391891 -0.22728 -0.28124 0.0791653 0.60573 0.096572 -0.888334 -0.0783162 0.163158 -0.652761 -0.0035671 0.128443 0.141225 0.0237219 -0.313592
591 -0.0649722 -0.611517 0.80641 0.222517 -0.412067 -0.105313 -0.191513 -0.0318463 0.0679499 0.416086 -0.152188 -0.286408 -0.00477813 0.545787 0.142352 -0.85219 -0.0618315 0.145319 -0.595909 -0.010958 0.0304052 0.104035 -0.0271209 -0.270113
641 0.0327757 -0.505156 0.727198 0.221365 -0.356306 -0.196524 -0.0526125 -0.00799596 0.173596 0.382718 -0.201556 -0.22836 0.138508 0.462803 0.0894353 -0.687441 -0.0152237 0.130169 -0.524743 0.056863 0.0257965 0.13488 0.0664271 -0.32054
1882 -0.0505137 -0.417065 0.670978 0.247233 -0.265966 -0.158523 -0.0408158 0.00539344 0.370191 0.221258 -0.32162 -0.106869 0.204576 0.413281 0.123764 -0.505981 -0.0245 0.0675817 -0.495875 0.0455425 0.0942752 0.0972775 0.157093 -0.274118
3517 -0.322657 -0.369333 0.716284 0.0139039 -0.302073 -0.0508271 -0.00133602 0.468819 0.750555 -0.11353 -0.327079 0.526689 -0.0439406 -0.286336 -0.450366 -0.225461 0.556045 0.329138 -0.637433 0.0629399 0.266355 -0.243969 0.691154 0.167825
3938 -0.806699 -0.612348 1.13002 -0.0107036 -0.510104 -0.282199 -0.191378 0.94372 1.17361 -0.233198 -0.39305 0.9473 -0.0342164 -0.315064 -0.743251 -0.3701 1.02204 0.527591 -0.923089 0.0212531 0.519628 -0.345157 0.741134 0.31303
3790 -0.607253 -0.522249 1.01074 0.0381176 -0.433739 -0.195404 -0.0747712 0.748958 1.00322 -0.131905 -0.336411 0.785805 -0.0464613 -0.355 -0.629792 -0.306199 0.882826 0.382634 -0.86089 0.086347 0.427777 -0.361792 0.728598 0.263127
3642 -0.47135 -0.469337 0.901401 0.0218098 -0.38608 -0.118662 0.0113895 0.599228 0.881664 -0.0952086 -0.330366 0.6796 -0.0618568 -0.370053 -0.527504 -0.275048 0.748584 0.318023 -0.811292 0.106753 0.354531 -0.357414 0.744781 0.226545
3557 -0.516616 -0.430986 0.904835 0.0279739 -0.354194 -0.173435 -0.0662513 0.662442 0.885657 -0.134212 -0.292327 0.684598 -0.0224555 -0.321049 -0.505057 -0.291227 0.754563 0.337102 -0.74893 0.0641322 0.371067 -0.344189 0.683336 0.203708
1648 -0.0511725 -0.213828 0.506365 0.221653 -0.387208 -0.123522 -0.181893 -0.0665239 0.363285 0.0913153 -0.318636 0.0572369 0.388497 0.477203 0.229661 -0.565718 -0.0803793 -0.0852226 -0.418361 0.201035 0.150491 0.00170507 0.11647 -0.340664
901 -0.0536536 -0.197424 0.508143 0.218483 -0.422504 -0.12713 -0.207634 -0.0945082 0.398817 0.0790326 -0.341934 0.0774668 0.430753 0.483139 0.253902 -0.574563 -0.06624 -0.0869414 -0.409316 0.2706 0.170354 -0.0228361 0.110768 -0.388338
1137 -0.0487439 -0.194304 0.490063 0.222319 -0.427637 -0.111079 -0.152643 -0.0575451 0.38333 0.101533 -0.347218 0.0459344 0.392809 0.47555 0.246041 -0.56895 -0.0760076 -0.0648826 -0.443204 0.238681 0.159909 0.00201313 0.143758 -0.355071
1186 -0.0854237 -0.216846 0.556602 0.213857 -0.300466 -0.151293 -0.102248 -0.0344505 0.398143 0.0936033 -0.344207 0.0504669 0.299462 0.396691 0.182218 -0.434507 -0.0435285 -0.0205439 -0.384624 0.160295 0.11915 0.000913294 0.168942 -0.3141
1798 -0.0334939 -0.220667 0.523652 0.210385 -0.529053 -0.112494 -0.259282 -0.130978 0.35864 0.0969817 -0.395511 0.101887 0.465613 0.536471 0.294608 -0.691027 -0.0660805 -0.0964802 -0.447225 0.288095 0.209639 -0.0511064 0.128907 -0.422222
903 -0.0426322 -0.217102 0.504322 0.218375 -0.421953 -0.107404 -0.185854 -0.112929 0.340318 0.0973768 -0.345963 0.0652559 0.411111 0.51883 0.26032 -0.616304 -0.078433 -0.0889786 -0.437429 0.233807 0.164641 -0.0192531 0.133043 -0.39742
1378 -0.060404 -0.257846 0.509781 0.186556 -0.399881 -0.129194 -0.152509 -0.070536 0.387045 0.127782 -0.302189 0.059772 0.37761 0.44176 0.23688 -0.547877 -0.0452735 -0.0752698 -0.420302 0.218816 0.143789 -0.0121296 0.130875 -0.322614
1333 -0.0641808 -0.237109 0.533143 0.189685 -0.380614 -0.12276 -0.149675 -0.0687383 0.398027 0.110435 -0.350508 0.0439311 0.340589 0.422577 0.1958 -0.551169 -0.0542163 -0.0375169 -0.422039 0.186569 0.144194 -0.0170629 0.166197 -0.303645
457 -0.193673 -0.540804 0.786444 0.228737 -0.277377 -0.0881196 -0.155593 -0.0505183 0.253181 0.244431 -0.286658 -0.147599 0.0462843 0.573781 0.112381 -0.775822 -0.0757959 0.145253 -0.631535 -0.0848526 0.138547 0.093999 0.0728726 -0.265237
381 -0.177516 -0.518517 0.788841 0.231584 -0.30219 -0.114529 -0.150725 -0.0459864 0.285088 0.25825 -0.283795 -0.12512 0.0364644 0.525958 0.0838364 -0.704645 -0.066382 0.108567 -0.616396 -0.0758458 0.121339 0.10752 0.0898298 -0.219295
469 -0.147072 -0.560872 0.769745 0.231957 -0.29674 -0.1144 -0.198559 -0.0475217 0.21652 0.334288 -0.229937 -0.178793 0.0180425 0.565859 0.167792 -0.829808 -0.0629295 0.130737 -0.633143 -0.0660682 0.118081 0.112565 0.0243593 -0.284492
551 -0.182631 -0.56118 0.802613 0.260226 -0.271033 -0.117595 -0.181163 -0.0761447 0.252197 0.294635 -0.253303 -0.186423 0.00915398 0.602847 0.140975 -0.792513 -0.0698567 0.133542 -0.641435 -0.0900329 0.1475 0.123175 0.0336751 -0.274833
525 -0.111446 -0.68929 0.852077 0.216939 -0.407145 -0.0844143 -0.239757 -0.0772509 0.120389 0.441812 -0.152566 -0.281427 -0.00721248 0.627753 0.186906 -0.96393 -0.0204862 0.140051 -0.705465 -0.0445364 0.116492 0.114576 -0.0618707 -0.292163
506 -0.120768 -0.743548 0.935375 0.234978 -0.504117 -0.100396 -0.25651 -0.0700098 0.0917667 0.460168 -0.144929 -0.305434 -0.0190116 0.659811 0.134656 -1.07065 -0.0569415 0.193129 -0.743079 -0.0587748 0.0918237 0.12659 -0.0457256 -0.28759
645 -0.0340444 -0.50243 0.736558 0.210168 -0.337833 -0.108484 -0.118215 0.000421027 0.125359 0.352139 -0.187369 -0.206979 0.049436 0.472106 0.12837 -0.682888 -0.0575672 0.12461 -0.500524 0.000902368 0.0318076 0.11578 0.00991907 -0.242531
671 -0.0501814 -0.252922 0.509697 0.166369 -0.201559 -0.129468 0.00636245 0.0399159 0.308085 0.116816 -0.246127 -0.0676825 0.13157 0.277891 0.0398717 -0.382982 -0.024842 0.0919837 -0.374837 0.0140213 0.0624662 0.0778232 0.176794 -0.168925
414 0.451695 -1.37322 1.39687 0.350168 -1.18323 -0.357592 0.226104 0.15518 -0.0217748 1.01035 -0.142843 -0.785387 0.380248 0.843597 -0.0974203 -1.24274 -0.00813284 0.354033 -0.925605 0.212077 -0.395189 0.552077 0.0382304 -0.541274
2779 -0.0250813 -0.0714557 0.941717 0.351347 -0.0637896 -0.289374 0.0694078 0.141616 0.456449 0.168817 -0.618453 -0.00786229 0.276106 0.36578 0.403008 -0.36431 -0.122014 0.0459622 -0.20435 0.150132 -0.00533081 0.0178896 0.191056 -0.458323
3233 -0.00352333 -0.00878949 1.14841 0.438015 0.00929434 -0.371781 0.120828 0.216197 0.440833 0.254246 -0.738361 -0.016098 0.27046 0.415549 0.548964 -0.377518 -0.184263 0.0336199 -0.120724 0.153629 -0.057214 -0.0211618 0.188227 -0.598885
2881 -0.0384833 -0.0396765 0.965021 0.343032 -0.0203108 -0.318817 0.0997667 0.154347 0.431939 0.181997 -0.63828 -0.0275588 0.251417 0.361412 0.413455 -0.340071 -0.130217 0.0488596 -0.138135 0.127297 -0.0401616 -0.0112054 0.171675 -0.533047
3079 -0.0766823 -0.160881 0.775639 0.293231 -0.119287 -0.254456 0.0833566 0.123754 0.454531 0.127942 -0.469961 0.0237002 0.235277 0.315732 0.244617 -0.324058 -0.0587197 0.0201548 -0.265686 0.0988799 0.045712 0.0242242 0.224723 -0.366661
2684 -0.0552383 -0.0935725 0.724289 0.271469 -0.0895901 -0.201895 0.098865 0.125804 0.456997 0.128134 -0.520065 0.0185363 0.216716 0.276951 0.177401 -0.317835 -0.056931 0.0659138 -0.301873 0.0852615 0.0206664 0.0306427 0.291342 -0.34608
3258 -0.0577828 -0.084533 0.847917 0.30869 -0.083319 -0.242516 0.0849938 0.136435 0.423816 0.162341 -0.523436 0.0103133 0.196564 0.304091 0.297149 -0.321725 -0.0854841 0.029789 -0.230685 0.10038 0.0106973 -0.00890816 0.201292 -0.398734
3017 -0.0528953 0.0125765 0.999345 0.381077 -0.0428823 -0.343534 0.125832 0.18415 0.4638 0.183565 -0.666429 -0.0384735 0.278139 0.397604 0.444769 -0.343266 -0.161213 0.0524378 -0.139158 0.127214 -0.0442471 0.00582252 0.191952 -0.544453
2320 -0.178025 -0.423456 1.08094 0.431721 -0.315539 -0.310953 0.135537 0.141373 0.993948 0.130398 -0.717953 0.11391 0.423589 0.513858 0.0549068 -0.528344 -0.00235258 0.137024 -0.804208 0.0850955 0.21997 0.152129 0.596211 -0.346926
2622 -0.163672 -0.432515 1.07487 0.397752 -0.327192 -0.290591 0.113705 0.158798 0.957763 0.131541 -0.695164 0.0916093 0.42553 0.522126 0.0745193 -0.523623 -0.00949351 0.120479 -0.790751 0.0982463 0.215555 0.144335 0.590092 -0.367029
2490 -0.131605 -0.439067 1.03608 0.388093 -0.306053 -0.289687 0.0975991 0.144262 0.925821 0.116829 -0.707286 0.0908433 0.425338 0.494869 0.0739226 -0.524189 0.00910073 0.129595 -0.789152 0.0660094 0.217808 0.131909 0.604073 -0.35699
2170 -0.162921 -0.439818 1.07583 0.412731 -0.313652 -0.286261 0.11877 0.130419 0.940963 0.150031 -0.690053 0.100452 0.427284 0.49398 0.0836501 -0.55071 0.00502673 0.141618 -0.775378 0.0664682 0.227362 0.127107 0.62012 -0.359858
2207 -0.169676 -0.438157 1.08891 0.432837 -0.319984 -0.287845 0.123172 0.149706 1.00036 0.139153 -0.727344 0.109299 0.450669 0.498966 0.0628014 -0.530588 -0.0197576 0.144457 -0.791585 0.0733791 0.220734 0.155151 0.618425 -0.349427
18 -0.0179024 -0.0261718 0.101514 0.134321 -0.0345913 -0.125639 0.147403 0.0297687 0.577184 -0.156168 -0.394207 -0.116995 0.33391 0.429085 -0.0625698 -0.202543 -0.253462 0.16701 -0.275581 -0.280549 0.135908 0.252697 0.217947 -0.187369
213 0.153659 -0.0952461 0.282091 0.511755 -0.162588 -0.577232 0.156041 -0.177254 1.07446 -0.217089 -0.982274 -0.204427 1.12891 1.28128 -0.383968 -0.436754 -0.815 0.238374 -0.48432 -0.474537 0.340405 0.921807 0.508399 -0.508248
7 0.0819715 -0.0557179 0.248083 0.455743 -0.130738 -0.455956 0.151409 -0.10269 1.01022 -0.247255 -0.846775 -0.15806 0.916303 1.11089 -0.26709 -0.398434 -0.665784 0.237884 -0.403684 -0.462241 0.315042 0.766151 0.444574 -0.465033
303 0.0970362 -0.0325277 0.231806 0.426384 -0.0988332 -0.471643 0.121891 -0.101388 0.920007 -0.228634 -0.811347 -0.158092 0.921345 1.09087 -0.281629 -0.377616 -0.688709 0.269328 -0.403504 -0.408058 0.265991 0.748555 0.418756 -0.445886
203 0.173101 -0.0621266 0.314423 0.5738 -0.149378 -0.620599 0.112211 -0.167155 1.09032 -0.229031 -1.04673 -0.146106 1.20091 1.36977 -0.404548 -0.456005 -0.8809 0.25256 -0.429782 -0.50248 0.360812 0.969128 0.503309 -0.556114
104 0.115364 -0.0179316 0.264281 0.502976 -0.125547 -0.524141 0.150975 -0.118622 1.04066 -0.255413 -0.949223 -0.162578 1.05706 1.19858 -0.355099 -0.402531 -0.77521 0.293422 -0.4197 -0.470597 0.325768 0.863472 0.449455 -0.486261
239 0.191478 -0.0652363 0.347738 0.628269 -0.17945 -0.653724 0.108494 -0.168927 1.07827 -0.227602 -1.03881 -0.173768 1.20216 1.37995 -0.40882 -0.421813 -0.911489 0.236639 -0.461112 -0.490337 0.367822 0.997121 0.509742 -0.543838
3807 0.0356196 -0.180416 0.55085 0.163296 -0.221026 0.0102585 0.160958 0.195437 0.613598 -0.0377461 -0.370265 0.301887 0.0452935 -0.225909 -0.335837 -0.175307 0.249003 0.252512 -0.615224 0.0635446 0.169517 -0.125859 0.812864 -0.0145345
3653 0.0300791 -0.184984 0.611376 0.169959 -0.257663 0.0149208 0.171226 0.191842 0.665431 -0.0457115 -0.398837 0.289004 0.0217485 -0.225384 -0.310967 -0.195154 0.214836 0.211067 -0.647633 0.0812552 0.132313 -0.128891 0.828704 -0.0215596
3670 -0.371215 -0.38522 0.769236 0.0632061 -0.352246 -0.0957688 0.0239521 0.491263 0.789359 -0.134374 -0.284186 0.558709 -0.0637768 -0.318517 -0.50407 -0.223646 0.588969 0.303472 -0.723377 0.05109 0.314778 -0.271494 0.686519 0.187008
3858 -0.539682 -0.454408 0.888187 0.00157021 -0.401838 -0.180583 -0.0927588 0.648781 0.907397 -0.160178 -0.291459 0.688906 -0.0594615 -0.294174 -0.520955 -0.277595 0.742611 0.348893 -0.728271 0.0648893 0.382472 -0.323989 0.628177 0.246515
3731 -0.591406 -0.53154 1.03709 0.043514 -0.428864 -0.178142 -0.0917804 0.741514 0.977937 -0.0849682 -0.301092 0.759023 -0.0688022 -0.346322 -0.580635 -0.32868 0.884607 0.359864 -0.84363 0.0779885 0.435533 -0.381744 0.728521 0.284773
2914 -0.0284699 0.00524104 0.924924 0.345729 -0.0312887 -0.275905 0.135628 0.1573 0.439043 0.162445 -0.630155 -0.00474371 0.255271 0.331451 0.358614 -0.343625 -0.132882 0.0534754 -0.15901 0.0956782 -0.0461484 -0.0105203 0.210208 -0.463652
3194 -0.067761 -0.158858 0.716893 0.279852 -0.144145 -0.218522 0.074005 0.119013 0.507788 0.114214 -0.466057 0.0437507 0.264008 0.319118 0.16066 -0.30176 -0.0284245 0.0619137 -0.359577 0.0480854 0.0736114 0.0440628 0.314713 -0.281373
3209 -0.0356796 -0.0959956 0.775389 0.287956 -0.0974583 -0.264708 0.0897629 0.122853 0.434411 0.12039 -0.517027 0.0167667 0.224576 0.311177 0.221105 -0.291646 -0.0792492 0.0627239 -0.251348 0.0842957 0.0331293 -0.00791055 0.266892 -0.355296
3204 -0.0564437 -0.0550507 0.80155 0.281191 -0.0688511 -0.277337 0.106429 0.139538 0.454381 0.112009 -0.542161 -0.00596954 0.247075 0.351057 0.285269 -0.29468 -0.0913032 0.0474765 -0.182573 0.102408 0.0160869 0.01967 0.192213 -0.39476
3342 -0.0502006 -0.0359733 0.975584 0.359866 -0.0338446 -0.325173 0.108489 0.177903 0.431251 0.221882 -0.63028 0.0045189 0.294323 0.386053 0.450791 -0.347137 -0.116737 0.0401182 -0.15852 0.145848 -0.0396616 -0.0166265 0.182622 -0.518182
3570 -0.0359549 -0.157082 0.451373 0.0983096 -0.165688 0.0132988 0.117649 0.139417 0.458712 -0.0325136 -0.232658 0.216199 -0.0129408 -0.130444 -0.183108 -0.147048 0.161028 0.127278 -0.421674 0.0679089 0.113117 -0.129083 0.50872 -0.0120734
3847 -0.343283 -0.416516 0.879266 0.0992029 -0.374145 -0.0766914 0.0850757 0.471429 0.893941 -0.0836117 -0.432581 0.585207 -0.0200853 -0.284909 -0.461271 -0.304925 0.539849 0.276416 -0.802272 0.0949877 0.293856 -0.274773 0.83907 0.128285
3660 -0.095104 -0.23138 0.610153 0.109407 -0.20023 -0.0173152 0.216339 0.225209 0.603532 -0.00382502 -0.340477 0.343825 -0.017085 -0.243401 -0.27462 -0.21584 0.294553 0.189533 -0.633329 0.106268 0.15245 -0.190344 0.734668 0.0765662
3775 -0.150069 -0.310729 0.705305 0.116739 -0.297821 0.00319727 0.170003 0.335206 0.733493 -0.0776333 -0.388029 0.413021 -0.0163649 -0.229217 -0.369809 -0.226323 0.362468 0.25477 -0.694395 0.088278 0.233589 -0.187394 0.833116 0.0447998
3454 -0.264469 -0.325606 0.675749 0.065551 -0.310422 -0.0677885 0.0371903 0.363694 0.626372 -0.0475013 -0.285618 0.407043 -0.0619627 -0.214386 -0.374342 -0.274393 0.424867 0.266509 -0.604359 0.0441648 0.23744 -0.18622 0.609036 0.0877047
3979 -0.262039 -0.357955 0.756114 0.0946195 -0.287894 -0.0480574 0.134619 0.409546 0.777224 -0.0400412 -0.367901 0.496353 -0.00856828 -0.23579 -0.399318 -0.267098 0.469608 0.266397 -0.723681 0.106223 0.245533 -0.228519 0.765602 0.111139
3659 -0.207501 -0.286346 0.669288 0.0735789 -0.279573 -0.0452712 0.0971522 0.348365 0.700543 -0.0809469 -0.334511 0.468497 -0.0182828 -0.222789 -0.377664 -0.242706 0.423929 0.246408 -0.667171 0.0929816 0.235919 -0.206945 0.726638 0.0843692
2474 -0.0469442 -0.173318 0.60839 0.225872 -0.231891 -0.245309 0.0254128 0.0462013 0.524263 0.0638152 -0.484043 -0.0151599 0.332065 0.410831 0.143231 -0.402631 0.0136884 -0.0773017 -0.451936 0.0505306 0.153963 0.0757828 0.327576 -0.361912
2523 -0.0720596 -0.18765 0.623527 0.229858 -0.222007 -0.210293 0.0416269 0.067132 0.518586 0.0787321 -0.429386 -0.0140616 0.337907 0.39177 0.119514 -0.362506 -0.0146398 -0.0437461 -0.420013 0.0471184 0.157006 0.096229 0.321407 -0.310097
2397 -0.0759157 -0.198546 0.630442 0.264716 -0.231308 -0.25597 -0.00318718 0.0457774 0.526001 0.0486705 -0.506578 -0.0273609 0.380465 0.473282 0.182738 -0.465806 0.00657878 -0.125557 -0.472052 0.0487307 0.202467 0.0609483 0.317851 -0.34078
2129 -0.0289919 -0.153993 0.62846 0.23703 -0.234864 -0.242119 -0.0225158 0.0446878 0.491347 0.0624691 -0.501308 -0.0342373 0.358585 0.494699 0.178359 -0.488286 0.03069 -0.14965 -0.484337 0.0317924 0.18378 0.0650577 0.30461 -0.365145
2023 -0.0537728 -0.155515 0.572026 0.223657 -0.202482 -0.224623 0.0193454 0.03654 0.4467 0.0667565 -0.432549 -0.0398573 0.321145 0.426857 0.17829 -0.395646 0.0309336 -0.110342 -0.398351 0.0424573 0.139782 0.0558085 0.288703 -0.359197
1058 -0.0688907 -0.197281 0.611232 0.232097 -0.142873 -0.188692 0.0655467 0.0790506 0.525546 0.050002 -0.450693 0.0223228 0.26924 0.317123 0.0898554 -0.294147 -0.0288247 0.0872676 -0.387239 0.0286624 0.117531 0.0938879 0.32159 -0.237218
1552 -0.0503397 -0.25276 0.730372 0.314956 -0.198192 -0.241179 0.063525 0.104109 0.561211 0.110225 -0.510769 0.0417879 0.290571 0.352699 0.143471 -0.381006 0.0142992 0.105092 -0.455874 0.0854342 0.118726 0.0681171 0.343356 -0.312069
1505 -0.0394067 -0.125733 1.05803 0.43013 -0.106347 -0.319959 0.105041 0.137403 0.603392 0.156508 -0.691934 0.0129165 0.32944 0.436605 0.430249 -0.430218 -0.0672919 0.0659093 -0.318882 0.190817 0.0364857 -0.0370676 0.281039 -0.511739
3020 -0.0185383 -0.0450399 1.18661 0.42326 -0.055041 -0.362418 0.102663 0.206583 0.522659 0.241712 -0.748541 -0.0190135 0.290376 0.410401 0.523529 -0.427724 -0.15938 0.055671 -0.149666 0.208683 -0.0743718 -0.0173255 0.201794 -0.632672
3136 0.00809125 0.00467721 1.12011 0.432661 0.00755163 -0.34843 0.0990938 0.18281 0.433049 0.256628 -0.722982 -0.0265972 0.31936 0.415015 0.568587 -0.372304 -0.133564 0.0233228 -0.0944395 0.18753 -0.0583737 -0.014856 0.172669 -0.617557
2843 -0.0648349 -0.0976953 0.943038 0.346198 -0.062138 -0.266948 0.118455 0.157648 0.457617 0.15554 -0.609749 -0.000459842 0.27473 0.338373 0.366924 -0.313497 -0.106888 0.0571364 -0.206125 0.144371 -0.000195228 0.0152505 0.234909 -0.446711
3264 -0.0146915 -0.0518506 0.966451 0.33347 -0.0478937 -0.318594 0.117808 0.189311 0.426675 0.193429 -0.621577 -0.0124833 0.248975 0.341437 0.428294 -0.304228 -0.118337 0.0223669 -0.157318 0.153725 -0.0266307 -0.0178329 0.196079 -0.517719
2715 -0.0108961 -0.0573834 0.997021 0.345759 -0.0212278 -0.308165 0.0890332 0.162551 0.43719 0.209935 -0.6215 -0.0378845 0.240977 0.387147 0.459881 -0.338399 -0.122542 0.0444893 -0.147559 0.133996 -0.056251 -0.03413 0.19641 -0.539206
2832 -0.0631054 -0.0788884 0.879342 0.326222 -0.0630163 -0.273723 0.113711 0.156587 0.483895 0.179368 -0.603895 -0.0086544 0.248118 0.383955 0.317047 -0.356764 -0.0833743 0.0841767 -0.273021 0.0920735 0.005328 0.0052692 0.257078 -0.43117
691 -0.469468 -0.50322 1.03862 0.229855 -0.280949 -0.207248 -0.0655988 -0.00793211 0.720497 0.211848 -0.151454 -0.0122189 0.431669 0.364304 0.676813 -0.0633174 -0.214285 -0.364766 -0.318628 0.468958 0.138386 0.00938096 -0.0152458 -0.162852
686 -1.21997 -1.25984 2.17848 0.403689 -0.529333 -0.368051 -0.120335 0.0519914 1.80416 0.259813 -0.0984191 0.169763 0.913435 0.667478 1.37476 0.172306 -0.4005 -0.94135 -0.634654 1.06245 0.416102 -0.0601413 -0.039465 -0.0619683
732 -0.611918 -0.658914 1.38637 0.26374 -0.42226 -0.2746 -0.0834455 0.0110182 0.942225 0.278117 -0.144772 -0.0205297 0.509536 0.44546 0.87997 -0.123662 -0.285212 -0.470904 -0.393556 0.61491 0.125336 -0.0595168 -0.0635494 -0.22565
789 -0.565504 -0.624463 1.20899 0.265541 -0.373289 -0.233748 -0.0650227 0.0244953 0.847379 0.226918 -0.113286 -0.0214479 0.490971 0.414405 0.796119 -0.0414111 -0.264657 -0.460267 -0.344109 0.543399 0.140281 -0.0191012 -0.0684383 -0.179362
833 -0.613803 -0.666542 1.28102 0.285275 -0.353779 -0.228333 -0.0759285 -0.00714925 0.964589 0.218306 -0.112774 0.0226006 0.532749 0.466839 0.816844 -0.0296682 -0.290996 -0.459314 -0.354461 0.574522 0.196506 -0.0234945 -0.0212002 -0.184655
736 -0.570016 -0.628279 1.1671 0.239628 -0.322292 -0.227264 -0.0750316 -0.00249045 0.879118 0.22088 -0.101954 0.0327602 0.464011 0.403313 0.792638 -0.0184484 -0.207808 -0.471977 -0.33419 0.550962 0.161762 -0.0024902 -0.0351317 -0.131682
788 -0.470409 -0.488575 1.00966 0.224826 -0.291558 -0.160445 -0.0432499 0.0200939 0.707367 0.201257 -0.113375 0.008572 0.387127 0.33486 0.638338 -0.0536373 -0.200244 -0.36185 -0.299042 0.444982 0.15038 -0.0420787 0.0173243 -0.15108
724 -0.831673 -0.922896 1.60442 0.339995 -0.350781 -0.243979 -0.0583184 -0.000337266 1.12636 0.301126 -0.125911 0.124657 0.5404 0.599785 1.04504 0.0729933 -0.202235 -0.73144 -0.384924 0.728008 0.305259 -0.0480689 -0.0646176 -0.154408
778 -0.636676 -0.693686 1.26376 0.260292 -0.267565 -0.194872 -0.0483633 0.0244831 0.873265 0.217034 -0.120128 0.0910744 0.43456 0.408035 0.846437 0.0601712 -0.156648 -0.567875 -0.297277 0.598515 0.201125 -0.0520951 -0.0427735 -0.139036
55 0.0994238 -0.0270233 0.237655 0.404705 -0.0801357 -0.418668 0.156769 -0.0738984 0.895506 -0.214921 -0.754484 -0.135073 0.78556 0.958489 -0.235036 -0.335542 -0.598787 0.229531 -0.379094 -0.402813 0.279673 0.624472 0.386197 -0.401415
56 0.14763 -0.0890473 0.362304 0.600056 -0.160831 -0.675847 0.110047 -0.167428 1.20028 -0.253664 -1.12104 -0.168494 1.27751 1.44933 -0.422073 -0.495771 -0.903764 0.291486 -0.477102 -0.511235 0.38305 1.0295 0.554758 -0.593386
40 0.153899 -0.0742055 0.330716 0.562923 -0.172436 -0.6133 0.101439 -0.126348 1.09175 -0.232782 -1.02092 -0.158137 1.15322 1.33203 -0.350909 -0.4671 -0.84194 0.255485 -0.471724 -0.487255 0.350628 0.935465 0.513914 -0.56449
77 0.00652611 -0.00834552 0.183497 0.26398 -0.0549228 -0.262266 0.187963 -0.0228447 0.826221 -0.227831 -0.619522 -0.152858 0.563632 0.733934 -0.130277 -0.287095 -0.431046 0.235341 -0.361713 -0.375139 0.20912 0.462536 0.30842 -0.298637
298 0.0910143 -0.0344168 0.198637 0.348735 -0.109076 -0.371436 0.121448 -0.0648896 0.769634 -0.199259 -0.678519 -0.127849 0.716313 0.87457 -0.222382 -0.289558 -0.563424 0.188516 -0.336376 -0.371228 0.217186 0.587117 0.321343 -0.37471
257 0.111162 -0.03583 0.260287 0.444045 -0.121854 -0.459475 0.14656 -0.117211 0.995255 -0.229147 -0.874131 -0.176061 0.921197 1.14653 -0.28103 -0.379678 -0.727155 0.247363 -0.411459 -0.439084 0.278485 0.764164 0.409756 -0.450425
236 0.128978 -0.0520544 0.307284 0.541159 -0.139617 -0.587714 0.141709 -0.161673 1.10603 -0.243284 -0.992299 -0.166299 1.13751 1.31244 -0.373392 -0.44169 -0.846492 0.257303 -0.436939 -0.479453 0.338524 0.933019 0.512577 -0.536665
3418 -0.0456468 -0.152193 0.6884 0.264864 -0.134559 -0.191951 0.0818184 0.0987842 0.477775 0.120751 -0.450114 0.0129483 0.239686 0.302785 0.187069 -0.28503 -0.026183 0.043481 -0.296936 0.09257 0.0665283 0.026338 0.247821 -0.293411
3196 -0.0300743 -0.00143726 1.05865 0.384204 -0.00445208 -0.347047 0.110467 0.178013 0.35884 0.217672 -0.66775 -0.0622546 0.255963 0.397066 0.500061 -0.330964 -0.157151 0.0149486 -0.0784128 0.151484 -0.0901458 -0.0106491 0.16682 -0.582412
3083 -0.0531155 -0.12457 1.06237 0.399648 -0.131229 -0.293274 0.114136 0.177865 0.627718 0.149223 -0.710799 -0.00937568 0.266437 0.428213 0.299732 -0.416329 -0.0975744 0.114009 -0.366525 0.112125 0.0466258 0.0371203 0.343123 -0.510134
3128 -0.105633 -0.169036 1.14086 0.405436 -0.173333 -0.306438 0.113539 0.200657 0.703855 0.183685 -0.732757 0.023648 0.312644 0.427693 0.306879 -0.433761 -0.0771301 0.110982 -0.405651 0.140559 0.058715 0.0434437 0.386959 -0.511102
3126 -0.0880203 -0.114936 1.12933 0.397955 -0.155098 -0.323951 0.144421 0.209991 0.669228 0.161109 -0.753269 0.0333889 0.278784 0.403512 0.305921 -0.422511 -0.0828065 0.11891 -0.376498 0.12823 0.0462223 0.0134602 0.413008 -0.488155
3093 -0.0339231 -0.12818 0.665383 0.232375 -0.110721 -0.225829 0.0943273 0.108268 0.424021 0.0873565 -0.441668 0.0212721 0.209591 0.273249 0.203247 -0.280736 -0.0568026 0.0567162 -0.244456 0.069036 0.0643095 0.0391788 0.234546 -0.28805
3168 -0.0248587 0.00946702 1.14597 0.409334 -0.00142482 -0.354211 0.105911 0.191036 0.44557 0.240402 -0.712968 -0.0424328 0.266198 0.377046 0.538101 -0.372017 -0.150503 0.0529929 -0.122436 0.175204 -0.0627431 -0.0573464 0.182002 -0.624529
2784 -0.0398937 -0.0711863 0.917854 0.326149 -0.0854916 -0.301288 0.11559 0.138006 0.476851 0.166165 -0.600433 -0.010205 0.245798 0.349542 0.355479 -0.332894 -0.114234 0.0544979 -0.254278 0.118881 0.0180936 -0.00403155 0.247253 -0.479743
2714 -0.0680806 -0.116085 0.615595 0.222951 -0.121602 -0.177966 0.0772344 0.112472 0.426091 0.101277 -0.418976 0.033371 0.177223 0.235082 0.142014 -0.272719 -0.0364138 0.0683813 -0.284752 0.0630473 0.0562988 0.00693141 0.292372 -0.261627
3664 0.0346771 -0.378553 0.681917 0.291446 -0.327021 0.121385 0.272232 0.0770524 0.672115 0.012971 -0.360458 0.281242 -0.106599 -0.22172 -0.518595 -0.129652 0.346848 0.347894 -0.697092 0.137354 0.167515 -0.0437403 1.04305 0.0420242
3615 0.0706217 -0.51777 0.703355 0.384158 -0.322513 0.143942 0.243645 0.0693407 0.666437 -0.126114 -0.313224 0.320843 -0.17011 -0.282155 -0.782449 -0.0787779 0.563513 0.305291 -0.809614 0.272327 0.249654 0.115121 1.2004 -0.0668098
3815 0.0107574 -0.314356 0.64237 0.213594 -0.254263 0.0535571 0.181806 0.146151 0.603139 -0.0882998 -0.338329 0.326268 -0.107205 -0.280375 -0.540218 -0.169034 0.437788 0.229902 -0.698572 0.159683 0.225571 -0.0477817 0.950652 -0.0267416
3521 -0.1483 -0.766116 0.91954 0.39662 -0.428362 0.0613355 0.0648376 0.267351 0.858191 -0.28266 -0.307911 0.545292 -0.163037 -0.354461 -1.06748 -0.148313 0.931379 0.384014 -0.977188 0.256543 0.489166 0.199813 1.34511 -0.0644857
3590 0.0236061 -0.532992 0.759338 0.340569 -0.320882 0.132531 0.206949 0.17337 0.722611 -0.179403 -0.326543 0.407349 -0.155008 -0.336356 -0.781739 -0.139352 0.614727 0.272869 -0.865599 0.261116 0.296742 0.0530604 1.22217 -0.0700216
3862 0.00761644 -0.506649 0.699131 0.373457 -0.321697 0.0624506 0.209098 0.121246 0.665354 -0.124987 -0.297128 0.36256 -0.150882 -0.276546 -0.720445 -0.152781 0.606099 0.257945 -0.832083 0.256224 0.327412 0.108672 1.11872 -0.088085
3599 0.0642371 -0.607276 0.748452 0.438462 -0.369304 0.131696 0.150977 0.129011 0.740759 -0.233159 -0.309478 0.38783 -0.173056 -0.305956 -0.920388 -0.0893436 0.695786 0.331503 -0.878279 0.277947 0.358918 0.241474 1.31386 -0.132198
418 -0.151207 -0.527935 0.750393 0.179156 -0.352064 -0.0912476 -0.181822 -0.0719634 0.172537 0.325497 -0.168983 -0.187088 -0.00392607 0.483606 0.127497 -0.783841 -0.062733 0.131007 -0.549606 -0.0399468 0.0841589 0.0786507 0.0123239 -0.228539
392 -0.123869 -0.532869 0.748626 0.203296 -0.313363 -0.0834295 -0.169009 -0.065744 0.167271 0.307587 -0.197608 -0.183801 0.0131505 0.500566 0.111065 -0.773155 -0.0362515 0.109199 -0.579155 -0.0595249 0.0976968 0.0921243 -0.0103902 -0.230283
1878 -0.0862299 -0.328632 0.654431 0.208725 -0.217754 -0.153265 -0.0406946 0.00849457 0.401799 0.181929 -0.302681 -0.0639375 0.2115 0.403822 0.101523 -0.431701 -0.0538565 0.0771517 -0.454723 0.0560123 0.118464 0.084383 0.176184 -0.247074
1408 -0.0683053 -0.360402 0.661119 0.23548 -0.229023 -0.152945 -0.024068 0.0410374 0.404292 0.16743 -0.333667 -0.0515232 0.221213 0.418824 0.121808 -0.483331 -0.041899 0.0635761 -0.469912 0.0572017 0.134562 0.120878 0.192799 -0.269737
3991 0.038997 -0.294843 0.397844 0.650386 0.238077 -0.49051 -0.410793 -0.0916963 0.245222 0.699286 -0.553523 0.206797 0.366955 0.128676 0.645901 -0.67364 0.791791 0.173671 -0.954932 0.364452 0.126054 0.322014 0.304981 -0.764382
4002 0.0668192 -0.414126 0.481983 0.858499 0.299018 -0.646636 -0.568767 -0.125283 0.337336 0.869138 -0.777654 0.269392 0.55801 0.14921 0.839678 -0.904916 1.09862 0.22994 -1.32152 0.503092 0.179904 0.440652 0.50549 -0.998812
3986 0.0994861 -0.414327 0.519454 0.795647 0.283191 -0.587352 -0.511291 -0.109897 0.308579 0.827503 -0.743834 0.273188 0.556077 0.169888 0.825631 -0.817964 1.12876 0.189894 -1.28013 0.520862 0.197117 0.401442 0.478278 -0.934308
4000 0.0914653 -0.357938 0.505213 0.790127 0.279136 -0.587172 -0.488292 -0.131998 0.375575 0.763577 -0.712131 0.23737 0.518912 0.166574 0.773907 -0.761655 1.03397 0.215019 -1.23947 0.512486 0.221003 0.413456 0.442192 -0.865822
4005 0.0505143 -0.278888 0.359502 0.661365 0.234513 -0.487518 -0.392113 -0.0959237 0.26492 0.673697 -0.562608 0.173703 0.405146 0.130742 0.637098 -0.63307 0.795835 0.140085 -0.958304 0.364038 0.132133 0.325695 0.331666 -0.756303
3420 -0.0202758 -0.0256191 0.944843 0.359069 -0.0492619 -0.280059 0.101814 0.168314 0.497385 0.188221 -0.636968 0.00800178 0.255766 0.350165 0.369376 -0.346412 -0.0927004 0.0436874 -0.213372 0.109754 -0.0048782 -0.0110982 0.257832 -0.476575
2836 -0.045709 -0.05971 0.894579 0.345663 -0.0424578 -0.297283 0.0743847 0.148361 0.444021 0.173894 -0.594011 0.00504081 0.283743 0.373833 0.381857 -0.347268 -0.0887133 0.0487776 -0.195684 0.125081 0.01037 -0.00566167 0.213559 -0.488336
3248 -0.00900735 -0.0183873 1.0185 0.367523 -0.0421843 -0.328048 0.131279 0.162448 0.42407 0.173905 -0.666159 -0.0208436 0.253957 0.400572 0.440856 -0.338281 -0.133187 0.0598568 -0.129844 0.11473 -0.0312497 -0.031061 0.226897 -0.537145
3043 -0.0476205 -0.0324774 0.785063 0.289436 -0.0556538 -0.26183 0.0871859 0.15224 0.443823 0.133535 -0.537444 -0.0109032 0.219918 0.329203 0.247634 -0.301083 -0.103067 0.063182 -0.216181 0.0667522 0.030108 -0.0123245 0.226338 -0.404511
3256 -0.00238109 0.0269629 1.1405 0.40818 0.0354912 -0.380098 0.144551 0.226926 0.438948 0.213085 -0.754033 -0.0402358 0.311244 0.427833 0.553365 -0.374926 -0.193468 0.0396852 -0.0866447 0.170463 -0.102956 -0.0410001 0.173247 -0.641725
2744 -0.0723056 -0.123348 0.794933 0.307053 -0.116818 -0.25052 0.0674654 0.138483 0.522109 0.131666 -0.558227 0.0115041 0.267249 0.357219 0.264095 -0.335251 -0.0932186 0.0496111 -0.307762 0.0836174 0.050753 0.0394844 0.251172 -0.378764
1850 -0.0969822 -0.270034 0.691297 0.281659 -0.181271 -0.174092 0.0536136 0.089775 0.583386 0.105667 -0.43117 0.0307889 0.261038 0.352619 0.0722878 -0.376426 -0.0317161 0.098579 -0.494655 0.0553807 0.134206 0.123636 0.377717 -0.227776
1704 -0.0816906 -0.257149 0.564892 0.22924 -0.192249 -0.144483 0.0552871 0.0811052 0.483378 0.0796659 -0.368846 0.0311106 0.198601 0.287701 0.0247527 -0.317512 -0.0228046 0.0598069 -0.416339 0.0321024 0.123668 0.0759031 0.316787 -0.191935
535 -0.112761 -0.406152 0.6773 0.215164 -0.242922 -0.0713638 -0.0827832 0.0037757 0.2699 0.216044 -0.221174 -0.0760321 0.0416691 0.390951 0.0954511 -0.603641 -0.0185339 0.0976644 -0.50756 -0.027071 0.12033 0.0857389 0.134065 -0.175446
1114 -0.0883224 -0.365767 0.718292 0.266657 -0.236949 -0.170463 -0.00763213 0.0512369 0.458859 0.177813 -0.370564 -0.0219229 0.228029 0.406767 0.0963382 -0.505005 -0.00276385 0.101117 -0.536642 0.0292987 0.10857 0.106095 0.228602 -0.245125
517 -0.151529 -0.748813 0.89656 0.226501 -0.460733 -0.057304 -0.291065 -0.087807 0.0986991 0.420745 -0.153682 -0.340957 -0.0726604 0.674806 0.150231 -1.07524 -0.0878006 0.177896 -0.717734 -0.120982 0.124839 0.121737 -0.122672 -0.259024
670 0.390218 -0.941911 1.05945 0.29794 -1.03332 -0.158734 0.354967 0.367971 -0.0372196 0.552749 -0.297036 -0.394545 0.476254 0.570698 0.204162 -0.516116 0.074713 0.0239676 -0.479961 0.404417 -0.508662 0.351252 -0.108617 -0.335025
662 0.350707 -0.851638 1.06737 0.298553 -0.938615 -0.157555 0.298003 0.313039 -0.0418944 0.529512 -0.280215 -0.378967 0.410201 0.537474 0.231236 -0.490126 0.0676149 -0.0101663 -0.408651 0.423533 -0.455225 0.269781 -0.0903579 -0.340304
582 0.336132 -0.82407 1.03037 0.28119 -0.868168 -0.145835 0.292349 0.294669 -0.0457522 0.523136 -0.264675 -0.352457 0.380496 0.510497 0.258439 -0.476722 0.0370063 0.0166805 -0.407112 0.398684 -0.45567 0.259748 -0.0959997 -0.363953
595 0.349037 -0.850804 1.03858 0.272783 -0.892811 -0.157221 0.282228 0.287464 -0.0449005 0.537495 -0.246197 -0.37372 0.401664 0.560983 0.205979 -0.534962 0.0541756 0.011361 -0.416769 0.376133 -0.433304 0.282998 -0.0885952 -0.336713
600 0.363565 -0.89569 1.08854 0.284062 -0.981279 -0.15392 0.304777 0.35868 -0.0268763 0.509803 -0.285503 -0.378641 0.475324 0.534347 0.246359 -0.503466 0.0968768 -0.0072371 -0.423893 0.409952 -0.487498 0.317236 -0.106639 -0.340007
583 0.371567 -0.96546 1.13463 0.316222 -1.02823 -0.170503 0.313475 0.342988 -0.0369392 0.577729 -0.262685 -0.374776 0.480539 0.529955 0.272786 -0.537486 0.0928768 -0.0142955 -0.470421 0.460444 -0.489612 0.312812 -0.0905951 -0.364187
627 0.443375 -1.01122 1.17434 0.301959 -1.1026 -0.154809 0.36639 0.391598 -0.0465632 0.546387 -0.308587 -0.447129 0.500335 0.566303 0.208084 -0.54212 0.101278 0.0107779 -0.476442 0.479345 -0.534836 0.361038 -0.0928732 -0.380879
658 0.328662 -0.912851 1.06467 0.28493 -0.936456 -0.15247 0.295213 0.314432 0.000584415 0.510009 -0.284833 -0.404875 0.445307 0.57482 0.252339 -0.485122 0.0513852 0.016251 -0.460043 0.39806 -0.438899 0.340275 -0.11505 -0.348895
647 0.355949 -0.898085 1.11434 0.311637 -0.951989 -0.178654 0.318659 0.332559 -0.0181942 0.531361 -0.315956 -0.369074 0.463708 0.544275 0.261082 -0.519055 0.0765853 -0.00849553 -0.407564 0.424447 -0.490702 0.322775 -0.131328 -0.368419
634 -0.0407115 -0.490651 0.72609 0.200486 -0.348998 -0.10905 -0.056716 0.0199713 0.163948 0.310783 -0.209337 -0.19066 0.105622 0.39386 0.124236 -0.600538 -0.0340412 0.0676861 -0.447646 0.0496334 -0.00196372 0.099383 0.0220555 -0.225804
908 -0.0785029 -0.261318 0.752772 0.319064 -0.253763 -0.175975 0.0310604 0.0539074 0.581158 -0.00394939 -0.486617 0.0421664 0.27364 0.315754 0.103982 -0.356092 0.156504 0.117097 -0.455441 0.101391 0.153201 -0.021304 0.336011 -0.24425
1698 -0.0511602 -0.244764 0.67237 0.27374 -0.240478 -0.144119 0.019339 0.0377286 0.563739 0.0133163 -0.437685 0.0282829 0.246761 0.309339 0.0939692 -0.29479 0.101065 0.0780464 -0.43475 0.103912 0.131845 -0.0179174 0.303004 -0.225289
1274 -0.0458385 -0.28614 0.740333 0.304271 -0.305563 -0.127756 -0.0090409 0.00371783 0.58875 -0.0103594 -0.472181 0.0292642 0.277172 0.338149 0.128763 -0.363499 0.175073 0.0898459 -0.442325 0.113809 0.121186 -0.0255382 0.316399 -0.270445
436 -0.0553956 -0.672385 0.870566 0.23905 -0.456841 -0.101899 -0.203464 -0.0391449 0.0969988 0.446056 -0.164433 -0.251021 0.0098756 0.579885 0.167448 -0.946643 0.000467744 0.14978 -0.682967 0.0223425 0.0362718 0.131101 -0.031172 -0.296781
1881 -0.0582805 -0.382644 0.678472 0.267697 -0.260702 -0.162354 -0.0393984 0.0124271 0.430738 0.201037 -0.357266 -0.0710381 0.205274 0.422711 0.114758 -0.516481 -0.0283106 0.0815723 -0.51337 0.045843 0.139765 0.128316 0.198148 -0.249576
361 -0.129538 -0.5768 0.827813 0.227097 -0.375242 -0.114453 -0.160478 -0.0452544 0.241491 0.325804 -0.180591 -0.190723 0.0297504 0.534465 0.172169 -0.798341 -0.0497606 0.112379 -0.588865 -0.0334656 0.112045 0.0944505 0.0116997 -0.25907
470 -0.1652 -0.580242 0.819954 0.210482 -0.365343 -0.0947461 -0.16868 -0.0588772 0.199233 0.342016 -0.154238 -0.208497 0.0130394 0.543194 0.151362 -0.81536 -0.0858772 0.107291 -0.56609 -0.0396592 0.121059 0.0890139 -0.0137833 -0.249611
547 -0.143796 -0.70651 0.897796 0.218827 -0.398074 -0.0577757 -0.280624 -0.097309 0.11709 0.437057 -0.166746 -0.26071 -0.0463251 0.615278 0.157391 -1.03145 -0.0614259 0.157621 -0.712551 -0.11868 0.131201 0.125522 -0.0219876 -0.28518
1781 -0.0778207 -0.300538 0.637507 0.249503 -0.200959 -0.196837 0.0361703 0.0452617 0.511152 0.125707 -0.423865 0.0218516 0.246458 0.357415 0.0654976 -0.380551 -0.00637334 0.0773192 -0.446899 0.0586663 0.135392 0.0922417 0.300013 -0.223564
650 0.449261 -1.06647 1.18445 0.303473 -1.17038 -0.160386 0.422639 0.414653 -0.0484905 0.572679 -0.348066 -0.408411 0.553045 0.596564 0.228914 -0.504738 0.120909 0.0311561 -0.503326 0.525964 -0.573415 0.356583 -0.111323 -0.364264
659 0.355375 -0.93112 1.12244 0.296876 -0.998601 -0.156762 0.28139 0.313532 -0.0483995 0.558399 -0.265877 -0.412925 0.44414 0.55204 0.255166 -0.527463 0.0632605 0.0229973 -0.432835 0.422545 -0.489554 0.304736 -0.144523 -0.349562
576 0.283864 -0.752528 0.948033 0.254046 -0.774061 -0.16691 0.240281 0.255953 -0.00959396 0.473566 -0.264726 -0.330799 0.392294 0.522169 0.264217 -0.44763 0.0200667 -0.0290912 -0.370205 0.37333 -0.369879 0.276252 -0.109025 -0.349167
675 0.355627 -0.83529 1.04563 0.279878 -0.916936 -0.156049 0.322527 0.300338 -0.0344975 0.492593 -0.271862 -0.387257 0.414274 0.52546 0.217594 -0.471899 0.0157545 0.0233564 -0.375105 0.384403 -0.43851 0.287807 -0.0850769 -0.361713
640 0.394338 -0.918648 1.09656 0.2943 -1.02472 -0.175802 0.327293 0.338241 -0.0333254 0.572649 -0.298298 -0.41182 0.456775 0.597984 0.240275 -0.547331 0.0469164 0.0294428 -0.451555 0.41583 -0.476598 0.365379 -0.139071 -0.359818
163 0.0436463 -0.0697111 0.223493 0.286861 -0.0809742 -0.336442 0.223284 -0.0189799 0.958235 -0.218644 -0.703742 -0.237115 0.657004 0.8881 -0.167172 -0.361833 -0.527493 0.255164 -0.417185 -0.430031 0.216398 0.5341 0.310658 -0.368835
129 0.0408355 -0.0213141 0.200096 0.320286 -0.087816 -0.336259 0.192191 -0.0352546 0.924951 -0.235128 -0.735885 -0.165134 0.72696 0.887989 -0.170027 -0.345473 -0.533257 0.258976 -0.380779 -0.409917 0.242562 0.55995 0.34432 -0.357347
347 0.0586062 -0.0357508 0.193708 0.351102 -0.0659585 -0.343677 0.199649 -0.0608768 0.888841 -0.218922 -0.697347 -0.201127 0.706905 0.908405 -0.176983 -0.355032 -0.556645 0.232014 -0.379613 -0.417355 0.240077 0.591832 0.365236 -0.377683
168 0.0646325 -0.0030981 0.171356 0.37965 -0.0604354 -0.394646 0.146889 -0.0962142 0.895675 -0.245515 -0.746537 -0.182457 0.758698 0.947732 -0.235094 -0.305977 -0.590747 0.231902 -0.383028 -0.430161 0.239543 0.641637 0.36217 -0.381056
234 0.0148571 -0.0240627 0.128431 0.218702 -0.0439444 -0.220337 0.13557 -0.0318707 0.663248 -0.198813 -0.47975 -0.144199 0.479347 0.62497 -0.121059 -0.220501 -0.394778 0.198164 -0.283724 -0.286684 0.191228 0.389847 0.226032 -0.24433
3614 -0.00703363 -0.25788 0.683533 0.161024 -0.192494 0.0332205 0.356386 0.206156 0.633498 0.0926627 -0.449203 0.368496 -0.0857171 -0.35803 -0.347521 -0.289907 0.363265 0.156746 -0.779782 0.200387 0.179504 -0.295395 0.95512 0.144414
3758 0.192462 -0.244323 0.74621 0.271166 -0.146216 0.00647808 0.827532 0.00632751 0.731404 0.346866 -0.677094 0.429464 -0.166586 -0.50888 -0.296246 -0.48969 0.418638 0.0580294 -1.16092 0.409013 0.236002 -0.440236 1.47594 0.29452
3459 0.117326 -0.212239 0.676057 0.204332 -0.16042 0.0630029 0.548002 0.126656 0.680137 0.16177 -0.557886 0.41035 -0.0667793 -0.421576 -0.328221 -0.367415 0.359642 0.171753 -0.946226 0.262038 0.169736 -0.370604 1.19027 0.171944
3645 0.0724921 -0.261794 0.749915 0.181045 -0.18271 0.0250796 0.520292 0.1606 0.730864 0.157739 -0.571073 0.472054 -0.10602 -0.498192 -0.372738 -0.422098 0.435904 0.152695 -0.966824 0.274445 0.198559 -0.403598 1.22852 0.20192
3452 -0.405549 -0.364753 0.75958 0.0478838 -0.35334 -0.107331 -0.0115156 0.53559 0.800235 -0.137179 -0.31764 0.585067 -0.0230966 -0.290842 -0.465187 -0.257684 0.64203 0.318005 -0.70783 0.047422 0.309133 -0.300277 0.683858 0.196064
3573 -0.412482 -0.425639 0.804396 0.057223 -0.348934 -0.11914 -0.038117 0.537767 0.82183 -0.122442 -0.294124 0.587711 -0.0219324 -0.279999 -0.500051 -0.223443 0.685206 0.297002 -0.732865 0.0969304 0.354139 -0.241443 0.69871 0.162765
3672 -0.736553 -0.646015 1.09932 0.0423041 -0.469497 -0.217871 -0.128926 0.8368 1.09717 -0.188607 -0.348315 0.867076 -0.0602541 -0.311986 -0.687298 -0.322206 0.984436 0.415555 -0.925511 0.0816638 0.519283 -0.340191 0.735089 0.288568
3298 -0.0359539 -0.117856 0.865856 0.306128 -0.0817672 -0.25587 0.116836 0.127889 0.463592 0.171784 -0.58081 -0.0214551 0.25556 0.361836 0.279684 -0.327901 -0.107914 0.0513168 -0.265959 0.097168 0.0115347 -0.00616414 0.229414 -0.405107
3328 -0.0354998 -0.0644135 0.842432 0.330727 -0.103982 -0.281708 0.101524 0.134645 0.485406 0.118112 -0.57656 0.0341638 0.24524 0.320848 0.286941 -0.329945 -0.0897305 0.0778682 -0.286602 0.0822338 0.0122487 0.00010006 0.261014 -0.403028
3422 -0.0708274 -0.122747 0.761972 0.287105 -0.0779307 -0.255069 0.0717704 0.106574 0.45061 0.160575 -0.491954 0.0147653 0.241189 0.310266 0.286076 -0.317355 -0.0860891 0.060667 -0.27433 0.11842 0.0263959 0.0143591 0.208422 -0.368526
3403 -0.0447007 -0.0670859 0.87848 0.317738 -0.0611912 -0.296011 0.09723 0.137493 0.392515 0.195223 -0.583646 -0.000466076 0.246132 0.32907 0.38693 -0.331725 -0.0911062 0.0360229 -0.182617 0.11212 -0.0247755 0.0143892 0.166365 -0.445967
3011 -0.0248075 -0.0331148 0.946965 0.349041 -0.0760543 -0.316954 0.103996 0.156541 0.45615 0.163125 -0.660199 -0.0123413 0.23934 0.355354 0.378336 -0.331383 -0.110263 0.0605785 -0.186211 0.127141 -0.0381448 -0.0247234 0.248853 -0.499091
342 0.148069 -0.0526151 0.314106 0.549499 -0.135205 -0.560849 0.10363 -0.152171 1.00266 -0.21133 -0.962783 -0.150105 1.06678 1.23277 -0.352076 -0.425741 -0.811531 0.242997 -0.467334 -0.444009 0.344837 0.885896 0.490602 -0.498936
123 0.10998 -0.0235118 0.221787 0.434049 -0.109995 -0.424485 0.139165 -0.0924762 0.970338 -0.259031 -0.815902 -0.157924 0.919475 1.0552 -0.301232 -0.332821 -0.690887 0.247022 -0.386083 -0.446614 0.2805 0.719575 0.421135 -0.406369
118 0.154403 -0.0472745 0.30049 0.560147 -0.11518 -0.59999 0.132192 -0.150863 1.06263 -0.225897 -1.02667 -0.164752 1.1472 1.29742 -0.366016 -0.45161 -0.808281 0.280602 -0.472668 -0.485024 0.343338 0.909042 0.505586 -0.537638
29 0.102037 -0.03671 0.251404 0.416719 -0.103484 -0.414674 0.137591 -0.0730497 0.932842 -0.239302 -0.800733 -0.167945 0.82181 0.994359 -0.237889 -0.347411 -0.66002 0.238726 -0.392325 -0.42093 0.269311 0.685255 0.364092 -0.416437
269 0.0387322 -0.0211092 0.254948 0.304805 -0.0864409 -0.334631 0.15722 -0.0374539 0.834568 -0.205226 -0.70004 -0.173418 0.624116 0.84094 -0.145251 -0.350569 -0.51186 0.212673 -0.374209 -0.372443 0.206111 0.476231 0.331397 -0.391647
100 0.08745 -0.0590881 0.310251 0.399861 -0.105662 -0.411879 0.157298 -0.0228921 0.946459 -0.176405 -0.778657 -0.165667 0.772692 0.940719 -0.174138 -0.358849 -0.580218 0.22253 -0.440959 -0.41131 0.267149 0.59181 0.383106 -0.413189
779 -0.611013 -0.68155 1.22414 0.262577 -0.267731 -0.196248 -0.0626513 0.0173059 0.819254 0.234266 -0.139309 0.0703536 0.400379 0.427321 0.818956 0.0303889 -0.170232 -0.537823 -0.288841 0.561705 0.21265 -0.0405128 -0.0580453 -0.155896
764 -0.737592 -0.832344 1.46571 0.324043 -0.325734 -0.221614 -0.0629538 0.0138176 0.956254 0.262504 -0.140825 0.108898 0.460307 0.529156 0.974392 0.0817631 -0.183953 -0.674598 -0.33706 0.661761 0.214762 -0.0590838 -0.0723202 -0.172962
783 -0.664524 -0.759077 1.32637 0.300651 -0.276694 -0.216308 -0.0812367 -0.0044764 0.906797 0.257749 -0.121138 0.0666987 0.463163 0.521613 0.891834 0.0482294 -0.159177 -0.601026 -0.299647 0.581023 0.214234 -0.0367563 -0.094537 -0.162675
808 -0.544489 -0.560255 1.05116 0.225368 -0.223756 -0.143322 -0.0443447 -0.00449604 0.708001 0.173369 -0.103018 0.0730242 0.341867 0.363883 0.714441 0.062185 -0.150394 -0.501168 -0.221206 0.488537 0.155527 -0.0465747 -0.0489579 -0.142121
