35 24
10 0.0859812 0.142366 0.00032362 -0.0535901 0.0645409 0.0719544 0.100352 -0.0381182 -0.10485 -0.0397889 -0.0368495 0.0757583 -0.00660805 -0.0994442 -0.0406206 -0.138641 0.108849 -0.0566649 0.0277474 0.0260812 0.144589 0.0353006 -0.0830254 -0.0792649


34 0.24372 0.54461 -0.0577319 -0.256173 0.246361 0.33945 0.411609 -0.210255 -0.341573 -0.0972444 -0.262549 0.297062 -0.188669 -0.409226 -0.131735 -0.409407 0.289856 -0.14119 -0.0372975 0.10159 0.40978 0.00199344 -0.24317 -0.227435


0 0.210664 0.377024 0.0193595 -0.160746 0.109869 0.236661 0.227192 -0.013303 -0.201587 -0.158075 -0.103333 0.15583 0.0729825 -0.304108 -0.186178 -0.361851 0.280126 -0.1332 0.123582 0.0881596 0.355766 0.206004 -0.197037 -0.21263


25 0.12214 0.284994 -0.0116759 -0.134871 0.0846463 0.15683 0.188722 -0.0610338 -0.155798 -0.0781364 -0.0717948 0.145989 -0.0144828 -0.198864 -0.0992657 -0.242121 0.174781 -0.0606138 0.0689263 0.0644374 0.244056 0.0594632 -0.161241 -0.114516


32 0.187736 0.354696 -0.0121224 -0.205013 0.105856 0.227241 0.237119 -0.0904265 -0.21131 -0.144772 -0.0968913 0.193415 -0.0357143 -0.294982 -0.116689 -0.333626 0.245601 -0.104624 0.0890236 0.0649729 0.333622 0.11236 -0.214475 -0.198629


29 0.0966034 0.232933 0.00681424 -0.123019 0.0739614 0.14345 0.129211 -0.0729651 -0.133235 -0.0599459 -0.0529688 0.119245 -0.0308619 -0.159936 -0.0565283 -0.183418 0.146964 -0.0436444 0.034389 0.0272855 0.165215 0.0403618 -0.114835 -0.119417


6 0.123911 0.248319 0.0100928 -0.127187 0.0948249 0.168541 0.183503 -0.0667299 -0.153975 -0.0754617 -0.0871265 0.140915 -0.0357121 -0.225448 -0.0928458 -0.214241 0.14173 -0.0780246 0.0460328 0.0397391 0.235266 0.038952 -0.142488 -0.132761


7 0.165987 0.349512 -0.0131021 -0.165699 0.133195 0.201064 0.22749 -0.085837 -0.19558 -0.102593 -0.0990882 0.190387 -0.0183899 -0.259453 -0.0834026 -0.277038 0.190144 -0.102773 0.0673889 0.0584592 0.264003 0.0835661 -0.182448 -0.155131


17 0.168028 0.390495 -0.00914415 -0.200389 0.167994 0.243617 0.276962 -0.10516 -0.239671 -0.102042 -0.134119 0.224664 -0.0672078 -0.306859 -0.111236 -0.306289 0.223488 -0.0977726 0.0529312 0.077809 0.335318 0.0817734 -0.178221 -0.170974


12 0.123649 0.262126 -0.0368677 -0.130248 0.0882374 0.161765 0.172453 -0.0889603 -0.154733 -0.0596207 -0.118944 0.132925 -0.073999 -0.185485 -0.0656949 -0.201811 0.153711 -0.0479379 -0.0034445 0.0290002 0.20446 0.0122522 -0.11912 -0.103518


13 0.136396 0.31621 -0.0275384 -0.142186 0.116372 0.195363 0.221091 -0.0974321 -0.163652 -0.0603611 -0.119776 0.178693 -0.0515964 -0.207135 -0.0693284 -0.247063 0.184853 -0.0608277 0.0427402 0.0464559 0.218647 0.0615344 -0.159597 -0.133238


4 0.187277 0.376643 -0.000124437 -0.167622 0.125912 0.238184 0.24566 -0.0780284 -0.235791 -0.105024 -0.136346 0.19255 -0.0207652 -0.303912 -0.11706 -0.329365 0.248023 -0.112 0.0593413 0.0589894 0.303854 0.0990164 -0.191979 -0.198233


8 0.146846 0.306107 -0.0145285 -0.133294 0.12828 0.202857 0.215425 -0.113813 -0.189527 -0.0812792 -0.122991 0.159735 -0.0706437 -0.246138 -0.0902895 -0.262975 0.16662 -0.0684629 0.00833306 0.0584513 0.249477 0.0364089 -0.1407 -0.153021


20 0.089604 0.184045 0.00732632 -0.0786075 0.0523373 0.103925 0.103151 -0.0572134 -0.113597 -0.0593179 -0.0595564 0.105538 -0.00263897 -0.119987 -0.0567815 -0.139464 0.124962 -0.0655 0.0165087 0.0201931 0.144845 0.0438545 -0.0716443 -0.0674702


19 0.0893356 0.175466 -0.0135357 -0.0892593 0.0479526 0.0797701 0.115797 -0.0245638 -0.0740937 -0.069872 -0.0294288 0.0788391 -0.0158943 -0.109248 -0.0362015 -0.148075 0.105704 -0.0491719 0.034864 0.0244219 0.1309 0.051331 -0.0779149 -0.0957314


24 0.0879423 0.181698 -0.0109356 -0.10206 0.0701777 0.112365 0.128175 -0.0256224 -0.101815 -0.0539411 -0.0355143 0.113776 -0.00142099 -0.126443 -0.0404976 -0.130973 0.127681 -0.0445324 0.0462021 0.0463585 0.143833 0.0480578 -0.099088 -0.102168


26 0.166638 0.29437 0.0143974 -0.130465 0.108817 0.191345 0.203951 -0.0513514 -0.17211 -0.117135 -0.0881791 0.179774 -0.0235157 -0.220564 -0.092862 -0.257737 0.196641 -0.0753961 0.0809347 0.0797973 0.237968 0.0651138 -0.146969 -0.152989


28 0.0916793 0.179678 0.00647525 -0.0725137 0.0457539 0.0930147 0.110521 -0.0614031 -0.0917883 -0.0674874 -0.0479069 0.105598 -0.00500879 -0.149022 -0.065588 -0.169673 0.12329 -0.0469774 0.0438831 0.0187543 0.1518 0.0447221 -0.0897007 -0.107924


31 0.102603 0.168032 0.00705173 -0.0861649 0.0458143 0.114867 0.143598 -0.0376201 -0.102721 -0.0488237 -0.0489518 0.109271 -0.0300655 -0.141953 -0.0703788 -0.177949 0.106199 -0.0426313 0.0237647 0.030046 0.180732 0.0706076 -0.108433 -0.0740492


5 0.171174 0.332599 0.010436 -0.1807 0.110039 0.1992 0.233485 -0.107192 -0.214962 -0.0943958 -0.120299 0.191295 -0.0380222 -0.271979 -0.103961 -0.26484 0.178335 -0.0949254 0.0289709 0.0830163 0.268037 0.0775405 -0.174824 -0.166358


18 0.123213 0.244489 -0.0151294 -0.113067 0.09539 0.151776 0.171588 -0.0870264 -0.154498 -0.0591458 -0.0792891 0.115279 -0.06048 -0.179906 -0.0692154 -0.169469 0.154932 -0.0613165 0.0220917 0.0301117 0.19895 0.0179605 -0.11591 -0.116779


9 0.090842 0.229513 -0.0182625 -0.109971 0.057517 0.12044 0.122331 -0.0476072 -0.115716 -0.0750698 -0.070655 0.138163 -0.031458 -0.183792 -0.0583891 -0.166558 0.12209 -0.0408986 0.0468893 0.049827 0.164875 0.0581425 -0.112255 -0.0883044


23 0.0892659 0.157077 -0.0110907 -0.104963 0.0394252 0.0811219 0.119571 -0.0507659 -0.0885842 -0.0665886 -0.0458123 0.105833 -0.0277876 -0.128775 -0.042965 -0.164593 0.0974524 -0.0517891 0.0381289 0.054879 0.161234 0.0512357 -0.0906993 -0.0806282


33 0.179771 0.379821 0.026594 -0.212228 0.0998426 0.239558 0.223985 -0.079227 -0.239394 -0.163547 -0.0884121 0.219811 0.0441725 -0.317395 -0.154444 -0.346483 0.256034 -0.096332 0.131058 0.107963 0.356548 0.152228 -0.219018 -0.20066


3 0.162486 0.290131 0.0114637 -0.163397 0.0793581 0.166212 0.175031 -0.0862483 -0.171775 -0.0982677 -0.101805 0.164992 -0.0167094 -0.225422 -0.117324 -0.248541 0.178156 -0.100082 0.0598316 0.0628554 0.259472 0.0797777 -0.175216 -0.124799


14 0.129364 0.210251 0.0153081 -0.096922 0.0795806 0.125529 0.130266 -0.0316065 -0.112404 -0.0765711 -0.0573921 0.136907 -0.00800195 -0.16776 -0.0915981 -0.176581 0.121053 -0.0399736 0.0498077 0.0624927 0.195385 0.0682816 -0.102289 -0.0920854


15 0.0943607 0.143476 -0.0151843 -0.0821515 0.0493014 0.104284 0.115774 -0.047959 -0.0878958 -0.0493013 -0.0403092 0.0860736 -0.014723 -0.122174 -0.0742748 -0.154366 0.118968 -0.0245853 0.046446 0.0500275 0.123845 0.0615363 -0.0809143 -0.0721706


30 0.135486 0.264027 0.0154146 -0.135403 0.0786939 0.14802 0.172649 -0.0494374 -0.17357 -0.102994 -0.0701545 0.152906 0.00119385 -0.224895 -0.106434 -0.227185 0.175714 -0.0760185 0.0556041 0.0498053 0.243928 0.0510263 -0.131845 -0.114185


1 0.160921 0.307672 -0.0103906 -0.149168 0.117744 0.181124 0.179481 -0.0904615 -0.162902 -0.0693138 -0.0825609 0.148842 -0.0313319 -0.217729 -0.0946128 -0.221994 0.17225 -0.0803991 0.0587951 0.0784218 0.2539 0.0557527 -0.15925 -0.138854


11 0.143268 0.352218 -0.0192442 -0.175469 0.139929 0.20471 0.24614 -0.12169 -0.207141 -0.0895302 -0.132286 0.184068 -0.0941734 -0.272072 -0.0949839 -0.259629 0.190726 -0.0753799 0.0192184 0.0476179 0.271896 0.0260552 -0.157199 -0.181414


22 0.123317 0.245223 -0.00647407 -0.12088 0.0834724 0.140193 0.191975 -0.0895846 -0.151995 -0.0544212 -0.100259 0.116231 -0.0421869 -0.205806 -0.0511274 -0.209103 0.129279 -0.0755906 0.030239 0.0413409 0.184481 0.0135678 -0.118664 -0.128495


2 0.159151 0.318882 -0.0233151 -0.156472 0.129208 0.203389 0.210862 -0.100117 -0.167226 -0.0855003 -0.116888 0.158831 -0.0579975 -0.233772 -0.0908973 -0.2517 0.177793 -0.0761033 0.0313117 0.0700041 0.267623 0.0811966 -0.147086 -0.156526


16 0.065958 0.137959 0.00471056 -0.0688406 0.034921 0.0850846 0.106309 -0.0159031 -0.0761802 -0.0443744 -0.0478581 0.0861982 -0.0235389 -0.12584 -0.0476706 -0.110602 0.0673808 -0.0403326 0.0338078 0.0424872 0.112089 0.0527223 -0.0814855 -0.0791968


21 0.0845026 0.158787 0.00689054 -0.0955465 0.0737987 0.0900848 0.108834 -0.0217368 -0.0900139 -0.0533886 -0.0644398 0.0955311 0.00250421 -0.151595 -0.0599152 -0.138567 0.0979922 -0.039348 0.0511931 0.0357408 0.156978 0.0344412 -0.0950324 -0.0856372


27 0.120195 0.201446 -0.00338842 -0.112007 0.0707488 0.1296 0.132026 -0.0567285 -0.142333 -0.0689642 -0.0533235 0.114761 -0.00551254 -0.171572 -0.085061 -0.166793 0.144008 -0.0536383 0.0457074 0.0462083 0.175563 0.0324001 -0.0982274 -0.107866


