41 24
891 -0.00710435 -0.0736541 -0.127533 0.0350332 0.0108834 0.132517 -0.00909156 -0.0156052 -0.0629023 -0.106328 0.04319 -0.0165477 -0.0479018 -0.0336863 0.0258473 -0.0120542 -0.0272508 0.113581 -0.0495433 -0.0440112 0.00654333 0.104893 -0.025084 0.115295
37 -0.0118708 -0.139219 -0.183998 0.0759324 -0.0183537 0.181875 0.00832092 -0.0369211 -0.109254 -0.151286 0.0513143 -0.0244643 -0.0456163 -0.0764692 0.0498573 -0.0740573 -0.0322977 0.17625 -0.0929151 -0.101913 0.0181336 0.162734 -0.0801567 0.199962
638 -0.0339488 -0.107319 -0.158924 0.0418003 -0.0392605 0.182165 0.0245369 -0.0454836 -0.0939566 -0.142468 0.0199171 -0.0342481 -0.0337481 -0.0598345 0.0368964 -0.0527088 -0.0109284 0.149871 -0.0853342 -0.0726105 0.0142521 0.134014 -0.0938215 0.167978
292 -0.0232476 -0.09453 -0.194438 0.0656552 -0.0196916 0.164122 -0.00994823 -0.0244055 -0.0760853 -0.122356 0.0290721 -0.0133146 -0.0538012 -0.0414381 0.0154191 -0.05154 -0.0538697 0.18897 -0.0926172 -0.0852669 0.0325373 0.156817 -0.0813173 0.175124
182 0.0142338 0.036309 0.074258 -0.0310585 0.00626226 -0.0505744 0.0115343 0.0199867 0.0405222 0.0358005 -0.0201929 -0.0306618 -0.0143783 0.0166086 -0.0195048 0.0284166 0.00427596 -0.0597619 0.0421086 0.0163397 -0.0518007 -0.0697548 0.0339784 -0.0581737
624 -0.03956 -0.142596 -0.186994 0.0745435 -0.0300383 0.208061 0.0163809 -0.0262441 -0.106916 -0.157274 0.0196758 -0.0546205 -0.0779384 -0.0811979 0.0227596 -0.0736949 -0.0319038 0.209858 -0.084345 -0.106736 0.00743348 0.14252 -0.0488749 0.174761
3987 0.0410012 0.261842 0.422906 -0.145975 0.0655973 -0.417151 -0.0428825 0.0813715 0.181027 0.322665 -0.0453864 0.0368727 0.0821653 0.144146 -0.0937517 0.172769 0.0522266 -0.412449 0.244423 0.165546 -0.0735041 -0.378684 0.199777 -0.416888
4012 0.031563 0.184101 0.354807 -0.119143 0.0676694 -0.336211 -0.0253717 0.102454 0.137407 0.247841 -0.0516684 0.00727965 0.0696279 0.0836145 -0.0823029 0.158003 0.0474619 -0.347932 0.199083 0.101749 -0.0999847 -0.335786 0.178519 -0.327394
11 -0.0199344 -0.056933 -0.142646 0.0454346 0.00189062 0.102635 -0.00084745 -0.0292964 -0.0724054 -0.0716477 0.0380838 -0.0153308 -0.0328944 -0.0336434 0.00550867 -0.061755 -0.025513 0.100618 -0.0609095 -0.0342837 0.0310242 0.119984 -0.0736445 0.134482
215 -0.030474 -0.101901 -0.188188 0.0695953 -0.0378739 0.198758 0.0286551 -0.0355382 -0.0878787 -0.146392 0.0252533 -0.0185537 -0.0610978 -0.0590323 0.0330555 -0.0378418 -0.0227216 0.188664 -0.0879518 -0.0979542 0.0256094 0.133895 -0.0514844 0.155511
287 -0.0257823 -0.114076 -0.193133 0.0692776 -0.0110093 0.183756 0.0033602 -0.0568065 -0.0945257 -0.171765 0.0198825 -0.00540655 -0.0450353 -0.066127 0.0491835 -0.0538982 -0.04759 0.217479 -0.117277 -0.0781691 0.0465357 0.182735 -0.104312 0.186864
42 -0.00588276 0.0989963 0.213777 -0.0591149 0.0492141 -0.19281 8.40421e-05 0.0358149 0.0959116 0.0958279 -0.0169736 -0.00585395 -5.48661e-05 0.0630012 -0.0503533 0.0735089 -0.00830693 -0.200307 0.116297 0.0536909 -0.0660688 -0.169711 0.128921 -0.182755
4022 0.0157958 0.0304696 0.00601659 -0.00903316 -0.000154558 -0.0205241 -0.00311143 0.00628818 0.0200058 -0.00719883 0.00953651 -0.00697981 -0.0123591 0.00545144 0.0142673 -0.00718585 -0.000592129 -0.00604023 0.0153032 -0.00779014 0.00740514 -0.0101134 -0.00491806 -0.0261911
256 0.0584217 0.378121 0.686112 -0.207001 0.0852691 -0.595642 -0.064834 0.18095 0.277648 0.484932 -0.123678 0.0272056 0.127952 0.225067 -0.119778 0.246581 0.0832516 -0.622414 0.373008 0.262997 -0.174767 -0.588453 0.294001 -0.625563
233 0.073869 0.385252 0.712807 -0.190961 0.113271 -0.636738 -0.0462507 0.191573 0.277407 0.489218 -0.122075 0.0296971 0.130765 0.225747 -0.138421 0.25581 0.0805947 -0.651577 0.373492 0.26125 -0.176914 -0.595722 0.343984 -0.624919
90 0.0478011 0.291326 0.47232 -0.199309 0.0287543 -0.477756 -0.0246061 0.0974471 0.261435 0.363335 -0.103467 0.101536 0.150129 0.15824 -0.0652013 0.141863 0.113066 -0.475659 0.227231 0.255088 -0.0689262 -0.383536 0.188616 -0.446837
179 0.0412055 0.381786 0.637061 -0.189198 0.0826221 -0.590148 -0.047884 0.168538 0.27759 0.45176 -0.0816184 0.034351 0.132307 0.183638 -0.111669 0.225982 0.0628726 -0.614638 0.330937 0.270719 -0.125783 -0.539291 0.284639 -0.58101
282 0.0283986 0.179005 0.315928 -0.102194 0.0379782 -0.284666 -0.0208252 0.0940085 0.127221 0.191701 -0.0470306 -0.0369728 0.0212637 0.0741389 -0.0680644 0.131963 0.0142229 -0.315388 0.175698 0.0853428 -0.0910149 -0.311911 0.167708 -0.264372
114 -0.00119418 -0.0641108 -0.119821 0.0412481 -0.0233844 0.127144 0.0100425 -0.0461822 -0.0697128 -0.0918314 0.0433258 -0.0426432 -0.0494588 -0.0492299 0.0263287 -0.0576394 -0.0430941 0.110973 -0.0606268 -0.0603095 0.00298997 0.129198 -0.0529381 0.132268
3451 -0.018059 -0.0941691 -0.15183 0.0737025 -0.00589689 0.14015 -0.000820998 -0.0142575 -0.0936663 -0.126724 0.031968 -0.0618766 -0.0351264 -0.0471938 0.00656485 -0.0457352 -0.0537561 0.131902 -0.0600667 -0.0722695 0.00820482 0.118402 -0.0490579 0.12457
608 0.0011532 -0.0936831 -0.155334 0.0767293 -0.00848892 0.133333 0.0266758 -0.0509412 -0.0695597 -0.0946402 0.0143224 -0.0541767 -0.0577675 -0.0469767 0.00336361 -0.0205097 -0.0428565 0.127708 -0.0560384 -0.0757395 0.0199279 0.117722 -0.0516346 0.148106
15 -0.0219555 -0.118022 -0.200676 0.0609007 -0.0350884 0.209962 -0.000412038 -0.0439704 -0.103443 -0.137308 0.0363231 -0.0257872 -0.0770252 -0.0713565 0.0401902 -0.0783975 -0.0522161 0.17933 -0.124832 -0.0984653 0.0237229 0.172795 -0.0700091 0.190216
4001 0.0364426 0.227957 0.366726 -0.155724 0.0137055 -0.393193 -0.00957675 0.0655155 0.169343 0.266488 -0.0718717 0.10476 0.132047 0.107051 -0.0742697 0.108185 0.123689 -0.343141 0.208852 0.175397 -0.045693 -0.273734 0.146103 -0.352964
4016 0.00592904 0.0515143 0.14948 -0.0504989 0.0156984 -0.115751 -0.00309878 0.0417091 0.0703184 0.090897 -0.0139703 -0.0409091 0.00584049 0.0487711 -0.0150472 0.0649217 0.016776 -0.140806 0.0743631 0.0351722 -0.0599564 -0.144026 0.0632959 -0.119991
4008 -0.00529815 -0.00610306 -0.0294153 -0.00421485 0.0127305 0.0105449 -0.0132271 0.00251571 -0.00274117 -0.00637778 -0.00164796 -0.0210074 -0.0186435 0.0158262 -0.00479717 0.00750083 0.0217502 0.00603809 -0.00238852 -0.0161985 -0.0090059 -0.00315623 -0.00629903 2.74448e-05
4029 0.0281567 0.188535 0.344287 -0.108372 0.0420579 -0.30129 -0.02481 0.08727 0.13647 0.205236 -0.038122 0.0141477 0.049675 0.100488 -0.0720146 0.106076 0.0641038 -0.336745 0.158012 0.0991728 -0.0820646 -0.272698 0.14534 -0.308177
4024 0.00244269 0.0518468 0.0944532 -0.0181099 0.00884467 -0.0644789 -0.00529129 0.00908065 0.0241816 0.0530815 -0.0124999 -0.0366204 -0.000951884 0.0295961 -0.00209415 0.0570956 0.00939302 -0.0841578 0.046512 0.0102833 -0.0465343 -0.0771731 0.0612904 -0.0822527
4035 -0.0149789 -0.0754247 -0.125318 0.0614646 -0.0211671 0.110919 -0.0180042 -0.00238204 -0.0746493 -0.0841975 0.0384411 -0.0359051 -0.065219 -0.0265049 0.0315457 -0.0018892 -0.0423097 0.10765 -0.0425208 -0.053966 -0.0227878 0.0910593 -0.0234402 0.128802
3984 0.0252229 0.0199996 0.0437709 -0.022047 -0.00152569 -0.047988 0.00548449 0.00716522 0.0204387 0.0352406 -0.0228269 -0.0240153 0.0268175 0.0318186 -0.00576375 0.0198054 0.00617076 -0.0476291 0.0168767 0.0311997 -0.00379293 -0.0540616 0.017958 -0.059035
12 -0.0096388 -0.117545 -0.205241 0.0621134 -0.0415954 0.200041 0.0304449 -0.0634145 -0.10452 -0.134367 0.038129 -0.0425056 -0.0537178 -0.0435158 0.0482578 -0.0830105 -0.0295247 0.170941 -0.103753 -0.098352 0.0249975 0.155861 -0.064105 0.197317
244 0.0454728 0.240731 0.401099 -0.130664 0.0497783 -0.359071 -0.0416801 0.136253 0.188569 0.257306 -0.0552211 -0.00401155 0.0638818 0.134296 -0.0649836 0.163966 0.0349998 -0.36644 0.194975 0.136759 -0.117482 -0.36512 0.212848 -0.358353
255 -0.0137341 0.0399466 0.0881215 -0.012962 0.0186839 -0.0840827 -0.0212221 0.0174036 0.0568826 0.0413791 -0.00496871 -0.0145045 -0.0171404 0.0236616 -0.00850804 0.0494225 -0.0117357 -0.103118 0.0741976 0.00978662 -0.0263517 -0.104727 0.0642689 -0.0807031
4015 0.0143644 -0.00755599 -0.0146391 0.00605208 0.0183998 0.0333088 0.0120448 0.00621203 -0.0166627 -0.0338506 0.00305881 0.00132217 -0.0213313 -0.0260377 0.0110768 -0.0184761 -0.00392643 0.0079238 -0.0102988 0.0114757 0.0249357 0.00185923 -0.0132765 0.0223801
892 -0.00128741 -0.107991 -0.205168 0.0841503 -0.0161217 0.175246 0.00287362 -0.0563552 -0.0882874 -0.163827 0.046496 -0.055446 -0.0704458 -0.0741265 0.0393285 -0.0434717 -0.0382774 0.164449 -0.0926653 -0.0890394 0.00941012 0.157523 -0.0762397 0.182367
3853 -0.0326315 -0.134817 -0.177984 0.0592905 -0.023233 0.171618 0.0314778 -0.0582618 -0.083275 -0.155952 0.0342615 -0.0314634 -0.0624579 -0.0473762 0.0243889 -0.0469589 -0.0309174 0.193607 -0.108986 -0.0701257 0.0179542 0.14364 -0.0652742 0.167346
3846 0.0116659 -0.0220554 -0.0233323 0.0224601 0.00198888 0.0291998 -0.0130925 0.00779817 -0.0380601 -0.0109566 0.0132965 -0.00739932 -0.0298546 0.00417694 -0.00302216 0.0109284 0.0150736 0.0325783 -0.0333791 -0.00370852 0.00662468 0.0355787 -0.00623218 0.0450962
4032 -0.00506218 -0.0570965 -0.103322 0.0323782 0.0104034 0.113581 0.0110691 -0.00478446 -0.0375496 -0.0896233 0.0427901 -0.0733628 -0.0451041 -0.0181242 0.0122162 -0.0141092 -0.0459345 0.0871447 -0.0516646 -0.0869116 -0.00847037 0.0611505 -0.0100775 0.0759498
145 0.0469866 0.325869 0.483009 -0.202708 0.029243 -0.488472 -0.012117 0.102175 0.278318 0.412948 -0.106497 0.118737 0.173219 0.171626 -0.0731857 0.135268 0.118813 -0.469996 0.243949 0.264008 -0.0558246 -0.412239 0.172441 -0.480814
401 0.0276798 0.0580235 0.12476 -0.0458957 0.0122229 -0.125966 -0.0222439 0.033337 0.0593645 0.0875614 -0.0200157 3.00197e-05 0.0143348 0.0446341 -0.0364311 0.0492807 0.00898393 -0.138097 0.063022 0.0248248 -0.0424735 -0.101288 0.0649588 -0.121457
210 -0.0189001 -0.107992 -0.148615 0.0506326 -0.0351269 0.135137 0.00046989 -0.0458596 -0.0817675 -0.106628 0.0266426 -0.00877817 -0.0474279 -0.0287613 0.0210567 -0.06064 -0.0258621 0.146323 -0.0816047 -0.0672394 0.0500584 0.13587 -0.0704382 0.12464
585 -0.00645742 -0.105377 -0.149081 0.0736461 -0.0267972 0.128284 0.0256421 -0.0488222 -0.0834443 -0.12657 0.0276607 -0.0152384 -0.0263893 -0.0409615 0.00702574 -0.0455115 -0.0151688 0.126555 -0.0725473 -0.0837976 0.01757 0.131705 -0.0417219 0.156985
