405 24
179 0.200219 0.0126019 0.395735 0.0480593 0.0423791 -0.10846 -0.0805936 0.318182 -0.1064 -0.0739705 0.193538 0.239529 -0.0641228 0.0782918 -0.0114606 0.0928469 -0.147833 -0.312247 -0.253616 -0.173752 -0.0744867 -0.0990137 0.147774 0.0516343
145 0.171679 0.0659963 0.385898 0.0846046 -0.00935542 -0.08688 -0.0352223 0.307675 -0.0927223 -0.0789935 0.221176 0.237995 -0.10566 0.0889092 0.0154705 0.0764875 -0.173123 -0.301687 -0.320037 -0.162621 -0.0874995 -0.107687 0.153998 0.0677866
90 0.162153 0.0177818 0.388624 0.0707616 0.0214929 -0.0911181 -0.0969035 0.303729 -0.0621952 -0.105013 0.236472 0.212104 -0.0978287 0.123107 -0.022322 0.10002 -0.155886 -0.316841 -0.280479 -0.160757 -0.0612974 -0.106265 0.143111 0.092544
767 0.0994493 0.309992 0.0792032 0.416992 0.0148769 -0.23205 0.33943 0.152665 -0.0623801 0.156091 0.0849448 0.385316 -0.192715 -0.126975 0.243536 -0.059565 -0.161868 -0.198722 -0.328396 0.10362 -0.230569 -0.250623 0.277439 0.0696768
0 0.701171 1.81311 1.06793 2.35479 0.133549 -1.21598 1.67118 1.15577 -0.327366 0.686384 0.82674 2.43029 -1.15479 -0.437619 1.27027 -0.117922 -1.1442 -1.56015 -2.13955 0.238974 -1.30696 -1.55428 1.66742 0.392133
4036 0.296281 0.127998 0.620471 0.197057 -0.0328612 -0.0713178 -0.0631137 0.471799 -0.0762391 -0.0974582 0.362935 0.433688 -0.17149 0.212372 0.0524552 0.153529 -0.298635 -0.461134 -0.503044 -0.217489 -0.202524 -0.202963 0.33629 0.140512
4010 0.290152 0.143551 0.602368 0.187159 -0.0224101 -0.0762789 -0.0273459 0.428438 -0.10199 -0.0919913 0.328248 0.433636 -0.157148 0.144199 0.0516277 0.126567 -0.277184 -0.403034 -0.485518 -0.210767 -0.173519 -0.173027 0.326912 0.130451
3980 0.330737 0.247016 0.68974 0.383722 0.0951132 0.0249904 0.0882437 0.570381 -0.0813955 -0.0706108 0.335106 0.566043 -0.200321 0.197743 0.124469 0.195104 -0.374327 -0.457214 -0.51614 -0.156847 -0.214824 -0.262683 0.486899 0.182782
4027 0.259146 0.1508 0.571446 0.192217 -0.0453063 -0.0403295 -0.0473311 0.43265 -0.0577346 -0.0947321 0.311322 0.383339 -0.166857 0.166226 0.0509051 0.116257 -0.243306 -0.383595 -0.470785 -0.211593 -0.146918 -0.192608 0.317499 0.154151
4006 0.278769 0.105137 0.633399 0.162943 -0.0554282 -0.0561964 -0.0846445 0.465833 -0.0824639 -0.0964474 0.343543 0.404199 -0.144318 0.196494 0.0194703 0.153137 -0.27727 -0.414053 -0.456162 -0.234571 -0.168264 -0.180016 0.306936 0.144917
3585 0.267789 0.137791 0.594935 0.142569 -0.0619497 -0.135107 -0.0650359 0.432603 -0.0673551 -0.125485 0.321515 0.378518 -0.179885 0.142644 -0.0355132 0.057011 -0.286387 -0.408929 -0.47514 -0.255723 -0.152976 -0.196178 0.264306 0.105395
3447 0.210579 0.105006 0.495383 0.164433 -0.0720462 -0.102891 -0.0553692 0.366551 -0.0589551 -0.106822 0.306197 0.338439 -0.134784 0.127726 -0.012249 0.0555188 -0.233621 -0.346303 -0.404526 -0.191769 -0.146878 -0.160652 0.265847 0.0950857
3441 0.265716 0.0987189 0.535974 0.108444 -0.045685 -0.0669843 -0.0653883 0.413358 -0.0566987 -0.133988 0.299199 0.344002 -0.131628 0.145632 -0.0220885 0.0757777 -0.247827 -0.358844 -0.406891 -0.244076 -0.123901 -0.137 0.266204 0.10956
86 0.229356 0.112274 0.476215 0.114049 -0.0420803 -0.0876117 -0.0638993 0.348186 -0.0709132 -0.0809351 0.288289 0.310351 -0.126452 0.145442 0.038033 0.0767701 -0.19046 -0.330894 -0.361783 -0.188743 -0.117268 -0.130591 0.208542 0.0799267
46 0.242344 0.114467 0.578631 0.122633 -0.053137 -0.0980635 -0.0734805 0.398214 -0.0883346 -0.124063 0.321409 0.351186 -0.12105 0.136286 0.00787891 0.107717 -0.262566 -0.426271 -0.478878 -0.23044 -0.172676 -0.155828 0.284039 0.135205
240 0.211367 0.0996693 0.522708 0.0899085 -0.027198 -0.0752552 -0.0847487 0.342118 -0.0892526 -0.103681 0.267406 0.307446 -0.104102 0.164915 0.0245397 0.086209 -0.189564 -0.336889 -0.383454 -0.190384 -0.140176 -0.129542 0.223438 0.106903
3749 0.178395 0.091592 0.476941 0.0861631 -0.0354508 -0.059881 -0.083774 0.325141 -0.108721 -0.0768701 0.323452 0.317237 -0.161104 0.142918 0.011253 0.108551 -0.172273 -0.297781 -0.339274 -0.210236 -0.112072 -0.114259 0.206998 0.129826
3856 0.242429 0.125346 0.535934 0.116811 -0.0279605 -0.0616645 -0.0739674 0.372725 -0.070045 -0.0795789 0.298078 0.342929 -0.153905 0.136774 0.00629592 0.100439 -0.195741 -0.361631 -0.426096 -0.209358 -0.13132 -0.140187 0.246546 0.118004
3650 0.236424 0.12622 0.561028 0.185295 -0.0567431 -0.105345 -0.047157 0.41143 -0.0990593 -0.0925887 0.35372 0.394737 -0.172716 0.164797 0.0416429 0.110198 -0.229591 -0.417469 -0.459532 -0.223294 -0.189775 -0.168017 0.274878 0.125354
871 0.148671 0.112364 0.342933 0.143363 -0.0333693 -0.0918185 -0.0688964 0.350139 -0.00273446 -0.028837 0.274703 0.30565 -0.136801 0.0958543 0.058055 0.0333521 -0.201717 -0.296482 -0.347898 -0.153466 -0.13047 -0.121586 0.212379 0.102569
870 0.175636 0.0731626 0.334017 0.118507 -0.0478955 -0.0992162 -0.0687778 0.31488 0.0143928 -0.0637924 0.241561 0.268986 -0.159336 0.0834398 0.0826412 0.0475298 -0.164695 -0.279714 -0.370319 -0.125757 -0.138293 -0.131765 0.192634 0.12324
3875 0.234657 0.0914492 0.456471 0.0817983 -0.0766182 -0.104403 -0.0260734 0.360646 -0.107125 -0.0791004 0.27085 0.275754 -0.154065 0.100587 -0.0136792 0.0638601 -0.212484 -0.365865 -0.426622 -0.176087 -0.111135 -0.191662 0.195862 0.159935
3537 0.245697 0.0395847 0.450722 0.00285949 -0.0990289 -0.0505647 -0.0973345 0.338153 -0.0975436 -0.0911037 0.246729 0.203927 -0.15018 0.122918 -0.0466921 0.0847474 -0.162362 -0.356616 -0.381158 -0.218318 -0.104756 -0.143487 0.14162 0.160166
3820 0.220874 0.0751361 0.43894 0.101783 -0.0724069 -0.0702585 -0.055874 0.328623 -0.0992269 -0.0797376 0.266156 0.279629 -0.116662 0.120812 0.00459282 0.0861629 -0.196362 -0.305653 -0.345957 -0.162172 -0.138659 -0.130738 0.187126 0.118409
3789 0.174193 0.0927744 0.490356 0.102487 -0.0778807 -0.029974 -0.0724714 0.315365 -0.0891751 -0.0370788 0.305048 0.309268 -0.153691 0.154109 0.036008 0.111403 -0.19547 -0.295479 -0.32447 -0.168613 -0.11818 -0.130273 0.209715 0.10117
3807 0.239233 0.16403 0.579052 0.185488 -0.0959299 -0.0957038 -0.021166 0.388748 -0.0940281 -0.042014 0.337571 0.395191 -0.184465 0.166317 0.0917826 0.112874 -0.254627 -0.380721 -0.439326 -0.177458 -0.196432 -0.145506 0.295901 0.143175
608 0.212377 0.170998 0.515154 0.194991 -0.079938 -0.111396 -0.132469 0.460255 -0.155743 -0.0351085 0.320362 0.389065 -0.153914 0.192414 0.0407841 0.0904799 -0.174893 -0.345052 -0.360671 -0.244318 -0.193038 -0.197797 0.222452 0.10855
642 0.190964 0.0819307 0.470464 0.0891568 -0.050978 0.0595138 -0.277767 0.445382 -0.0945848 -0.0160772 0.299102 0.282766 -0.137927 0.269796 0.041974 0.193538 -0.175824 -0.251292 -0.226375 -0.343141 -0.208249 -0.13105 0.152992 0.0465173
581 0.233095 0.012928 0.556136 0.0489437 -0.0947517 0.0692308 -0.315132 0.50998 -0.145692 -0.0263653 0.31639 0.307384 -0.0990453 0.322515 -0.0146578 0.218069 -0.16672 -0.271053 -0.256883 -0.3746 -0.205521 -0.0849646 0.111801 0.0317784
1253 0.313442 0.18225 0.69163 0.207719 -0.070823 -0.178345 -0.0790335 0.467754 -0.0589532 -0.156443 0.388092 0.424222 -0.217022 0.198122 0.0296726 0.125058 -0.320347 -0.482386 -0.606007 -0.253386 -0.221373 -0.187262 0.29885 0.108736
1326 0.258589 0.153337 0.64792 0.160954 -0.0510808 -0.142796 -0.0830547 0.426912 -0.0805899 -0.150216 0.386899 0.416566 -0.148096 0.213911 0.0354153 0.132905 -0.285257 -0.424038 -0.528243 -0.228838 -0.179884 -0.178043 0.303907 0.103104
1202 0.30829 0.197465 0.713013 0.215438 -0.0585877 -0.176135 -0.101011 0.482012 -0.0782927 -0.135845 0.416435 0.448172 -0.212813 0.232927 0.0152293 0.15393 -0.305748 -0.501859 -0.619796 -0.265201 -0.212405 -0.173346 0.316782 0.108014
216 0.194552 0.0821869 0.471356 0.115785 -0.0658998 -0.0586519 -0.0500066 0.342327 -0.0721662 -0.0962713 0.248405 0.273979 -0.0905423 0.141626 -0.00114937 0.106007 -0.210132 -0.349268 -0.356398 -0.167397 -0.135059 -0.11321 0.204715 0.0857057
18 0.24767 0.112874 0.537599 0.149343 -0.0313296 -0.112735 -0.0563314 0.379225 -0.0908984 -0.109434 0.300783 0.391858 -0.137866 0.141761 0.0151521 0.0908204 -0.239297 -0.430994 -0.471601 -0.190006 -0.136924 -0.153142 0.257368 0.141596
351 0.203693 0.127435 0.553767 0.155819 -0.0390183 -0.0922143 -0.0885487 0.306757 -0.123132 -0.198364 0.282135 0.364791 -0.0982119 0.122664 0.00106567 0.0628502 -0.250685 -0.44492 -0.392748 -0.0882389 -0.12679 -0.214835 0.284016 0.178712
454 0.196782 0.0618347 0.505526 0.127519 -0.0287114 -0.0911807 -0.132621 0.320767 -0.095298 -0.198722 0.262189 0.323014 -0.0972354 0.137328 -0.0299468 0.0783115 -0.216241 -0.417162 -0.359024 -0.123028 -0.083858 -0.186988 0.235404 0.136867
879 0.175099 0.106953 0.399456 0.134231 -0.064371 -0.111473 -0.0959161 0.400681 0.0122324 -0.0591652 0.320894 0.347161 -0.172574 0.109806 0.0772526 0.0636418 -0.216901 -0.33455 -0.414427 -0.150986 -0.177756 -0.139551 0.22167 0.131569
858 0.166744 0.0964885 0.377538 0.136938 -0.0518025 -0.101155 -0.083792 0.365562 -0.0111531 -0.0582051 0.279274 0.294005 -0.171091 0.113351 0.0711531 0.0490388 -0.203082 -0.288118 -0.374576 -0.156716 -0.149744 -0.110596 0.205957 0.144183
884 0.268026 0.0908494 0.52794 0.179843 -0.0755341 -0.0879185 -0.0895694 0.439264 -0.0305791 -0.0989307 0.381299 0.394657 -0.176788 0.178328 0.0564739 0.130048 -0.239883 -0.410505 -0.48192 -0.237171 -0.154854 -0.174429 0.250076 0.171014
875 0.250869 0.102741 0.5001 0.139525 -0.0756464 -0.0852886 -0.0695092 0.39818 -0.078519 -0.0989759 0.341805 0.347276 -0.171 0.15713 0.0391034 0.112018 -0.219633 -0.369062 -0.462623 -0.216645 -0.177226 -0.141724 0.242145 0.124328
895 0.152998 0.0934674 0.372668 0.175689 -0.0533296 -0.128144 -0.0684291 0.376583 0.0217424 -0.0524533 0.27352 0.329676 -0.163831 0.0890756 0.0878427 0.0608752 -0.213156 -0.302712 -0.411115 -0.135274 -0.141428 -0.127173 0.232796 0.139746
881 0.178153 0.088498 0.374923 0.0975869 -0.0484203 -0.0992307 -0.0959344 0.339978 -0.0111821 -0.0716866 0.277278 0.286534 -0.139012 0.0973306 0.0504468 0.0578004 -0.190153 -0.281153 -0.341009 -0.130554 -0.144851 -0.112036 0.204557 0.125728
2842 0.241392 0.0579966 0.537556 0.0774362 -0.0686668 -0.0826625 -0.0578522 0.336352 -0.0861029 -0.112656 0.316496 0.277593 -0.108469 0.188153 -0.00937207 0.0931898 -0.213796 -0.341454 -0.39925 -0.213199 -0.154051 -0.137847 0.241057 0.120899
3127 0.264904 0.0497101 0.462461 0.0556242 -0.0592479 -0.0846144 -0.00470384 0.317839 -0.0421137 -0.128089 0.257507 0.232625 -0.135444 0.181946 -0.0377726 0.0824012 -0.187329 -0.301709 -0.317891 -0.226132 -0.179995 -0.101115 0.23039 0.0743109
2774 0.287418 0.0180231 0.493333 0.0487662 -0.111914 -0.0920941 0.0416049 0.298897 -0.0459762 -0.127436 0.239471 0.22929 -0.16887 0.155314 -0.0370731 0.0898492 -0.226686 -0.277827 -0.273187 -0.23745 -0.212312 -0.115978 0.202859 0.0553527
2817 0.248191 -0.00818634 0.445096 0.0344375 -0.0897752 -0.0393652 -0.0317698 0.257536 -0.0552331 -0.120412 0.237639 0.166765 -0.118533 0.181219 -0.0263647 0.0785758 -0.191589 -0.261791 -0.270722 -0.209678 -0.152961 -0.0835587 0.18367 0.0533131
3055 0.245208 -0.00112461 0.466642 0.0140247 -0.085854 -0.0464324 -0.0291939 0.262137 -0.0766827 -0.147645 0.248391 0.185928 -0.112602 0.205131 -0.0464295 0.0869172 -0.206718 -0.296799 -0.262375 -0.214122 -0.170294 -0.0653618 0.204712 0.044717
585 0.204642 0.101194 0.412371 0.145813 -0.0882342 -0.0766275 -0.0819508 0.33071 -0.104884 -0.0568368 0.254665 0.32021 -0.120358 0.140663 0.00249352 0.0844878 -0.144555 -0.32391 -0.297069 -0.18755 -0.15666 -0.145031 0.163217 0.11268
613 0.233959 0.201309 0.4869 0.245293 -0.102227 -0.159311 -0.0927895 0.445281 -0.167095 -0.0615109 0.338615 0.444769 -0.152073 0.181005 0.0254362 0.0607831 -0.162536 -0.393441 -0.377541 -0.225808 -0.187513 -0.205179 0.217596 0.122143
674 0.172566 0.0860722 0.414805 0.114436 -0.0769899 -0.0883511 -0.0761777 0.341415 -0.100225 -0.0779552 0.280214 0.317259 -0.0930288 0.139119 0.00757567 0.0796996 -0.13694 -0.288358 -0.324838 -0.163821 -0.118507 -0.13994 0.172847 0.0841377
3589 0.180626 0.105333 0.452093 0.133192 -0.0611416 -0.0966799 -0.0163843 0.304384 -0.0362841 -0.0650369 0.246991 0.310535 -0.128219 0.12663 0.0410105 0.0994295 -0.192248 -0.322787 -0.346017 -0.153826 -0.118537 -0.131502 0.234458 0.105372
3745 0.318084 0.183594 0.68899 0.218717 -0.0671433 -0.0900264 -0.0714494 0.487339 -0.0846486 -0.111079 0.369582 0.444065 -0.157889 0.214228 0.0502828 0.114008 -0.305066 -0.492373 -0.542667 -0.251018 -0.184768 -0.183643 0.308319 0.121048
3727 0.2369 0.10436 0.562072 0.164107 -0.0904783 -0.0824999 -0.0571674 0.398457 -0.0561672 -0.0703515 0.312208 0.360046 -0.128434 0.20044 0.0617389 0.108635 -0.251959 -0.400242 -0.465294 -0.185233 -0.171758 -0.152781 0.250064 0.0996246
3806 0.239098 0.140299 0.588581 0.178506 -0.082627 -0.133506 -0.0612772 0.429789 -0.0455477 -0.116356 0.339776 0.426737 -0.176177 0.15447 -0.00152901 0.0574586 -0.283704 -0.39877 -0.470587 -0.214468 -0.163826 -0.193721 0.282975 0.11719
3963 0.214955 0.0986713 0.554917 0.104875 -0.0600781 -0.1298 -0.0619406 0.376627 -0.0306151 -0.116108 0.319972 0.367951 -0.123586 0.125122 -0.0330881 0.0640689 -0.24847 -0.345499 -0.405355 -0.239916 -0.147734 -0.169255 0.251535 0.128051
825 0.274098 0.106199 0.575857 0.197697 -0.0957666 -0.0915453 -0.0643152 0.454038 -0.0551118 -0.120194 0.410341 0.411899 -0.191545 0.169383 0.0585182 0.0888586 -0.252897 -0.447379 -0.523527 -0.21181 -0.216271 -0.205273 0.301227 0.168894
860 0.195659 0.0923103 0.430446 0.147883 -0.0365075 -0.086735 -0.0341686 0.346978 -0.0556156 -0.0804861 0.286293 0.305793 -0.114598 0.129388 0.0340546 0.0836238 -0.219752 -0.32478 -0.390245 -0.167854 -0.154107 -0.156569 0.25054 0.123516
867 0.251944 0.0578035 0.576115 0.152923 -0.0784237 -0.129156 -0.0956942 0.437953 -0.0312953 -0.0997094 0.410673 0.42154 -0.205941 0.167599 0.0225135 0.0655311 -0.276314 -0.442534 -0.527629 -0.214627 -0.200463 -0.182162 0.268219 0.178627
3854 0.184367 0.114791 0.480913 0.10272 -0.0303083 -0.0550448 -0.034925 0.319257 -0.0819781 -0.0820749 0.272243 0.313726 -0.139567 0.130653 0.0143512 0.106421 -0.203469 -0.314525 -0.38423 -0.181552 -0.143755 -0.134744 0.237863 0.117991
3952 0.281426 0.0949591 0.646567 0.0919723 -0.059314 -0.0660497 -0.0776734 0.473226 -0.124705 -0.136691 0.384364 0.358217 -0.136624 0.192287 0.0278122 0.156753 -0.228378 -0.411063 -0.490355 -0.282242 -0.120498 -0.153036 0.256797 0.14607
3513 0.260909 0.137415 0.609743 0.117397 -0.0559537 -0.0990337 -0.053052 0.43609 -0.116501 -0.0949317 0.378151 0.376178 -0.154161 0.199626 0.0277894 0.124108 -0.242907 -0.433676 -0.494569 -0.249589 -0.152877 -0.143526 0.274607 0.148719
3801 0.276416 0.122034 0.579462 0.130809 -0.0387259 -0.0863666 -0.0444006 0.430719 -0.0880048 -0.128221 0.336369 0.38629 -0.152198 0.170928 0.0181381 0.0788218 -0.248707 -0.416119 -0.445317 -0.237125 -0.165947 -0.16105 0.284445 0.140635
3689 0.232225 0.108765 0.477031 0.169194 -0.0431571 -0.111882 -0.0472847 0.354966 -0.0479997 -0.0661721 0.30121 0.33355 -0.134357 0.113944 0.0260677 0.0733647 -0.195699 -0.3586 -0.425565 -0.19635 -0.150845 -0.174549 0.241906 0.111165
864 0.218462 0.102733 0.440692 0.171164 -0.0405392 -0.102406 -0.0393679 0.371309 -0.0507402 -0.0568981 0.318857 0.336578 -0.158265 0.141764 0.0478961 0.0735864 -0.21116 -0.337088 -0.418486 -0.166887 -0.158853 -0.14681 0.238144 0.128541
893 0.259401 0.110583 0.494983 0.189179 -0.0809282 -0.081336 -0.048893 0.400545 -0.02728 -0.0953268 0.339363 0.377573 -0.188365 0.142418 0.0769884 0.114398 -0.220664 -0.373297 -0.48087 -0.192068 -0.196768 -0.151286 0.25082 0.130048
3991 0.297046 0.119603 0.626956 0.198542 -0.0453239 -0.062928 -0.0539082 0.444991 -0.0726686 -0.124014 0.374359 0.390298 -0.138096 0.185197 0.0534818 0.153569 -0.277254 -0.424143 -0.499614 -0.207602 -0.164666 -0.186867 0.308739 0.123213
4016 0.256356 0.176347 0.544434 0.230849 -0.013633 -0.0642221 -0.0238184 0.407213 -0.0729528 -0.0610937 0.285068 0.379543 -0.125819 0.178799 0.0381703 0.141252 -0.243613 -0.397379 -0.42283 -0.154483 -0.192167 -0.190863 0.296761 0.141611
4007 0.280016 0.128428 0.586295 0.159938 -0.0537771 -0.0838051 -0.0484071 0.41697 -0.0893391 -0.0973951 0.311387 0.399168 -0.124369 0.186913 0.0138568 0.129074 -0.237902 -0.407248 -0.449821 -0.191669 -0.168404 -0.1583 0.315694 0.159574
3986 0.328137 0.175555 0.709055 0.227293 -0.0275406 -0.093711 -0.0426568 0.521835 -0.0901915 -0.0853289 0.38714 0.496018 -0.179326 0.200607 0.0552251 0.156231 -0.322794 -0.484829 -0.580198 -0.253545 -0.220768 -0.229239 0.344408 0.178648
4033 0.323039 0.157726 0.671922 0.189753 -0.0335367 -0.0759984 -0.0555434 0.513301 -0.0803383 -0.134479 0.399388 0.4581 -0.156663 0.194088 0.038082 0.142955 -0.308633 -0.487387 -0.541348 -0.229932 -0.17837 -0.213151 0.332637 0.152813
4002 0.291463 0.131605 0.621236 0.190323 -0.0213485 -0.0680229 -0.0195637 0.442215 -0.0892889 -0.114026 0.349564 0.399673 -0.144188 0.183224 0.0258353 0.150143 -0.289114 -0.44199 -0.492681 -0.196817 -0.192077 -0.16774 0.30445 0.165016
1353 0.287655 0.176737 0.677982 0.172066 -0.0298569 -0.0918943 -0.0994574 0.466105 -0.108881 -0.0853813 0.400634 0.424435 -0.138366 0.17512 0.00434966 0.111032 -0.252079 -0.471267 -0.495713 -0.261044 -0.225928 -0.163964 0.336726 0.0935063
1240 0.332135 0.196708 0.774393 0.114249 -0.0452955 -0.0926187 -0.121985 0.513338 -0.0948869 -0.109123 0.449936 0.420336 -0.149027 0.255453 0.000881176 0.135547 -0.254169 -0.518479 -0.560746 -0.306787 -0.249066 -0.167367 0.341211 0.0780576
1693 0.273505 0.153219 0.694394 0.0617013 -0.0829862 -0.0701885 -0.165092 0.509018 -0.0805712 -0.139643 0.436812 0.358239 -0.138833 0.267495 -0.028869 0.148028 -0.243312 -0.445754 -0.474305 -0.270403 -0.214382 -0.156764 0.321151 0.0500646
1627 0.1814 0.146047 0.46973 0.150262 -0.00707023 -0.0885423 0.0103986 0.390121 -0.124254 -0.145354 0.309368 0.371216 -0.149073 0.13762 0.073464 0.0776392 -0.219768 -0.334511 -0.447457 -0.141552 -0.0964356 -0.151739 0.260852 0.110153
1890 0.173626 0.158946 0.43007 0.100744 0.0411699 -0.0583682 -0.00999238 0.378292 -0.11575 -0.167485 0.290935 0.316607 -0.161439 0.159971 0.0576164 0.0867879 -0.161759 -0.304976 -0.398817 -0.169382 -0.106751 -0.149447 0.26643 0.120438
1208 0.138341 0.201625 0.398584 0.133999 0.0723048 -0.0943318 0.0516718 0.397962 -0.099856 -0.146352 0.298874 0.346654 -0.190942 0.143267 0.0922457 0.0899297 -0.151779 -0.291038 -0.440238 -0.114649 -0.0842961 -0.137593 0.306686 0.163737
1105 0.189647 0.175812 0.440724 0.128309 0.0446561 -0.0921774 -0.00776714 0.413469 -0.10833 -0.164936 0.32506 0.34915 -0.138504 0.137121 0.0597787 0.0944326 -0.184321 -0.349061 -0.455865 -0.128624 -0.0954988 -0.156123 0.302838 0.13812
328 0.209013 0.084554 0.499574 0.130787 -0.0320738 -0.0705575 -0.0413922 0.347313 -0.0879246 -0.0828407 0.286248 0.338712 -0.122468 0.128814 -0.00254019 0.101636 -0.234403 -0.363831 -0.4222 -0.200269 -0.128572 -0.133894 0.233869 0.113419
155 0.231964 0.089616 0.594529 0.124275 -0.0397708 -0.104981 -0.0929765 0.38041 -0.0695598 -0.123645 0.332232 0.350221 -0.136517 0.17799 0.0196175 0.124103 -0.215739 -0.432192 -0.487382 -0.233764 -0.154877 -0.127245 0.269354 0.116564
157 0.199008 0.113795 0.52571 0.0891341 -0.0442249 -0.0783196 -0.0886616 0.298097 -0.0657835 -0.0836931 0.24949 0.312306 -0.121372 0.147689 -0.000105354 0.0731955 -0.18644 -0.36553 -0.422843 -0.198489 -0.123258 -0.107427 0.208398 0.108816
89 0.277996 0.0431926 0.636447 0.0472895 -0.0538168 -0.102762 -0.152418 0.404788 -0.113136 -0.126833 0.314655 0.293314 -0.0887472 0.203541 -0.0378121 0.155286 -0.213574 -0.437167 -0.410302 -0.272644 -0.0624226 -0.114172 0.209352 0.139643
192 0.235358 0.0840215 0.488985 0.15328 -0.0120298 -0.0685369 -0.0717398 0.366033 -0.0581086 -0.0500458 0.287673 0.313434 -0.117633 0.140123 -0.0136925 0.115397 -0.219694 -0.391379 -0.430174 -0.154989 -0.140365 -0.13542 0.21249 0.0870226
638 0.183124 0.0548429 0.368494 0.0892263 -0.0593563 -0.00488189 -0.107609 0.295604 -0.0694578 -0.0843606 0.216226 0.236417 -0.0676531 0.134183 0.00535574 0.0973624 -0.132349 -0.229122 -0.276963 -0.196964 -0.120615 -0.11143 0.152238 0.0618483
114 0.275299 0.101343 0.658571 0.105264 -0.0726541 -0.100836 -0.0860591 0.450706 -0.0906028 -0.145311 0.378406 0.38639 -0.112548 0.200954 0.0145854 0.103802 -0.277094 -0.44415 -0.484866 -0.260633 -0.147463 -0.143097 0.255708 0.111028
255 0.278496 0.0978054 0.568842 0.146902 -0.0357686 -0.0890605 -0.0577453 0.401366 -0.06675 -0.111399 0.357195 0.383597 -0.154752 0.15041 0.0215642 0.103142 -0.265047 -0.447742 -0.473487 -0.194717 -0.182557 -0.156459 0.284519 0.108043
241 0.243504 0.094491 0.54841 0.124086 -0.0387781 -0.043648 -0.0850143 0.363032 -0.064219 -0.089937 0.333619 0.322131 -0.0992393 0.16395 0.00241537 0.107834 -0.209064 -0.398081 -0.445605 -0.211862 -0.137568 -0.135627 0.242739 0.120543
3942 0.0903789 0.289731 0.064411 0.396793 0.0462233 -0.217061 0.302602 0.108909 -0.0208485 0.133408 0.0782687 0.335679 -0.185073 -0.108015 0.195283 -0.037195 -0.146759 -0.193464 -0.310088 0.0707908 -0.197489 -0.244337 0.239551 0.0355998
3709 0.253062 0.145465 0.614988 0.19509 -0.0443783 -0.096193 -0.0513367 0.456091 -0.0924521 -0.0920429 0.354529 0.429595 -0.172463 0.141583 0.0387129 0.11677 -0.281079 -0.448927 -0.49603 -0.212786 -0.195838 -0.211317 0.294821 0.148562
3853 0.237558 0.151526 0.601655 0.153403 -0.0798089 -0.0995799 -0.0697884 0.427559 -0.0552523 -0.0890037 0.364479 0.420044 -0.186747 0.14507 0.0360206 0.0731168 -0.256067 -0.413875 -0.488111 -0.207231 -0.164757 -0.181346 0.297414 0.124813
3682 0.327817 0.14398 0.695556 0.189388 -0.0695968 -0.126697 -0.0578861 0.506661 -0.0988653 -0.155424 0.389465 0.427221 -0.175041 0.164642 -0.00863223 0.125446 -0.304497 -0.496484 -0.547211 -0.258927 -0.165932 -0.212901 0.33867 0.127476
190 0.24785 0.128062 0.583749 0.12212 -0.0474995 -0.0800646 -0.0405938 0.366282 -0.073384 -0.113613 0.279506 0.336758 -0.12977 0.12181 0.036534 0.0710306 -0.229541 -0.41654 -0.464744 -0.193897 -0.177081 -0.146953 0.253914 0.10567
61 0.210593 0.0752482 0.606144 0.0694068 -0.0505736 -0.100407 -0.072802 0.333941 -0.0805508 -0.141301 0.279173 0.313639 -0.0943561 0.124511 -0.0154802 0.0839392 -0.21805 -0.406164 -0.449203 -0.200136 -0.172751 -0.149521 0.221693 0.126739
166 0.25893 0.144067 0.586843 0.173618 -0.0517022 -0.134003 -0.045594 0.406876 -0.0998736 -0.113138 0.348164 0.395272 -0.134266 0.130267 0.0152083 0.114159 -0.248066 -0.459863 -0.488832 -0.19436 -0.153198 -0.201701 0.284442 0.133321
476 0.188699 0.111813 0.419972 0.15546 -0.0212102 -0.0847167 -0.0721867 0.290216 -0.0665275 -0.0999874 0.239151 0.309209 -0.109874 0.0983023 0.00904236 0.055806 -0.197134 -0.347116 -0.329363 -0.108767 -0.124541 -0.138422 0.224205 0.107424
692 0.213409 0.114223 0.460816 0.128511 -0.0329142 -0.0675129 -0.0362827 0.314794 -0.0664214 -0.0745433 0.310547 0.324164 -0.109868 0.134015 0.048219 0.0868036 -0.179609 -0.325788 -0.386393 -0.198221 -0.115025 -0.139597 0.232504 0.120546
855 0.147421 0.0269412 0.341754 0.129182 -0.0815759 -0.0679359 -0.0207219 0.226972 -0.0248009 -0.0663209 0.329929 0.309881 -0.129814 0.122971 0.130046 -0.0239791 -0.147943 -0.246099 -0.307079 -0.175885 -0.0503147 -0.152515 0.175386 0.0127041
717 0.160798 0.0560319 0.346612 0.148057 -0.0597708 -0.0878906 0.00477586 0.206675 -0.0565579 -0.0441513 0.301587 0.283132 -0.116929 0.0925596 0.0727001 0.0171778 -0.160189 -0.267803 -0.298754 -0.166393 -0.0551669 -0.127279 0.144383 0.0330774
3003 0.311238 0.107818 0.649709 0.158522 -0.0574654 -0.119994 -0.107584 0.479051 -0.0914184 -0.117037 0.389531 0.426848 -0.136147 0.223572 0.0392564 0.111853 -0.283998 -0.469722 -0.49997 -0.284184 -0.193012 -0.167355 0.291969 0.101437
269 0.25493 0.0681516 0.575476 0.0877924 -0.083269 -0.0735777 -0.103186 0.435384 -0.0697401 -0.13164 0.29232 0.300901 -0.071894 0.168035 0.00575922 0.103218 -0.225703 -0.387825 -0.439943 -0.265354 -0.130751 -0.099689 0.214444 0.074666
81 0.276303 0.0928395 0.521322 0.0856552 -0.0916289 -0.0532134 -0.105283 0.415298 -0.0608103 -0.10986 0.275083 0.268569 -0.0751024 0.189331 -0.0253547 0.115699 -0.21769 -0.393565 -0.422621 -0.267161 -0.0988203 -0.104747 0.221697 0.0911796
3813 0.23985 0.103904 0.544556 0.124585 -0.0980455 -0.0440292 -0.0474452 0.387892 -0.116053 -0.146856 0.291611 0.320132 -0.111315 0.140492 -0.0111665 0.10757 -0.21122 -0.364453 -0.401347 -0.190946 -0.120197 -0.103459 0.26091 0.0937853
3808 0.206836 0.123587 0.50248 0.151117 -0.0540109 -0.0586037 -0.043737 0.37473 -0.104999 -0.0859155 0.289162 0.315047 -0.118829 0.134769 0.0328819 0.100194 -0.212829 -0.33215 -0.366252 -0.15777 -0.129686 -0.129404 0.262867 0.122928
3911 0.25761 0.111152 0.548502 0.0992254 -0.11783 -0.0745566 -0.0443123 0.429097 -0.104943 -0.152763 0.32975 0.320458 -0.101152 0.13714 0.0178224 0.0946252 -0.212907 -0.365161 -0.381209 -0.205681 -0.129699 -0.114181 0.273953 0.10947
3647 0.208222 0.133368 0.513313 0.109111 -0.0297486 -0.0599075 -0.0442321 0.38988 -0.0839708 -0.0866156 0.329276 0.323323 -0.15934 0.145527 0.0234993 0.092776 -0.232364 -0.376257 -0.421815 -0.185819 -0.130429 -0.134709 0.243764 0.112883
3632 0.196016 0.0783501 0.51475 0.097227 -0.0535629 -0.0398805 -0.0856168 0.373385 -0.107513 -0.0848442 0.304893 0.289642 -0.133929 0.13668 -0.00794946 0.0945397 -0.207891 -0.30643 -0.376074 -0.217017 -0.103862 -0.116359 0.236177 0.10498
3965 0.220032 0.110222 0.473043 0.0996158 -0.0666894 -0.0593384 -0.0401229 0.328701 -0.0744349 -0.0708416 0.269956 0.312612 -0.132342 0.142449 0.0317967 0.103145 -0.192841 -0.301305 -0.355207 -0.184175 -0.107008 -0.141071 0.201618 0.108017
3467 0.276806 0.160504 0.628762 0.192046 -0.0750725 -0.120827 -0.0481768 0.458468 -0.0727394 -0.0961671 0.350537 0.429566 -0.183586 0.189026 0.0650149 0.10325 -0.27936 -0.435072 -0.503198 -0.208005 -0.195385 -0.169101 0.290039 0.158029
3134 0.0648209 0.323086 0.10806 0.409639 0.0198729 -0.229952 0.350815 0.11814 -0.056785 0.173795 0.0876098 0.399316 -0.195255 -0.124426 0.225897 -0.0551735 -0.167911 -0.233226 -0.30936 0.101127 -0.240313 -0.254423 0.261737 0.0528763
785 0.286889 0.184403 0.656976 0.222343 -0.0617615 -0.151635 -0.0417748 0.460826 -0.0870857 -0.0952245 0.404003 0.460656 -0.210946 0.200133 0.0892945 0.097012 -0.297003 -0.469197 -0.580094 -0.262604 -0.186675 -0.242453 0.324685 0.137238
852 0.134289 0.0168185 0.370939 0.137314 -0.049022 -0.0681355 -0.00658051 0.193407 -0.0357991 -0.0425419 0.340173 0.291731 -0.124626 0.123725 0.107552 -0.0312556 -0.183737 -0.242145 -0.317527 -0.200286 -0.0745098 -0.123623 0.145971 -0.00220742
2704 0.273385 0.137382 0.626905 0.221569 -0.0328811 -0.120639 -0.0327144 0.457904 -0.0765919 -0.0911202 0.357743 0.429137 -0.171181 0.188174 0.0645406 0.124129 -0.299505 -0.452252 -0.519226 -0.249701 -0.180399 -0.209397 0.305623 0.11581
279 0.236214 0.0922568 0.555505 0.134302 -0.0612462 -0.0738646 -0.0524505 0.386586 -0.0881913 -0.122115 0.322312 0.338474 -0.106199 0.157755 0.0165689 0.0794738 -0.217442 -0.406477 -0.420604 -0.22249 -0.14007 -0.167253 0.210673 0.0951068
137 0.272031 0.0984949 0.62791 0.160163 -0.0219453 -0.0760864 -0.0468152 0.407867 -0.0755431 -0.130689 0.325295 0.331392 -0.102014 0.153457 -0.00485561 0.0652356 -0.267006 -0.475577 -0.480873 -0.229547 -0.164411 -0.186309 0.238658 0.113215
305 0.163702 0.0397215 0.375046 0.0538982 -0.042008 -0.0534726 -0.0861405 0.238127 -0.0714569 -0.0860541 0.213953 0.194033 -0.0627082 0.109553 -0.00176751 0.0693547 -0.132759 -0.228748 -0.271286 -0.151602 -0.0878862 -0.0933747 0.154668 0.0763665
267 0.262497 0.13389 0.567632 0.136987 -0.0399187 -0.0917287 -0.061462 0.354288 -0.0883077 -0.0722504 0.319735 0.35038 -0.134012 0.137889 0.0374895 0.0928221 -0.224247 -0.407258 -0.455523 -0.214334 -0.130108 -0.130322 0.246927 0.124402
23 0.260835 0.0727676 0.70237 0.0631721 -0.051449 -0.0628944 -0.135024 0.334977 -0.108187 -0.157018 0.300291 0.369587 -0.0837697 0.162345 -0.0388349 0.119393 -0.242997 -0.464727 -0.517971 -0.224568 -0.167448 -0.108496 0.260597 0.135926
230 0.275699 0.0932349 0.674087 0.127864 -0.032273 -0.0938999 -0.0962381 0.446372 -0.116543 -0.118245 0.331469 0.379471 -0.135488 0.193678 0.0175498 0.111341 -0.259169 -0.448923 -0.51197 -0.241568 -0.157436 -0.150545 0.294936 0.119926
70 0.247337 0.0971379 0.561061 0.114384 -0.0376973 -0.091569 -0.0598247 0.370324 -0.098904 -0.0920176 0.305032 0.355092 -0.113197 0.12937 0.000158147 0.105419 -0.227128 -0.38745 -0.451052 -0.196596 -0.145564 -0.141874 0.249171 0.104033
3180 0.287332 0.209565 0.553834 0.262884 -0.0376625 -0.133325 0.0420525 0.349429 -0.115904 -0.0790626 0.281621 0.414 -0.0911991 0.121 0.024677 0.122684 -0.239603 -0.458955 -0.423014 -0.216935 -0.221238 -0.233175 0.296973 0.142176
2732 0.254791 0.188816 0.528157 0.208041 -0.0203882 -0.132336 0.0417159 0.366359 -0.126237 -0.0798723 0.286495 0.385727 -0.0902116 0.138221 0.0411033 0.112157 -0.242063 -0.41816 -0.408077 -0.177226 -0.206781 -0.224626 0.288653 0.14976
91 0.186409 0.0102772 0.572554 0.0473362 -0.067368 -0.0959319 -0.12661 0.342871 -0.0468069 -0.142698 0.278034 0.278585 -0.0413567 0.13703 -0.00621751 0.0743592 -0.22138 -0.38795 -0.461278 -0.217791 -0.134531 -0.100717 0.171999 0.0825521
229 0.194527 0.128164 0.495593 0.152302 -0.0406056 -0.0702783 -0.0390826 0.316906 -0.0888179 -0.0921252 0.27141 0.322065 -0.102093 0.128502 0.0407778 0.090883 -0.207052 -0.373938 -0.412079 -0.178258 -0.144881 -0.153865 0.237524 0.107489
552 0.291685 0.0469023 0.630346 0.070573 -0.0734858 -0.107302 -0.116484 0.300247 -0.0863375 -0.173864 0.35342 0.275816 0.00164958 0.186213 -0.0789053 0.118905 -0.121535 -0.303196 -0.321437 -0.223285 -0.129579 -0.059662 0.219155 0.0686622
572 0.278951 0.0814273 0.621357 0.112377 -0.0903631 -0.129391 -0.0741022 0.400758 -0.0994614 -0.100652 0.366198 0.377479 -0.0884304 0.211394 -0.00657922 0.103993 -0.209461 -0.416813 -0.41259 -0.219659 -0.137815 -0.180174 0.28337 0.115075
384 0.30889 0.0763143 0.654739 0.0920897 -0.0438611 -0.128662 -0.0737319 0.33487 -0.0839826 -0.176997 0.381517 0.340448 -0.0201434 0.218077 -0.0232573 0.10854 -0.15197 -0.374419 -0.360957 -0.251463 -0.137558 -0.115565 0.279762 0.0831329
244 0.254201 0.0820974 0.518747 0.143925 -0.064864 -0.0418323 -0.0988456 0.364822 -0.0448905 -0.0944736 0.264679 0.299527 -0.125673 0.14702 -0.016471 0.0833679 -0.222391 -0.365642 -0.412306 -0.195835 -0.120336 -0.155564 0.211008 0.0841471
210 0.286024 0.209056 0.684432 0.240509 -0.0678981 -0.124366 -0.0139354 0.470874 -0.110573 -0.100662 0.400529 0.46569 -0.170511 0.163695 0.0517886 0.105266 -0.306192 -0.492784 -0.564585 -0.237011 -0.210925 -0.2439 0.371615 0.143973
287 0.230113 0.107746 0.559567 0.155947 -0.0378847 -0.10581 -0.0477592 0.408233 -0.0968233 -0.111491 0.315022 0.373557 -0.130721 0.172255 0.00718458 0.101704 -0.236044 -0.409543 -0.425221 -0.22671 -0.156784 -0.132313 0.265833 0.123475
206 0.29755 0.122803 0.657433 0.158913 -0.0685915 -0.108855 -0.0586928 0.446444 -0.0964846 -0.0969347 0.402046 0.428592 -0.162497 0.190878 0.0235927 0.146041 -0.280448 -0.483902 -0.508123 -0.228561 -0.20313 -0.195759 0.316531 0.147805
160 0.221485 0.0889854 0.55568 0.145641 -0.0603256 -0.0828307 -0.0539859 0.389223 -0.0911857 -0.102902 0.311268 0.352816 -0.12273 0.150452 0.00721727 0.091572 -0.206234 -0.372511 -0.435188 -0.215276 -0.159149 -0.159304 0.245399 0.105103
3953 0.24084 0.115848 0.607214 0.182955 -0.0786125 -0.0835665 -0.0477782 0.404949 -0.0662008 -0.127689 0.349881 0.372873 -0.130427 0.153903 0.0313427 0.117301 -0.245133 -0.391651 -0.470231 -0.228295 -0.162349 -0.182147 0.279674 0.132829
4034 0.272125 0.160453 0.539103 0.197469 -0.00461076 -0.0630434 -0.0345598 0.397691 -0.073078 -0.0728348 0.315336 0.390383 -0.135035 0.178835 0.0282634 0.130907 -0.235428 -0.39842 -0.428802 -0.195924 -0.153503 -0.185858 0.290231 0.109519
4031 0.296292 0.146199 0.686357 0.202926 -0.0320943 -0.0883854 -0.0115396 0.491436 -0.0797776 -0.110595 0.380282 0.444862 -0.179463 0.211122 0.0715104 0.145931 -0.303007 -0.468159 -0.534651 -0.204093 -0.194161 -0.19492 0.336323 0.13817
4020 0.314532 0.146601 0.64083 0.162199 -0.044244 -0.0530504 -0.0651395 0.488174 -0.0950898 -0.102354 0.359436 0.395743 -0.159557 0.216127 0.00857466 0.126885 -0.291625 -0.458012 -0.50154 -0.234197 -0.161331 -0.194069 0.327012 0.166319
4038 0.273476 0.121282 0.575234 0.178616 -0.0307455 -0.0650239 -0.0238381 0.449946 -0.0702556 -0.0951104 0.309182 0.401274 -0.143754 0.202279 0.0219243 0.151206 -0.267593 -0.425035 -0.441485 -0.195793 -0.165757 -0.17805 0.332757 0.134889
3879 0.214191 0.106769 0.511275 0.146507 -0.0649194 -0.0559044 -0.0551429 0.37237 -0.106651 -0.0838074 0.313511 0.334456 -0.158162 0.147681 0.0558413 0.0922599 -0.208178 -0.319826 -0.417317 -0.197959 -0.152119 -0.151661 0.223517 0.107781
316 0.24303 0.132773 0.580698 0.132281 -0.0471854 -0.0882829 -0.0676226 0.419625 -0.078521 -0.0998558 0.312799 0.379482 -0.132427 0.162106 0.0315562 0.121051 -0.235855 -0.399349 -0.472656 -0.194528 -0.178751 -0.171887 0.253168 0.111959
37 0.246852 0.157888 0.511001 0.19041 -0.0484339 -0.0847032 -0.0199396 0.371693 -0.0804629 -0.0556816 0.286641 0.349076 -0.132822 0.140348 0.0346626 0.0884659 -0.244251 -0.384594 -0.425572 -0.186792 -0.168673 -0.190383 0.266773 0.119595
293 0.264282 0.0885496 0.608923 0.147224 -0.0802352 -0.0980929 -0.0634416 0.407534 -0.098742 -0.117264 0.344081 0.387115 -0.0880105 0.148989 0.0505429 0.11548 -0.255223 -0.412293 -0.476069 -0.224014 -0.180013 -0.187963 0.238979 0.130607
3897 0.292763 0.17664 0.630571 0.206252 -0.0698013 -0.110823 0.00461973 0.489485 -0.0884488 -0.135325 0.367602 0.482824 -0.155973 0.188814 0.0513958 0.0938063 -0.240959 -0.468893 -0.540996 -0.210449 -0.17605 -0.200773 0.339957 0.137362
3582 0.398137 0.218082 0.841123 0.27792 -0.103684 -0.158999 -0.0672839 0.608655 -0.139619 -0.182043 0.468304 0.574541 -0.227857 0.249558 0.0606968 0.165686 -0.326298 -0.609381 -0.669138 -0.283885 -0.217448 -0.270078 0.433337 0.182531
3955 0.268368 0.112492 0.62734 0.11571 -0.055454 -0.100323 -0.0771949 0.430092 -0.0905779 -0.150582 0.348077 0.356125 -0.119844 0.183456 0.0266422 0.116432 -0.223022 -0.435229 -0.469394 -0.249755 -0.128932 -0.158898 0.260888 0.128973
3787 0.186602 0.0821748 0.48873 0.105145 -0.0715464 -0.0607112 -0.0629333 0.330954 -0.103281 -0.0764511 0.29615 0.311668 -0.172628 0.135818 0.0469598 0.0883446 -0.177743 -0.276376 -0.334018 -0.20125 -0.111156 -0.120103 0.202839 0.105376
3444 0.28208 0.126342 0.581573 0.134261 -0.0877866 -0.0656775 -0.0682759 0.307039 -0.0342895 -0.057605 0.329687 0.361821 -0.11739 0.192332 0.0800094 0.128212 -0.23173 -0.395413 -0.444019 -0.215217 -0.178378 -0.132183 0.25323 0.0724816
3691 0.217112 0.0879474 0.447544 0.0830065 -0.0623191 -0.0785236 -0.051413 0.282627 -0.0616996 -0.0698778 0.275145 0.283133 -0.118295 0.141276 0.0151888 0.0746193 -0.163989 -0.312154 -0.336048 -0.153867 -0.122364 -0.0997884 0.211033 0.102813
71 0.240881 0.132026 0.588875 0.134492 -0.0411394 -0.112868 -0.0702937 0.426734 -0.10793 -0.110527 0.325677 0.374686 -0.14335 0.15634 0.0206759 0.111029 -0.248524 -0.447031 -0.507994 -0.228887 -0.151278 -0.178657 0.269115 0.138078
47 0.321884 0.141502 0.713598 0.196613 -0.0712777 -0.125058 -0.0630286 0.535698 -0.12394 -0.10942 0.433305 0.472839 -0.169266 0.166243 0.0591819 0.145466 -0.308401 -0.503998 -0.583688 -0.282518 -0.189602 -0.198362 0.338389 0.169103
301 0.272899 0.0921751 0.599014 0.120798 -0.0513762 -0.106427 -0.053731 0.451356 -0.0693231 -0.126983 0.377981 0.365132 -0.108702 0.171395 0.00879632 0.121485 -0.243232 -0.425056 -0.466532 -0.259222 -0.142307 -0.169074 0.271874 0.154482
3992 0.244644 0.116839 0.543461 0.186387 -0.0431672 -0.0887031 -0.036253 0.418852 -0.0784818 -0.0708286 0.332084 0.371723 -0.12099 0.159919 0.0360533 0.133933 -0.252731 -0.413633 -0.423901 -0.192143 -0.149025 -0.152105 0.302058 0.12072
4008 0.288298 0.15821 0.619247 0.229284 0.00773552 -0.0625068 -0.00140322 0.453861 -0.0659529 -0.0857701 0.323269 0.448584 -0.187011 0.188938 0.0544245 0.130019 -0.30083 -0.413909 -0.497862 -0.210935 -0.189821 -0.189009 0.352827 0.125126
532 0.289282 -0.000884192 0.722629 0.0596338 -0.19395 -0.179212 -0.218587 0.413288 -0.127589 -0.147083 0.417805 0.380063 -0.0813734 0.322852 -0.0734201 0.129218 -0.148444 -0.476075 -0.43502 -0.32519 -0.152139 -0.1752 0.288607 0.178269
379 0.263515 0.108028 0.646821 0.145796 -0.0938774 -0.103593 -0.0954999 0.425907 -0.104891 -0.138365 0.375446 0.373335 -0.134072 0.217167 -0.0152796 0.138587 -0.228296 -0.452923 -0.469895 -0.262191 -0.140275 -0.170801 0.272015 0.154454
467 0.265716 0.0613966 0.655746 0.129919 -0.111336 -0.108191 -0.140194 0.450476 -0.122511 -0.120427 0.367345 0.373599 -0.100035 0.227344 -0.0242816 0.112126 -0.240148 -0.458129 -0.441743 -0.279629 -0.147974 -0.17239 0.290671 0.145343
383 0.33507 0.195741 0.779129 0.256135 -0.082114 -0.122191 -0.0437853 0.5385 -0.127141 -0.141264 0.465006 0.508339 -0.190494 0.218497 0.0228016 0.160108 -0.340663 -0.541359 -0.608129 -0.286356 -0.203907 -0.228606 0.364679 0.167039
453 0.308523 0.125182 0.643644 0.168281 -0.0782563 -0.117893 -0.0706291 0.480783 -0.0903876 -0.111816 0.367208 0.411844 -0.162931 0.233722 -0.0039507 0.16575 -0.247025 -0.45071 -0.511848 -0.258948 -0.157702 -0.18091 0.311186 0.159796
468 0.298356 0.151082 0.670025 0.151253 -0.0673712 -0.107353 -0.0920526 0.501413 -0.107701 -0.131322 0.402589 0.432788 -0.16043 0.204063 0.0129218 0.174628 -0.254695 -0.480949 -0.524792 -0.259379 -0.187652 -0.192927 0.311134 0.166184
443 0.278086 0.138878 0.609207 0.191214 -0.0414532 -0.114013 -0.0690191 0.460405 -0.0860342 -0.103209 0.371787 0.390276 -0.140547 0.206951 0.0316271 0.156013 -0.269795 -0.44442 -0.464751 -0.221346 -0.165991 -0.17621 0.270729 0.12517
802 0.238153 0.132595 0.592833 0.169036 -0.0544107 -0.110663 -0.0725128 0.380183 -0.0618605 -0.119356 0.319539 0.358539 -0.159904 0.165565 0.0215828 0.0917519 -0.252658 -0.419537 -0.451124 -0.215533 -0.133625 -0.166474 0.288149 0.132426
841 0.284688 0.208107 0.680274 0.280073 -0.0773813 -0.130188 -0.0210409 0.487728 -0.103053 -0.0809404 0.37973 0.469124 -0.231214 0.141339 0.105358 0.107054 -0.305593 -0.512716 -0.596196 -0.201495 -0.20062 -0.268103 0.351742 0.157298
801 0.182398 0.0749085 0.469205 0.145735 -0.0510087 -0.0697832 -0.0401819 0.34012 -0.0696926 -0.0627852 0.317105 0.344812 -0.129608 0.120112 0.0718964 0.0582463 -0.202512 -0.342983 -0.374332 -0.200188 -0.106739 -0.178643 0.213168 0.089971
866 0.143228 0.0966477 0.346856 0.11836 -0.0474033 -0.0685964 -0.0689982 0.333968 0.0266264 -0.0536605 0.229108 0.253834 -0.160901 0.0780856 0.058193 0.0604923 -0.160881 -0.257678 -0.359931 -0.128566 -0.135492 -0.134002 0.173614 0.0927522
447 0.234531 0.14274 0.543546 0.170878 -0.0371338 -0.114119 -0.0504117 0.371018 -0.100793 -0.0920793 0.309734 0.389197 -0.13067 0.157381 0.0108002 0.10396 -0.219002 -0.38986 -0.430595 -0.16056 -0.159919 -0.193541 0.27036 0.130111
448 0.266271 0.106113 0.63164 0.144341 -0.0916556 -0.0837699 -0.0931065 0.434785 -0.0880544 -0.114804 0.339296 0.397666 -0.138255 0.174224 0.00342657 0.121974 -0.25883 -0.446057 -0.495018 -0.250469 -0.172176 -0.161018 0.268718 0.119671
42 0.271805 0.0996149 0.6092 0.0961637 -0.0675284 -0.0294698 -0.150369 0.425086 -0.0716493 -0.108617 0.315673 0.296333 -0.108668 0.153059 0.0034823 0.155276 -0.259657 -0.434892 -0.461499 -0.277666 -0.151278 -0.114839 0.238736 0.135843
33 0.291567 0.101971 0.550516 0.125653 -0.0884588 -0.0497134 -0.130494 0.424735 -0.101213 -0.0845851 0.350909 0.276359 -0.0942628 0.166419 0.0181936 0.119728 -0.26731 -0.403714 -0.482245 -0.261746 -0.120489 -0.127035 0.270412 0.132294
859 0.22579 0.10409 0.523257 0.175457 -0.0759916 -0.106139 -0.0707243 0.420703 -0.0754878 -0.0899695 0.309357 0.382378 -0.1394 0.151535 0.0355269 0.0767428 -0.224097 -0.3713 -0.464086 -0.214783 -0.173254 -0.174786 0.271682 0.140007
883 0.214194 0.0921416 0.444788 0.131738 -0.0599804 -0.0853717 -0.0752022 0.360325 -0.0545291 -0.0585674 0.259122 0.305777 -0.140609 0.107058 0.0340859 0.0903324 -0.219675 -0.322183 -0.397779 -0.182698 -0.127248 -0.152329 0.202105 0.106978
894 0.145825 0.128264 0.34069 0.176806 -0.0366337 -0.100251 -0.0417544 0.355473 -0.000912121 -0.0313819 0.268767 0.330215 -0.176875 0.0963148 0.0926506 0.0483527 -0.218267 -0.320988 -0.375097 -0.110933 -0.179801 -0.152712 0.237974 0.12498
3733 0.269462 0.0972354 0.515037 0.14072 -0.0787328 -0.0606181 -0.0372437 0.273002 -0.0103093 -0.0539419 0.318454 0.31844 -0.0919143 0.183214 0.0525151 0.105414 -0.208152 -0.368655 -0.430569 -0.181873 -0.138949 -0.123646 0.246686 0.109449
1027 0.163493 0.164951 0.429563 0.138279 0.0278644 -0.0692365 0.0306607 0.37616 -0.117167 -0.13641 0.281625 0.343832 -0.14886 0.121047 0.088732 0.0704346 -0.182631 -0.31397 -0.41458 -0.131321 -0.0955671 -0.137118 0.28483 0.143022
2857 0.210979 0.0843374 0.490222 0.111113 -0.0702811 -0.0725887 -0.0172247 0.346638 -0.0733603 -0.0834203 0.256201 0.312935 -0.114492 0.159121 0.0147648 0.0748588 -0.18642 -0.34196 -0.376541 -0.193016 -0.125368 -0.13979 0.245572 0.0957389
3147 0.237173 0.0523242 0.473592 0.0585931 -0.0733628 -0.0479402 -0.0329915 0.297279 -0.0611925 -0.0953493 0.237062 0.244342 -0.139879 0.147715 -0.0272448 0.0870749 -0.186659 -0.297735 -0.285361 -0.214162 -0.157817 -0.0977158 0.197782 0.0694133
3074 0.243674 0.0481182 0.438427 0.0602109 -0.0903083 -0.0565511 -0.00866066 0.289149 -0.0511319 -0.125641 0.228648 0.245951 -0.11431 0.175664 -0.0208607 0.100771 -0.201227 -0.301683 -0.318057 -0.205365 -0.145019 -0.122986 0.21133 0.076357
220 0.29386 0.141533 0.645783 0.163622 -0.0643446 -0.126808 -0.0473961 0.421547 -0.100424 -0.115292 0.348644 0.405409 -0.131895 0.148507 0.0115865 0.0917732 -0.256547 -0.470947 -0.514892 -0.228475 -0.161249 -0.198703 0.280354 0.124059
93 0.211656 0.128321 0.539302 0.162293 -0.0485332 -0.106616 -0.0470716 0.371854 -0.0496197 -0.0797412 0.308181 0.339993 -0.0960909 0.130413 0.00278863 0.069305 -0.226241 -0.399044 -0.428435 -0.189206 -0.164779 -0.169148 0.21894 0.0936961
32 0.201878 0.0869591 0.482179 0.174462 -0.0121752 -0.0749863 -0.0156446 0.328802 -0.0675241 -0.0885612 0.248875 0.297058 -0.10545 0.10496 0.0196318 0.0404679 -0.210976 -0.387788 -0.380627 -0.168299 -0.147469 -0.183315 0.205047 0.109197
3676 0.188189 0.0835018 0.453751 0.124724 -0.0554654 -0.0714719 -0.0369195 0.315515 -0.0745226 -0.0586167 0.264372 0.275579 -0.0909088 0.107142 0.0268553 0.105588 -0.176804 -0.321541 -0.353237 -0.158581 -0.12647 -0.107539 0.20174 0.0777592
3849 0.245287 0.0766132 0.527051 0.108485 -0.0961816 -0.0386465 -0.0351978 0.309992 -0.0411352 -0.0718697 0.303108 0.298037 -0.126526 0.175822 0.0682559 0.0901817 -0.20717 -0.345954 -0.402915 -0.192148 -0.12024 -0.117167 0.233385 0.0893673
3954 0.265145 0.104947 0.511706 0.0873181 -0.108534 -0.0221698 -0.0203338 0.306244 -0.0176906 -0.0490455 0.3284 0.320046 -0.0971542 0.201648 0.0632796 0.131613 -0.219501 -0.358112 -0.426256 -0.196163 -0.125 -0.112433 0.238936 0.0909651
1065 0.0877503 0.299541 0.0805909 0.411039 0.0357684 -0.227289 0.305396 0.153427 -0.0438014 0.14616 0.0928223 0.382337 -0.185457 -0.112542 0.221571 -0.0544214 -0.156169 -0.20246 -0.324942 0.101354 -0.235395 -0.259799 0.25312 0.0320935
4029 0.262948 0.127446 0.582505 0.172775 -0.0415798 -0.0754831 -0.0379149 0.435459 -0.102661 -0.099075 0.338999 0.371519 -0.152045 0.191913 0.0171449 0.143188 -0.234251 -0.39667 -0.435085 -0.204477 -0.174667 -0.190172 0.295945 0.129415
4024 0.298408 0.123617 0.597866 0.204345 -0.0265501 -0.0451283 -0.0392197 0.435258 -0.0796448 -0.100343 0.319671 0.421571 -0.147352 0.205094 0.0588969 0.125609 -0.265343 -0.431702 -0.469168 -0.223042 -0.167285 -0.187084 0.328206 0.140195
4022 0.276578 0.157546 0.616528 0.237175 -0.0202642 -0.0685919 -0.000283447 0.454988 -0.0750307 -0.0985289 0.338702 0.449272 -0.167627 0.176108 0.0787489 0.142957 -0.264673 -0.410806 -0.482464 -0.212793 -0.199677 -0.182918 0.327848 0.151006
289 0.251291 0.109384 0.605782 0.132459 -0.0387234 -0.0947008 -0.0785687 0.41696 -0.0652261 -0.124077 0.339371 0.341695 -0.0989035 0.192628 0.00466027 0.119712 -0.255259 -0.456061 -0.463509 -0.238978 -0.117621 -0.141353 0.218123 0.0983251
49 0.221988 0.139238 0.492435 0.196012 -0.0145081 -0.0755441 0.00839233 0.327105 -0.0728878 -0.0566167 0.288269 0.342174 -0.117202 0.104538 0.020478 0.0559609 -0.22173 -0.411557 -0.445157 -0.1442 -0.13851 -0.14889 0.264065 0.122817
3700 0.22402 0.088983 0.498437 0.0835586 -0.122662 -0.0420285 -0.0715651 0.394946 -0.115665 -0.156085 0.285241 0.243833 -0.0537028 0.158862 -0.0240726 0.0996443 -0.171351 -0.317716 -0.308697 -0.15005 -0.0867709 -0.08453 0.21153 0.114873
3717 0.345776 0.203378 0.775579 0.272698 -0.0836053 -0.100369 -0.040837 0.602983 -0.159324 -0.161908 0.424311 0.525444 -0.157294 0.201955 0.0678916 0.139255 -0.366391 -0.540725 -0.595075 -0.240192 -0.208838 -0.233504 0.393805 0.143453
3974 0.29605 0.170337 0.58164 0.205874 -0.0617397 -0.136161 -0.0536126 0.414268 -0.0859394 -0.101885 0.318763 0.434748 -0.139673 0.17746 0.0278274 0.0989989 -0.240985 -0.426771 -0.509948 -0.222249 -0.167605 -0.189968 0.288248 0.129122
3811 0.229015 0.155313 0.498133 0.140488 -0.039462 -0.101155 -0.0250521 0.352576 -0.0888428 -0.0868995 0.278849 0.341231 -0.181163 0.0763345 0.00181428 0.0397711 -0.225836 -0.328284 -0.418825 -0.178898 -0.143329 -0.201059 0.230749 0.123401
2079 0.257364 0.136042 0.548891 0.15601 -0.0489911 -0.0794558 -0.0348281 0.363306 -0.0955826 -0.0694492 0.284547 0.334784 -0.118936 0.173595 0.0198639 0.10008 -0.220534 -0.349243 -0.445863 -0.172049 -0.134192 -0.135857 0.237573 0.122338
2178 0.375482 0.13215 0.77054 0.18446 -0.0821105 -0.0869812 -0.0815365 0.49098 -0.0847423 -0.12183 0.394023 0.425425 -0.2084 0.213941 0.0263169 0.204581 -0.305041 -0.471954 -0.617163 -0.255148 -0.195077 -0.191075 0.289953 0.170025
3742 0.261324 0.0704046 0.611052 0.095189 -0.0876039 -0.0404812 -0.068566 0.32224 -0.0205273 -0.0793935 0.348229 0.356996 -0.12431 0.179264 0.0585714 0.138245 -0.237314 -0.40613 -0.453251 -0.233159 -0.15149 -0.103192 0.262224 0.10067
868 0.215044 0.109054 0.456676 0.12296 -0.056687 -0.0578334 -0.0663944 0.339445 -0.0270325 -0.0689808 0.266893 0.318101 -0.152649 0.135724 0.0593068 0.065248 -0.219718 -0.310647 -0.376003 -0.178791 -0.145208 -0.127515 0.201165 0.0924644
865 0.226069 0.0899853 0.478739 0.144657 -0.0390571 -0.0645632 -0.0875301 0.390218 -0.0249577 -0.0652384 0.308101 0.325563 -0.160814 0.119136 0.0217863 0.0829601 -0.208204 -0.359837 -0.427279 -0.17624 -0.16908 -0.140162 0.217446 0.135068
1119 0.290969 0.150083 0.642652 0.171822 -0.017755 -0.0621853 -0.0353603 0.48414 -0.102299 -0.153033 0.337363 0.408668 -0.144322 0.17812 0.00419745 0.118715 -0.244919 -0.448317 -0.510569 -0.272666 -0.181659 -0.198109 0.300582 0.137969
1834 0.260299 0.151663 0.56694 0.175487 -0.0339552 -0.0753312 -0.0398873 0.404174 -0.0879839 -0.089902 0.346437 0.390302 -0.133688 0.162578 0.0245033 0.09305 -0.246518 -0.418279 -0.490376 -0.230749 -0.1599 -0.190213 0.261115 0.140321
124 0.243387 0.060259 0.609351 0.0639746 -0.080561 -0.0438791 -0.136361 0.360138 -0.0710729 -0.12924 0.298654 0.345483 -0.0941941 0.183875 -0.032669 0.0990531 -0.201992 -0.385222 -0.447077 -0.25193 -0.114747 -0.128303 0.220137 0.129231
321 0.31463 0.111365 0.685536 0.146373 -0.0695448 -0.07338 -0.0763618 0.479763 -0.0847869 -0.134999 0.391787 0.411868 -0.164571 0.19567 0.00345129 0.1223 -0.263269 -0.452964 -0.510012 -0.244079 -0.174684 -0.196893 0.302021 0.141348
76 0.193905 0.0968562 0.516014 0.119361 -0.0359984 -0.0619914 -0.0293036 0.314497 -0.0915685 -0.0722044 0.26793 0.325136 -0.101741 0.108872 0.0366105 0.101516 -0.196647 -0.364851 -0.374945 -0.163342 -0.133118 -0.114692 0.237747 0.112506
3597 0.244581 0.12092 0.592287 0.130705 -0.0494005 -0.119702 -0.0314646 0.394383 -0.0769826 -0.132201 0.314399 0.343226 -0.121279 0.152823 0.0425913 0.0973729 -0.206872 -0.387156 -0.461238 -0.21381 -0.139998 -0.143797 0.261026 0.119656
3732 0.342247 0.209662 0.732921 0.208424 -0.0806997 -0.171692 -0.0196494 0.548488 -0.134069 -0.130544 0.423793 0.466959 -0.207511 0.194209 0.089406 0.134977 -0.276792 -0.532874 -0.628319 -0.240891 -0.184621 -0.212246 0.373443 0.143641
3729 0.267652 0.153277 0.529888 0.154151 -0.0587094 -0.129159 -0.0225185 0.384965 -0.0746701 -0.0703117 0.277678 0.377006 -0.165381 0.107139 0.0367164 0.0919159 -0.21815 -0.394697 -0.435386 -0.20684 -0.135885 -0.168716 0.281805 0.126616
386 0.257915 0.0494956 0.564638 0.0996846 -0.100047 -0.122994 -0.0997678 0.311294 -0.0845075 -0.0988114 0.333656 0.316633 -0.0789217 0.206489 -0.0212943 0.0927129 -0.179982 -0.37317 -0.379105 -0.212735 -0.164248 -0.161143 0.243537 0.119905
406 0.309525 0.0689623 0.708746 0.120275 -0.133116 -0.161397 -0.141981 0.46054 -0.124533 -0.175026 0.395628 0.403916 -0.101854 0.281987 -0.0426474 0.146776 -0.21206 -0.472328 -0.512396 -0.289892 -0.185663 -0.159408 0.329103 0.156544
3996 0.305473 0.135104 0.644003 0.158255 -0.0516056 -0.0917063 -0.0438992 0.441964 -0.0829758 -0.120111 0.349415 0.408499 -0.145796 0.201453 0.0472058 0.153644 -0.264927 -0.459517 -0.469222 -0.230975 -0.194428 -0.170362 0.301954 0.150855
4015 0.265276 0.134352 0.580612 0.183356 -0.0269561 -0.0601413 -0.0293131 0.429965 -0.0837046 -0.0799481 0.332381 0.373001 -0.162402 0.187507 0.0573081 0.127982 -0.237627 -0.425144 -0.48069 -0.218494 -0.190505 -0.182223 0.31221 0.124915
4017 0.303683 0.120826 0.692913 0.177477 -0.0245879 -0.0540167 -0.0532351 0.487291 -0.0828748 -0.139105 0.391352 0.420556 -0.174026 0.189593 0.0370069 0.131754 -0.29331 -0.461792 -0.532255 -0.224772 -0.197361 -0.209833 0.326696 0.151994
2375 0.0834498 0.337292 0.0728493 0.42139 0.0155934 -0.204589 0.310497 0.135577 -0.0206264 0.153459 0.0969273 0.36577 -0.206393 -0.100233 0.21681 -0.0341037 -0.152861 -0.226984 -0.302017 0.109956 -0.238045 -0.258505 0.280795 0.052087
2595 0.271948 0.053115 0.591907 0.145193 -0.0654775 -0.0905776 -0.0799946 0.435467 -0.0909413 -0.236435 0.343941 0.355333 -0.060724 0.162766 -0.0275554 0.160086 -0.192772 -0.314026 -0.438642 -0.122333 -0.135377 -0.127589 0.302906 0.131687
2483 0.240324 0.0109113 0.593412 0.148964 -0.0751005 -0.0705223 -0.0675017 0.416875 -0.0731187 -0.249767 0.347608 0.351819 -0.0441039 0.188016 -0.00834405 0.168265 -0.207638 -0.319802 -0.423172 -0.147572 -0.145184 -0.137514 0.259685 0.15687
910 0.138888 0.0637326 0.468259 0.0799176 -6.1626e-05 -0.0135356 -0.0189607 0.331846 -0.0554482 -0.0731409 0.278629 0.277011 -0.039917 0.052464 -0.0177311 0.105272 -0.244519 -0.327395 -0.353197 -0.17237 -0.25208 -0.126584 0.19056 0.0966223
1776 0.132173 0.0699209 0.458554 0.131231 -0.0231041 -0.0270329 -0.0214935 0.343995 -0.0360962 -0.0964901 0.247068 0.317292 -0.0619229 0.0293971 -0.00067421 0.107088 -0.226646 -0.315888 -0.371701 -0.181479 -0.259656 -0.158745 0.198119 0.103316
2195 0.075441 0.316503 0.0836304 0.384031 0.0215561 -0.190433 0.319115 0.115108 -0.0514098 0.163243 0.0794954 0.385398 -0.199852 -0.112029 0.220713 -0.0295862 -0.16573 -0.198785 -0.301786 0.100056 -0.213186 -0.265655 0.263545 0.0497393
3922 0.268738 0.126509 0.590834 0.176101 -0.0598669 -0.125047 -0.0509258 0.429539 -0.0567258 -0.115213 0.346284 0.42719 -0.17167 0.155397 -0.0054549 0.072527 -0.279124 -0.429902 -0.488779 -0.23689 -0.19176 -0.168482 0.295773 0.138685
3885 0.304769 0.145787 0.659809 0.172191 -0.081808 -0.118339 -0.037444 0.4885 -0.0693367 -0.108135 0.380692 0.427464 -0.150228 0.191478 0.00970518 0.121661 -0.280958 -0.459053 -0.546788 -0.245109 -0.197084 -0.189562 0.323066 0.12794
498 0.271926 0.0691098 0.645918 0.106336 -0.119204 -0.138726 -0.0975383 0.436239 -0.117111 -0.127032 0.391847 0.36823 -0.138577 0.26155 -0.0324014 0.126061 -0.217422 -0.486124 -0.478758 -0.269332 -0.152063 -0.165435 0.272787 0.155936
411 0.299151 0.101764 0.65954 0.141737 -0.075168 -0.103453 -0.126669 0.468161 -0.0864296 -0.122139 0.419838 0.398979 -0.137458 0.251786 -0.00622737 0.159283 -0.243193 -0.465564 -0.485249 -0.288023 -0.158045 -0.179481 0.283384 0.14292
201 0.21061 0.0680658 0.555697 0.0886058 -0.0256221 -0.0875914 -0.104432 0.335801 -0.0875051 -0.109022 0.265045 0.300884 -0.099031 0.124399 0.0140774 0.0621701 -0.201233 -0.383159 -0.43434 -0.215876 -0.117472 -0.132688 0.213567 0.0951735
892 0.246791 0.0988173 0.541516 0.157743 -0.0459905 -0.107015 -0.0663257 0.414696 -0.0479005 -0.0992873 0.334558 0.391258 -0.171372 0.151093 0.0323444 0.113002 -0.220607 -0.3883 -0.487713 -0.209833 -0.180562 -0.168753 0.266576 0.1285
891 0.263449 0.122609 0.542933 0.173507 -0.0596153 -0.0808902 -0.0490396 0.404929 -0.0618808 -0.0901152 0.353801 0.355045 -0.163285 0.135678 0.0658177 0.102672 -0.255943 -0.379822 -0.478429 -0.221405 -0.154287 -0.161576 0.253171 0.144655
873 0.243731 0.0706311 0.564913 0.151782 -0.0853995 -0.072881 -0.103342 0.415281 -0.0742659 -0.112927 0.367731 0.38242 -0.170741 0.159625 0.0169838 0.0955301 -0.237914 -0.408306 -0.486673 -0.225023 -0.171981 -0.161816 0.287954 0.140723
4026 0.305684 0.137465 0.644186 0.186919 -0.0232342 -0.0985007 -0.0277662 0.473889 -0.0720117 -0.113631 0.368848 0.423673 -0.166139 0.197523 0.0650841 0.142009 -0.27136 -0.459498 -0.496459 -0.202185 -0.200013 -0.209872 0.326457 0.16607
4018 0.264701 0.118214 0.577208 0.202812 -0.00803432 -0.0607437 -0.0105306 0.428943 -0.0805758 -0.0775495 0.286264 0.382414 -0.160582 0.180352 0.0304305 0.120112 -0.258059 -0.395567 -0.432612 -0.205225 -0.175599 -0.163476 0.289013 0.152185
3935 0.301236 0.13434 0.608535 0.209003 -0.0802151 -0.12469 -0.0575185 0.442869 -0.0736789 -0.13065 0.375434 0.42729 -0.172197 0.159003 0.0503288 0.107847 -0.243492 -0.426261 -0.518332 -0.237012 -0.184093 -0.181219 0.323464 0.118955
3268 0.439413 0.258279 0.930677 0.318096 -0.102942 -0.203218 -0.0258514 0.666358 -0.149176 -0.146258 0.547529 0.668973 -0.235526 0.225132 0.0696485 0.147695 -0.424363 -0.687541 -0.763466 -0.314192 -0.280167 -0.305536 0.47932 0.205223
1996 0.252699 0.0987228 0.476558 0.122435 -0.0366432 -0.0699979 -0.0335962 0.298607 -0.0295601 -0.0493911 0.240257 0.264579 -0.129337 0.108437 0.0473995 0.133283 -0.190973 -0.308582 -0.399413 -0.141212 -0.140101 -0.121764 0.217989 0.0884842
2437 0.363421 0.0723055 0.634155 0.0835903 -0.114547 -0.0683436 -0.117212 0.326571 -0.0336564 -0.0714292 0.323866 0.260012 -0.168198 0.145669 0.0263887 0.230929 -0.222123 -0.314492 -0.505802 -0.174279 -0.132606 -0.13915 0.151166 0.123286
2204 0.308654 0.052978 0.542152 0.0720306 -0.0878453 -0.064749 -0.102843 0.278099 -0.0298205 -0.0675717 0.28005 0.224494 -0.118105 0.140862 0.0254209 0.190544 -0.174562 -0.273008 -0.404882 -0.157568 -0.108176 -0.0935104 0.163709 0.126182
550 0.238741 0.0984074 0.503925 0.118263 -0.0782366 -0.0997626 -0.0434511 0.363702 -0.0705899 -0.07404 0.295078 0.333611 -0.123312 0.15146 0.0147842 0.118305 -0.196284 -0.380148 -0.385653 -0.207167 -0.153031 -0.147083 0.240081 0.109109
4032 0.30463 0.149811 0.625037 0.183164 -0.0322378 -0.0682525 -0.0652758 0.465082 -0.0947658 -0.107236 0.335283 0.398318 -0.1481 0.201242 0.031 0.115464 -0.277294 -0.408452 -0.463764 -0.216582 -0.162332 -0.1908 0.327866 0.146846
3983 0.273903 0.158973 0.624153 0.171551 -0.0347216 -0.0753662 -0.0440393 0.445332 -0.0903942 -0.101589 0.331077 0.384323 -0.155667 0.184299 0.0540633 0.119111 -0.287582 -0.423409 -0.471652 -0.188781 -0.15355 -0.179807 0.309737 0.12688
668 0.228018 0.151074 0.46926 0.202278 -0.0696609 -0.106915 -0.0592015 0.394293 -0.0873884 -0.0727538 0.31171 0.372323 -0.143006 0.157086 0.010966 0.0975637 -0.169405 -0.358128 -0.37017 -0.184754 -0.187516 -0.157224 0.220301 0.104592
3923 0.183359 0.077641 0.456308 0.081765 -0.0470292 -0.0465703 -0.0774586 0.276472 -0.092068 -0.0547402 0.286694 0.272616 -0.148428 0.134568 0.00785742 0.0889615 -0.163098 -0.262187 -0.315679 -0.163816 -0.104126 -0.113822 0.202936 0.122641
97 0.181391 0.0604673 0.479289 0.0875167 -0.0084072 -0.059332 -0.0817556 0.329634 -0.083925 -0.0766813 0.235527 0.265753 -0.08858 0.131266 0.00478865 0.0900475 -0.157805 -0.326684 -0.365101 -0.17051 -0.109758 -0.129808 0.214829 0.0822971
182 0.286114 0.132343 0.628058 0.163135 -0.0478316 -0.0799388 -0.0660035 0.414069 -0.0894465 -0.0983557 0.354247 0.383324 -0.153905 0.160816 0.024543 0.113929 -0.237934 -0.445699 -0.522927 -0.207353 -0.149326 -0.150177 0.300611 0.144222
2481 0.0675167 0.329762 0.0601344 0.397088 0.036199 -0.21288 0.302121 0.106233 -0.0227689 0.132114 0.0995675 0.37748 -0.174969 -0.115593 0.207229 -0.0450147 -0.150515 -0.219671 -0.287079 0.104065 -0.189056 -0.26223 0.245306 0.0597582
877 0.256386 0.0890452 0.605839 0.198389 -0.101442 -0.122609 -0.0938643 0.475511 -0.0760985 -0.108108 0.406402 0.436106 -0.204826 0.18067 0.0350768 0.107447 -0.272569 -0.454669 -0.506842 -0.220332 -0.222246 -0.192286 0.31103 0.173257
356 0.267999 0.134852 0.581535 0.157229 -0.0786838 -0.0885663 -0.0439537 0.416136 -0.106331 -0.0945074 0.346155 0.400098 -0.154135 0.157741 0.0232242 0.125422 -0.25346 -0.443098 -0.472858 -0.204807 -0.163917 -0.180556 0.264693 0.13218
699 0.21074 0.13552 0.53482 0.172668 -0.065281 -0.107204 -0.0469315 0.377373 -0.0515781 -0.0972746 0.303039 0.354959 -0.13953 0.132857 0.0589614 0.0765206 -0.22206 -0.362091 -0.428939 -0.190698 -0.16587 -0.174686 0.27728 0.0985201
1581 0.253508 0.192694 0.556352 0.212435 -0.00817889 -0.107364 0.00767515 0.456717 -0.0749396 -0.131054 0.353011 0.427065 -0.171884 0.154593 0.0815606 0.110301 -0.239043 -0.426925 -0.492711 -0.160915 -0.168507 -0.192928 0.32156 0.133689
1395 0.268035 0.13873 0.589462 0.206197 -0.0414973 -0.0942562 -0.0242082 0.450775 -0.101965 -0.126209 0.353421 0.404099 -0.16244 0.175444 0.0343038 0.113285 -0.276928 -0.460729 -0.539604 -0.21241 -0.169034 -0.212979 0.299009 0.1625
4004 0.295992 0.140438 0.607448 0.174061 -0.0353282 -0.0780192 -0.0259811 0.446289 -0.0688648 -0.102414 0.352122 0.396149 -0.162526 0.181279 0.0132619 0.131197 -0.281646 -0.438602 -0.484721 -0.204925 -0.165232 -0.199253 0.292812 0.128414
1002 0.136772 0.231997 0.405128 0.13591 0.0636851 -0.0913893 0.0627535 0.404022 -0.140238 -0.152617 0.300965 0.363102 -0.182594 0.159072 0.0734711 0.0794085 -0.194256 -0.314717 -0.457682 -0.108878 -0.0740869 -0.13918 0.336026 0.161602
602 0.266774 0.106315 0.603639 0.144509 -0.0438955 -0.109022 -0.0964183 0.425925 -0.100501 -0.110094 0.320485 0.354889 -0.0912478 0.176664 -0.0172858 0.119087 -0.216316 -0.371214 -0.403631 -0.258007 -0.149376 -0.123515 0.266691 0.131393
1546 0.0643938 0.31556 0.097618 0.419535 0.0389421 -0.22627 0.321149 0.133172 -0.0199954 0.16541 0.0998654 0.369479 -0.186767 -0.135688 0.226093 -0.034959 -0.151785 -0.201556 -0.318605 0.0982656 -0.230697 -0.245986 0.270651 0.0441988
564 0.197362 0.0691125 0.512424 0.128487 -0.0631902 -0.064157 -0.0937536 0.310223 -0.0776436 -0.161374 0.263632 0.340983 -0.11915 0.146215 -0.0160042 0.102136 -0.195505 -0.387907 -0.385418 -0.13204 -0.0996439 -0.18109 0.249095 0.148741
1466 0.335003 0.194717 0.691001 0.218165 -0.0217234 -0.097513 -0.00257783 0.503518 -0.126157 -0.108595 0.371057 0.444679 -0.145975 0.170335 0.0152073 0.120848 -0.289439 -0.487879 -0.557209 -0.294082 -0.222863 -0.221148 0.312825 0.155975
996 0.293311 0.142434 0.603371 0.207975 -0.0175311 -0.0745226 -0.00571912 0.436618 -0.0899858 -0.0821338 0.308614 0.387651 -0.117024 0.171627 0.0303357 0.124925 -0.265489 -0.418719 -0.462961 -0.251724 -0.177753 -0.186898 0.267375 0.12227
234 0.220767 0.0872173 0.512534 0.152373 -0.0664999 -0.0572784 -0.0582865 0.360023 -0.066516 -0.111793 0.288716 0.32737 -0.106498 0.129581 0.00552914 0.116057 -0.204624 -0.366369 -0.428072 -0.220256 -0.158045 -0.131347 0.260629 0.125559
286 0.277425 0.0493487 0.536176 0.0687954 -0.0802085 -0.0517318 -0.103289 0.426216 -0.0926171 -0.120832 0.275821 0.257381 -0.0749242 0.195249 -0.0103279 0.127285 -0.190234 -0.3946 -0.408656 -0.266138 -0.104927 -0.103742 0.228216 0.0711326
2470 0.0897194 0.299091 0.0749023 0.401586 0.0351781 -0.222346 0.33899 0.105138 -0.0243212 0.160012 0.0831503 0.381993 -0.174302 -0.105385 0.21592 -0.0349396 -0.158239 -0.211608 -0.287037 0.0820738 -0.207644 -0.237137 0.262453 0.058799
2952 0.0894758 0.334853 0.0815761 0.419848 0.0312234 -0.195113 0.324517 0.142738 -0.0204877 0.135723 0.0684638 0.394648 -0.172266 -0.102559 0.22119 -0.0464145 -0.150165 -0.192775 -0.300608 0.0973297 -0.232683 -0.238461 0.273392 0.0342105
294 0.303063 0.114374 0.709187 0.143785 -0.0696956 -0.123207 -0.0739835 0.474606 -0.103711 -0.116637 0.41264 0.447338 -0.149792 0.182537 0.0384508 0.155251 -0.277266 -0.497231 -0.534865 -0.261214 -0.188203 -0.181799 0.317379 0.158941
233 0.340003 0.193158 0.755075 0.25464 -0.0893595 -0.142452 0.00404358 0.514009 -0.134373 -0.0901528 0.423009 0.5614 -0.170903 0.178661 0.0689095 0.134342 -0.344028 -0.557967 -0.626064 -0.258672 -0.259281 -0.236108 0.391968 0.156796
256 0.222698 0.116236 0.544744 0.169581 -0.054942 -0.115665 2.59612e-05 0.355656 -0.0722543 -0.0600914 0.321523 0.397429 -0.115198 0.109979 0.0706125 0.11837 -0.241598 -0.40209 -0.451323 -0.200381 -0.159503 -0.146824 0.296234 0.130072
3887 0.228365 0.0774131 0.441771 0.0219562 -0.0925419 -0.0875816 -0.0777265 0.326401 -0.13665 -0.0949653 0.279267 0.199282 -0.14683 0.0748874 -0.0446709 0.0903358 -0.177228 -0.357321 -0.371181 -0.222237 -0.0997004 -0.176727 0.160633 0.171285
3451 0.0654038 0.325924 0.0937904 0.385455 0.028146 -0.226635 0.304837 0.133131 -0.0408482 0.157678 0.0757511 0.360775 -0.171697 -0.105146 0.22989 -0.0366401 -0.160748 -0.1995 -0.31072 0.0798695 -0.228469 -0.269423 0.258786 0.0411048
1206 0.0700571 0.333528 0.0857299 0.394175 0.0183837 -0.222621 0.330745 0.138851 -0.0514386 0.129959 0.0710334 0.37275 -0.178095 -0.112588 0.214854 -0.0619696 -0.154641 -0.19355 -0.31569 0.0944734 -0.209629 -0.253801 0.253724 0.0430045
52 0.22179 0.0723906 0.503928 0.14628 -0.0339864 -0.0631785 -0.0849177 0.35943 -0.0605242 -0.0840908 0.311006 0.291028 -0.10815 0.135068 -0.00484712 0.120669 -0.239211 -0.370113 -0.398698 -0.200032 -0.134386 -0.115124 0.225648 0.0889185
4028 0.279602 0.142018 0.623945 0.184442 -0.041592 -0.0380592 -0.0506984 0.434847 -0.0826083 -0.0944283 0.326287 0.387713 -0.153321 0.18925 0.0130514 0.141717 -0.251959 -0.416969 -0.467146 -0.22525 -0.170196 -0.156273 0.320096 0.152785
3982 0.306406 0.182443 0.652244 0.200265 -0.039531 -0.0704336 -0.0163154 0.471966 -0.111233 -0.0851987 0.361144 0.43226 -0.163572 0.183673 0.0638181 0.140351 -0.297641 -0.447939 -0.531543 -0.221936 -0.203934 -0.197309 0.320178 0.16632
3798 0.309777 0.161116 0.630251 0.147302 -0.0699767 -0.114173 -0.0308922 0.478327 -0.114464 -0.110279 0.378839 0.39535 -0.144311 0.164334 0.0622863 0.145026 -0.248529 -0.45149 -0.534555 -0.236898 -0.175052 -0.167353 0.319507 0.130085
4003 0.291819 0.149545 0.632299 0.211575 -0.0241548 -0.0735516 -0.0673363 0.468661 -0.0750703 -0.100578 0.346956 0.431119 -0.166468 0.172315 0.0377391 0.142757 -0.281431 -0.456515 -0.499642 -0.239309 -0.158188 -0.186754 0.302303 0.144942
74 0.268575 0.102996 0.584879 0.165727 -0.0432056 -0.0923834 -0.0599772 0.39648 -0.0897256 -0.103296 0.315345 0.377875 -0.154681 0.172334 0.0464356 0.115529 -0.23054 -0.434461 -0.476446 -0.200047 -0.167211 -0.17713 0.269759 0.123579
202 0.258616 0.10668 0.526192 0.132131 -0.0259933 -0.113827 -0.0301817 0.395652 -0.0893885 -0.0709969 0.290318 0.364435 -0.126126 0.144398 0.0159064 0.121796 -0.245738 -0.417379 -0.449739 -0.193375 -0.144769 -0.168842 0.276083 0.128658
154 0.277949 0.120755 0.570283 0.1369 -0.0320943 -0.0988946 -0.0881462 0.40914 -0.0807688 -0.0892478 0.284202 0.347409 -0.116787 0.153539 0.0121982 0.123742 -0.203083 -0.419617 -0.456965 -0.229735 -0.125283 -0.133789 0.245032 0.135492
147 0.261592 0.115848 0.506455 0.156507 -0.0470358 -0.118155 -0.0711362 0.371386 -0.0874883 -0.0763014 0.299659 0.334904 -0.105692 0.136058 0.0268824 0.0983722 -0.229935 -0.40351 -0.396654 -0.210324 -0.103399 -0.12307 0.248809 0.118797
319 0.259726 0.121639 0.563062 0.140817 -0.0161865 -0.144941 -0.0878227 0.357828 -0.0918532 -0.0600562 0.245075 0.330473 -0.111101 0.133639 0.0275783 0.100215 -0.210511 -0.442498 -0.396946 -0.21018 -0.0794127 -0.124574 0.225903 0.121032
3699 0.281623 0.147421 0.662631 0.142822 -0.0751758 -0.100866 -0.0699385 0.502414 -0.0885015 -0.11827 0.398292 0.418129 -0.15067 0.212131 0.0407118 0.137106 -0.29456 -0.484059 -0.537237 -0.254518 -0.193227 -0.181198 0.32215 0.154376
3990 0.268484 0.127248 0.543835 0.208454 -0.000131674 -0.0389391 -0.00657031 0.43539 -0.0971347 -0.106729 0.29259 0.381174 -0.120651 0.185838 0.0409343 0.111168 -0.226821 -0.412034 -0.453302 -0.161953 -0.173123 -0.173223 0.322645 0.14055
4025 0.269584 0.16014 0.599137 0.195989 -0.0387943 -0.0582862 -0.0337305 0.448389 -0.090987 -0.0880389 0.315294 0.398648 -0.137522 0.187172 0.0485533 0.114802 -0.262642 -0.417898 -0.443492 -0.182114 -0.158763 -0.181696 0.32179 0.145075
335 0.266362 0.114577 0.587149 0.12706 -0.0679832 -0.0834755 -0.0640697 0.400002 -0.085711 -0.111749 0.326476 0.351021 -0.14033 0.160584 0.0262966 0.114877 -0.252941 -0.397308 -0.451038 -0.228574 -0.165193 -0.155294 0.274767 0.104199
292 0.19617 0.0844522 0.491807 0.108487 -0.0510153 -0.0718983 -0.0363731 0.325402 -0.0832273 -0.0686835 0.249117 0.291268 -0.0929632 0.141788 0.00620084 0.0988829 -0.212477 -0.344179 -0.373473 -0.174378 -0.111246 -0.151587 0.222075 0.0919331
35 0.266665 0.103796 0.612269 0.104047 -0.0372225 -0.0889452 -0.106849 0.385297 -0.0724491 -0.10153 0.356361 0.354207 -0.138057 0.16476 0.0158067 0.128281 -0.24792 -0.398036 -0.481353 -0.237566 -0.149126 -0.15224 0.242758 0.132962
3570 0.21579 0.0716173 0.471501 0.0867887 -0.0696613 -0.0433399 -0.0569505 0.310426 -0.0322306 -0.0483196 0.258843 0.271916 -0.117928 0.158822 0.0523553 0.0838694 -0.17854 -0.339343 -0.358219 -0.181815 -0.134951 -0.12838 0.196775 0.10571
112 0.212827 0.128053 0.514311 0.148807 -0.0676934 -0.0832088 -0.0181927 0.363683 -0.0920115 -0.0752278 0.278843 0.345843 -0.0994595 0.15434 0.0662265 0.100716 -0.210237 -0.395969 -0.445161 -0.179685 -0.170617 -0.172413 0.268864 0.137299
174 0.270605 0.0887795 0.628102 0.126755 -0.086529 -0.105876 -0.0559233 0.404522 -0.0866148 -0.0930199 0.33642 0.410125 -0.107342 0.179281 0.0443195 0.122829 -0.230679 -0.464683 -0.519705 -0.258214 -0.155297 -0.18733 0.271209 0.15252
327 0.220105 0.140851 0.51926 0.136605 -0.0291793 -0.132477 -0.0643434 0.353273 -0.0981978 -0.0510934 0.241743 0.306126 -0.0934827 0.0998103 0.0504419 0.0886469 -0.22688 -0.394013 -0.411272 -0.208618 -0.0965114 -0.139413 0.231477 0.0995305
3619 0.318715 0.152318 0.717384 0.210032 -0.0840985 -0.144697 -0.0251651 0.531256 -0.100758 -0.15899 0.392124 0.483456 -0.149061 0.220375 0.0565112 0.11745 -0.262094 -0.490299 -0.557704 -0.225172 -0.21102 -0.185328 0.321887 0.13598
3673 0.238512 0.144748 0.601991 0.192838 -0.0438117 -0.109399 0.000509123 0.423525 -0.0665573 -0.0963519 0.35755 0.431675 -0.136612 0.182555 0.0368525 0.0879636 -0.228811 -0.434124 -0.470435 -0.210999 -0.198135 -0.186838 0.271865 0.109059
2788 0.398245 0.256115 0.904589 0.30505 -0.0981563 -0.185534 -0.0535761 0.682089 -0.130618 -0.125115 0.534222 0.629794 -0.243633 0.231402 0.0538804 0.174623 -0.406309 -0.691206 -0.746522 -0.321978 -0.268061 -0.261547 0.471357 0.189348
2799 0.391712 0.22666 0.809693 0.255784 -0.105092 -0.15698 -0.025512 0.609652 -0.118776 -0.120571 0.508395 0.555385 -0.241998 0.226713 0.0680513 0.152054 -0.375741 -0.63324 -0.670435 -0.295793 -0.256349 -0.238009 0.418576 0.1969
259 0.222372 0.0535296 0.624897 0.0538141 -0.0258966 -0.0727256 -0.100837 0.37715 -0.0756302 -0.119186 0.317281 0.314537 -0.0907839 0.175878 -0.0326704 0.0743068 -0.217574 -0.440202 -0.461279 -0.263113 -0.142511 -0.101465 0.225685 0.0916382
193 0.234838 0.0571193 0.53933 0.0426677 -0.025917 -0.0600277 -0.126844 0.33341 -0.0882427 -0.115689 0.270575 0.271833 -0.0828712 0.142303 -0.0341376 0.103651 -0.198818 -0.385943 -0.428935 -0.222458 -0.113873 -0.11495 0.206846 0.109312
253 0.233191 0.0801268 0.586587 0.136146 -0.0485293 -0.08817 -0.0541658 0.373818 -0.103683 -0.117856 0.325472 0.339353 -0.116094 0.139756 -0.00999815 0.0843651 -0.223388 -0.416968 -0.468565 -0.224828 -0.125464 -0.144819 0.259443 0.122918
263 0.311319 0.144607 0.689728 0.156309 -0.0640368 -0.0920485 -0.0985773 0.509908 -0.124286 -0.108977 0.385166 0.421369 -0.138213 0.180806 0.0263808 0.119717 -0.298 -0.51023 -0.549855 -0.255125 -0.156066 -0.188383 0.320654 0.160914
296 0.302885 0.176574 0.683932 0.225481 -0.0519285 -0.11595 -0.0171256 0.491954 -0.088666 -0.10066 0.368205 0.477608 -0.186427 0.143214 0.0626572 0.110368 -0.319646 -0.50527 -0.585576 -0.222341 -0.208033 -0.22702 0.365863 0.135867
209 0.225053 0.126388 0.544666 0.137718 -0.0538932 -0.0677422 -0.0528351 0.390763 -0.0962315 -0.112433 0.327547 0.342599 -0.112176 0.12904 0.00329748 0.115505 -0.205929 -0.377142 -0.428666 -0.201816 -0.141537 -0.136895 0.253137 0.123289
2421 0.356673 -0.0184339 0.613029 0.00677427 -0.0901225 0.00118791 -0.146167 0.308216 -0.0408656 -0.132949 0.29317 0.189418 -0.114849 0.1753 -0.0237749 0.199338 -0.160048 -0.302031 -0.455893 -0.174038 -0.102369 -0.0925294 0.123281 0.145433
2106 0.31974 -0.0222804 0.60304 -0.0134265 -0.10215 -0.00746396 -0.141729 0.307177 -0.0155134 -0.0870907 0.283107 0.217348 -0.130212 0.159842 -0.0290382 0.237771 -0.176566 -0.265284 -0.448085 -0.161192 -0.0636598 -0.0599792 0.111504 0.0985667
2168 0.310295 0.0244893 0.528531 0.0419346 -0.092346 -0.0402079 -0.0846376 0.25931 -0.0274193 -0.0751653 0.271413 0.235644 -0.113086 0.128285 0.0135861 0.188705 -0.163925 -0.29662 -0.411183 -0.163211 -0.0837244 -0.107867 0.129975 0.112126
3987 0.278742 0.15725 0.612085 0.225199 -0.0150071 -0.0645442 -0.0045687 0.462992 -0.0837171 -0.0851717 0.360146 0.430927 -0.18046 0.195436 0.0559177 0.135383 -0.279918 -0.425636 -0.492076 -0.189293 -0.191872 -0.227232 0.362788 0.137794
4037 0.2814 0.142988 0.629145 0.178724 -0.0163097 -0.0568249 -0.0598721 0.432677 -0.100377 -0.12632 0.330724 0.388607 -0.131288 0.18947 0.0448784 0.117013 -0.255092 -0.442116 -0.472898 -0.204563 -0.164677 -0.167095 0.319253 0.142086
4012 0.281412 0.0931874 0.611956 0.155078 -0.035273 -0.0399686 -0.0731261 0.423365 -0.0570877 -0.0847658 0.305378 0.375274 -0.120249 0.191467 0.0156874 0.141301 -0.270634 -0.401541 -0.432672 -0.188842 -0.152159 -0.185867 0.314184 0.136859
2902 0.303704 0.163969 0.552199 0.230265 -0.061277 -0.153276 0.0271722 0.359596 -0.136164 -0.0828728 0.280574 0.413431 -0.112078 0.118903 0.0139834 0.118192 -0.27151 -0.446652 -0.426915 -0.232462 -0.191066 -0.230143 0.314727 0.130722
3372 0.28145 0.173231 0.51867 0.23445 -0.0262581 -0.133921 0.0389821 0.351461 -0.131114 -0.0946903 0.256969 0.388866 -0.108385 0.115971 0.0291776 0.126676 -0.230148 -0.402168 -0.403592 -0.209701 -0.195738 -0.195688 0.264899 0.14526
3183 0.339991 0.0962241 0.640172 0.112015 -0.0751594 -0.0901239 -0.130612 0.506183 -0.0996823 -0.221655 0.366489 0.415396 -0.128001 0.270443 0.0033121 0.204245 -0.217746 -0.4836 -0.491052 -0.295982 -0.2455 -0.160065 0.297236 0.172307
3071 0.296289 0.0970537 0.519083 0.0937991 -0.091454 -0.0759421 -0.0692928 0.415403 -0.120374 -0.226077 0.301773 0.406909 -0.132131 0.277833 0.0340138 0.189345 -0.183209 -0.454255 -0.438914 -0.227796 -0.226445 -0.0922089 0.269409 0.120896
2922 0.304438 0.0746231 0.562079 0.100282 -0.0400781 -0.0439742 -0.0978672 0.400748 -0.0750539 -0.166636 0.317551 0.345495 -0.0930594 0.236772 0.0334099 0.149405 -0.199603 -0.432099 -0.411726 -0.25087 -0.203563 -0.124922 0.249845 0.111925
775 0.211437 0.0522504 0.403404 0.0936378 -0.0617607 -0.033873 -0.0353635 0.21941 -0.0938354 -0.0839218 0.296221 0.276124 -0.0788542 0.120159 0.0869007 0.036572 -0.186823 -0.320764 -0.369272 -0.18382 -0.0828957 -0.121532 0.15458 0.0782375
757 0.253986 0.145369 0.475005 0.186756 -0.048268 -0.0679356 0.0427438 0.30613 -0.117282 -0.10322 0.343716 0.427572 -0.143085 0.144301 0.131885 0.0672245 -0.2221 -0.413191 -0.485849 -0.21956 -0.14712 -0.214278 0.232626 0.113719
749 0.200421 0.0739775 0.420287 0.140236 -0.0278435 -0.0473876 -0.0340835 0.247474 -0.104529 -0.105154 0.267917 0.31385 -0.0948513 0.113632 0.0887126 0.0828419 -0.174842 -0.332698 -0.362437 -0.192726 -0.103913 -0.158966 0.201629 0.0887285
12 0.190989 0.0757525 0.38313 0.0970205 -0.0498699 -0.0336605 -0.0839745 0.303376 -0.0540695 -0.0658248 0.225875 0.219952 -0.0744975 0.105723 0.00751542 0.0631893 -0.150905 -0.291839 -0.295286 -0.168644 -0.114843 -0.117614 0.191952 0.0904456
282 0.245517 0.150158 0.56157 0.194403 -0.0699805 -0.0704274 -0.0870686 0.424398 -0.0832781 -0.0651146 0.300153 0.360526 -0.108476 0.137151 0.00803544 0.125146 -0.250106 -0.399026 -0.458451 -0.242638 -0.142986 -0.160481 0.277472 0.0794531
3993 0.318144 0.148599 0.709037 0.204124 -0.0346019 -0.0589291 -0.0842225 0.511532 -0.0848448 -0.117691 0.397603 0.442688 -0.167608 0.237654 0.013556 0.153337 -0.289615 -0.504287 -0.549261 -0.259111 -0.186215 -0.177335 0.352572 0.148311
4001 0.265629 0.109672 0.610658 0.149672 -0.0367397 -0.084307 -0.0702188 0.429673 -0.0652546 -0.123402 0.331463 0.387671 -0.163552 0.192286 0.0172963 0.142288 -0.271269 -0.425874 -0.444602 -0.22151 -0.15539 -0.18426 0.273413 0.153164
183 0.203403 0.0975304 0.494674 0.0898455 -0.0674776 -0.0706105 -0.0712579 0.354356 -0.0650208 -0.088034 0.263225 0.296616 -0.0873995 0.155269 -0.011214 0.111852 -0.193673 -0.370267 -0.40051 -0.189884 -0.129528 -0.117333 0.23162 0.113956
2269 0.0641815 0.329922 0.101215 0.397843 0.0207297 -0.204027 0.318423 0.118818 -0.0296249 0.16171 0.0703265 0.383728 -0.190615 -0.0959036 0.250369 -0.045433 -0.165278 -0.216715 -0.308882 0.088003 -0.212676 -0.261688 0.256178 0.0589219
3748 0.214071 0.0705913 0.463338 0.0565741 -0.0648876 -0.0570098 -0.0774748 0.317963 -0.0979216 -0.101927 0.256861 0.244283 -0.119334 0.109601 -0.0259568 0.103105 -0.193546 -0.330275 -0.36223 -0.218027 -0.121127 -0.13863 0.182006 0.111072
3751 0.201241 0.0731216 0.533589 0.0974684 -0.055111 -0.0725497 -0.0871838 0.353346 -0.096961 -0.0720556 0.322293 0.316128 -0.150024 0.146605 0.0187981 0.133957 -0.218202 -0.308621 -0.381523 -0.228818 -0.151726 -0.145125 0.244824 0.137256
2541 0.316904 0.149417 0.709195 0.158878 -0.0607477 -0.0755274 -0.0882344 0.468759 -0.118404 -0.0954996 0.410429 0.41308 -0.154516 0.210106 0.00628465 0.16175 -0.269896 -0.471102 -0.583555 -0.22156 -0.160191 -0.182664 0.281933 0.174209
887 0.235278 0.0938564 0.535749 0.178989 -0.099702 -0.129082 -0.081689 0.431418 -0.0440166 -0.110429 0.382735 0.374307 -0.181994 0.151277 0.0249885 0.0760563 -0.245984 -0.396724 -0.502105 -0.215449 -0.192041 -0.170256 0.295046 0.136771
336 0.208464 0.0643226 0.507985 0.0972903 -0.0733084 -0.0729605 -0.0795266 0.379901 -0.0907154 -0.107378 0.267846 0.299061 -0.123097 0.136507 -0.00904762 0.116813 -0.223203 -0.36863 -0.378854 -0.191026 -0.117008 -0.118451 0.227884 0.11704
215 0.248885 0.0740655 0.557354 0.0873701 -0.0377946 -0.0679908 -0.0985673 0.370724 -0.059842 -0.123183 0.333889 0.332706 -0.0873854 0.144091 -0.00952688 0.121818 -0.229299 -0.394801 -0.4587 -0.226219 -0.136574 -0.116477 0.243297 0.102573
153 0.289716 0.154506 0.613169 0.180736 -0.0571676 -0.132496 -0.066725 0.434888 -0.0830779 -0.0801281 0.323241 0.381039 -0.147888 0.179174 0.0217619 0.13159 -0.240902 -0.435849 -0.482195 -0.235657 -0.163304 -0.156738 0.308292 0.128304
95 0.262724 0.123685 0.558882 0.134825 -0.0513584 -0.110377 -0.0781681 0.393266 -0.110212 -0.0534691 0.274474 0.317823 -0.110001 0.13892 0.0154715 0.126597 -0.198762 -0.425715 -0.422439 -0.239955 -0.108633 -0.116068 0.229102 0.100342
401 0.24386 0.0334543 0.581622 0.0879909 -0.0827816 -0.125405 -0.135066 0.354873 -0.0893911 -0.140334 0.311572 0.325872 -0.102631 0.23258 -0.0335742 0.0884551 -0.178391 -0.397326 -0.368209 -0.227627 -0.150781 -0.149292 0.249634 0.113068
3408 0.169133 0.0310656 0.35113 0.063094 -0.0368718 -0.0375072 -0.0437398 0.221727 -0.0569987 -0.0650793 0.199992 0.202261 -0.0589649 0.118617 -0.00714008 0.0704834 -0.140167 -0.240697 -0.267406 -0.137614 -0.0979425 -0.102737 0.140465 0.0648478
3989 0.275452 0.150851 0.645008 0.173479 -0.0339551 -0.0622482 -0.031832 0.478308 -0.0974698 -0.132218 0.350927 0.405042 -0.154116 0.214487 0.0140394 0.141982 -0.272562 -0.443413 -0.489015 -0.242778 -0.167513 -0.16116 0.310434 0.15754
3999 0.322892 0.175738 0.712997 0.237465 -0.0426577 -0.086553 -0.0440401 0.49157 -0.0913211 -0.0984818 0.404018 0.478983 -0.178378 0.198554 0.0537728 0.124673 -0.296967 -0.487067 -0.585273 -0.249601 -0.198309 -0.230049 0.385227 0.16773
4005 0.291353 0.156559 0.624296 0.250365 -0.00486336 -0.0641403 0.0064565 0.454003 -0.103173 -0.0783639 0.358113 0.441804 -0.162846 0.149853 0.072259 0.114433 -0.291541 -0.446095 -0.480942 -0.197116 -0.206136 -0.22205 0.348921 0.134905
2792 0.323006 0.112033 0.614122 0.106792 -0.0437651 -0.0925711 -0.138227 0.4262 -0.0554697 -0.157407 0.375646 0.378544 -0.19026 0.263444 0.0279115 0.148153 -0.277174 -0.475347 -0.517017 -0.297728 -0.15435 -0.193279 0.337625 0.145836
3037 0.260495 0.110562 0.555837 0.136281 -0.0610835 -0.0885133 -0.0907498 0.384587 -0.0731257 -0.133086 0.318436 0.380625 -0.188706 0.215839 0.0189515 0.130654 -0.269829 -0.442553 -0.487142 -0.261719 -0.174443 -0.189115 0.325306 0.139284
2691 0.289294 0.113762 0.551678 0.0932137 -0.0626438 -0.0812691 -0.126289 0.403272 -0.0482164 -0.155906 0.346743 0.36017 -0.137174 0.229888 -0.0130072 0.108254 -0.259644 -0.433275 -0.435856 -0.279698 -0.171371 -0.151688 0.299293 0.125215
264 0.212496 0.0670704 0.573971 0.0696126 -0.056942 -0.0935322 -0.102207 0.336649 -0.0518917 -0.129876 0.303918 0.283515 -0.0619627 0.126573 0.0125937 0.05873 -0.218248 -0.405075 -0.467018 -0.222777 -0.131536 -0.11413 0.232652 0.0790115
110 0.221396 0.0363231 0.573385 0.0404209 -0.0550704 -0.0613201 -0.108672 0.379083 -0.0655928 -0.125861 0.299911 0.282148 -0.0962386 0.179265 0.00182393 0.0861374 -0.216485 -0.40063 -0.463816 -0.251926 -0.127975 -0.0893515 0.199663 0.113681
3653 0.165585 0.0785075 0.468868 0.098882 -0.0552709 -0.0368664 -0.062652 0.305084 -0.060019 -0.0864127 0.291489 0.292485 -0.104851 0.148571 0.0208142 0.0792701 -0.201326 -0.273721 -0.338248 -0.156433 -0.122902 -0.0884756 0.19644 0.104069
3846 0.208869 0.0672033 0.627364 0.0824754 -0.090256 -0.0165982 -0.178224 0.425977 -0.0338995 -0.202259 0.373297 0.235769 -0.0515388 0.222999 -0.0622001 0.152245 -0.244292 -0.404151 -0.376728 -0.259703 -0.0488323 -0.0997754 0.223825 0.105901
3746 0.217795 0.0685216 0.574158 0.111655 -0.102927 -0.024493 -0.128245 0.378575 -0.0347176 -0.14098 0.346933 0.23077 -0.045621 0.186658 -0.0574309 0.15029 -0.234326 -0.366686 -0.39846 -0.234174 -0.0542556 -0.123574 0.211751 0.0799073
3781 0.186107 0.109066 0.438788 0.132698 -0.0436332 -0.0631917 -0.0247887 0.292641 -0.0547973 -0.077399 0.249106 0.29114 -0.138648 0.13131 0.0586707 0.0974875 -0.20236 -0.303895 -0.370623 -0.127812 -0.14052 -0.122126 0.197133 0.0924058
2167 0.0912784 0.328027 0.0820949 0.43095 0.0453489 -0.224995 0.316676 0.148587 -0.0558789 0.166376 0.0808054 0.385522 -0.17649 -0.125789 0.236104 -0.0478338 -0.166462 -0.213752 -0.333335 0.0979615 -0.21613 -0.254104 0.274604 0.0347142
1252 0.0947367 0.329557 0.0773026 0.415409 0.0433876 -0.221451 0.325502 0.121979 -0.0421039 0.135937 0.0835883 0.376362 -0.176231 -0.1205 0.215674 -0.0538006 -0.155191 -0.20084 -0.314819 0.093515 -0.235944 -0.241314 0.251305 0.0347714
138 0.28093 0.092475 0.571468 0.100569 -0.0413828 -0.0684471 -0.106115 0.386296 -0.072515 -0.12494 0.321372 0.32122 -0.11856 0.172914 0.0120255 0.10932 -0.208794 -0.422009 -0.42635 -0.255854 -0.104491 -0.125889 0.244772 0.0980926
4011 0.316905 0.13123 0.673389 0.175053 -0.0477366 -0.0612205 -0.0571171 0.475202 -0.111515 -0.131179 0.375738 0.431381 -0.153137 0.203962 0.0336311 0.167472 -0.291182 -0.459753 -0.480227 -0.25738 -0.185225 -0.158905 0.339684 0.148155
1430 0.151217 -0.0291936 0.413721 0.0578734 -0.100336 -0.0195464 -0.156091 0.25831 -0.0954111 -0.184676 0.3261 0.216581 -0.0238198 0.111537 -0.0731452 0.136423 -0.108858 -0.303165 -0.288783 -0.171534 -0.0577607 -0.0105667 0.202794 0.122511
1276 0.182251 -0.0176741 0.412178 0.0479954 -0.104421 -0.0602013 -0.149649 0.302602 -0.0437227 -0.166854 0.312966 0.238567 -0.0508833 0.125033 -0.027666 0.102433 -0.135997 -0.328325 -0.283596 -0.197279 -0.0576499 -0.0314227 0.220338 0.113225
3959 0.302495 0.137306 0.633981 0.168058 -0.0840591 -0.0920799 -0.0544069 0.450254 -0.0922194 -0.122029 0.358366 0.40909 -0.160242 0.180277 0.0475992 0.14833 -0.269313 -0.469362 -0.52192 -0.227884 -0.156668 -0.173219 0.29711 0.133874
3453 0.076872 0.311641 0.0918155 0.433852 0.0395898 -0.206712 0.312515 0.14973 -0.0240134 0.140704 0.0774834 0.373236 -0.194136 -0.126093 0.246362 -0.05979 -0.1798 -0.214607 -0.322275 0.102888 -0.239325 -0.265892 0.278506 0.0640221
11 0.237918 0.0956373 0.553623 0.113267 -0.037631 -0.0604248 -0.0952103 0.383646 -0.0596311 -0.103847 0.338361 0.334046 -0.094562 0.179276 0.0250246 0.109364 -0.211319 -0.409862 -0.457617 -0.235756 -0.149737 -0.141548 0.26893 0.121069
1755 0.0858059 0.354165 0.0838196 0.442702 0.0294967 -0.248139 0.339659 0.119031 -0.0577709 0.160555 0.102402 0.401923 -0.200115 -0.122497 0.261407 -0.0434991 -0.158901 -0.232272 -0.346384 0.098386 -0.248211 -0.292911 0.275944 0.0367687
499 0.289043 0.0764645 0.646258 0.102041 -0.10987 -0.136578 -0.111986 0.446124 -0.116967 -0.131214 0.351317 0.395156 -0.10572 0.229702 -0.0254922 0.11038 -0.228746 -0.45139 -0.444462 -0.246547 -0.148158 -0.145453 0.269084 0.159443
2569 0.0642411 0.331029 0.103221 0.401205 0.0165782 -0.212169 0.346584 0.12508 -0.0495816 0.156068 0.0935473 0.3995 -0.194046 -0.12634 0.235676 -0.0628848 -0.151334 -0.219413 -0.331562 0.105891 -0.223298 -0.246702 0.281006 0.0587645
3637 0.226572 0.111715 0.52071 0.143004 -0.0408223 -0.0682582 -0.0296539 0.339839 -0.0609377 -0.0914493 0.287536 0.339819 -0.147073 0.127576 0.023176 0.109583 -0.193548 -0.372346 -0.398356 -0.183268 -0.13342 -0.159138 0.248696 0.106135
2838 0.311958 0.136059 0.68208 0.185917 -0.0628662 -0.133902 -0.0534705 0.524803 -0.121466 -0.109533 0.38004 0.480445 -0.175395 0.174116 0.0690275 0.100805 -0.309021 -0.471718 -0.559051 -0.262936 -0.194956 -0.199005 0.313465 0.113265
1486 0.29012 0.142456 0.650201 0.187196 -0.0767779 -0.0907808 -0.048186 0.496551 -0.0954338 -0.0989798 0.364877 0.440965 -0.142985 0.182038 0.0325835 0.105786 -0.280279 -0.449028 -0.521126 -0.257822 -0.191415 -0.208833 0.314246 0.116965
874 0.285466 0.10999 0.598145 0.1709 -0.0908552 -0.123425 -0.0504069 0.452862 -0.0948819 -0.0963354 0.364121 0.397929 -0.155695 0.162477 0.0277924 0.0896903 -0.263398 -0.433432 -0.493641 -0.208088 -0.200396 -0.171966 0.285945 0.136272
744 0.165399 0.0905849 0.447536 0.153391 -0.0231564 -0.0671666 -0.0437702 0.284528 -0.0565885 -0.0532191 0.23369 0.296213 -0.133394 0.13207 0.0595061 0.0488865 -0.206389 -0.2894 -0.346319 -0.139074 -0.136711 -0.15279 0.182393 0.0713522
1386 0.0783478 0.319112 0.0944824 0.420494 0.0187188 -0.215289 0.315506 0.136721 -0.024558 0.141733 0.0950939 0.364541 -0.208305 -0.131814 0.239192 -0.052837 -0.150584 -0.196209 -0.30076 0.0731487 -0.201108 -0.266981 0.283238 0.0569139
3407 0.427204 0.257981 0.872481 0.352075 -0.0703912 -0.213897 0.0148198 0.61232 -0.142234 -0.10584 0.516132 0.665023 -0.252751 0.226128 0.0972207 0.16155 -0.396 -0.663095 -0.744 -0.281572 -0.280686 -0.315625 0.481763 0.221745
6 0.254328 0.0670022 0.5568 0.0770202 -0.039478 -0.115041 -0.0920076 0.392157 -0.0676634 -0.0709509 0.263175 0.273805 -0.108257 0.149732 -0.0162946 0.101284 -0.201275 -0.420121 -0.388449 -0.223465 -0.0898175 -0.13224 0.196277 0.100368
899 0.0690434 0.328851 0.0724985 0.41153 0.0436045 -0.235128 0.335427 0.150502 -0.0493756 0.134922 0.109268 0.395543 -0.213054 -0.126517 0.249144 -0.055128 -0.18171 -0.228039 -0.330305 0.101128 -0.235491 -0.251129 0.28471 0.0516909
228 0.25732 0.148817 0.571122 0.167775 -0.028055 -0.131816 -0.0362089 0.37745 -0.0677811 -0.0938351 0.308255 0.393112 -0.151032 0.114982 0.0406948 0.115208 -0.246777 -0.41904 -0.470037 -0.201781 -0.159203 -0.198275 0.281922 0.108532
15 0.262404 0.119803 0.615317 0.167978 -0.0541575 -0.0963009 -0.0448934 0.44465 -0.0854147 -0.0939916 0.368134 0.41092 -0.143945 0.154148 0.0408849 0.124381 -0.248296 -0.448446 -0.519521 -0.239199 -0.165312 -0.179387 0.307287 0.119954
3230 0.0865405 0.334062 0.0857463 0.443467 0.0385677 -0.212696 0.323944 0.150423 -0.0468859 0.167927 0.109794 0.387647 -0.198189 -0.108167 0.242823 -0.0653115 -0.163785 -0.207362 -0.318376 0.107148 -0.229402 -0.258323 0.289199 0.0695592
377 0.338578 0.194537 0.760092 0.300911 -0.078722 -0.1353 -0.0110182 0.574366 -0.125798 -0.092091 0.453547 0.550784 -0.21791 0.22643 0.0704985 0.166509 -0.367703 -0.586948 -0.674583 -0.253435 -0.253854 -0.246068 0.392569 0.161466
660 0.0736598 0.346992 0.0848222 0.444975 0.0455106 -0.218282 0.360636 0.140197 -0.0391215 0.144573 0.103194 0.416856 -0.21904 -0.137043 0.245734 -0.0459532 -0.172904 -0.235368 -0.349566 0.107133 -0.240741 -0.282672 0.304621 0.0599117
245 0.237885 0.0838899 0.582547 0.0778399 -0.0271694 -0.101167 -0.0648625 0.322643 -0.0834293 -0.108866 0.292736 0.30964 -0.106212 0.157636 -0.0137219 0.0720623 -0.214806 -0.385644 -0.462575 -0.192661 -0.154604 -0.117993 0.241129 0.0839719
3704 0.196747 0.0992631 0.432335 0.0976313 -0.042924 -0.0376854 -0.0256869 0.276059 -0.0481589 -0.0668335 0.26235 0.271629 -0.111224 0.153683 0.0356316 0.0888091 -0.161243 -0.295298 -0.365018 -0.180768 -0.131778 -0.102167 0.221591 0.0941164
648 0.185524 0.103569 0.395324 0.144895 -0.0431829 -0.104377 -0.0593725 0.327313 -0.0833394 -0.062397 0.274394 0.28932 -0.129644 0.136126 0.0429928 0.066391 -0.182218 -0.321257 -0.345947 -0.168709 -0.152684 -0.135793 0.176337 0.0904513
3816 0.292511 0.142748 0.61563 0.188831 -0.0419986 -0.110629 -0.0311718 0.441862 -0.100186 -0.115427 0.367951 0.438335 -0.148872 0.185008 0.0465658 0.119738 -0.269076 -0.436102 -0.503372 -0.225471 -0.190094 -0.209271 0.325814 0.134389
750 0.0756382 0.348052 0.0925638 0.420462 0.0363465 -0.221494 0.321925 0.132436 -0.0254307 0.153835 0.0750093 0.390918 -0.203872 -0.114824 0.242847 -0.0689912 -0.167418 -0.200018 -0.321754 0.078602 -0.239398 -0.273212 0.283867 0.0482111
1096 0.0711665 0.330968 0.0830649 0.440017 0.0402492 -0.223264 0.340819 0.159443 -0.0352989 0.144447 0.0868614 0.394256 -0.215026 -0.110202 0.251068 -0.0656003 -0.185279 -0.219555 -0.341314 0.0866322 -0.22718 -0.284625 0.286435 0.0706735
1967 0.076544 0.331232 0.0553956 0.4204 0.050307 -0.214454 0.320911 0.137469 -0.0578873 0.131013 0.0969677 0.364779 -0.178587 -0.105967 0.231584 -0.0576664 -0.165164 -0.218433 -0.317509 0.0896979 -0.223596 -0.247521 0.257904 0.0266163
8 0.181386 0.0600802 0.540131 0.0803559 -0.0239732 -0.11567 -0.0440999 0.318776 -0.0506556 -0.0812626 0.281436 0.292106 -0.0687508 0.0998115 0.00319307 0.0480087 -0.232497 -0.385121 -0.461682 -0.176783 -0.152545 -0.126963 0.202415 0.0698431
1394 0.287453 0.161137 0.654327 0.100674 -0.0407446 -0.087461 -0.152317 0.475388 -0.109825 -0.115001 0.418484 0.388821 -0.126115 0.208549 -0.0212633 0.133686 -0.23976 -0.430755 -0.482356 -0.247389 -0.194537 -0.150697 0.298189 0.0662849
3125 0.280576 0.160362 0.511344 0.130298 -0.0783573 -0.108781 -0.0234547 0.4102 -0.0834312 -0.171556 0.2991 0.406893 -0.169394 0.22128 0.0124976 0.147053 -0.198126 -0.414685 -0.461127 -0.215636 -0.201038 -0.118129 0.280806 0.134813
3031 0.311167 0.179289 0.609947 0.142687 -0.0986732 -0.145027 -0.0824902 0.510156 -0.14152 -0.218113 0.345273 0.474717 -0.194198 0.271901 0.0188959 0.195101 -0.225746 -0.501419 -0.512573 -0.287096 -0.251451 -0.13941 0.357141 0.18574
358 0.261088 0.0521044 0.589803 0.0867764 -0.0758902 -0.112429 -0.0864954 0.348052 -0.0931892 -0.139022 0.346382 0.336839 -0.0983503 0.166701 -0.0391044 0.0938397 -0.174586 -0.358566 -0.382305 -0.238618 -0.138652 -0.128143 0.22729 0.09571
4035 0.248452 0.151004 0.579943 0.173455 -0.0429127 -0.0974571 -0.0338454 0.405928 -0.0944127 -0.093899 0.340095 0.397094 -0.140683 0.175098 0.0406438 0.11507 -0.248399 -0.401376 -0.474671 -0.194739 -0.176691 -0.18747 0.294983 0.130248
4014 0.307324 0.161533 0.664373 0.203295 -0.0436424 -0.0502562 -0.0560105 0.498388 -0.0712334 -0.125668 0.385753 0.439003 -0.161476 0.20856 0.021947 0.150322 -0.311049 -0.466449 -0.503277 -0.249353 -0.188482 -0.186759 0.353993 0.161917
1560 0.0959583 0.339402 0.0844916 0.433717 0.024352 -0.234565 0.365776 0.13155 -0.0529832 0.177298 0.0956214 0.406942 -0.214375 -0.141097 0.240993 -0.0325603 -0.197456 -0.233618 -0.329862 0.095645 -0.247004 -0.261569 0.277337 0.0462074
1194 0.26081 0.197998 0.612786 0.211902 -0.0601829 -0.0897117 -0.0384183 0.468651 -0.0953268 -0.101871 0.376754 0.458037 -0.123274 0.131439 0.021946 0.137088 -0.330251 -0.49559 -0.578175 -0.248306 -0.194659 -0.196544 0.370689 0.145984
1046 0.274217 0.198256 0.683892 0.175003 -0.0909865 -0.0836942 -0.0568315 0.472399 -0.12502 -0.108499 0.380449 0.463529 -0.119052 0.149803 -0.0137221 0.11793 -0.341732 -0.516154 -0.576001 -0.276176 -0.196422 -0.199496 0.391053 0.160109
1586 0.261366 0.168137 0.616663 0.17999 -0.0876222 -0.0588217 -0.065879 0.420464 -0.082002 -0.0830948 0.378988 0.438386 -0.113056 0.139981 -0.00595431 0.104456 -0.288154 -0.481369 -0.539957 -0.267817 -0.172068 -0.198167 0.357084 0.131554
1176 0.249943 0.115586 0.556531 0.122837 -0.049783 -0.095181 -0.0902001 0.39283 -0.0966241 -0.0900769 0.330681 0.342952 -0.149013 0.19815 0.0144655 0.0994447 -0.199764 -0.404246 -0.409578 -0.194011 -0.145163 -0.13207 0.266716 0.0681608
1760 0.303834 0.137047 0.697255 0.074952 -0.0591507 -0.0983926 -0.139161 0.503655 -0.104741 -0.168355 0.447377 0.369889 -0.166835 0.236498 -0.0095721 0.162264 -0.231891 -0.491437 -0.474418 -0.295842 -0.234699 -0.155186 0.304897 0.0607682
205 0.221015 0.122378 0.500474 0.15211 -0.0476745 -0.0806572 -0.0287625 0.359933 -0.0585152 -0.0688756 0.306806 0.331426 -0.14499 0.130511 0.0380644 0.0938039 -0.236775 -0.388688 -0.45206 -0.152065 -0.137081 -0.141072 0.228019 0.120535
1145 0.0800066 0.317228 0.0862914 0.397076 0.0389428 -0.209888 0.318911 0.111648 -0.0595485 0.127727 0.0835097 0.38592 -0.179038 -0.131496 0.243731 -0.0467553 -0.18103 -0.200369 -0.311029 0.0949252 -0.208005 -0.26632 0.24441 0.0442421
1854 0.101592 0.35125 0.0812992 0.44981 0.0254163 -0.233509 0.335516 0.131823 -0.0274788 0.163323 0.107511 0.395526 -0.218864 -0.142758 0.246741 -0.052383 -0.17725 -0.214768 -0.316783 0.0977659 -0.25432 -0.28875 0.285374 0.0604024
1034 0.311212 0.111278 0.697137 0.136123 -0.0436704 -0.0829404 -0.0873168 0.48996 -0.12108 -0.149631 0.407923 0.405882 -0.146472 0.207697 -0.0124795 0.130046 -0.266868 -0.445755 -0.511845 -0.28141 -0.144339 -0.183658 0.335694 0.170471
911 0.332263 0.191951 0.70917 0.240042 -0.0413382 -0.152209 -0.0308147 0.516861 -0.133149 -0.109327 0.421376 0.469309 -0.194699 0.175117 0.0741747 0.121381 -0.306661 -0.514618 -0.581466 -0.240794 -0.225276 -0.238595 0.368631 0.16824
3744 0.279227 0.148024 0.592971 0.214874 -0.0440065 -0.0790968 -0.0272943 0.486181 -0.154793 -0.129302 0.334538 0.453725 -0.128683 0.175397 0.0781701 0.110791 -0.300149 -0.424454 -0.466097 -0.196628 -0.190169 -0.162458 0.349272 0.134178
3375 0.0774816 0.341686 0.0935135 0.450115 0.0183876 -0.24503 0.346709 0.150107 -0.0293786 0.157714 0.102433 0.407779 -0.192975 -0.114039 0.26946 -0.0706397 -0.192889 -0.209133 -0.324107 0.0813114 -0.23512 -0.290375 0.287372 0.0422671
607 0.204707 0.0862997 0.448843 0.111786 -0.0579129 -0.0447808 -0.134673 0.371013 -0.0842769 -0.0480669 0.262381 0.292677 -0.131599 0.19295 0.0206701 0.0857175 -0.166692 -0.293203 -0.320333 -0.238699 -0.145301 -0.142693 0.188289 0.0834633
262 0.256498 0.0632985 0.603265 0.117567 -0.0384482 -0.082479 -0.105281 0.396686 -0.0601582 -0.119743 0.331687 0.336391 -0.121681 0.16068 -0.00876769 0.104542 -0.223604 -0.427785 -0.464328 -0.25269 -0.127256 -0.156072 0.226551 0.116125
43 0.273354 0.117546 0.553515 0.119672 -0.0362481 -0.109251 -0.0883428 0.402928 -0.0704806 -0.0983712 0.305505 0.343076 -0.0997294 0.162858 0.00163466 0.106292 -0.236057 -0.394202 -0.454708 -0.217221 -0.112612 -0.161076 0.24431 0.109194
247 0.24483 0.118808 0.534866 0.147976 -0.0555913 -0.110917 -0.0733331 0.365895 -0.0605564 -0.0698587 0.283604 0.318582 -0.101694 0.126512 0.0345508 0.112859 -0.202199 -0.368391 -0.414299 -0.187362 -0.137553 -0.12128 0.227774 0.106949
846 0.337704 0.199079 0.720228 0.278266 -0.0661346 -0.180777 -0.0231071 0.515337 -0.0987076 -0.0975186 0.450044 0.531495 -0.223647 0.174988 0.109331 0.116048 -0.32246 -0.527386 -0.6242 -0.258341 -0.246244 -0.272311 0.396601 0.157787
904 0.320508 0.110767 0.604349 0.126101 -0.0617662 -0.148283 -0.0864428 0.515115 -0.0160446 -0.110678 0.410298 0.391012 -0.218409 0.219123 0.0118325 0.0881532 -0.313013 -0.427322 -0.48513 -0.288182 -0.193837 -0.0901896 0.218031 0.115275
1224 0.300643 0.103741 0.556016 0.162351 -0.0133665 -0.17012 -0.0644489 0.490051 -0.0242694 -0.0667261 0.377538 0.372237 -0.239694 0.172262 0.075609 0.0765626 -0.328637 -0.454832 -0.458436 -0.231891 -0.167589 -0.0953154 0.21855 0.113205
219 0.250224 0.0825868 0.513373 0.0596851 -0.0249672 -0.0904989 -0.0949704 0.373938 -0.0934591 -0.0905417 0.272605 0.274984 -0.0619727 0.134626 -0.0260087 0.124869 -0.1795 -0.355531 -0.368666 -0.205937 -0.0666651 -0.0903535 0.188266 0.111532
3984 0.259794 0.142384 0.580836 0.231426 -0.0181497 -0.0630106 0.00175778 0.403835 -0.0751361 -0.0682984 0.295971 0.414062 -0.149323 0.173343 0.0791179 0.126882 -0.254341 -0.387484 -0.445946 -0.193638 -0.180162 -0.173793 0.30707 0.132584
667 0.197943 0.0686205 0.435692 0.0977175 -0.0479443 -0.0258616 -0.0863474 0.290361 -0.0585404 -0.111324 0.247485 0.253376 -0.0872172 0.145888 -0.0154262 0.10428 -0.153691 -0.297271 -0.340949 -0.175237 -0.116442 -0.101086 0.18956 0.0750677
2382 0.298506 0.189216 0.658896 0.207051 -0.034579 -0.105986 -0.0180375 0.461603 -0.097399 -0.0768791 0.39338 0.460027 -0.187394 0.184771 0.0501998 0.116605 -0.287386 -0.481371 -0.566351 -0.226444 -0.179082 -0.222049 0.328348 0.161605
2457 0.231333 0.082894 0.475167 0.10082 -0.0358314 -0.0466098 -0.0823441 0.331496 -0.0623242 -0.139473 0.273653 0.299298 -0.0680065 0.126568 0.00935211 0.127853 -0.166845 -0.313691 -0.382853 -0.172168 -0.115138 -0.131787 0.245129 0.0967509
2527 0.257669 0.0683727 0.577985 0.183563 -0.0820722 -0.0738729 -0.0622581 0.387934 -0.0925461 -0.189074 0.336185 0.361148 -0.11874 0.161273 0.0169998 0.124197 -0.219834 -0.33644 -0.441459 -0.131763 -0.136723 -0.151025 0.285314 0.153053
2740 0.299956 0.16054 0.612482 0.184295 -0.0793267 -0.126426 -0.0583825 0.474585 -0.0807265 -0.0930699 0.368511 0.415197 -0.153044 0.198118 0.0204788 0.121137 -0.267985 -0.450923 -0.521354 -0.215515 -0.18967 -0.170762 0.315041 0.113956
1071 0.244201 0.186762 0.615829 0.186372 -0.0288214 -0.16872 -0.0682985 0.408111 -0.0764718 -0.131622 0.377206 0.399125 -0.196899 0.177415 0.0509354 0.112647 -0.285941 -0.441052 -0.515964 -0.218211 -0.206405 -0.171423 0.306124 0.110019
3985 0.288601 0.149577 0.592987 0.20461 -0.0226295 -0.0438659 -0.0486429 0.447342 -0.0835493 -0.101281 0.333849 0.421204 -0.143532 0.198894 0.0598113 0.152013 -0.293805 -0.432512 -0.487275 -0.203232 -0.187263 -0.181543 0.326863 0.16141
3271 0.421364 0.253039 0.917913 0.30088 -0.0938129 -0.158672 -0.0533468 0.676089 -0.158476 -0.16754 0.569807 0.626031 -0.259995 0.237458 0.0524087 0.174333 -0.407823 -0.691581 -0.763314 -0.3268 -0.302187 -0.289165 0.480841 0.219781
624 0.276543 0.136668 0.558157 0.179689 -0.0413366 -0.085686 -0.0673871 0.389849 -0.0969065 -0.0710981 0.333177 0.381745 -0.150366 0.135356 0.0268414 0.121752 -0.203675 -0.371722 -0.44273 -0.217013 -0.161542 -0.162268 0.267694 0.137192
2596 0.0890768 0.347277 0.10662 0.455724 0.0495348 -0.25498 0.359957 0.157664 -0.0544436 0.189296 0.0953493 0.4146 -0.200205 -0.153362 0.273187 -0.0664831 -0.193793 -0.239152 -0.362482 0.0913055 -0.241484 -0.280318 0.276359 0.0617241
918 0.0838789 0.36257 0.092363 0.453726 0.0398885 -0.23046 0.374729 0.146903 -0.0317 0.158094 0.105272 0.446141 -0.220496 -0.111136 0.255247 -0.0582165 -0.183731 -0.219105 -0.364051 0.118909 -0.252639 -0.305029 0.300134 0.0535736
1270 0.0684946 0.307855 0.0588682 0.365232 0.0418774 -0.175334 0.307671 0.123514 -0.0232006 0.143483 0.0576287 0.329388 -0.147136 -0.116686 0.191099 -0.0433756 -0.155313 -0.191461 -0.279791 0.0806013 -0.202688 -0.226796 0.248622 0.034718
