415 24
0 -0.872801 -0.208571 0.802772 0.200047 1.15074 -1.22093 0.239294 -0.194354 -1.33469 -1.43102 1.01974 -1.1243 0.385152 0.123272 -1.70248 -0.826164 1.32828 -0.0485186 -0.223551 -1.38658 0.422655 -0.742255 0.510223 1.05454
11 -0.872801 -0.208571 0.802772 0.200047 1.15074 -1.22093 0.239294 -0.194354 -1.33469 -1.43102 1.01974 -1.1243 0.385152 0.123272 -1.70248 -0.826164 1.32828 -0.0485186 -0.223551 -1.38658 0.422655 -0.742255 0.510223 1.05454
12 -0.808538 -0.194488 0.735164 0.180898 1.06287 -1.11593 0.213621 -0.185196 -1.22069 -1.32473 0.922711 -1.02856 0.33803 0.114465 -1.56213 -0.761795 1.22734 -0.0498513 -0.216181 -1.27616 0.37989 -0.695969 0.470326 0.977725
15 -0.832101 -0.199652 0.759953 0.187919 1.09509 -1.15443 0.223034 -0.188554 -1.26249 -1.3637 0.95829 -1.06367 0.355308 0.117694 -1.61359 -0.785397 1.26435 -0.0493626 -0.218883 -1.31665 0.39557 -0.712941 0.484955 1.00589
17 -0.872801 -0.208571 0.802772 0.200047 1.15074 -1.22093 0.239294 -0.194354 -1.33469 -1.43102 1.01974 -1.1243 0.385152 0.123272 -1.70248 -0.826164 1.32828 -0.0485186 -0.223551 -1.38658 0.422655 -0.742255 0.510223 1.05454
18 -0.262308 -0.0747768 0.160497 0.0181306 0.315947 -0.223391 -0.00460587 -0.107352 -0.251673 -0.421279 0.0979359 -0.21476 -0.062508 0.0396063 -0.369174 -0.214655 0.369391 -0.061179 -0.153542 -0.33761 0.0163848 -0.302534 0.131202 0.324832
27 -0.872801 -0.208571 0.802772 0.200047 1.15074 -1.22093 0.239294 -0.194354 -1.33469 -1.43102 1.01974 -1.1243 0.385152 0.123272 -1.70248 -0.826164 1.32828 -0.0485186 -0.223551 -1.38658 0.422655 -0.742255 0.510223 1.05454
30 -0.872801 -0.208571 0.802772 0.200047 1.15074 -1.22093 0.239294 -0.194354 -1.33469 -1.43102 1.01974 -1.1243 0.385152 0.123272 -1.70248 -0.826164 1.32828 -0.0485186 -0.223551 -1.38658 0.422655 -0.742255 0.510223 1.05454
32 -0.872801 -0.208571 0.802772 0.200047 1.15074 -1.22093 0.239294 -0.194354 -1.33469 -1.43102 1.01974 -1.1243 0.385152 0.123272 -1.70248 -0.826164 1.32828 -0.0485186 -0.223551 -1.38658 0.422655 -0.742255 0.510223 1.05454
33 0.131006 0.216737 0.332249 -0.0210918 -0.248054 -0.285909 0.325078 0.195675 -0.358168 0.230496 0.682807 -0.198317 0.601586 -0.133392 -0.430039 -0.0252471 0.125057 -0.0148709 0.48478 -0.270974 0.26008 0.361871 0.0140726 -0.17424
35 -0.872801 -0.208571 0.802772 0.200047 1.15074 -1.22093 0.239294 -0.194354 -1.33469 -1.43102 1.01974 -1.1243 0.385152 0.123272 -1.70248 -0.826164 1.32828 -0.0485186 -0.223551 -1.38658 0.422655 -0.742255 0.510223 1.05454
36 -0.872801 -0.208571 0.802772 0.200047 1.15074 -1.22093 0.239294 -0.194354 -1.33469 -1.43102 1.01974 -1.1243 0.385152 0.123272 -1.70248 -0.826164 1.32828 -0.0485186 -0.223551 -1.38658 0.422655 -0.742255 0.510223 1.05454
37 -0.872801 -0.208571 0.802772 0.200047 1.15074 -1.22093 0.239294 -0.194354 -1.33469 -1.43102 1.01974 -1.1243 0.385152 0.123272 -1.70248 -0.826164 1.32828 -0.0485186 -0.223551 -1.38658 0.422655 -0.742255 0.510223 1.05454
41 -0.872801 -0.208571 0.802772 0.200047 1.15074 -1.22093 0.239294 -0.194354 -1.33469 -1.43102 1.01974 -1.1243 0.385152 0.123272 -1.70248 -0.826164 1.32828 -0.0485186 -0.223551 -1.38658 0.422655 -0.742255 0.510223 1.05454
42 0.168883 0.258904 0.374148 -0.0128991 -0.263904 -0.317797 0.333892 0.231208 -0.351894 0.245952 0.678949 -0.215752 0.641836 -0.106857 -0.449925 0.00151202 0.0952191 -0.0213184 0.534549 -0.243078 0.305164 0.430344 -0.0147841 -0.197165
43 -0.256453 -0.0902126 0.12814 0.0516356 0.342411 -0.235277 0.00411439 -0.096064 -0.290056 -0.429373 0.121996 -0.24119 -0.0530779 0.0342389 -0.345668 -0.242756 0.361104 -0.0417466 -0.164283 -0.356049 0.00836055 -0.332005 0.150357 0.360749
44 -0.872801 -0.208571 0.802772 0.200047 1.15074 -1.22093 0.239294 -0.194354 -1.33469 -1.43102 1.01974 -1.1243 0.385152 0.123272 -1.70248 -0.826164 1.32828 -0.0485186 -0.223551 -1.38658 0.422655 -0.742255 0.510223 1.05454
47 0.0439103 0.0809096 0.228701 0.0808988 -0.0866233 -0.236178 0.160542 0.0841534 -0.253901 0.0783122 0.467817 -0.151793 0.420939 -0.00449802 -0.289823 0.0470287 0.0785976 0.0743141 0.265205 -0.138852 0.275619 0.263431 0.00451923 -0.109527
49 -0.872801 -0.208571 0.802772 0.200047 1.15074 -1.22093 0.239294 -0.194354 -1.33469 -1.43102 1.01974 -1.1243 0.385152 0.123272 -1.70248 -0.826164 1.32828 -0.0485186 -0.223551 -1.38658 0.422655 -0.742255 0.510223 1.05454
51 -0.872801 -0.208571 0.802772 0.200047 1.15074 -1.22093 0.239294 -0.194354 -1.33469 -1.43102 1.01974 -1.1243 0.385152 0.123272 -1.70248 -0.826164 1.32828 -0.0485186 -0.223551 -1.38658 0.422655 -0.742255 0.510223 1.05454
62 -0.653764 -0.105633 0.742377 0.195991 0.828035 -1.03377 0.261609 -0.0843201 -1.16247 -1.06666 1.02286 -0.910591 0.502176 0.0936031 -1.46455 -0.613979 1.07687 -0.0287697 -0.0295883 -1.1633 0.454242 -0.457397 0.412552 0.749945
67 -0.872801 -0.208571 0.802772 0.200047 1.15074 -1.22093 0.239294 -0.194354 -1.33469 -1.43102 1.01974 -1.1243 0.385152 0.123272 -1.70248 -0.826164 1.32828 -0.0485186 -0.223551 -1.38658 0.422655 -0.742255 0.510223 1.05454
70 -0.811166 -0.196735 0.735309 0.185206 1.06991 -1.12237 0.215776 -0.184525 -1.23023 -1.33086 0.929969 -1.03599 0.341329 0.114368 -1.56679 -0.767824 1.23156 -0.0478414 -0.217624 -1.28353 0.381226 -0.70123 0.474237 0.985157
74 -0.290687 -0.106129 0.160817 0.0318732 0.346254 -0.251285 0.00341183 -0.111703 -0.292541 -0.479098 0.119298 -0.264816 -0.0368957 0.0372876 -0.37497 -0.238751 0.381228 -0.0606972 -0.145186 -0.370329 0.0467129 -0.3352 0.137331 0.375686
77 -0.872801 -0.208571 0.802772 0.200047 1.15074 -1.22093 0.239294 -0.194354 -1.33469 -1.43102 1.01974 -1.1243 0.385152 0.123272 -1.70248 -0.826164 1.32828 -0.0485186 -0.223551 -1.38658 0.422655 -0.742255 0.510223 1.05454
83 -0.872801 -0.208571 0.802772 0.200047 1.15074 -1.22093 0.239294 -0.194354 -1.33469 -1.43102 1.01974 -1.1243 0.385152 0.123272 -1.70248 -0.826164 1.32828 -0.0485186 -0.223551 -1.38658 0.422655 -0.742255 0.510223 1.05454
86 -0.872801 -0.208571 0.802772 0.200047 1.15074 -1.22093 0.239294 -0.194354 -1.33469 -1.43102 1.01974 -1.1243 0.385152 0.123272 -1.70248 -0.826164 1.32828 -0.0485186 -0.223551 -1.38658 0.422655 -0.742255 0.510223 1.05454
95 -0.872801 -0.208571 0.802772 0.200047 1.15074 -1.22093 0.239294 -0.194354 -1.33469 -1.43102 1.01974 -1.1243 0.385152 0.123272 -1.70248 -0.826164 1.32828 -0.0485186 -0.223551 -1.38658 0.422655 -0.742255 0.510223 1.05454
102 -0.872801 -0.208571 0.802772 0.200047 1.15074 -1.22093 0.239294 -0.194354 -1.33469 -1.43102 1.01974 -1.1243 0.385152 0.123272 -1.70248 -0.826164 1.32828 -0.0485186 -0.223551 -1.38658 0.422655 -0.742255 0.510223 1.05454
106 -0.872801 -0.208571 0.802772 0.200047 1.15074 -1.22093 0.239294 -0.194354 -1.33469 -1.43102 1.01974 -1.1243 0.385152 0.123272 -1.70248 -0.826164 1.32828 -0.0485186 -0.223551 -1.38658 0.422655 -0.742255 0.510223 1.05454
108 -0.872801 -0.208571 0.802772 0.200047 1.15074 -1.22093 0.239294 -0.194354 -1.33469 -1.43102 1.01974 -1.1243 0.385152 0.123272 -1.70248 -0.826164 1.32828 -0.0485186 -0.223551 -1.38658 0.422655 -0.742255 0.510223 1.05454
111 -0.872801 -0.208571 0.802772 0.200047 1.15074 -1.22093 0.239294 -0.194354 -1.33469 -1.43102 1.01974 -1.1243 0.385152 0.123272 -1.70248 -0.826164 1.32828 -0.0485186 -0.223551 -1.38658 0.422655 -0.742255 0.510223 1.05454
112 -0.872801 -0.208571 0.802772 0.200047 1.15074 -1.22093 0.239294 -0.194354 -1.33469 -1.43102 1.01974 -1.1243 0.385152 0.123272 -1.70248 -0.826164 1.32828 -0.0485186 -0.223551 -1.38658 0.422655 -0.742255 0.510223 1.05454
113 -0.748441 -0.182974 0.668694 0.169923 0.980826 -1.01998 0.1915 -0.171635 -1.1187 -1.22915 0.837999 -0.941408 0.298829 0.105445 -1.43463 -0.706126 1.13701 -0.0546292 -0.203324 -1.17298 0.343275 -0.653034 0.441064 0.905655
114 -0.27932 -0.098857 0.170118 0.0491315 0.381363 -0.262369 0.0379792 -0.092123 -0.323845 -0.463934 0.133606 -0.278241 -0.0510035 0.0640467 -0.406809 -0.249417 0.38356 -0.0533209 -0.150208 -0.385659 0.0325235 -0.323117 0.161544 0.385359
115 -0.738902 -0.185319 0.694449 0.206054 0.941803 -1.07111 0.215626 -0.157538 -1.16844 -1.19288 0.912734 -0.957204 0.377658 0.0902315 -1.43607 -0.732971 1.09839 -0.0192763 -0.184195 -1.1808 0.39003 -0.563557 0.433364 0.868461
123 -0.684282 -0.138248 0.694083 0.180589 0.90212 -1.03148 0.227196 -0.126546 -1.12861 -1.12104 0.932692 -0.931282 0.407105 0.0910711 -1.43434 -0.6497 1.07842 -0.0201031 -0.115511 -1.15172 0.399594 -0.528787 0.407538 0.809187
131 -0.872801 -0.208571 0.802772 0.200047 1.15074 -1.22093 0.239294 -0.194354 -1.33469 -1.43102 1.01974 -1.1243 0.385152 0.123272 -1.70248 -0.826164 1.32828 -0.0485186 -0.223551 -1.38658 0.422655 -0.742255 0.510223 1.05454
132 -0.872801 -0.208571 0.802772 0.200047 1.15074 -1.22093 0.239294 -0.194354 -1.33469 -1.43102 1.01974 -1.1243 0.385152 0.123272 -1.70248 -0.826164 1.32828 -0.0485186 -0.223551 -1.38658 0.422655 -0.742255 0.510223 1.05454
137 -0.872801 -0.208571 0.802772 0.200047 1.15074 -1.22093 0.239294 -0.194354 -1.33469 -1.43102 1.01974 -1.1243 0.385152 0.123272 -1.70248 -0.826164 1.32828 -0.0485186 -0.223551 -1.38658 0.422655 -0.742255 0.510223 1.05454
139 -0.872801 -0.208571 0.802772 0.200047 1.15074 -1.22093 0.239294 -0.194354 -1.33469 -1.43102 1.01974 -1.1243 0.385152 0.123272 -1.70248 -0.826164 1.32828 -0.0485186 -0.223551 -1.38658 0.422655 -0.742255 0.510223 1.05454
145 -0.656161 -0.171282 0.616494 0.194547 0.825183 -0.958587 0.19057 -0.136315 -1.04598 -1.05152 0.823244 -0.851818 0.349093 0.0736332 -1.26706 -0.662581 0.964929 -0.0111945 -0.166657 -1.04563 0.356257 -0.480149 0.383473 0.762671
147 -0.872801 -0.208571 0.802772 0.200047 1.15074 -1.22093 0.239294 -0.194354 -1.33469 -1.43102 1.01974 -1.1243 0.385152 0.123272 -1.70248 -0.826164 1.32828 -0.0485186 -0.223551 -1.38658 0.422655 -0.742255 0.510223 1.05454
152 -0.872801 -0.208571 0.802772 0.200047 1.15074 -1.22093 0.239294 -0.194354 -1.33469 -1.43102 1.01974 -1.1243 0.385152 0.123272 -1.70248 -0.826164 1.32828 -0.0485186 -0.223551 -1.38658 0.422655 -0.742255 0.510223 1.05454
154 0.0697902 0.143043 0.259329 0.102758 -0.0923743 -0.273636 0.178803 0.144689 -0.304281 0.118891 0.584486 -0.1592 0.494916 -0.0377306 -0.361823 0.0561562 0.0789763 0.0935591 0.31665 -0.212299 0.307351 0.325088 -0.00320369 -0.172207
155 -0.872801 -0.208571 0.802772 0.200047 1.15074 -1.22093 0.239294 -0.194354 -1.33469 -1.43102 1.01974 -1.1243 0.385152 0.123272 -1.70248 -0.826164 1.32828 -0.0485186 -0.223551 -1.38658 0.422655 -0.742255 0.510223 1.05454
160 -0.781535 -0.16568 0.777607 0.198357 1.01628 -1.14295 0.248592 -0.148507 -1.26293 -1.2792 1.02104 -1.03526 0.433912 0.11091 -1.60334 -0.737754 1.22352 -0.0402899 -0.142733 -1.29355 0.435816 -0.623564 0.469527 0.927623
166 -0.872801 -0.208571 0.802772 0.200047 1.15074 -1.22093 0.239294 -0.194354 -1.33469 -1.43102 1.01974 -1.1243 0.385152 0.123272 -1.70248 -0.826164 1.32828 -0.0485186 -0.223551 -1.38658 0.422655 -0.742255 0.510223 1.05454
175 -0.749531 -0.184899 0.667845 0.170364 0.989077 -1.0238 0.192258 -0.174696 -1.12576 -1.23069 0.840194 -0.94768 0.297506 0.105465 -1.43111 -0.709483 1.13484 -0.0471642 -0.211697 -1.18047 0.339796 -0.660205 0.43825 0.915779
176 -0.872801 -0.208571 0.802772 0.200047 1.15074 -1.22093 0.239294 -0.194354 -1.33469 -1.43102 1.01974 -1.1243 0.385152 0.123272 -1.70248 -0.826164 1.32828 -0.0485186 -0.223551 -1.38658 0.422655 -0.742255 0.510223 1.05454
182 -0.872801 -0.208571 0.802772 0.200047 1.15074 -1.22093 0.239294 -0.194354 -1.33469 -1.43102 1.01974 -1.1243 0.385152 0.123272 -1.70248 -0.826164 1.32828 -0.0485186 -0.223551 -1.38658 0.422655 -0.742255 0.510223 1.05454
183 -0.872801 -0.208571 0.802772 0.200047 1.15074 -1.22093 0.239294 -0.194354 -1.33469 -1.43102 1.01974 -1.1243 0.385152 0.123272 -1.70248 -0.826164 1.32828 -0.0485186 -0.223551 -1.38658 0.422655 -0.742255 0.510223 1.05454
191 -0.803099 -0.196443 0.746857 0.202433 1.04744 -1.14657 0.225963 -0.17259 -1.25086 -1.30606 0.972556 -1.04462 0.387321 0.105822 -1.57217 -0.77825 1.21245 -0.0347491 -0.202353 -1.28076 0.410736 -0.649989 0.468634 0.957026
193 -0.872801 -0.208571 0.802772 0.200047 1.15074 -1.22093 0.239294 -0.194354 -1.33469 -1.43102 1.01974 -1.1243 0.385152 0.123272 -1.70248 -0.826164 1.32828 -0.0485186 -0.223551 -1.38658 0.422655 -0.742255 0.510223 1.05454
199 -0.643623 -0.136201 0.659254 0.17026 0.841402 -0.974746 0.219606 -0.124727 -1.06449 -1.05369 0.881762 -0.881175 0.394098 0.0913292 -1.34931 -0.607866 1.01586 -0.0178104 -0.101362 -1.07465 0.385896 -0.490834 0.383797 0.76352
201 -0.872801 -0.208571 0.802772 0.200047 1.15074 -1.22093 0.239294 -0.194354 -1.33469 -1.43102 1.01974 -1.1243 0.385152 0.123272 -1.70248 -0.826164 1.32828 -0.0485186 -0.223551 -1.38658 0.422655 -0.742255 0.510223 1.05454
202 -0.872801 -0.208571 0.802772 0.200047 1.15074 -1.22093 0.239294 -0.194354 -1.33469 -1.43102 1.01974 -1.1243 0.385152 0.123272 -1.70248 -0.826164 1.32828 -0.0485186 -0.223551 -1.38658 0.422655 -0.742255 0.510223 1.05454
205 -0.244657 -0.105062 0.161907 0.020126 0.31851 -0.233011 0.0121872 -0.0864805 -0.270348 -0.444593 0.0911434 -0.247068 -0.0441141 0.0195951 -0.354667 -0.218618 0.347592 -0.0566523 -0.132976 -0.330455 0.00507601 -0.301422 0.137985 0.336923
207 -0.872801 -0.208571 0.802772 0.200047 1.15074 -1.22093 0.239294 -0.194354 -1.33469 -1.43102 1.01974 -1.1243 0.385152 0.123272 -1.70248 -0.826164 1.32828 -0.0485186 -0.223551 -1.38658 0.422655 -0.742255 0.510223 1.05454
209 -0.251003 -0.0805875 0.132381 0.0494264 0.301155 -0.216168 0.000320548 -0.0807587 -0.254744 -0.421659 0.11102 -0.209829 -0.0464629 0.0341386 -0.363262 -0.225974 0.371927 -0.0790714 -0.122416 -0.318562 0.0257543 -0.296149 0.164427 0.310131
210 -0.872801 -0.208571 0.802772 0.200047 1.15074 -1.22093 0.239294 -0.194354 -1.33469 -1.43102 1.01974 -1.1243 0.385152 0.123272 -1.70248 -0.826164 1.32828 -0.0485186 -0.223551 -1.38658 0.422655 -0.742255 0.510223 1.05454
215 -0.283056 -0.111094 0.165727 0.0223321 0.339834 -0.238247 0.00114408 -0.0847542 -0.293678 -0.475174 0.119122 -0.270916 -0.0557735 0.034209 -0.36727 -0.22929 0.389935 -0.0421227 -0.153681 -0.352421 0.0276101 -0.324338 0.157103 0.371447
216 -0.765833 -0.160408 0.771805 0.197596 0.988276 -1.12005 0.246195 -0.145147 -1.24601 -1.25225 1.01325 -1.01671 0.436559 0.104595 -1.58067 -0.722781 1.20685 -0.0454386 -0.129697 -1.27692 0.432271 -0.604009 0.457803 0.905222
218 -0.872801 -0.208571 0.802772 0.200047 1.15074 -1.22093 0.239294 -0.194354 -1.33469 -1.43102 1.01974 -1.1243 0.385152 0.123272 -1.70248 -0.826164 1.32828 -0.0485186 -0.223551 -1.38658 0.422655 -0.742255 0.510223 1.05454
233 0.196874 0.273059 0.493103 0.175539 -0.473935 -0.212061 0.308298 0.297723 -0.447915 0.356726 0.954838 -0.0483926 0.899226 -0.0634917 -0.484392 0.207674 0.114001 -0.0177187 0.714989 -0.289957 0.51882 0.640213 -0.013976 -0.438603
234 -0.872801 -0.208571 0.802772 0.200047 1.15074 -1.22093 0.239294 -0.194354 -1.33469 -1.43102 1.01974 -1.1243 0.385152 0.123272 -1.70248 -0.826164 1.32828 -0.0485186 -0.223551 -1.38658 0.422655 -0.742255 0.510223 1.05454
239 -0.872801 -0.208571 0.802772 0.200047 1.15074 -1.22093 0.239294 -0.194354 -1.33469 -1.43102 1.01974 -1.1243 0.385152 0.123272 -1.70248 -0.826164 1.32828 -0.0485186 -0.223551 -1.38658 0.422655 -0.742255 0.510223 1.05454
241 -0.872801 -0.208571 0.802772 0.200047 1.15074 -1.22093 0.239294 -0.194354 -1.33469 -1.43102 1.01974 -1.1243 0.385152 0.123272 -1.70248 -0.826164 1.32828 -0.0485186 -0.223551 -1.38658 0.422655 -0.742255 0.510223 1.05454
243 -0.872801 -0.208571 0.802772 0.200047 1.15074 -1.22093 0.239294 -0.194354 -1.33469 -1.43102 1.01974 -1.1243 0.385152 0.123272 -1.70248 -0.826164 1.32828 -0.0485186 -0.223551 -1.38658 0.422655 -0.742255 0.510223 1.05454
244 -0.0694067 -0.0690567 0.152836 0.236092 -0.102903 -0.322015 0.0972867 0.0265405 -0.337195 -0.00214956 0.377684 -0.12171 0.340188 -0.0749686 -0.104032 -0.267003 -0.0510106 0.126935 0.0125845 -0.151914 0.226907 0.329934 0.0490666 -0.0619129
246 -0.872801 -0.208571 0.802772 0.200047 1.15074 -1.22093 0.239294 -0.194354 -1.33469 -1.43102 1.01974 -1.1243 0.385152 0.123272 -1.70248 -0.826164 1.32828 -0.0485186 -0.223551 -1.38658 0.422655 -0.742255 0.510223 1.05454
255 -0.781129 -0.179623 0.745365 0.188132 1.02701 -1.12246 0.231419 -0.166503 -1.22661 -1.28009 0.964551 -1.02705 0.38873 0.110495 -1.56121 -0.738845 1.20331 -0.0362353 -0.174675 -1.26181 0.407951 -0.641687 0.459653 0.93813
256 0.222383 0.306119 0.500799 0.179768 -0.462804 -0.285129 0.350865 0.355816 -0.473595 0.390766 1.03531 -0.0557452 0.970275 -0.0250709 -0.512844 0.234762 0.0712462 0.050226 0.746261 -0.270179 0.580589 0.682038 0.0218686 -0.468421
268 -0.872801 -0.208571 0.802772 0.200047 1.15074 -1.22093 0.239294 -0.194354 -1.33469 -1.43102 1.01974 -1.1243 0.385152 0.123272 -1.70248 -0.826164 1.32828 -0.0485186 -0.223551 -1.38658 0.422655 -0.742255 0.510223 1.05454
270 -0.872801 -0.208571 0.802772 0.200047 1.15074 -1.22093 0.239294 -0.194354 -1.33469 -1.43102 1.01974 -1.1243 0.385152 0.123272 -1.70248 -0.826164 1.32828 -0.0485186 -0.223551 -1.38658 0.422655 -0.742255 0.510223 1.05454
271 -0.872801 -0.208571 0.802772 0.200047 1.15074 -1.22093 0.239294 -0.194354 -1.33469 -1.43102 1.01974 -1.1243 0.385152 0.123272 -1.70248 -0.826164 1.32828 -0.0485186 -0.223551 -1.38658 0.422655 -0.742255 0.510223 1.05454
272 -0.669303 -0.163973 0.58868 0.139408 0.872478 -0.88842 0.157994 -0.165353 -0.973684 -1.09444 0.712475 -0.821121 0.235932 0.0953832 -1.25804 -0.622328 1.00865 -0.0527388 -0.200214 -1.03692 0.287232 -0.595682 0.383883 0.811301
274 -0.872801 -0.208571 0.802772 0.200047 1.15074 -1.22093 0.239294 -0.194354 -1.33469 -1.43102 1.01974 -1.1243 0.385152 0.123272 -1.70248 -0.826164 1.32828 -0.0485186 -0.223551 -1.38658 0.422655 -0.742255 0.510223 1.05454
279 -0.872801 -0.208571 0.802772 0.200047 1.15074 -1.22093 0.239294 -0.194354 -1.33469 -1.43102 1.01974 -1.1243 0.385152 0.123272 -1.70248 -0.826164 1.32828 -0.0485186 -0.223551 -1.38658 0.422655 -0.742255 0.510223 1.05454
282 -0.0363855 -0.0630331 0.131794 0.228679 -0.0889051 -0.328589 0.0793163 0.0668116 -0.328782 0.0684549 0.453486 -0.168094 0.411179 -0.0861225 -0.138822 -0.251189 -0.0616586 0.116715 0.0308253 -0.116722 0.279626 0.364941 0.0111583 -0.11558
287 -0.829194 -0.199014 0.756895 0.187053 1.09112 -1.14968 0.221873 -0.18814 -1.25733 -1.3589 0.9539 -1.05933 0.353176 0.117295 -1.60724 -0.782485 1.25978 -0.0494229 -0.21855 -1.31165 0.393636 -0.710847 0.48315 1.00241
292 -0.76262 -0.172033 0.746324 0.200725 0.981431 -1.10871 0.235 -0.152415 -1.22385 -1.24181 0.978158 -1.00204 0.412746 0.100624 -1.5368 -0.732459 1.17571 -0.036386 -0.154452 -1.24945 0.416797 -0.597864 0.452261 0.901031
294 -0.872801 -0.208571 0.802772 0.200047 1.15074 -1.22093 0.239294 -0.194354 -1.33469 -1.43102 1.01974 -1.1243 0.385152 0.123272 -1.70248 -0.826164 1.32828 -0.0485186 -0.223551 -1.38658 0.422655 -0.742255 0.510223 1.05454
306 -0.753313 -0.18778 0.706918 0.204137 0.973651 -1.09346 0.21644 -0.157045 -1.19099 -1.21681 0.93885 -0.987701 0.38887 0.0933581 -1.4791 -0.744025 1.12971 -0.0249138 -0.187211 -1.20517 0.402222 -0.584084 0.438928 0.887376
307 -0.872801 -0.208571 0.802772 0.200047 1.15074 -1.22093 0.239294 -0.194354 -1.33469 -1.43102 1.01974 -1.1243 0.385152 0.123272 -1.70248 -0.826164 1.32828 -0.0485186 -0.223551 -1.38658 0.422655 -0.742255 0.510223 1.05454
312 -0.872801 -0.208571 0.802772 0.200047 1.15074 -1.22093 0.239294 -0.194354 -1.33469 -1.43102 1.01974 -1.1243 0.385152 0.123272 -1.70248 -0.826164 1.32828 -0.0485186 -0.223551 -1.38658 0.422655 -0.742255 0.510223 1.05454
317 -0.872801 -0.208571 0.802772 0.200047 1.15074 -1.22093 0.239294 -0.194354 -1.33469 -1.43102 1.01974 -1.1243 0.385152 0.123272 -1.70248 -0.826164 1.32828 -0.0485186 -0.223551 -1.38658 0.422655 -0.742255 0.510223 1.05454
318 -0.325209 0.0487737 0.651785 0.189907 0.34397 -0.753032 0.29508 0.080731 -0.904142 -0.520127 1.02752 -0.590024 0.677713 0.0491004 -1.10766 -0.295701 0.699761 0.000853715 0.261355 -0.82838 0.501622 -0.0301089 0.266046 0.293058
319 -0.768068 -0.169503 0.742389 0.189237 1.01262 -1.11568 0.232573 -0.156683 -1.2202 -1.25881 0.971382 -1.01707 0.397348 0.105382 -1.55351 -0.728129 1.18946 -0.0327322 -0.163528 -1.2561 0.409843 -0.623662 0.453176 0.918231
321 -0.749531 -0.184899 0.667845 0.170364 0.989077 -1.0238 0.192258 -0.174696 -1.12576 -1.23069 0.840194 -0.94768 0.297506 0.105465 -1.43111 -0.709483 1.13484 -0.0471642 -0.211697 -1.18047 0.339796 -0.660205 0.43825 0.915779
325 -0.872801 -0.208571 0.802772 0.200047 1.15074 -1.22093 0.239294 -0.194354 -1.33469 -1.43102 1.01974 -1.1243 0.385152 0.123272 -1.70248 -0.826164 1.32828 -0.0485186 -0.223551 -1.38658 0.422655 -0.742255 0.510223 1.05454
330 -0.872801 -0.208571 0.802772 0.200047 1.15074 -1.22093 0.239294 -0.194354 -1.33469 -1.43102 1.01974 -1.1243 0.385152 0.123272 -1.70248 -0.826164 1.32828 -0.0485186 -0.223551 -1.38658 0.422655 -0.742255 0.510223 1.05454
335 -0.872801 -0.208571 0.802772 0.200047 1.15074 -1.22093 0.239294 -0.194354 -1.33469 -1.43102 1.01974 -1.1243 0.385152 0.123272 -1.70248 -0.826164 1.32828 -0.0485186 -0.223551 -1.38658 0.422655 -0.742255 0.510223 1.05454
336 -0.872801 -0.208571 0.802772 0.200047 1.15074 -1.22093 0.239294 -0.194354 -1.33469 -1.43102 1.01974 -1.1243 0.385152 0.123272 -1.70248 -0.826164 1.32828 -0.0485186 -0.223551 -1.38658 0.422655 -0.742255 0.510223 1.05454
337 -0.632261 -0.097869 0.734812 0.19507 0.790941 -1.00486 0.259358 -0.0785489 -1.14048 -1.02996 1.01426 -0.886028 0.507285 0.0860376 -1.43495 -0.593413 1.05369 -0.0341248 -0.0115116 -1.14069 0.450888 -0.430393 0.397717 0.719414
341 -0.872801 -0.208571 0.802772 0.200047 1.15074 -1.22093 0.239294 -0.194354 -1.33469 -1.43102 1.01974 -1.1243 0.385152 0.123272 -1.70248 -0.826164 1.32828 -0.0485186 -0.223551 -1.38658 0.422655 -0.742255 0.510223 1.05454
3290 -0.872801 -0.208571 0.802772 0.200047 1.15074 -1.22093 0.239294 -0.194354 -1.33469 -1.43102 1.01974 -1.1243 0.385152 0.123272 -1.70248 -0.826164 1.32828 -0.0485186 -0.223551 -1.38658 0.422655 -0.742255 0.510223 1.05454
1466 -0.270698 -0.0820081 0.146844 0.0176431 0.328567 -0.230731 -0.00482555 -0.0786931 -0.281405 -0.45899 0.104587 -0.220935 -0.0335197 0.0385887 -0.356777 -0.252187 0.357689 -0.0814171 -0.164594 -0.362034 0.017125 -0.345774 0.159154 0.334862
441 -0.872801 -0.208571 0.802772 0.200047 1.15074 -1.22093 0.239294 -0.194354 -1.33469 -1.43102 1.01974 -1.1243 0.385152 0.123272 -1.70248 -0.826164 1.32828 -0.0485186 -0.223551 -1.38658 0.422655 -0.742255 0.510223 1.05454
377 -0.250485 -0.104833 0.157881 0.0155142 0.327169 -0.210651 -0.00332077 -0.110351 -0.266724 -0.439769 0.123166 -0.232015 -0.0398582 0.0349941 -0.362005 -0.245163 0.360222 -0.043914 -0.125917 -0.313318 0.0369078 -0.297093 0.156881 0.342648
535 -0.250485 -0.104833 0.157881 0.0155142 0.327169 -0.210651 -0.00332077 -0.110351 -0.266724 -0.439769 0.123166 -0.232015 -0.0398582 0.0349941 -0.362005 -0.245163 0.360222 -0.043914 -0.125917 -0.313318 0.0369078 -0.297093 0.156881 0.342648
602 -0.219615 -0.0961108 0.136248 0.0116924 0.299213 -0.182848 0.0143954 -0.0947701 -0.223995 -0.425387 0.0943121 -0.21125 -0.0600695 0.0585727 -0.331374 -0.217436 0.336349 -0.0526671 -0.127521 -0.280369 0.0263404 -0.286108 0.132972 0.298955
613 -0.272015 -0.0948804 0.15337 0.0492669 0.362731 -0.244803 0.0115242 -0.0999418 -0.296145 -0.503514 0.114656 -0.282744 -0.0441237 0.0530441 -0.395182 -0.266216 0.405033 -0.0734847 -0.13813 -0.352607 0.0347807 -0.349759 0.153818 0.38895
639 -0.219615 -0.0961108 0.136248 0.0116924 0.299213 -0.182848 0.0143954 -0.0947701 -0.223995 -0.425387 0.0943121 -0.21125 -0.0600695 0.0585727 -0.331374 -0.217436 0.336349 -0.0526671 -0.127521 -0.280369 0.0263404 -0.286108 0.132972 0.298955
642 -0.285893 -0.0770751 0.18248 0.0502902 0.373469 -0.247841 0.0161169 -0.0769709 -0.296041 -0.494728 0.122524 -0.244798 -0.0203651 0.0334247 -0.397234 -0.251873 0.410863 -0.0429918 -0.131093 -0.373093 0.0221507 -0.344665 0.149049 0.370357
875 -0.225011 0.0728521 0.238728 -0.199595 0.115264 -0.345848 0.379888 0.214638 -0.356344 0.0966217 0.379842 -0.340109 0.460745 -0.0459688 -0.321619 0.0778653 0.0861713 0.139688 0.239635 -0.127768 0.160635 0.3255 0.0383323 0.00366954
891 -0.271115 -0.0840798 0.151823 0.0418324 0.327922 -0.216335 0.0260006 -0.101727 -0.291786 -0.442447 0.10149 -0.24845 -0.0457559 0.0461542 -0.364383 -0.22727 0.352837 -0.0606399 -0.157693 -0.337764 0.01697 -0.304106 0.143836 0.321687
892 -0.208933 0.0794252 0.26578 -0.173355 0.124098 -0.382752 0.353385 0.207994 -0.322148 0.120803 0.40555 -0.327954 0.473339 -0.0273848 -0.35576 0.0817284 0.0787662 0.170286 0.238342 -0.125875 0.208327 0.342066 0.0601019 -0.015667
3746 0.00879996 0.199712 0.151864 -0.0224499 -0.0243224 -0.348304 0.354656 -0.0361874 -0.447371 0.0942718 0.739427 -0.451533 0.530771 0.0731689 -0.4608 -0.0623783 0.0611288 0.184006 0.30654 -0.0940126 0.453577 0.517764 -0.0213928 -0.1943
3846 0.0467691 0.232303 0.258107 0.0240681 0.00320321 -0.442519 0.367935 0.0147032 -0.55739 0.0687619 0.871629 -0.471174 0.640302 0.0364406 -0.522565 -0.0629261 0.0522378 0.240627 0.372023 -0.1741 0.512819 0.578347 -0.0205763 -0.228347
3935 -0.246279 -0.0940399 0.136782 0.044505 0.3415 -0.233199 0.0110168 -0.083496 -0.27924 -0.440192 0.125587 -0.223843 -0.0588987 0.0440367 -0.353926 -0.238172 0.346124 -0.0443638 -0.145022 -0.332203 0.0338859 -0.336974 0.146708 0.337052
3974 -0.224271 -0.0990949 0.12901 0.0455967 0.294228 -0.183139 0.0223721 -0.0964769 -0.226057 -0.406905 0.08473 -0.219573 -0.0462959 0.0457714 -0.331152 -0.187802 0.343045 -0.0609305 -0.132677 -0.283233 0.000514365 -0.272877 0.127302 0.294218
3981 0.0157554 0.086952 0.203482 0.0477264 0.0654834 -0.367763 0.152227 0.102548 -0.338602 0.0380949 0.531925 -0.279501 0.462151 -0.0204978 -0.362869 -0.0267417 0.0538472 0.16828 0.188742 -0.17772 0.285372 0.245869 -0.0627144 -0.066506
3983 -0.0238382 0.107722 0.323692 0.111571 0.118103 -0.512305 0.19748 0.0790643 -0.504015 -0.0409004 0.729253 -0.398621 0.60492 -0.0156537 -0.58093 -0.0900601 0.16639 0.161307 0.225774 -0.318412 0.370044 0.280899 -0.0295167 -0.0355045
3984 0.075586 0.0808831 0.199956 0.087713 0.0428349 -0.41728 0.145343 0.0660826 -0.296486 0.0968679 0.520786 -0.286364 0.471558 -0.0341149 -0.361554 0.0218018 -0.00918596 0.222974 0.213492 -0.120589 0.336526 0.349723 -0.0629723 -0.10773
3987 0.0157554 0.086952 0.203482 0.0477264 0.0654834 -0.367763 0.152227 0.102548 -0.338602 0.0380949 0.531925 -0.279501 0.462151 -0.0204978 -0.362869 -0.0267417 0.0538472 0.16828 0.188742 -0.17772 0.285372 0.245869 -0.0627144 -0.066506
3992 0.102369 0.0723192 0.181639 0.0644047 0.0126889 -0.358131 0.140508 0.103429 -0.237858 0.1314 0.443541 -0.258549 0.401521 -0.00366459 -0.305686 0.0219745 -0.0222915 0.187583 0.188666 -0.131844 0.249607 0.289698 -0.0998499 -0.0991174
3996 0.0130011 0.0756028 0.25062 0.0700242 0.0595076 -0.408329 0.175427 0.0897793 -0.368267 0.026836 0.56445 -0.312372 0.494809 -0.0210376 -0.430585 -0.0308998 0.0842532 0.149829 0.208889 -0.21937 0.300791 0.262632 -0.0174177 -0.0464139
3999 0.11129 0.0837597 0.162274 0.0635146 0.121863 -0.485999 0.115616 0.0883173 -0.260834 0.0875047 0.523837 -0.337241 0.463939 0.00567738 -0.392012 0.00857414 -0.0326622 0.319814 0.134807 -0.147222 0.317296 0.274586 -0.124352 -0.0723192
4001 0.157658 0.0160891 0.173933 0.166843 0.116 -0.597459 0.117549 0.00806761 -0.238325 0.148395 0.524237 -0.371309 0.564549 -0.0323439 -0.393089 0.0744366 -0.193935 0.405386 0.141208 -0.119996 0.439143 0.476905 -0.0776489 -0.161611
4005 0.107358 0.0781944 0.14877 0.0670578 0.149341 -0.502015 0.109331 0.0651993 -0.266172 0.0850729 0.521708 -0.358839 0.462216 -0.0118368 -0.380076 -0.0188411 -0.0622747 0.343693 0.148137 -0.142576 0.308162 0.29187 -0.142475 -0.088643
4008 0.102369 0.0723192 0.181639 0.0644047 0.0126889 -0.358131 0.140508 0.103429 -0.237858 0.1314 0.443541 -0.258549 0.401521 -0.00366459 -0.305686 0.0219745 -0.0222915 0.187583 0.188666 -0.131844 0.249607 0.289698 -0.0998499 -0.0991174
4010 0.0379125 0.0917266 0.240864 0.10281 0.0462247 -0.435378 0.170262 0.0854218 -0.344362 0.058429 0.593212 -0.315529 0.523012 -0.00768081 -0.431942 -0.00802975 0.0451322 0.196318 0.24585 -0.203839 0.359683 0.321326 -0.0553287 -0.0874408
4012 0.00261249 0.092898 0.269003 0.0688593 0.0690927 -0.457731 0.184165 0.107179 -0.383919 0.0163522 0.608587 -0.331755 0.487259 -0.0158275 -0.462648 -0.0360156 0.119955 0.178466 0.212404 -0.233623 0.322956 0.26192 -0.0547355 -0.00614374
4019 0.00261249 0.092898 0.269003 0.0688593 0.0690927 -0.457731 0.184165 0.107179 -0.383919 0.0163522 0.608587 -0.331755 0.487259 -0.0158275 -0.462648 -0.0360156 0.119955 0.178466 0.212404 -0.233623 0.322956 0.26192 -0.0547355 -0.00614374
4022 0.0468521 0.0991374 0.227921 0.0976874 0.0268587 -0.434196 0.165215 0.0941327 -0.312318 0.0807238 0.570669 -0.279906 0.502229 -0.0183065 -0.388355 0.00341601 -0.00366416 0.227118 0.202539 -0.157997 0.32606 0.320104 -0.0503259 -0.118649
4028 0.011624 0.0699282 0.274189 0.0811731 0.0565197 -0.428612 0.187026 0.083395 -0.383099 0.0212065 0.580713 -0.328808 0.511138 -0.0213075 -0.464443 -0.0329789 0.0994562 0.140603 0.218962 -0.240195 0.3085 0.271014 0.00523065 -0.0363678
4029 0.195498 0.0605292 0.151484 0.170076 0.0978051 -0.526093 0.121734 0.00451219 -0.306681 0.14567 0.562891 -0.331893 0.617961 0.00181807 -0.40686 0.0546647 -0.184452 0.386033 0.212451 -0.0834466 0.426525 0.487481 -0.0482801 -0.227803
4032 0.0477567 0.100228 0.236286 0.0858241 0.0638966 -0.468662 0.184411 0.0743174 -0.355486 0.067719 0.586409 -0.322119 0.564202 -0.0385148 -0.451201 0.00092647 -0.00130852 0.219946 0.23382 -0.210595 0.367186 0.348794 -0.0537988 -0.114142
4034 0.0247682 0.0808274 0.257527 0.0919916 0.0513722 -0.431995 0.178644 0.0844084 -0.36373 0.0398178 0.586963 -0.322169 0.517075 -0.0144941 -0.448193 -0.0205043 0.0722942 0.168461 0.232406 -0.222017 0.334091 0.29617 -0.025049 -0.0619043
4035 -0.00441541 0.0925038 0.242311 0.0572591 0.0923152 -0.407335 0.18446 0.0827174 -0.392569 -0.0235582 0.5976 -0.348134 0.509073 -0.00603694 -0.456067 -0.0528841 0.087918 0.12955 0.195405 -0.25445 0.326031 0.24513 -0.0398594 -0.0567813
4036 0.14146 0.0834194 0.140793 0.0510687 0.100634 -0.467924 0.104271 0.108662 -0.207927 0.115131 0.484457 -0.307687 0.437121 0.023955 -0.363778 0.0502332 -0.0487826 0.332412 0.105949 -0.116701 0.314053 0.259497 -0.128821 -0.066623
4038 0.0477567 0.100228 0.236286 0.0858241 0.0638966 -0.468662 0.184411 0.0743174 -0.355486 0.067719 0.586409 -0.322119 0.564202 -0.0385148 -0.451201 0.00092647 -0.00130852 0.219946 0.23382 -0.210595 0.367186 0.348794 -0.0537988 -0.114142
6 -0.872801 -0.208571 0.802772 0.200047 1.15074 -1.22093 0.239294 -0.194354 -1.33469 -1.43102 1.01974 -1.1243 0.385152 0.123272 -1.70248 -0.826164 1.32828 -0.0485186 -0.223551 -1.38658 0.422655 -0.742255 0.510223 1.05454
14 -0.872801 -0.208571 0.802772 0.200047 1.15074 -1.22093 0.239294 -0.194354 -1.33469 -1.43102 1.01974 -1.1243 0.385152 0.123272 -1.70248 -0.826164 1.32828 -0.0485186 -0.223551 -1.38658 0.422655 -0.742255 0.510223 1.05454
28 -0.674974 -0.172 0.591887 0.149742 0.894284 -0.901413 0.172189 -0.160277 -0.997741 -1.10866 0.724365 -0.842282 0.239767 0.10353 -1.27059 -0.633915 1.01337 -0.0501194 -0.199103 -1.05294 0.292611 -0.602543 0.393997 0.831477
52 -0.733213 -0.185569 0.660357 0.160064 0.965803 -1.0014 0.188826 -0.170382 -1.09817 -1.21181 0.813388 -0.929361 0.289759 0.100232 -1.40296 -0.691154 1.11035 -0.0503261 -0.203423 -1.15189 0.32986 -0.644292 0.427504 0.895066
60 -0.872801 -0.208571 0.802772 0.200047 1.15074 -1.22093 0.239294 -0.194354 -1.33469 -1.43102 1.01974 -1.1243 0.385152 0.123272 -1.70248 -0.826164 1.32828 -0.0485186 -0.223551 -1.38658 0.422655 -0.742255 0.510223 1.05454
61 -0.872801 -0.208571 0.802772 0.200047 1.15074 -1.22093 0.239294 -0.194354 -1.33469 -1.43102 1.01974 -1.1243 0.385152 0.123272 -1.70248 -0.826164 1.32828 -0.0485186 -0.223551 -1.38658 0.422655 -0.742255 0.510223 1.05454
65 -0.872801 -0.208571 0.802772 0.200047 1.15074 -1.22093 0.239294 -0.194354 -1.33469 -1.43102 1.01974 -1.1243 0.385152 0.123272 -1.70248 -0.826164 1.32828 -0.0485186 -0.223551 -1.38658 0.422655 -0.742255 0.510223 1.05454
73 -0.872801 -0.208571 0.802772 0.200047 1.15074 -1.22093 0.239294 -0.194354 -1.33469 -1.43102 1.01974 -1.1243 0.385152 0.123272 -1.70248 -0.826164 1.32828 -0.0485186 -0.223551 -1.38658 0.422655 -0.742255 0.510223 1.05454
76 -0.872801 -0.208571 0.802772 0.200047 1.15074 -1.22093 0.239294 -0.194354 -1.33469 -1.43102 1.01974 -1.1243 0.385152 0.123272 -1.70248 -0.826164 1.32828 -0.0485186 -0.223551 -1.38658 0.422655 -0.742255 0.510223 1.05454
78 -0.723989 -0.141789 0.74154 0.169626 0.948652 -1.09192 0.252808 -0.13356 -1.19429 -1.19145 0.971059 -0.994509 0.421821 0.090396 -1.52354 -0.707925 1.15212 -0.0446329 -0.115251 -1.22322 0.405871 -0.574741 0.435222 0.875721
81 -0.872801 -0.208571 0.802772 0.200047 1.15074 -1.22093 0.239294 -0.194354 -1.33469 -1.43102 1.01974 -1.1243 0.385152 0.123272 -1.70248 -0.826164 1.32828 -0.0485186 -0.223551 -1.38658 0.422655 -0.742255 0.510223 1.05454
89 -0.410725 0.00256444 0.671156 0.190147 0.456043 -0.798999 0.274948 0.024835 -0.958312 -0.65998 1.00342 -0.664248 0.615619 0.0487189 -1.1845 -0.379221 0.801764 -0.0256123 0.183148 -0.913774 0.472693 -0.143794 0.290687 0.410359
90 -0.751646 -0.186025 0.672028 0.167213 0.984694 -1.02219 0.191582 -0.172035 -1.12259 -1.2345 0.838809 -0.947516 0.297898 0.105452 -1.43503 -0.706458 1.13881 -0.0509343 -0.20645 -1.17636 0.34346 -0.655853 0.440332 0.911787
93 -0.872801 -0.208571 0.802772 0.200047 1.15074 -1.22093 0.239294 -0.194354 -1.33469 -1.43102 1.01974 -1.1243 0.385152 0.123272 -1.70248 -0.826164 1.32828 -0.0485186 -0.223551 -1.38658 0.422655 -0.742255 0.510223 1.05454
97 -0.603489 -0.10811 0.647502 0.17225 0.795567 -0.950278 0.222011 -0.0974849 -1.04029 -0.988189 0.895384 -0.848559 0.416513 0.0772709 -1.31943 -0.574073 0.971333 -0.00792497 -0.0692077 -1.05107 0.389711 -0.4373 0.36353 0.704038
101 -0.872801 -0.208571 0.802772 0.200047 1.15074 -1.22093 0.239294 -0.194354 -1.33469 -1.43102 1.01974 -1.1243 0.385152 0.123272 -1.70248 -0.826164 1.32828 -0.0485186 -0.223551 -1.38658 0.422655 -0.742255 0.510223 1.05454
117 -0.872801 -0.208571 0.802772 0.200047 1.15074 -1.22093 0.239294 -0.194354 -1.33469 -1.43102 1.01974 -1.1243 0.385152 0.123272 -1.70248 -0.826164 1.32828 -0.0485186 -0.223551 -1.38658 0.422655 -0.742255 0.510223 1.05454
156 -0.872801 -0.208571 0.802772 0.200047 1.15074 -1.22093 0.239294 -0.194354 -1.33469 -1.43102 1.01974 -1.1243 0.385152 0.123272 -1.70248 -0.826164 1.32828 -0.0485186 -0.223551 -1.38658 0.422655 -0.742255 0.510223 1.05454
165 -0.872801 -0.208571 0.802772 0.200047 1.15074 -1.22093 0.239294 -0.194354 -1.33469 -1.43102 1.01974 -1.1243 0.385152 0.123272 -1.70248 -0.826164 1.32828 -0.0485186 -0.223551 -1.38658 0.422655 -0.742255 0.510223 1.05454
178 -0.872801 -0.208571 0.802772 0.200047 1.15074 -1.22093 0.239294 -0.194354 -1.33469 -1.43102 1.01974 -1.1243 0.385152 0.123272 -1.70248 -0.826164 1.32828 -0.0485186 -0.223551 -1.38658 0.422655 -0.742255 0.510223 1.05454
179 -0.763282 -0.157102 0.772574 0.198019 0.989389 -1.12735 0.250452 -0.139337 -1.24858 -1.24884 1.0213 -1.01745 0.443664 0.108437 -1.58351 -0.720072 1.20257 -0.0386442 -0.126569 -1.27494 0.438448 -0.599826 0.461388 0.90224
185 -0.872801 -0.208571 0.802772 0.200047 1.15074 -1.22093 0.239294 -0.194354 -1.33469 -1.43102 1.01974 -1.1243 0.385152 0.123272 -1.70248 -0.826164 1.32828 -0.0485186 -0.223551 -1.38658 0.422655 -0.742255 0.510223 1.05454
190 -0.872801 -0.208571 0.802772 0.200047 1.15074 -1.22093 0.239294 -0.194354 -1.33469 -1.43102 1.01974 -1.1243 0.385152 0.123272 -1.70248 -0.826164 1.32828 -0.0485186 -0.223551 -1.38658 0.422655 -0.742255 0.510223 1.05454
197 -0.872801 -0.208571 0.802772 0.200047 1.15074 -1.22093 0.239294 -0.194354 -1.33469 -1.43102 1.01974 -1.1243 0.385152 0.123272 -1.70248 -0.826164 1.32828 -0.0485186 -0.223551 -1.38658 0.422655 -0.742255 0.510223 1.05454
206 -0.872801 -0.208571 0.802772 0.200047 1.15074 -1.22093 0.239294 -0.194354 -1.33469 -1.43102 1.01974 -1.1243 0.385152 0.123272 -1.70248 -0.826164 1.32828 -0.0485186 -0.223551 -1.38658 0.422655 -0.742255 0.510223 1.05454
214 -0.872801 -0.208571 0.802772 0.200047 1.15074 -1.22093 0.239294 -0.194354 -1.33469 -1.43102 1.01974 -1.1243 0.385152 0.123272 -1.70248 -0.826164 1.32828 -0.0485186 -0.223551 -1.38658 0.422655 -0.742255 0.510223 1.05454
220 -0.872801 -0.208571 0.802772 0.200047 1.15074 -1.22093 0.239294 -0.194354 -1.33469 -1.43102 1.01974 -1.1243 0.385152 0.123272 -1.70248 -0.826164 1.32828 -0.0485186 -0.223551 -1.38658 0.422655 -0.742255 0.510223 1.05454
228 -0.872801 -0.208571 0.802772 0.200047 1.15074 -1.22093 0.239294 -0.194354 -1.33469 -1.43102 1.01974 -1.1243 0.385152 0.123272 -1.70248 -0.826164 1.32828 -0.0485186 -0.223551 -1.38658 0.422655 -0.742255 0.510223 1.05454
240 -0.689458 -0.150675 0.687958 0.176217 0.903271 -1.02398 0.223544 -0.138653 -1.11853 -1.12915 0.909359 -0.9298 0.392309 0.0977177 -1.41994 -0.651526 1.07834 -0.0239521 -0.125799 -1.13703 0.393248 -0.541118 0.409082 0.821723
247 -0.872801 -0.208571 0.802772 0.200047 1.15074 -1.22093 0.239294 -0.194354 -1.33469 -1.43102 1.01974 -1.1243 0.385152 0.123272 -1.70248 -0.826164 1.32828 -0.0485186 -0.223551 -1.38658 0.422655 -0.742255 0.510223 1.05454
250 -0.872801 -0.208571 0.802772 0.200047 1.15074 -1.22093 0.239294 -0.194354 -1.33469 -1.43102 1.01974 -1.1243 0.385152 0.123272 -1.70248 -0.826164 1.32828 -0.0485186 -0.223551 -1.38658 0.422655 -0.742255 0.510223 1.05454
253 -0.872801 -0.208571 0.802772 0.200047 1.15074 -1.22093 0.239294 -0.194354 -1.33469 -1.43102 1.01974 -1.1243 0.385152 0.123272 -1.70248 -0.826164 1.32828 -0.0485186 -0.223551 -1.38658 0.422655 -0.742255 0.510223 1.05454
264 -0.872801 -0.208571 0.802772 0.200047 1.15074 -1.22093 0.239294 -0.194354 -1.33469 -1.43102 1.01974 -1.1243 0.385152 0.123272 -1.70248 -0.826164 1.32828 -0.0485186 -0.223551 -1.38658 0.422655 -0.742255 0.510223 1.05454
273 -0.872801 -0.208571 0.802772 0.200047 1.15074 -1.22093 0.239294 -0.194354 -1.33469 -1.43102 1.01974 -1.1243 0.385152 0.123272 -1.70248 -0.826164 1.32828 -0.0485186 -0.223551 -1.38658 0.422655 -0.742255 0.510223 1.05454
283 -0.872801 -0.208571 0.802772 0.200047 1.15074 -1.22093 0.239294 -0.194354 -1.33469 -1.43102 1.01974 -1.1243 0.385152 0.123272 -1.70248 -0.826164 1.32828 -0.0485186 -0.223551 -1.38658 0.422655 -0.742255 0.510223 1.05454
286 -0.872801 -0.208571 0.802772 0.200047 1.15074 -1.22093 0.239294 -0.194354 -1.33469 -1.43102 1.01974 -1.1243 0.385152 0.123272 -1.70248 -0.826164 1.32828 -0.0485186 -0.223551 -1.38658 0.422655 -0.742255 0.510223 1.05454
293 -0.872801 -0.208571 0.802772 0.200047 1.15074 -1.22093 0.239294 -0.194354 -1.33469 -1.43102 1.01974 -1.1243 0.385152 0.123272 -1.70248 -0.826164 1.32828 -0.0485186 -0.223551 -1.38658 0.422655 -0.742255 0.510223 1.05454
301 -0.579821 -0.128741 0.602985 0.177574 0.73648 -0.90222 0.206015 -0.10792 -0.983681 -0.93685 0.825754 -0.79679 0.388108 0.0728516 -1.21095 -0.569992 0.897315 -0.00172758 -0.0887009 -0.972123 0.368231 -0.399637 0.346605 0.671805
305 -0.872801 -0.208571 0.802772 0.200047 1.15074 -1.22093 0.239294 -0.194354 -1.33469 -1.43102 1.01974 -1.1243 0.385152 0.123272 -1.70248 -0.826164 1.32828 -0.0485186 -0.223551 -1.38658 0.422655 -0.742255 0.510223 1.05454
309 -0.872801 -0.208571 0.802772 0.200047 1.15074 -1.22093 0.239294 -0.194354 -1.33469 -1.43102 1.01974 -1.1243 0.385152 0.123272 -1.70248 -0.826164 1.32828 -0.0485186 -0.223551 -1.38658 0.422655 -0.742255 0.510223 1.05454
311 -0.872801 -0.208571 0.802772 0.200047 1.15074 -1.22093 0.239294 -0.194354 -1.33469 -1.43102 1.01974 -1.1243 0.385152 0.123272 -1.70248 -0.826164 1.32828 -0.0485186 -0.223551 -1.38658 0.422655 -0.742255 0.510223 1.05454
315 -0.872801 -0.208571 0.802772 0.200047 1.15074 -1.22093 0.239294 -0.194354 -1.33469 -1.43102 1.01974 -1.1243 0.385152 0.123272 -1.70248 -0.826164 1.32828 -0.0485186 -0.223551 -1.38658 0.422655 -0.742255 0.510223 1.05454
324 -0.872801 -0.208571 0.802772 0.200047 1.15074 -1.22093 0.239294 -0.194354 -1.33469 -1.43102 1.01974 -1.1243 0.385152 0.123272 -1.70248 -0.826164 1.32828 -0.0485186 -0.223551 -1.38658 0.422655 -0.742255 0.510223 1.05454
331 -0.872801 -0.208571 0.802772 0.200047 1.15074 -1.22093 0.239294 -0.194354 -1.33469 -1.43102 1.01974 -1.1243 0.385152 0.123272 -1.70248 -0.826164 1.32828 -0.0485186 -0.223551 -1.38658 0.422655 -0.742255 0.510223 1.05454
332 -0.872801 -0.208571 0.802772 0.200047 1.15074 -1.22093 0.239294 -0.194354 -1.33469 -1.43102 1.01974 -1.1243 0.385152 0.123272 -1.70248 -0.826164 1.32828 -0.0485186 -0.223551 -1.38658 0.422655 -0.742255 0.510223 1.05454
549 -0.872801 -0.208571 0.802772 0.200047 1.15074 -1.22093 0.239294 -0.194354 -1.33469 -1.43102 1.01974 -1.1243 0.385152 0.123272 -1.70248 -0.826164 1.32828 -0.0485186 -0.223551 -1.38658 0.422655 -0.742255 0.510223 1.05454
379 -0.872801 -0.208571 0.802772 0.200047 1.15074 -1.22093 0.239294 -0.194354 -1.33469 -1.43102 1.01974 -1.1243 0.385152 0.123272 -1.70248 -0.826164 1.32828 -0.0485186 -0.223551 -1.38658 0.422655 -0.742255 0.510223 1.05454
383 -0.250485 -0.104833 0.157881 0.0155142 0.327169 -0.210651 -0.00332077 -0.110351 -0.266724 -0.439769 0.123166 -0.232015 -0.0398582 0.0349941 -0.362005 -0.245163 0.360222 -0.043914 -0.125917 -0.313318 0.0369078 -0.297093 0.156881 0.342648
527 -0.224271 -0.0990949 0.12901 0.0455967 0.294228 -0.183139 0.0223721 -0.0964769 -0.226057 -0.406905 0.08473 -0.219573 -0.0462959 0.0457714 -0.331152 -0.187802 0.343045 -0.0609305 -0.132677 -0.283233 0.000514365 -0.272877 0.127302 0.294218
672 -0.285893 -0.0770751 0.18248 0.0502902 0.373469 -0.247841 0.0161169 -0.0769709 -0.296041 -0.494728 0.122524 -0.244798 -0.0203651 0.0334247 -0.397234 -0.251873 0.410863 -0.0429918 -0.131093 -0.373093 0.0221507 -0.344665 0.149049 0.370357
3980 0.0508935 0.0818814 0.22033 0.0844974 0.0802363 -0.457878 0.153305 0.0860287 -0.331958 0.056556 0.568722 -0.321183 0.502911 -0.0141675 -0.416362 -0.00735331 0.0210938 0.234464 0.180766 -0.186024 0.334714 0.298723 -0.0666395 -0.0745062
883 -0.271115 -0.0840798 0.151823 0.0418324 0.327922 -0.216335 0.0260006 -0.101727 -0.291786 -0.442447 0.10149 -0.24845 -0.0457559 0.0461542 -0.364383 -0.22727 0.352837 -0.0606399 -0.157693 -0.337764 0.01697 -0.304106 0.143836 0.321687
3820 -0.224271 -0.0990949 0.12901 0.0455967 0.294228 -0.183139 0.0223721 -0.0964769 -0.226057 -0.406905 0.08473 -0.219573 -0.0462959 0.0457714 -0.331152 -0.187802 0.343045 -0.0609305 -0.132677 -0.283233 0.000514365 -0.272877 0.127302 0.294218
3990 -0.00441541 0.0925038 0.242311 0.0572591 0.0923152 -0.407335 0.18446 0.0827174 -0.392569 -0.0235582 0.5976 -0.348134 0.509073 -0.00603694 -0.456067 -0.0528841 0.087918 0.12955 0.195405 -0.25445 0.326031 0.24513 -0.0398594 -0.0567813
4002 0.0202625 0.0923123 0.254934 0.0858348 0.0576587 -0.446555 0.177214 0.0963003 -0.36414 0.0373906 0.600899 -0.323642 0.505136 -0.0117541 -0.447295 -0.0220227 0.0825435 0.187392 0.229127 -0.218731 0.341319 0.291623 -0.0550321 -0.0467923
4006 0.0676239 0.0928836 0.207114 0.0795687 0.092378 -0.47978 0.159384 0.071278 -0.325715 0.0735037 0.564842 -0.334359 0.530207 -0.0296222 -0.427493 -0.00566272 -0.0216306 0.261195 0.205259 -0.187922 0.347511 0.329819 -0.0833575 -0.105642
4016 0.0889777 0.0766012 0.190797 0.0760588 0.0277619 -0.387705 0.142926 0.0847557 -0.267172 0.114134 0.482164 -0.272457 0.43654 -0.0188897 -0.33362 0.0218882 -0.0157387 0.205279 0.201079 -0.126216 0.293066 0.31971 -0.0814111 -0.103424
4017 -0.000668545 0.0997871 0.283034 0.0969537 0.0967881 -0.472377 0.181248 0.0808146 -0.441858 -0.00477314 0.66162 -0.360058 0.558898 -0.0195379 -0.508023 -0.0608633 0.11837 0.172747 0.217555 -0.261993 0.350346 0.286531 -0.0406256 -0.052709
7 -0.756378 -0.188083 0.674381 0.166412 0.989846 -1.027 0.192118 -0.177824 -1.12626 -1.24064 0.839655 -0.952405 0.300742 0.106075 -1.43697 -0.708682 1.13887 -0.0509543 -0.207878 -1.18333 0.347467 -0.660844 0.435645 0.918766
25 -0.872801 -0.208571 0.802772 0.200047 1.15074 -1.22093 0.239294 -0.194354 -1.33469 -1.43102 1.01974 -1.1243 0.385152 0.123272 -1.70248 -0.826164 1.32828 -0.0485186 -0.223551 -1.38658 0.422655 -0.742255 0.510223 1.05454
39 -0.872801 -0.208571 0.802772 0.200047 1.15074 -1.22093 0.239294 -0.194354 -1.33469 -1.43102 1.01974 -1.1243 0.385152 0.123272 -1.70248 -0.826164 1.32828 -0.0485186 -0.223551 -1.38658 0.422655 -0.742255 0.510223 1.05454
45 -0.872801 -0.208571 0.802772 0.200047 1.15074 -1.22093 0.239294 -0.194354 -1.33469 -1.43102 1.01974 -1.1243 0.385152 0.123272 -1.70248 -0.826164 1.32828 -0.0485186 -0.223551 -1.38658 0.422655 -0.742255 0.510223 1.05454
46 -0.872801 -0.208571 0.802772 0.200047 1.15074 -1.22093 0.239294 -0.194354 -1.33469 -1.43102 1.01974 -1.1243 0.385152 0.123272 -1.70248 -0.826164 1.32828 -0.0485186 -0.223551 -1.38658 0.422655 -0.742255 0.510223 1.05454
50 -0.872801 -0.208571 0.802772 0.200047 1.15074 -1.22093 0.239294 -0.194354 -1.33469 -1.43102 1.01974 -1.1243 0.385152 0.123272 -1.70248 -0.826164 1.32828 -0.0485186 -0.223551 -1.38658 0.422655 -0.742255 0.510223 1.05454
64 -0.872801 -0.208571 0.802772 0.200047 1.15074 -1.22093 0.239294 -0.194354 -1.33469 -1.43102 1.01974 -1.1243 0.385152 0.123272 -1.70248 -0.826164 1.32828 -0.0485186 -0.223551 -1.38658 0.422655 -0.742255 0.510223 1.05454
68 -0.872801 -0.208571 0.802772 0.200047 1.15074 -1.22093 0.239294 -0.194354 -1.33469 -1.43102 1.01974 -1.1243 0.385152 0.123272 -1.70248 -0.826164 1.32828 -0.0485186 -0.223551 -1.38658 0.422655 -0.742255 0.510223 1.05454
71 -0.872801 -0.208571 0.802772 0.200047 1.15074 -1.22093 0.239294 -0.194354 -1.33469 -1.43102 1.01974 -1.1243 0.385152 0.123272 -1.70248 -0.826164 1.32828 -0.0485186 -0.223551 -1.38658 0.422655 -0.742255 0.510223 1.05454
91 -0.872801 -0.208571 0.802772 0.200047 1.15074 -1.22093 0.239294 -0.194354 -1.33469 -1.43102 1.01974 -1.1243 0.385152 0.123272 -1.70248 -0.826164 1.32828 -0.0485186 -0.223551 -1.38658 0.422655 -0.742255 0.510223 1.05454
110 -0.872801 -0.208571 0.802772 0.200047 1.15074 -1.22093 0.239294 -0.194354 -1.33469 -1.43102 1.01974 -1.1243 0.385152 0.123272 -1.70248 -0.826164 1.32828 -0.0485186 -0.223551 -1.38658 0.422655 -0.742255 0.510223 1.05454
124 -0.872801 -0.208571 0.802772 0.200047 1.15074 -1.22093 0.239294 -0.194354 -1.33469 -1.43102 1.01974 -1.1243 0.385152 0.123272 -1.70248 -0.826164 1.32828 -0.0485186 -0.223551 -1.38658 0.422655 -0.742255 0.510223 1.05454
128 -0.872801 -0.208571 0.802772 0.200047 1.15074 -1.22093 0.239294 -0.194354 -1.33469 -1.43102 1.01974 -1.1243 0.385152 0.123272 -1.70248 -0.826164 1.32828 -0.0485186 -0.223551 -1.38658 0.422655 -0.742255 0.510223 1.05454
130 -0.872801 -0.208571 0.802772 0.200047 1.15074 -1.22093 0.239294 -0.194354 -1.33469 -1.43102 1.01974 -1.1243 0.385152 0.123272 -1.70248 -0.826164 1.32828 -0.0485186 -0.223551 -1.38658 0.422655 -0.742255 0.510223 1.05454
144 -0.872801 -0.208571 0.802772 0.200047 1.15074 -1.22093 0.239294 -0.194354 -1.33469 -1.43102 1.01974 -1.1243 0.385152 0.123272 -1.70248 -0.826164 1.32828 -0.0485186 -0.223551 -1.38658 0.422655 -0.742255 0.510223 1.05454
148 -0.872801 -0.208571 0.802772 0.200047 1.15074 -1.22093 0.239294 -0.194354 -1.33469 -1.43102 1.01974 -1.1243 0.385152 0.123272 -1.70248 -0.826164 1.32828 -0.0485186 -0.223551 -1.38658 0.422655 -0.742255 0.510223 1.05454
149 -0.872801 -0.208571 0.802772 0.200047 1.15074 -1.22093 0.239294 -0.194354 -1.33469 -1.43102 1.01974 -1.1243 0.385152 0.123272 -1.70248 -0.826164 1.32828 -0.0485186 -0.223551 -1.38658 0.422655 -0.742255 0.510223 1.05454
153 -0.72443 -0.181143 0.644608 0.162318 0.958399 -0.981293 0.188966 -0.168796 -1.08198 -1.18925 0.798209 -0.912787 0.276113 0.108465 -1.37856 -0.681978 1.0921 -0.0497192 -0.205215 -1.13635 0.325122 -0.637471 0.423053 0.887242
158 -0.872801 -0.208571 0.802772 0.200047 1.15074 -1.22093 0.239294 -0.194354 -1.33469 -1.43102 1.01974 -1.1243 0.385152 0.123272 -1.70248 -0.826164 1.32828 -0.0485186 -0.223551 -1.38658 0.422655 -0.742255 0.510223 1.05454
163 -0.872801 -0.208571 0.802772 0.200047 1.15074 -1.22093 0.239294 -0.194354 -1.33469 -1.43102 1.01974 -1.1243 0.385152 0.123272 -1.70248 -0.826164 1.32828 -0.0485186 -0.223551 -1.38658 0.422655 -0.742255 0.510223 1.05454
164 -0.773887 -0.190286 0.69733 0.174894 1.02251 -1.06117 0.205742 -0.177316 -1.16622 -1.26984 0.872054 -0.983292 0.312459 0.113401 -1.48653 -0.73004 1.17082 -0.049319 -0.211327 -1.21976 0.357633 -0.672399 0.45211 0.943006
167 -0.872801 -0.208571 0.802772 0.200047 1.15074 -1.22093 0.239294 -0.194354 -1.33469 -1.43102 1.01974 -1.1243 0.385152 0.123272 -1.70248 -0.826164 1.32828 -0.0485186 -0.223551 -1.38658 0.422655 -0.742255 0.510223 1.05454
174 -0.872801 -0.208571 0.802772 0.200047 1.15074 -1.22093 0.239294 -0.194354 -1.33469 -1.43102 1.01974 -1.1243 0.385152 0.123272 -1.70248 -0.826164 1.32828 -0.0485186 -0.223551 -1.38658 0.422655 -0.742255 0.510223 1.05454
177 -0.665535 -0.16591 0.579308 0.14984 0.867548 -0.886013 0.159636 -0.156489 -0.974708 -1.09457 0.716836 -0.819478 0.24128 0.0935606 -1.25607 -0.626101 1.00949 -0.0587029 -0.189839 -1.03057 0.290355 -0.593553 0.394958 0.806401
184 -0.872801 -0.208571 0.802772 0.200047 1.15074 -1.22093 0.239294 -0.194354 -1.33469 -1.43102 1.01974 -1.1243 0.385152 0.123272 -1.70248 -0.826164 1.32828 -0.0485186 -0.223551 -1.38658 0.422655 -0.742255 0.510223 1.05454
189 -0.872801 -0.208571 0.802772 0.200047 1.15074 -1.22093 0.239294 -0.194354 -1.33469 -1.43102 1.01974 -1.1243 0.385152 0.123272 -1.70248 -0.826164 1.32828 -0.0485186 -0.223551 -1.38658 0.422655 -0.742255 0.510223 1.05454
192 -0.54993 -0.118239 0.55245 0.11705 0.713135 -0.805096 0.186661 -0.107815 -0.891089 -0.911824 0.706296 -0.74138 0.293423 0.0569835 -1.13561 -0.538163 0.876192 -0.0460357 -0.0964819 -0.925458 0.280122 -0.458571 0.332991 0.673964
208 -0.872801 -0.208571 0.802772 0.200047 1.15074 -1.22093 0.239294 -0.194354 -1.33469 -1.43102 1.01974 -1.1243 0.385152 0.123272 -1.70248 -0.826164 1.32828 -0.0485186 -0.223551 -1.38658 0.422655 -0.742255 0.510223 1.05454
223 -0.872801 -0.208571 0.802772 0.200047 1.15074 -1.22093 0.239294 -0.194354 -1.33469 -1.43102 1.01974 -1.1243 0.385152 0.123272 -1.70248 -0.826164 1.32828 -0.0485186 -0.223551 -1.38658 0.422655 -0.742255 0.510223 1.05454
225 -0.658866 -0.112245 0.740838 0.195145 0.825808 -1.01916 0.253095 -0.0959388 -1.15733 -1.07347 1.00676 -0.90912 0.487967 0.0859189 -1.45886 -0.619397 1.08542 -0.0423586 -0.0358426 -1.16726 0.441888 -0.465762 0.405383 0.755908
226 -0.872801 -0.208571 0.802772 0.200047 1.15074 -1.22093 0.239294 -0.194354 -1.33469 -1.43102 1.01974 -1.1243 0.385152 0.123272 -1.70248 -0.826164 1.32828 -0.0485186 -0.223551 -1.38658 0.422655 -0.742255 0.510223 1.05454
229 -0.788551 -0.194646 0.711765 0.174659 1.0349 -1.08055 0.205273 -0.178697 -1.18597 -1.29447 0.891084 -1.00239 0.322162 0.110548 -1.51173 -0.740897 1.19423 -0.0476049 -0.213569 -1.23884 0.36622 -0.682553 0.459777 0.956952
249 -0.872801 -0.208571 0.802772 0.200047 1.15074 -1.22093 0.239294 -0.194354 -1.33469 -1.43102 1.01974 -1.1243 0.385152 0.123272 -1.70248 -0.826164 1.32828 -0.0485186 -0.223551 -1.38658 0.422655 -0.742255 0.510223 1.05454
258 -0.872801 -0.208571 0.802772 0.200047 1.15074 -1.22093 0.239294 -0.194354 -1.33469 -1.43102 1.01974 -1.1243 0.385152 0.123272 -1.70248 -0.826164 1.32828 -0.0485186 -0.223551 -1.38658 0.422655 -0.742255 0.510223 1.05454
262 -0.872801 -0.208571 0.802772 0.200047 1.15074 -1.22093 0.239294 -0.194354 -1.33469 -1.43102 1.01974 -1.1243 0.385152 0.123272 -1.70248 -0.826164 1.32828 -0.0485186 -0.223551 -1.38658 0.422655 -0.742255 0.510223 1.05454
267 -0.872801 -0.208571 0.802772 0.200047 1.15074 -1.22093 0.239294 -0.194354 -1.33469 -1.43102 1.01974 -1.1243 0.385152 0.123272 -1.70248 -0.826164 1.32828 -0.0485186 -0.223551 -1.38658 0.422655 -0.742255 0.510223 1.05454
269 -0.872801 -0.208571 0.802772 0.200047 1.15074 -1.22093 0.239294 -0.194354 -1.33469 -1.43102 1.01974 -1.1243 0.385152 0.123272 -1.70248 -0.826164 1.32828 -0.0485186 -0.223551 -1.38658 0.422655 -0.742255 0.510223 1.05454
281 -0.872801 -0.208571 0.802772 0.200047 1.15074 -1.22093 0.239294 -0.194354 -1.33469 -1.43102 1.01974 -1.1243 0.385152 0.123272 -1.70248 -0.826164 1.32828 -0.0485186 -0.223551 -1.38658 0.422655 -0.742255 0.510223 1.05454
291 -0.872801 -0.208571 0.802772 0.200047 1.15074 -1.22093 0.239294 -0.194354 -1.33469 -1.43102 1.01974 -1.1243 0.385152 0.123272 -1.70248 -0.826164 1.32828 -0.0485186 -0.223551 -1.38658 0.422655 -0.742255 0.510223 1.05454
297 -0.872801 -0.208571 0.802772 0.200047 1.15074 -1.22093 0.239294 -0.194354 -1.33469 -1.43102 1.01974 -1.1243 0.385152 0.123272 -1.70248 -0.826164 1.32828 -0.0485186 -0.223551 -1.38658 0.422655 -0.742255 0.510223 1.05454
300 -0.872801 -0.208571 0.802772 0.200047 1.15074 -1.22093 0.239294 -0.194354 -1.33469 -1.43102 1.01974 -1.1243 0.385152 0.123272 -1.70248 -0.826164 1.32828 -0.0485186 -0.223551 -1.38658 0.422655 -0.742255 0.510223 1.05454
327 -0.872801 -0.208571 0.802772 0.200047 1.15074 -1.22093 0.239294 -0.194354 -1.33469 -1.43102 1.01974 -1.1243 0.385152 0.123272 -1.70248 -0.826164 1.32828 -0.0485186 -0.223551 -1.38658 0.422655 -0.742255 0.510223 1.05454
328 -0.872801 -0.208571 0.802772 0.200047 1.15074 -1.22093 0.239294 -0.194354 -1.33469 -1.43102 1.01974 -1.1243 0.385152 0.123272 -1.70248 -0.826164 1.32828 -0.0485186 -0.223551 -1.38658 0.422655 -0.742255 0.510223 1.05454
338 -0.872801 -0.208571 0.802772 0.200047 1.15074 -1.22093 0.239294 -0.194354 -1.33469 -1.43102 1.01974 -1.1243 0.385152 0.123272 -1.70248 -0.826164 1.32828 -0.0485186 -0.223551 -1.38658 0.422655 -0.742255 0.510223 1.05454
339 -0.872801 -0.208571 0.802772 0.200047 1.15074 -1.22093 0.239294 -0.194354 -1.33469 -1.43102 1.01974 -1.1243 0.385152 0.123272 -1.70248 -0.826164 1.32828 -0.0485186 -0.223551 -1.38658 0.422655 -0.742255 0.510223 1.05454
347 -0.872801 -0.208571 0.802772 0.200047 1.15074 -1.22093 0.239294 -0.194354 -1.33469 -1.43102 1.01974 -1.1243 0.385152 0.123272 -1.70248 -0.826164 1.32828 -0.0485186 -0.223551 -1.38658 0.422655 -0.742255 0.510223 1.05454
2885 -0.872801 -0.208571 0.802772 0.200047 1.15074 -1.22093 0.239294 -0.194354 -1.33469 -1.43102 1.01974 -1.1243 0.385152 0.123272 -1.70248 -0.826164 1.32828 -0.0485186 -0.223551 -1.38658 0.422655 -0.742255 0.510223 1.05454
464 -0.872801 -0.208571 0.802772 0.200047 1.15074 -1.22093 0.239294 -0.194354 -1.33469 -1.43102 1.01974 -1.1243 0.385152 0.123272 -1.70248 -0.826164 1.32828 -0.0485186 -0.223551 -1.38658 0.422655 -0.742255 0.510223 1.05454
581 -0.285893 -0.0770751 0.18248 0.0502902 0.373469 -0.247841 0.0161169 -0.0769709 -0.296041 -0.494728 0.122524 -0.244798 -0.0203651 0.0334247 -0.397234 -0.251873 0.410863 -0.0429918 -0.131093 -0.373093 0.0221507 -0.344665 0.149049 0.370357
667 -0.285893 -0.0770751 0.18248 0.0502902 0.373469 -0.247841 0.0161169 -0.0769709 -0.296041 -0.494728 0.122524 -0.244798 -0.0203651 0.0334247 -0.397234 -0.251873 0.410863 -0.0429918 -0.131093 -0.373093 0.0221507 -0.344665 0.149049 0.370357
863 -0.240379 0.0205415 0.20976 -0.119119 0.18615 -0.302677 0.261926 0.109183 -0.334825 -0.0830677 0.287058 -0.309556 0.291912 -0.0152611 -0.335873 -0.0238465 0.17506 0.0729121 0.107192 -0.197767 0.112747 0.115631 0.0735003 0.109675
3856 -0.246279 -0.0940399 0.136782 0.044505 0.3415 -0.233199 0.0110168 -0.083496 -0.27924 -0.440192 0.125587 -0.223843 -0.0588987 0.0440367 -0.353926 -0.238172 0.346124 -0.0443638 -0.145022 -0.332203 0.0338859 -0.336974 0.146708 0.337052
3888 -0.271115 -0.0840798 0.151823 0.0418324 0.327922 -0.216335 0.0260006 -0.101727 -0.291786 -0.442447 0.10149 -0.24845 -0.0457559 0.0461542 -0.364383 -0.22727 0.352837 -0.0606399 -0.157693 -0.337764 0.01697 -0.304106 0.143836 0.321687
3991 0.0392657 0.0900205 0.252665 0.0879877 0.0653957 -0.435218 0.168994 0.0912466 -0.370936 0.0452498 0.586397 -0.328585 0.503221 -0.00965914 -0.443308 -0.0340428 0.0720491 0.174445 0.20722 -0.225128 0.309825 0.285298 -0.0646833 -0.067311
4007 0.0803926 0.0673351 0.215465 0.115157 0.127814 -0.53726 0.141453 0.0507771 -0.33617 0.0641892 0.591733 -0.376256 0.543895 -0.0199448 -0.451365 -0.0114882 -0.0299401 0.303462 0.171706 -0.193661 0.37245 0.349891 -0.0832135 -0.095253
4027 0.0789911 0.0946253 0.204455 0.074239 0.0761423 -0.468416 0.157697 0.0857657 -0.3063 0.0835231 0.552425 -0.317308 0.521842 -0.0176916 -0.42206 0.017362 -0.0171332 0.257435 0.191196 -0.179297 0.349475 0.319029 -0.0788061 -0.0983023
9 -0.872801 -0.208571 0.802772 0.200047 1.15074 -1.22093 0.239294 -0.194354 -1.33469 -1.43102 1.01974 -1.1243 0.385152 0.123272 -1.70248 -0.826164 1.32828 -0.0485186 -0.223551 -1.38658 0.422655 -0.742255 0.510223 1.05454
16 -0.872801 -0.208571 0.802772 0.200047 1.15074 -1.22093 0.239294 -0.194354 -1.33469 -1.43102 1.01974 -1.1243 0.385152 0.123272 -1.70248 -0.826164 1.32828 -0.0485186 -0.223551 -1.38658 0.422655 -0.742255 0.510223 1.05454
31 -0.872801 -0.208571 0.802772 0.200047 1.15074 -1.22093 0.239294 -0.194354 -1.33469 -1.43102 1.01974 -1.1243 0.385152 0.123272 -1.70248 -0.826164 1.32828 -0.0485186 -0.223551 -1.38658 0.422655 -0.742255 0.510223 1.05454
34 -0.872801 -0.208571 0.802772 0.200047 1.15074 -1.22093 0.239294 -0.194354 -1.33469 -1.43102 1.01974 -1.1243 0.385152 0.123272 -1.70248 -0.826164 1.32828 -0.0485186 -0.223551 -1.38658 0.422655 -0.742255 0.510223 1.05454
53 -0.872801 -0.208571 0.802772 0.200047 1.15074 -1.22093 0.239294 -0.194354 -1.33469 -1.43102 1.01974 -1.1243 0.385152 0.123272 -1.70248 -0.826164 1.32828 -0.0485186 -0.223551 -1.38658 0.422655 -0.742255 0.510223 1.05454
63 -0.872801 -0.208571 0.802772 0.200047 1.15074 -1.22093 0.239294 -0.194354 -1.33469 -1.43102 1.01974 -1.1243 0.385152 0.123272 -1.70248 -0.826164 1.32828 -0.0485186 -0.223551 -1.38658 0.422655 -0.742255 0.510223 1.05454
85 -0.872801 -0.208571 0.802772 0.200047 1.15074 -1.22093 0.239294 -0.194354 -1.33469 -1.43102 1.01974 -1.1243 0.385152 0.123272 -1.70248 -0.826164 1.32828 -0.0485186 -0.223551 -1.38658 0.422655 -0.742255 0.510223 1.05454
94 -0.872801 -0.208571 0.802772 0.200047 1.15074 -1.22093 0.239294 -0.194354 -1.33469 -1.43102 1.01974 -1.1243 0.385152 0.123272 -1.70248 -0.826164 1.32828 -0.0485186 -0.223551 -1.38658 0.422655 -0.742255 0.510223 1.05454
116 -0.872801 -0.208571 0.802772 0.200047 1.15074 -1.22093 0.239294 -0.194354 -1.33469 -1.43102 1.01974 -1.1243 0.385152 0.123272 -1.70248 -0.826164 1.32828 -0.0485186 -0.223551 -1.38658 0.422655 -0.742255 0.510223 1.05454
122 -0.872801 -0.208571 0.802772 0.200047 1.15074 -1.22093 0.239294 -0.194354 -1.33469 -1.43102 1.01974 -1.1243 0.385152 0.123272 -1.70248 -0.826164 1.32828 -0.0485186 -0.223551 -1.38658 0.422655 -0.742255 0.510223 1.05454
127 -0.872801 -0.208571 0.802772 0.200047 1.15074 -1.22093 0.239294 -0.194354 -1.33469 -1.43102 1.01974 -1.1243 0.385152 0.123272 -1.70248 -0.826164 1.32828 -0.0485186 -0.223551 -1.38658 0.422655 -0.742255 0.510223 1.05454
138 -0.872801 -0.208571 0.802772 0.200047 1.15074 -1.22093 0.239294 -0.194354 -1.33469 -1.43102 1.01974 -1.1243 0.385152 0.123272 -1.70248 -0.826164 1.32828 -0.0485186 -0.223551 -1.38658 0.422655 -0.742255 0.510223 1.05454
150 -0.872801 -0.208571 0.802772 0.200047 1.15074 -1.22093 0.239294 -0.194354 -1.33469 -1.43102 1.01974 -1.1243 0.385152 0.123272 -1.70248 -0.826164 1.32828 -0.0485186 -0.223551 -1.38658 0.422655 -0.742255 0.510223 1.05454
187 -0.872801 -0.208571 0.802772 0.200047 1.15074 -1.22093 0.239294 -0.194354 -1.33469 -1.43102 1.01974 -1.1243 0.385152 0.123272 -1.70248 -0.826164 1.32828 -0.0485186 -0.223551 -1.38658 0.422655 -0.742255 0.510223 1.05454
198 -0.872801 -0.208571 0.802772 0.200047 1.15074 -1.22093 0.239294 -0.194354 -1.33469 -1.43102 1.01974 -1.1243 0.385152 0.123272 -1.70248 -0.826164 1.32828 -0.0485186 -0.223551 -1.38658 0.422655 -0.742255 0.510223 1.05454
217 -0.872801 -0.208571 0.802772 0.200047 1.15074 -1.22093 0.239294 -0.194354 -1.33469 -1.43102 1.01974 -1.1243 0.385152 0.123272 -1.70248 -0.826164 1.32828 -0.0485186 -0.223551 -1.38658 0.422655 -0.742255 0.510223 1.05454
222 -0.872801 -0.208571 0.802772 0.200047 1.15074 -1.22093 0.239294 -0.194354 -1.33469 -1.43102 1.01974 -1.1243 0.385152 0.123272 -1.70248 -0.826164 1.32828 -0.0485186 -0.223551 -1.38658 0.422655 -0.742255 0.510223 1.05454
227 -0.872801 -0.208571 0.802772 0.200047 1.15074 -1.22093 0.239294 -0.194354 -1.33469 -1.43102 1.01974 -1.1243 0.385152 0.123272 -1.70248 -0.826164 1.32828 -0.0485186 -0.223551 -1.38658 0.422655 -0.742255 0.510223 1.05454
231 -0.872801 -0.208571 0.802772 0.200047 1.15074 -1.22093 0.239294 -0.194354 -1.33469 -1.43102 1.01974 -1.1243 0.385152 0.123272 -1.70248 -0.826164 1.32828 -0.0485186 -0.223551 -1.38658 0.422655 -0.742255 0.510223 1.05454
232 -0.872801 -0.208571 0.802772 0.200047 1.15074 -1.22093 0.239294 -0.194354 -1.33469 -1.43102 1.01974 -1.1243 0.385152 0.123272 -1.70248 -0.826164 1.32828 -0.0485186 -0.223551 -1.38658 0.422655 -0.742255 0.510223 1.05454
263 -0.872801 -0.208571 0.802772 0.200047 1.15074 -1.22093 0.239294 -0.194354 -1.33469 -1.43102 1.01974 -1.1243 0.385152 0.123272 -1.70248 -0.826164 1.32828 -0.0485186 -0.223551 -1.38658 0.422655 -0.742255 0.510223 1.05454
275 -0.872801 -0.208571 0.802772 0.200047 1.15074 -1.22093 0.239294 -0.194354 -1.33469 -1.43102 1.01974 -1.1243 0.385152 0.123272 -1.70248 -0.826164 1.32828 -0.0485186 -0.223551 -1.38658 0.422655 -0.742255 0.510223 1.05454
284 -0.872801 -0.208571 0.802772 0.200047 1.15074 -1.22093 0.239294 -0.194354 -1.33469 -1.43102 1.01974 -1.1243 0.385152 0.123272 -1.70248 -0.826164 1.32828 -0.0485186 -0.223551 -1.38658 0.422655 -0.742255 0.510223 1.05454
304 -0.872801 -0.208571 0.802772 0.200047 1.15074 -1.22093 0.239294 -0.194354 -1.33469 -1.43102 1.01974 -1.1243 0.385152 0.123272 -1.70248 -0.826164 1.32828 -0.0485186 -0.223551 -1.38658 0.422655 -0.742255 0.510223 1.05454
326 -0.872801 -0.208571 0.802772 0.200047 1.15074 -1.22093 0.239294 -0.194354 -1.33469 -1.43102 1.01974 -1.1243 0.385152 0.123272 -1.70248 -0.826164 1.32828 -0.0485186 -0.223551 -1.38658 0.422655 -0.742255 0.510223 1.05454
333 -0.725364 -0.184202 0.643511 0.155618 0.948017 -0.975263 0.179757 -0.166954 -1.07444 -1.19206 0.794588 -0.910955 0.27492 0.101006 -1.36867 -0.676946 1.09369 -0.0469196 -0.206083 -1.12804 0.323894 -0.637776 0.421943 0.883764
340 -0.872801 -0.208571 0.802772 0.200047 1.15074 -1.22093 0.239294 -0.194354 -1.33469 -1.43102 1.01974 -1.1243 0.385152 0.123272 -1.70248 -0.826164 1.32828 -0.0485186 -0.223551 -1.38658 0.422655 -0.742255 0.510223 1.05454
825 -0.225011 0.0728521 0.238728 -0.199595 0.115264 -0.345848 0.379888 0.214638 -0.356344 0.0966217 0.379842 -0.340109 0.460745 -0.0459688 -0.321619 0.0778653 0.0861713 0.139688 0.239635 -0.127768 0.160635 0.3255 0.0383323 0.00366954
860 -0.225011 0.0728521 0.238728 -0.199595 0.115264 -0.345848 0.379888 0.214638 -0.356344 0.0966217 0.379842 -0.340109 0.460745 -0.0459688 -0.321619 0.0778653 0.0861713 0.139688 0.239635 -0.127768 0.160635 0.3255 0.0383323 0.00366954
874 -0.240024 -0.00232732 0.208802 -0.0657612 0.22601 -0.299544 0.189693 0.0531336 -0.306967 -0.160822 0.25352 -0.288202 0.213791 0.00938468 -0.360072 -0.0727709 0.215802 0.054823 0.0403245 -0.231819 0.112649 0.0189797 0.101969 0.15301
3833 -0.208933 0.0794252 0.26578 -0.173355 0.124098 -0.382752 0.353385 0.207994 -0.322148 0.120803 0.40555 -0.327954 0.473339 -0.0273848 -0.35576 0.0817284 0.0787662 0.170286 0.238342 -0.125875 0.208327 0.342066 0.0601019 -0.015667
3931 0.00879996 0.199712 0.151864 -0.0224499 -0.0243224 -0.348304 0.354656 -0.0361874 -0.447371 0.0942718 0.739427 -0.451533 0.530771 0.0731689 -0.4608 -0.0623783 0.0611288 0.184006 0.30654 -0.0940126 0.453577 0.517764 -0.0213928 -0.1943
4003 0.0824154 0.0830447 0.225044 0.12312 0.0862475 -0.485226 0.154852 0.0498864 -0.36906 0.0672126 0.60431 -0.338959 0.564813 -0.0159835 -0.449781 -0.00453117 -0.00908288 0.256771 0.217239 -0.174149 0.377698 0.372701 -0.046923 -0.123679
4009 0.107358 0.0781944 0.14877 0.0670578 0.149341 -0.502015 0.109331 0.0651993 -0.266172 0.0850729 0.521708 -0.358839 0.462216 -0.0118368 -0.380076 -0.0188411 -0.0622747 0.343693 0.148137 -0.142576 0.308162 0.29187 -0.142475 -0.088643
4018 0.0763318 0.0815865 0.211553 0.110049 0.0787817 -0.456269 0.158819 0.0575505 -0.347871 0.0601804 0.584568 -0.331852 0.550015 -0.00396656 -0.431623 -0.00208303 -0.017134 0.237301 0.217902 -0.180578 0.370746 0.351312 -0.0478227 -0.124009
4023 0.0355853 0.0866935 0.221133 0.072486 0.0675751 -0.412307 0.164902 0.0744 -0.344528 0.0366549 0.559193 -0.317249 0.490316 -0.0200759 -0.40881 -0.0155411 0.039366 0.176262 0.204448 -0.187519 0.331279 0.297426 -0.0514158 -0.0822555
1 -0.872801 -0.208571 0.802772 0.200047 1.15074 -1.22093 0.239294 -0.194354 -1.33469 -1.43102 1.01974 -1.1243 0.385152 0.123272 -1.70248 -0.826164 1.32828 -0.0485186 -0.223551 -1.38658 0.422655 -0.742255 0.510223 1.05454
21 -0.727272 -0.182961 0.642283 0.158003 0.949622 -0.978522 0.180324 -0.173692 -1.07415 -1.19304 0.794633 -0.909431 0.27964 0.101776 -1.3706 -0.679311 1.09151 -0.0515633 -0.203959 -1.13252 0.328669 -0.640492 0.417 0.884823
24 -0.872801 -0.208571 0.802772 0.200047 1.15074 -1.22093 0.239294 -0.194354 -1.33469 -1.43102 1.01974 -1.1243 0.385152 0.123272 -1.70248 -0.826164 1.32828 -0.0485186 -0.223551 -1.38658 0.422655 -0.742255 0.510223 1.05454
54 -0.872801 -0.208571 0.802772 0.200047 1.15074 -1.22093 0.239294 -0.194354 -1.33469 -1.43102 1.01974 -1.1243 0.385152 0.123272 -1.70248 -0.826164 1.32828 -0.0485186 -0.223551 -1.38658 0.422655 -0.742255 0.510223 1.05454
84 -0.689458 -0.150675 0.687958 0.176217 0.903271 -1.02398 0.223544 -0.138653 -1.11853 -1.12915 0.909359 -0.9298 0.392309 0.0977177 -1.41994 -0.651526 1.07834 -0.0239521 -0.125799 -1.13703 0.393248 -0.541118 0.409082 0.821723
88 -0.872801 -0.208571 0.802772 0.200047 1.15074 -1.22093 0.239294 -0.194354 -1.33469 -1.43102 1.01974 -1.1243 0.385152 0.123272 -1.70248 -0.826164 1.32828 -0.0485186 -0.223551 -1.38658 0.422655 -0.742255 0.510223 1.05454
100 -0.684282 -0.138248 0.694083 0.180589 0.90212 -1.03148 0.227196 -0.126546 -1.12861 -1.12104 0.932692 -0.931282 0.407105 0.0910711 -1.43434 -0.6497 1.07842 -0.0201031 -0.115511 -1.15172 0.399594 -0.528787 0.407538 0.809187
109 -0.872801 -0.208571 0.802772 0.200047 1.15074 -1.22093 0.239294 -0.194354 -1.33469 -1.43102 1.01974 -1.1243 0.385152 0.123272 -1.70248 -0.826164 1.32828 -0.0485186 -0.223551 -1.38658 0.422655 -0.742255 0.510223 1.05454
121 -0.872801 -0.208571 0.802772 0.200047 1.15074 -1.22093 0.239294 -0.194354 -1.33469 -1.43102 1.01974 -1.1243 0.385152 0.123272 -1.70248 -0.826164 1.32828 -0.0485186 -0.223551 -1.38658 0.422655 -0.742255 0.510223 1.05454
140 -0.872801 -0.208571 0.802772 0.200047 1.15074 -1.22093 0.239294 -0.194354 -1.33469 -1.43102 1.01974 -1.1243 0.385152 0.123272 -1.70248 -0.826164 1.32828 -0.0485186 -0.223551 -1.38658 0.422655 -0.742255 0.510223 1.05454
143 -0.872801 -0.208571 0.802772 0.200047 1.15074 -1.22093 0.239294 -0.194354 -1.33469 -1.43102 1.01974 -1.1243 0.385152 0.123272 -1.70248 -0.826164 1.32828 -0.0485186 -0.223551 -1.38658 0.422655 -0.742255 0.510223 1.05454
157 -0.872801 -0.208571 0.802772 0.200047 1.15074 -1.22093 0.239294 -0.194354 -1.33469 -1.43102 1.01974 -1.1243 0.385152 0.123272 -1.70248 -0.826164 1.32828 -0.0485186 -0.223551 -1.38658 0.422655 -0.742255 0.510223 1.05454
162 -0.872801 -0.208571 0.802772 0.200047 1.15074 -1.22093 0.239294 -0.194354 -1.33469 -1.43102 1.01974 -1.1243 0.385152 0.123272 -1.70248 -0.826164 1.32828 -0.0485186 -0.223551 -1.38658 0.422655 -0.742255 0.510223 1.05454
172 -0.872801 -0.208571 0.802772 0.200047 1.15074 -1.22093 0.239294 -0.194354 -1.33469 -1.43102 1.01974 -1.1243 0.385152 0.123272 -1.70248 -0.826164 1.32828 -0.0485186 -0.223551 -1.38658 0.422655 -0.742255 0.510223 1.05454
173 -0.872801 -0.208571 0.802772 0.200047 1.15074 -1.22093 0.239294 -0.194354 -1.33469 -1.43102 1.01974 -1.1243 0.385152 0.123272 -1.70248 -0.826164 1.32828 -0.0485186 -0.223551 -1.38658 0.422655 -0.742255 0.510223 1.05454
180 -0.872801 -0.208571 0.802772 0.200047 1.15074 -1.22093 0.239294 -0.194354 -1.33469 -1.43102 1.01974 -1.1243 0.385152 0.123272 -1.70248 -0.826164 1.32828 -0.0485186 -0.223551 -1.38658 0.422655 -0.742255 0.510223 1.05454
195 -0.567554 -0.141674 0.481634 0.109089 0.733345 -0.722163 0.117344 -0.150853 -0.793181 -0.92615 0.55884 -0.669531 0.161322 0.081439 -1.03582 -0.52041 0.848833 -0.0548488 -0.188546 -0.862095 0.21952 -0.522395 0.320712 0.689684
212 -0.872801 -0.208571 0.802772 0.200047 1.15074 -1.22093 0.239294 -0.194354 -1.33469 -1.43102 1.01974 -1.1243 0.385152 0.123272 -1.70248 -0.826164 1.32828 -0.0485186 -0.223551 -1.38658 0.422655 -0.742255 0.510223 1.05454
219 -0.872801 -0.208571 0.802772 0.200047 1.15074 -1.22093 0.239294 -0.194354 -1.33469 -1.43102 1.01974 -1.1243 0.385152 0.123272 -1.70248 -0.826164 1.32828 -0.0485186 -0.223551 -1.38658 0.422655 -0.742255 0.510223 1.05454
242 -0.872801 -0.208571 0.802772 0.200047 1.15074 -1.22093 0.239294 -0.194354 -1.33469 -1.43102 1.01974 -1.1243 0.385152 0.123272 -1.70248 -0.826164 1.32828 -0.0485186 -0.223551 -1.38658 0.422655 -0.742255 0.510223 1.05454
252 -0.749531 -0.184899 0.667845 0.170364 0.989077 -1.0238 0.192258 -0.174696 -1.12576 -1.23069 0.840194 -0.94768 0.297506 0.105465 -1.43111 -0.709483 1.13484 -0.0471642 -0.211697 -1.18047 0.339796 -0.660205 0.43825 0.915779
260 -0.872801 -0.208571 0.802772 0.200047 1.15074 -1.22093 0.239294 -0.194354 -1.33469 -1.43102 1.01974 -1.1243 0.385152 0.123272 -1.70248 -0.826164 1.32828 -0.0485186 -0.223551 -1.38658 0.422655 -0.742255 0.510223 1.05454
278 -0.872801 -0.208571 0.802772 0.200047 1.15074 -1.22093 0.239294 -0.194354 -1.33469 -1.43102 1.01974 -1.1243 0.385152 0.123272 -1.70248 -0.826164 1.32828 -0.0485186 -0.223551 -1.38658 0.422655 -0.742255 0.510223 1.05454
296 -0.872801 -0.208571 0.802772 0.200047 1.15074 -1.22093 0.239294 -0.194354 -1.33469 -1.43102 1.01974 -1.1243 0.385152 0.123272 -1.70248 -0.826164 1.32828 -0.0485186 -0.223551 -1.38658 0.422655 -0.742255 0.510223 1.05454
298 -0.872801 -0.208571 0.802772 0.200047 1.15074 -1.22093 0.239294 -0.194354 -1.33469 -1.43102 1.01974 -1.1243 0.385152 0.123272 -1.70248 -0.826164 1.32828 -0.0485186 -0.223551 -1.38658 0.422655 -0.742255 0.510223 1.05454
310 -0.872801 -0.208571 0.802772 0.200047 1.15074 -1.22093 0.239294 -0.194354 -1.33469 -1.43102 1.01974 -1.1243 0.385152 0.123272 -1.70248 -0.826164 1.32828 -0.0485186 -0.223551 -1.38658 0.422655 -0.742255 0.510223 1.05454
316 -0.872801 -0.208571 0.802772 0.200047 1.15074 -1.22093 0.239294 -0.194354 -1.33469 -1.43102 1.01974 -1.1243 0.385152 0.123272 -1.70248 -0.826164 1.32828 -0.0485186 -0.223551 -1.38658 0.422655 -0.742255 0.510223 1.05454
320 -0.872801 -0.208571 0.802772 0.200047 1.15074 -1.22093 0.239294 -0.194354 -1.33469 -1.43102 1.01974 -1.1243 0.385152 0.123272 -1.70248 -0.826164 1.32828 -0.0485186 -0.223551 -1.38658 0.422655 -0.742255 0.510223 1.05454
323 -0.872801 -0.208571 0.802772 0.200047 1.15074 -1.22093 0.239294 -0.194354 -1.33469 -1.43102 1.01974 -1.1243 0.385152 0.123272 -1.70248 -0.826164 1.32828 -0.0485186 -0.223551 -1.38658 0.422655 -0.742255 0.510223 1.05454
346 -0.872801 -0.208571 0.802772 0.200047 1.15074 -1.22093 0.239294 -0.194354 -1.33469 -1.43102 1.01974 -1.1243 0.385152 0.123272 -1.70248 -0.826164 1.32828 -0.0485186 -0.223551 -1.38658 0.422655 -0.742255 0.510223 1.05454
2704 -0.872801 -0.208571 0.802772 0.200047 1.15074 -1.22093 0.239294 -0.194354 -1.33469 -1.43102 1.01974 -1.1243 0.385152 0.123272 -1.70248 -0.826164 1.32828 -0.0485186 -0.223551 -1.38658 0.422655 -0.742255 0.510223 1.05454
427 -0.872801 -0.208571 0.802772 0.200047 1.15074 -1.22093 0.239294 -0.194354 -1.33469 -1.43102 1.01974 -1.1243 0.385152 0.123272 -1.70248 -0.826164 1.32828 -0.0485186 -0.223551 -1.38658 0.422655 -0.742255 0.510223 1.05454
4011 0.0468521 0.0991374 0.227921 0.0976874 0.0268587 -0.434196 0.165215 0.0941327 -0.312318 0.0807238 0.570669 -0.279906 0.502229 -0.0183065 -0.388355 0.00341601 -0.00366416 0.227118 0.202539 -0.157997 0.32606 0.320104 -0.0503259 -0.118649
3997 0.011624 0.0699282 0.274189 0.0811731 0.0565197 -0.428612 0.187026 0.083395 -0.383099 0.0212065 0.580713 -0.328808 0.511138 -0.0213075 -0.464443 -0.0329789 0.0994562 0.140603 0.218962 -0.240195 0.3085 0.271014 0.00523065 -0.0363678
4014 0.157658 0.0160891 0.173933 0.166843 0.116 -0.597459 0.117549 0.00806761 -0.238325 0.148395 0.524237 -0.371309 0.564549 -0.0323439 -0.393089 0.0744366 -0.193935 0.405386 0.141208 -0.119996 0.439143 0.476905 -0.0776489 -0.161611
4024 0.0348129 0.0852191 0.231294 0.0635374 0.0721645 -0.435952 0.162371 0.101793 -0.339493 0.0414274 0.562854 -0.315901 0.476986 -0.00990106 -0.423277 -0.0163037 0.068886 0.199645 0.187692 -0.200372 0.310768 0.260044 -0.0591551 -0.0363569
2 -0.872801 -0.208571 0.802772 0.200047 1.15074 -1.22093 0.239294 -0.194354 -1.33469 -1.43102 1.01974 -1.1243 0.385152 0.123272 -1.70248 -0.826164 1.32828 -0.0485186 -0.223551 -1.38658 0.422655 -0.742255 0.510223 1.05454
8 -0.872801 -0.208571 0.802772 0.200047 1.15074 -1.22093 0.239294 -0.194354 -1.33469 -1.43102 1.01974 -1.1243 0.385152 0.123272 -1.70248 -0.826164 1.32828 -0.0485186 -0.223551 -1.38658 0.422655 -0.742255 0.510223 1.05454
20 -0.872801 -0.208571 0.802772 0.200047 1.15074 -1.22093 0.239294 -0.194354 -1.33469 -1.43102 1.01974 -1.1243 0.385152 0.123272 -1.70248 -0.826164 1.32828 -0.0485186 -0.223551 -1.38658 0.422655 -0.742255 0.510223 1.05454
22 -0.872801 -0.208571 0.802772 0.200047 1.15074 -1.22093 0.239294 -0.194354 -1.33469 -1.43102 1.01974 -1.1243 0.385152 0.123272 -1.70248 -0.826164 1.32828 -0.0485186 -0.223551 -1.38658 0.422655 -0.742255 0.510223 1.05454
80 -0.872801 -0.208571 0.802772 0.200047 1.15074 -1.22093 0.239294 -0.194354 -1.33469 -1.43102 1.01974 -1.1243 0.385152 0.123272 -1.70248 -0.826164 1.32828 -0.0485186 -0.223551 -1.38658 0.422655 -0.742255 0.510223 1.05454
120 -0.872801 -0.208571 0.802772 0.200047 1.15074 -1.22093 0.239294 -0.194354 -1.33469 -1.43102 1.01974 -1.1243 0.385152 0.123272 -1.70248 -0.826164 1.32828 -0.0485186 -0.223551 -1.38658 0.422655 -0.742255 0.510223 1.05454
125 -0.872801 -0.208571 0.802772 0.200047 1.15074 -1.22093 0.239294 -0.194354 -1.33469 -1.43102 1.01974 -1.1243 0.385152 0.123272 -1.70248 -0.826164 1.32828 -0.0485186 -0.223551 -1.38658 0.422655 -0.742255 0.510223 1.05454
126 -0.785587 -0.189458 0.711018 0.174059 1.03149 -1.07843 0.204452 -0.181925 -1.17997 -1.28677 0.888057 -0.994368 0.3212 0.111319 -1.512 -0.738806 1.19129 -0.0503273 -0.213549 -1.23673 0.364616 -0.679438 0.456077 0.950293
135 -0.872801 -0.208571 0.802772 0.200047 1.15074 -1.22093 0.239294 -0.194354 -1.33469 -1.43102 1.01974 -1.1243 0.385152 0.123272 -1.70248 -0.826164 1.32828 -0.0485186 -0.223551 -1.38658 0.422655 -0.742255 0.510223 1.05454
141 -0.872801 -0.208571 0.802772 0.200047 1.15074 -1.22093 0.239294 -0.194354 -1.33469 -1.43102 1.01974 -1.1243 0.385152 0.123272 -1.70248 -0.826164 1.32828 -0.0485186 -0.223551 -1.38658 0.422655 -0.742255 0.510223 1.05454
194 -0.872801 -0.208571 0.802772 0.200047 1.15074 -1.22093 0.239294 -0.194354 -1.33469 -1.43102 1.01974 -1.1243 0.385152 0.123272 -1.70248 -0.826164 1.32828 -0.0485186 -0.223551 -1.38658 0.422655 -0.742255 0.510223 1.05454
196 -0.629765 -0.162984 0.57921 0.179715 0.802538 -0.904749 0.172802 -0.131894 -0.987047 -1.01288 0.773914 -0.812522 0.317554 0.0735171 -1.21866 -0.630304 0.937228 -0.0260718 -0.164299 -0.996935 0.332667 -0.483372 0.369413 0.735449
211 -0.872801 -0.208571 0.802772 0.200047 1.15074 -1.22093 0.239294 -0.194354 -1.33469 -1.43102 1.01974 -1.1243 0.385152 0.123272 -1.70248 -0.826164 1.32828 -0.0485186 -0.223551 -1.38658 0.422655 -0.742255 0.510223 1.05454
237 -0.872801 -0.208571 0.802772 0.200047 1.15074 -1.22093 0.239294 -0.194354 -1.33469 -1.43102 1.01974 -1.1243 0.385152 0.123272 -1.70248 -0.826164 1.32828 -0.0485186 -0.223551 -1.38658 0.422655 -0.742255 0.510223 1.05454
245 -0.872801 -0.208571 0.802772 0.200047 1.15074 -1.22093 0.239294 -0.194354 -1.33469 -1.43102 1.01974 -1.1243 0.385152 0.123272 -1.70248 -0.826164 1.32828 -0.0485186 -0.223551 -1.38658 0.422655 -0.742255 0.510223 1.05454
254 -0.872801 -0.208571 0.802772 0.200047 1.15074 -1.22093 0.239294 -0.194354 -1.33469 -1.43102 1.01974 -1.1243 0.385152 0.123272 -1.70248 -0.826164 1.32828 -0.0485186 -0.223551 -1.38658 0.422655 -0.742255 0.510223 1.05454
259 -0.872801 -0.208571 0.802772 0.200047 1.15074 -1.22093 0.239294 -0.194354 -1.33469 -1.43102 1.01974 -1.1243 0.385152 0.123272 -1.70248 -0.826164 1.32828 -0.0485186 -0.223551 -1.38658 0.422655 -0.742255 0.510223 1.05454
308 -0.872801 -0.208571 0.802772 0.200047 1.15074 -1.22093 0.239294 -0.194354 -1.33469 -1.43102 1.01974 -1.1243 0.385152 0.123272 -1.70248 -0.826164 1.32828 -0.0485186 -0.223551 -1.38658 0.422655 -0.742255 0.510223 1.05454
343 -0.872801 -0.208571 0.802772 0.200047 1.15074 -1.22093 0.239294 -0.194354 -1.33469 -1.43102 1.01974 -1.1243 0.385152 0.123272 -1.70248 -0.826164 1.32828 -0.0485186 -0.223551 -1.38658 0.422655 -0.742255 0.510223 1.05454
904 -0.872801 -0.208571 0.802772 0.200047 1.15074 -1.22093 0.239294 -0.194354 -1.33469 -1.43102 1.01974 -1.1243 0.385152 0.123272 -1.70248 -0.826164 1.32828 -0.0485186 -0.223551 -1.38658 0.422655 -0.742255 0.510223 1.05454
2740 -0.872801 -0.208571 0.802772 0.200047 1.15074 -1.22093 0.239294 -0.194354 -1.33469 -1.43102 1.01974 -1.1243 0.385152 0.123272 -1.70248 -0.826164 1.32828 -0.0485186 -0.223551 -1.38658 0.422655 -0.742255 0.510223 1.05454
575 -0.272015 -0.0948804 0.15337 0.0492669 0.362731 -0.244803 0.0115242 -0.0999418 -0.296145 -0.503514 0.114656 -0.282744 -0.0441237 0.0530441 -0.395182 -0.266216 0.405033 -0.0734847 -0.13813 -0.352607 0.0347807 -0.349759 0.153818 0.38895
603 -0.285893 -0.0770751 0.18248 0.0502902 0.373469 -0.247841 0.0161169 -0.0769709 -0.296041 -0.494728 0.122524 -0.244798 -0.0203651 0.0334247 -0.397234 -0.251873 0.410863 -0.0429918 -0.131093 -0.373093 0.0221507 -0.344665 0.149049 0.370357
893 -0.208933 0.0794252 0.26578 -0.173355 0.124098 -0.382752 0.353385 0.207994 -0.322148 0.120803 0.40555 -0.327954 0.473339 -0.0273848 -0.35576 0.0817284 0.0787662 0.170286 0.238342 -0.125875 0.208327 0.342066 0.0601019 -0.015667
3798 0.0214563 0.210576 0.187278 -0.00694393 -0.0151472 -0.379709 0.359082 -0.0192239 -0.484044 0.0857685 0.783495 -0.45808 0.567281 0.0609261 -0.481389 -0.0625609 0.0581651 0.202879 0.328368 -0.120708 0.473324 0.537958 -0.0211206 -0.205649
3985 0.00261249 0.092898 0.269003 0.0688593 0.0690927 -0.457731 0.184165 0.107179 -0.383919 0.0163522 0.608587 -0.331755 0.487259 -0.0158275 -0.462648 -0.0360156 0.119955 0.178466 0.212404 -0.233623 0.322956 0.26192 -0.0547355 -0.00614374
19 -0.872801 -0.208571 0.802772 0.200047 1.15074 -1.22093 0.239294 -0.194354 -1.33469 -1.43102 1.01974 -1.1243 0.385152 0.123272 -1.70248 -0.826164 1.32828 -0.0485186 -0.223551 -1.38658 0.422655 -0.742255 0.510223 1.05454
29 -0.872801 -0.208571 0.802772 0.200047 1.15074 -1.22093 0.239294 -0.194354 -1.33469 -1.43102 1.01974 -1.1243 0.385152 0.123272 -1.70248 -0.826164 1.32828 -0.0485186 -0.223551 -1.38658 0.422655 -0.742255 0.510223 1.05454
69 -0.872801 -0.208571 0.802772 0.200047 1.15074 -1.22093 0.239294 -0.194354 -1.33469 -1.43102 1.01974 -1.1243 0.385152 0.123272 -1.70248 -0.826164 1.32828 -0.0485186 -0.223551 -1.38658 0.422655 -0.742255 0.510223 1.05454
72 -0.872801 -0.208571 0.802772 0.200047 1.15074 -1.22093 0.239294 -0.194354 -1.33469 -1.43102 1.01974 -1.1243 0.385152 0.123272 -1.70248 -0.826164 1.32828 -0.0485186 -0.223551 -1.38658 0.422655 -0.742255 0.510223 1.05454
79 -0.872801 -0.208571 0.802772 0.200047 1.15074 -1.22093 0.239294 -0.194354 -1.33469 -1.43102 1.01974 -1.1243 0.385152 0.123272 -1.70248 -0.826164 1.32828 -0.0485186 -0.223551 -1.38658 0.422655 -0.742255 0.510223 1.05454
87 -0.872801 -0.208571 0.802772 0.200047 1.15074 -1.22093 0.239294 -0.194354 -1.33469 -1.43102 1.01974 -1.1243 0.385152 0.123272 -1.70248 -0.826164 1.32828 -0.0485186 -0.223551 -1.38658 0.422655 -0.742255 0.510223 1.05454
104 -0.872801 -0.208571 0.802772 0.200047 1.15074 -1.22093 0.239294 -0.194354 -1.33469 -1.43102 1.01974 -1.1243 0.385152 0.123272 -1.70248 -0.826164 1.32828 -0.0485186 -0.223551 -1.38658 0.422655 -0.742255 0.510223 1.05454
133 -0.872801 -0.208571 0.802772 0.200047 1.15074 -1.22093 0.239294 -0.194354 -1.33469 -1.43102 1.01974 -1.1243 0.385152 0.123272 -1.70248 -0.826164 1.32828 -0.0485186 -0.223551 -1.38658 0.422655 -0.742255 0.510223 1.05454
159 -0.872801 -0.208571 0.802772 0.200047 1.15074 -1.22093 0.239294 -0.194354 -1.33469 -1.43102 1.01974 -1.1243 0.385152 0.123272 -1.70248 -0.826164 1.32828 -0.0485186 -0.223551 -1.38658 0.422655 -0.742255 0.510223 1.05454
224 -0.872801 -0.208571 0.802772 0.200047 1.15074 -1.22093 0.239294 -0.194354 -1.33469 -1.43102 1.01974 -1.1243 0.385152 0.123272 -1.70248 -0.826164 1.32828 -0.0485186 -0.223551 -1.38658 0.422655 -0.742255 0.510223 1.05454
238 -0.872801 -0.208571 0.802772 0.200047 1.15074 -1.22093 0.239294 -0.194354 -1.33469 -1.43102 1.01974 -1.1243 0.385152 0.123272 -1.70248 -0.826164 1.32828 -0.0485186 -0.223551 -1.38658 0.422655 -0.742255 0.510223 1.05454
251 -0.872801 -0.208571 0.802772 0.200047 1.15074 -1.22093 0.239294 -0.194354 -1.33469 -1.43102 1.01974 -1.1243 0.385152 0.123272 -1.70248 -0.826164 1.32828 -0.0485186 -0.223551 -1.38658 0.422655 -0.742255 0.510223 1.05454
289 -0.872801 -0.208571 0.802772 0.200047 1.15074 -1.22093 0.239294 -0.194354 -1.33469 -1.43102 1.01974 -1.1243 0.385152 0.123272 -1.70248 -0.826164 1.32828 -0.0485186 -0.223551 -1.38658 0.422655 -0.742255 0.510223 1.05454
290 -0.669303 -0.163973 0.58868 0.139408 0.872478 -0.88842 0.157994 -0.165353 -0.973684 -1.09444 0.712475 -0.821121 0.235932 0.0953832 -1.25804 -0.622328 1.00865 -0.0527388 -0.200214 -1.03692 0.287232 -0.595682 0.383883 0.811301
348 -0.250485 -0.104833 0.157881 0.0155142 0.327169 -0.210651 -0.00332077 -0.110351 -0.266724 -0.439769 0.123166 -0.232015 -0.0398582 0.0349941 -0.362005 -0.245163 0.360222 -0.043914 -0.125917 -0.313318 0.0369078 -0.297093 0.156881 0.342648
517 -0.250485 -0.104833 0.157881 0.0155142 0.327169 -0.210651 -0.00332077 -0.110351 -0.266724 -0.439769 0.123166 -0.232015 -0.0398582 0.0349941 -0.362005 -0.245163 0.360222 -0.043914 -0.125917 -0.313318 0.0369078 -0.297093 0.156881 0.342648
989 -0.270698 -0.0820081 0.146844 0.0176431 0.328567 -0.230731 -0.00482555 -0.0786931 -0.281405 -0.45899 0.104587 -0.220935 -0.0335197 0.0385887 -0.356777 -0.252187 0.357689 -0.0814171 -0.164594 -0.362034 0.017125 -0.345774 0.159154 0.334862
399 -0.872801 -0.208571 0.802772 0.200047 1.15074 -1.22093 0.239294 -0.194354 -1.33469 -1.43102 1.01974 -1.1243 0.385152 0.123272 -1.70248 -0.826164 1.32828 -0.0485186 -0.223551 -1.38658 0.422655 -0.742255 0.510223 1.05454
3781 0.00879996 0.199712 0.151864 -0.0224499 -0.0243224 -0.348304 0.354656 -0.0361874 -0.447371 0.0942718 0.739427 -0.451533 0.530771 0.0731689 -0.4608 -0.0623783 0.0611288 0.184006 0.30654 -0.0940126 0.453577 0.517764 -0.0213928 -0.1943
4 -0.507739 -0.037008 0.702114 0.193287 0.612895 -0.909 0.276485 -0.010964 -1.04766 -0.823758 1.02493 -0.768116 0.580193 0.0738241 -1.30593 -0.472522 0.909266 -0.0156037 0.0997198 -1.01445 0.4753 -0.267491 0.347438 0.546884
23 -0.872801 -0.208571 0.802772 0.200047 1.15074 -1.22093 0.239294 -0.194354 -1.33469 -1.43102 1.01974 -1.1243 0.385152 0.123272 -1.70248 -0.826164 1.32828 -0.0485186 -0.223551 -1.38658 0.422655 -0.742255 0.510223 1.05454
57 -0.872801 -0.208571 0.802772 0.200047 1.15074 -1.22093 0.239294 -0.194354 -1.33469 -1.43102 1.01974 -1.1243 0.385152 0.123272 -1.70248 -0.826164 1.32828 -0.0485186 -0.223551 -1.38658 0.422655 -0.742255 0.510223 1.05454
75 -0.872801 -0.208571 0.802772 0.200047 1.15074 -1.22093 0.239294 -0.194354 -1.33469 -1.43102 1.01974 -1.1243 0.385152 0.123272 -1.70248 -0.826164 1.32828 -0.0485186 -0.223551 -1.38658 0.422655 -0.742255 0.510223 1.05454
82 -0.872801 -0.208571 0.802772 0.200047 1.15074 -1.22093 0.239294 -0.194354 -1.33469 -1.43102 1.01974 -1.1243 0.385152 0.123272 -1.70248 -0.826164 1.32828 -0.0485186 -0.223551 -1.38658 0.422655 -0.742255 0.510223 1.05454
171 -0.872801 -0.208571 0.802772 0.200047 1.15074 -1.22093 0.239294 -0.194354 -1.33469 -1.43102 1.01974 -1.1243 0.385152 0.123272 -1.70248 -0.826164 1.32828 -0.0485186 -0.223551 -1.38658 0.422655 -0.742255 0.510223 1.05454
221 -0.872801 -0.208571 0.802772 0.200047 1.15074 -1.22093 0.239294 -0.194354 -1.33469 -1.43102 1.01974 -1.1243 0.385152 0.123272 -1.70248 -0.826164 1.32828 -0.0485186 -0.223551 -1.38658 0.422655 -0.742255 0.510223 1.05454
277 -0.872801 -0.208571 0.802772 0.200047 1.15074 -1.22093 0.239294 -0.194354 -1.33469 -1.43102 1.01974 -1.1243 0.385152 0.123272 -1.70248 -0.826164 1.32828 -0.0485186 -0.223551 -1.38658 0.422655 -0.742255 0.510223 1.05454
285 -0.872801 -0.208571 0.802772 0.200047 1.15074 -1.22093 0.239294 -0.194354 -1.33469 -1.43102 1.01974 -1.1243 0.385152 0.123272 -1.70248 -0.826164 1.32828 -0.0485186 -0.223551 -1.38658 0.422655 -0.742255 0.510223 1.05454
288 -0.872801 -0.208571 0.802772 0.200047 1.15074 -1.22093 0.239294 -0.194354 -1.33469 -1.43102 1.01974 -1.1243 0.385152 0.123272 -1.70248 -0.826164 1.32828 -0.0485186 -0.223551 -1.38658 0.422655 -0.742255 0.510223 1.05454
364 -0.872801 -0.208571 0.802772 0.200047 1.15074 -1.22093 0.239294 -0.194354 -1.33469 -1.43102 1.01974 -1.1243 0.385152 0.123272 -1.70248 -0.826164 1.32828 -0.0485186 -0.223551 -1.38658 0.422655 -0.742255 0.510223 1.05454
624 -0.219615 -0.0961108 0.136248 0.0116924 0.299213 -0.182848 0.0143954 -0.0947701 -0.223995 -0.425387 0.0943121 -0.21125 -0.0600695 0.0585727 -0.331374 -0.217436 0.336349 -0.0526671 -0.127521 -0.280369 0.0263404 -0.286108 0.132972 0.298955
648 -0.272015 -0.0948804 0.15337 0.0492669 0.362731 -0.244803 0.0115242 -0.0999418 -0.296145 -0.503514 0.114656 -0.282744 -0.0441237 0.0530441 -0.395182 -0.266216 0.405033 -0.0734847 -0.13813 -0.352607 0.0347807 -0.349759 0.153818 0.38895
674 -0.245815 -0.0954956 0.144809 0.0304796 0.330972 -0.213825 0.0129598 -0.0973559 -0.26007 -0.46445 0.104484 -0.246997 -0.0520966 0.0558084 -0.363278 -0.241826 0.370691 -0.0630759 -0.132825 -0.316488 0.0305606 -0.317933 0.143395 0.343952
740 -0.271115 -0.0840798 0.151823 0.0418324 0.327922 -0.216335 0.0260006 -0.101727 -0.291786 -0.442447 0.10149 -0.24845 -0.0457559 0.0461542 -0.364383 -0.22727 0.352837 -0.0606399 -0.157693 -0.337764 0.01697 -0.304106 0.143836 0.321687
4015 0.0132246 0.0983007 0.254487 0.0817071 0.0824942 -0.449577 0.178039 0.0853098 -0.399368 0.0216379 0.615862 -0.333414 0.543758 -0.0248888 -0.465 -0.0386251 0.0729761 0.183178 0.216112 -0.235576 0.340867 0.291854 -0.0486766 -0.0720508
4020 0.011624 0.0699282 0.274189 0.0811731 0.0565197 -0.428612 0.187026 0.083395 -0.383099 0.0212065 0.580713 -0.328808 0.511138 -0.0213075 -0.464443 -0.0329789 0.0994562 0.140603 0.218962 -0.240195 0.3085 0.271014 0.00523065 -0.0363678
4026 -0.0238382 0.107722 0.323692 0.111571 0.118103 -0.512305 0.19748 0.0790643 -0.504015 -0.0409004 0.729253 -0.398621 0.60492 -0.0156537 -0.58093 -0.0900601 0.16639 0.161307 0.225774 -0.318412 0.370044 0.280899 -0.0295167 -0.0355045
5 -0.872801 -0.208571 0.802772 0.200047 1.15074 -1.22093 0.239294 -0.194354 -1.33469 -1.43102 1.01974 -1.1243 0.385152 0.123272 -1.70248 -0.826164 1.32828 -0.0485186 -0.223551 -1.38658 0.422655 -0.742255 0.510223 1.05454
38 -0.872801 -0.208571 0.802772 0.200047 1.15074 -1.22093 0.239294 -0.194354 -1.33469 -1.43102 1.01974 -1.1243 0.385152 0.123272 -1.70248 -0.826164 1.32828 -0.0485186 -0.223551 -1.38658 0.422655 -0.742255 0.510223 1.05454
58 -0.61238 -0.0917024 0.695616 0.14681 0.797082 -0.99515 0.262944 -0.0879638 -1.08899 -1.01178 0.934545 -0.897165 0.449323 0.0657393 -1.38934 -0.619245 1.02001 -0.0417186 -0.0340256 -1.10071 0.393282 -0.449106 0.378971 0.741611
59 -0.872801 -0.208571 0.802772 0.200047 1.15074 -1.22093 0.239294 -0.194354 -1.33469 -1.43102 1.01974 -1.1243 0.385152 0.123272 -1.70248 -0.826164 1.32828 -0.0485186 -0.223551 -1.38658 0.422655 -0.742255 0.510223 1.05454
98 -0.872801 -0.208571 0.802772 0.200047 1.15074 -1.22093 0.239294 -0.194354 -1.33469 -1.43102 1.01974 -1.1243 0.385152 0.123272 -1.70248 -0.826164 1.32828 -0.0485186 -0.223551 -1.38658 0.422655 -0.742255 0.510223 1.05454
118 -0.872801 -0.208571 0.802772 0.200047 1.15074 -1.22093 0.239294 -0.194354 -1.33469 -1.43102 1.01974 -1.1243 0.385152 0.123272 -1.70248 -0.826164 1.32828 -0.0485186 -0.223551 -1.38658 0.422655 -0.742255 0.510223 1.05454
204 -0.872801 -0.208571 0.802772 0.200047 1.15074 -1.22093 0.239294 -0.194354 -1.33469 -1.43102 1.01974 -1.1243 0.385152 0.123272 -1.70248 -0.826164 1.32828 -0.0485186 -0.223551 -1.38658 0.422655 -0.742255 0.510223 1.05454
230 -0.872801 -0.208571 0.802772 0.200047 1.15074 -1.22093 0.239294 -0.194354 -1.33469 -1.43102 1.01974 -1.1243 0.385152 0.123272 -1.70248 -0.826164 1.32828 -0.0485186 -0.223551 -1.38658 0.422655 -0.742255 0.510223 1.05454
261 -0.872801 -0.208571 0.802772 0.200047 1.15074 -1.22093 0.239294 -0.194354 -1.33469 -1.43102 1.01974 -1.1243 0.385152 0.123272 -1.70248 -0.826164 1.32828 -0.0485186 -0.223551 -1.38658 0.422655 -0.742255 0.510223 1.05454
276 -0.872801 -0.208571 0.802772 0.200047 1.15074 -1.22093 0.239294 -0.194354 -1.33469 -1.43102 1.01974 -1.1243 0.385152 0.123272 -1.70248 -0.826164 1.32828 -0.0485186 -0.223551 -1.38658 0.422655 -0.742255 0.510223 1.05454
322 -0.872801 -0.208571 0.802772 0.200047 1.15074 -1.22093 0.239294 -0.194354 -1.33469 -1.43102 1.01974 -1.1243 0.385152 0.123272 -1.70248 -0.826164 1.32828 -0.0485186 -0.223551 -1.38658 0.422655 -0.742255 0.510223 1.05454
329 -0.567554 -0.141674 0.481634 0.109089 0.733345 -0.722163 0.117344 -0.150853 -0.793181 -0.92615 0.55884 -0.669531 0.161322 0.081439 -1.03582 -0.52041 0.848833 -0.0548488 -0.188546 -0.862095 0.21952 -0.522395 0.320712 0.689684
1976 -0.872801 -0.208571 0.802772 0.200047 1.15074 -1.22093 0.239294 -0.194354 -1.33469 -1.43102 1.01974 -1.1243 0.385152 0.123272 -1.70248 -0.826164 1.32828 -0.0485186 -0.223551 -1.38658 0.422655 -0.742255 0.510223 1.05454
3936 0.00879996 0.199712 0.151864 -0.0224499 -0.0243224 -0.348304 0.354656 -0.0361874 -0.447371 0.0942718 0.739427 -0.451533 0.530771 0.0731689 -0.4608 -0.0623783 0.0611288 0.184006 0.30654 -0.0940126 0.453577 0.517764 -0.0213928 -0.1943
4004 -0.0238382 0.107722 0.323692 0.111571 0.118103 -0.512305 0.19748 0.0790643 -0.504015 -0.0409004 0.729253 -0.398621 0.60492 -0.0156537 -0.58093 -0.0900601 0.16639 0.161307 0.225774 -0.318412 0.370044 0.280899 -0.0295167 -0.0355045
3 -0.872801 -0.208571 0.802772 0.200047 1.15074 -1.22093 0.239294 -0.194354 -1.33469 -1.43102 1.01974 -1.1243 0.385152 0.123272 -1.70248 -0.826164 1.32828 -0.0485186 -0.223551 -1.38658 0.422655 -0.742255 0.510223 1.05454
48 -0.872801 -0.208571 0.802772 0.200047 1.15074 -1.22093 0.239294 -0.194354 -1.33469 -1.43102 1.01974 -1.1243 0.385152 0.123272 -1.70248 -0.826164 1.32828 -0.0485186 -0.223551 -1.38658 0.422655 -0.742255 0.510223 1.05454
99 -0.872801 -0.208571 0.802772 0.200047 1.15074 -1.22093 0.239294 -0.194354 -1.33469 -1.43102 1.01974 -1.1243 0.385152 0.123272 -1.70248 -0.826164 1.32828 -0.0485186 -0.223551 -1.38658 0.422655 -0.742255 0.510223 1.05454
119 -0.872801 -0.208571 0.802772 0.200047 1.15074 -1.22093 0.239294 -0.194354 -1.33469 -1.43102 1.01974 -1.1243 0.385152 0.123272 -1.70248 -0.826164 1.32828 -0.0485186 -0.223551 -1.38658 0.422655 -0.742255 0.510223 1.05454
134 -0.872801 -0.208571 0.802772 0.200047 1.15074 -1.22093 0.239294 -0.194354 -1.33469 -1.43102 1.01974 -1.1243 0.385152 0.123272 -1.70248 -0.826164 1.32828 -0.0485186 -0.223551 -1.38658 0.422655 -0.742255 0.510223 1.05454
188 -0.872801 -0.208571 0.802772 0.200047 1.15074 -1.22093 0.239294 -0.194354 -1.33469 -1.43102 1.01974 -1.1243 0.385152 0.123272 -1.70248 -0.826164 1.32828 -0.0485186 -0.223551 -1.38658 0.422655 -0.742255 0.510223 1.05454
203 -0.872801 -0.208571 0.802772 0.200047 1.15074 -1.22093 0.239294 -0.194354 -1.33469 -1.43102 1.01974 -1.1243 0.385152 0.123272 -1.70248 -0.826164 1.32828 -0.0485186 -0.223551 -1.38658 0.422655 -0.742255 0.510223 1.05454
236 -0.872801 -0.208571 0.802772 0.200047 1.15074 -1.22093 0.239294 -0.194354 -1.33469 -1.43102 1.01974 -1.1243 0.385152 0.123272 -1.70248 -0.826164 1.32828 -0.0485186 -0.223551 -1.38658 0.422655 -0.742255 0.510223 1.05454
2838 -0.872801 -0.208571 0.802772 0.200047 1.15074 -1.22093 0.239294 -0.194354 -1.33469 -1.43102 1.01974 -1.1243 0.385152 0.123272 -1.70248 -0.826164 1.32828 -0.0485186 -0.223551 -1.38658 0.422655 -0.742255 0.510223 1.05454
1560 -0.872801 -0.208571 0.802772 0.200047 1.15074 -1.22093 0.239294 -0.194354 -1.33469 -1.43102 1.01974 -1.1243 0.385152 0.123272 -1.70248 -0.826164 1.32828 -0.0485186 -0.223551 -1.38658 0.422655 -0.742255 0.510223 1.05454
476 -0.872801 -0.208571 0.802772 0.200047 1.15074 -1.22093 0.239294 -0.194354 -1.33469 -1.43102 1.01974 -1.1243 0.385152 0.123272 -1.70248 -0.826164 1.32828 -0.0485186 -0.223551 -1.38658 0.422655 -0.742255 0.510223 1.05454
680 -0.272015 -0.0948804 0.15337 0.0492669 0.362731 -0.244803 0.0115242 -0.0999418 -0.296145 -0.503514 0.114656 -0.282744 -0.0441237 0.0530441 -0.395182 -0.266216 0.405033 -0.0734847 -0.13813 -0.352607 0.0347807 -0.349759 0.153818 0.38895
638 -0.285893 -0.0770751 0.18248 0.0502902 0.373469 -0.247841 0.0161169 -0.0769709 -0.296041 -0.494728 0.122524 -0.244798 -0.0203651 0.0334247 -0.397234 -0.251873 0.410863 -0.0429918 -0.131093 -0.373093 0.0221507 -0.344665 0.149049 0.370357
4031 0.0477567 0.100228 0.236286 0.0858241 0.0638966 -0.468662 0.184411 0.0743174 -0.355486 0.067719 0.586409 -0.322119 0.564202 -0.0385148 -0.451201 0.00092647 -0.00130852 0.219946 0.23382 -0.210595 0.367186 0.348794 -0.0537988 -0.114142
3622 0.0467691 0.232303 0.258107 0.0240681 0.00320321 -0.442519 0.367935 0.0147032 -0.55739 0.0687619 0.871629 -0.471174 0.640302 0.0364406 -0.522565 -0.0629261 0.0522378 0.240627 0.372023 -0.1741 0.512819 0.578347 -0.0205763 -0.228347
3755 0.00879996 0.199712 0.151864 -0.0224499 -0.0243224 -0.348304 0.354656 -0.0361874 -0.447371 0.0942718 0.739427 -0.451533 0.530771 0.0731689 -0.4608 -0.0623783 0.0611288 0.184006 0.30654 -0.0940126 0.453577 0.517764 -0.0213928 -0.1943
4025 0.00261249 0.092898 0.269003 0.0688593 0.0690927 -0.457731 0.184165 0.107179 -0.383919 0.0163522 0.608587 -0.331755 0.487259 -0.0158275 -0.462648 -0.0360156 0.119955 0.178466 0.212404 -0.233623 0.322956 0.26192 -0.0547355 -0.00614374
4037 0.0456707 0.0839176 0.201719 0.0677197 0.0541592 -0.392521 0.148785 0.0843152 -0.317544 0.0674814 0.526355 -0.282933 0.466854 -0.0273063 -0.362211 -0.00246993 0.0223306 0.195627 0.201117 -0.149154 0.310949 0.297796 -0.0628433 -0.0871178
