41 24
4010 -0.0461301 -0.0106225 0.00342915 0.0186562 0.0178156 -0.0084249 0.0202259 -0.0173608 0.0217761 -0.0299185 0.00333827 -0.0282599 0.00732328 0.0715572 -0.0423588 -0.0259185 0.00121473 0.0018818 -0.0359847 0.00338319 -0.0163632 -0.0209073 -0.0307959 0.0312098
4028 -0.132725 -0.0256589 0.111548 0.147071 0.119004 -0.0820785 0.0410458 -0.062245 0.0805619 -0.0294327 0.0416771 3.35079e-05 0.0807426 0.221908 -0.110337 -0.0544457 -0.038291 0.022539 -0.0701078 -0.0273163 0.00786764 0.0206297 0.0889781 -0.00436538
244 -0.253335 -0.0265677 0.440609 0.30595 0.289257 -0.455082 0.0427027 -0.152443 0.124506 0.153306 0.222276 0.0597262 0.19934 0.370632 -0.0972888 -0.149156 -0.13254 0.0576965 -0.0343811 0.0374831 0.185102 0.228737 0.560267 -0.162484
282 -0.162166 -0.0390414 0.342279 0.221979 0.233811 -0.366071 0.0231702 -0.12238 0.0610209 0.13738 0.17727 0.0717044 0.116791 0.254446 -0.0404633 -0.104217 -0.11453 0.0174577 -0.0392272 0.0309027 0.154056 0.179603 0.465816 -0.151252
3984 -0.0727435 -0.00400198 0.0861658 0.0544182 0.0723572 -0.070279 0.000721092 -0.0209525 0.0115565 0.0235495 0.0560964 0.0313968 0.0212439 0.0868527 -0.0182877 -0.0510056 -0.0432802 0.00728852 -0.0361871 0.0133495 0.0300017 0.0481679 0.118727 -0.0153977
3990 -0.138934 -0.0442974 0.139067 0.128258 0.120239 -0.126987 0.0467411 -0.0638959 0.0761773 0.00491658 0.0487811 0.0104705 0.0841568 0.218587 -0.120127 -0.0599352 -0.0645453 0.0241425 -0.0490174 -0.0252388 0.0510576 0.0352526 0.100249 -0.011457
4015 0.0332538 -0.000702849 -0.123224 -0.0668562 -0.046557 0.145783 0.0337898 0.0269231 -0.0137282 -0.0920596 -0.0599477 -0.0194689 -0.0178644 -0.00865211 -0.0254318 0.043898 0.0141772 -0.00846393 -0.00440334 -0.0194147 -0.0490089 -0.0991848 -0.174797 0.0773087
12 0.0430739 -0.00177776 -0.153287 -0.0732566 -0.074405 0.192376 0.0157011 0.0528463 0.00152615 -0.114546 -0.123007 -0.0447269 -0.0400066 -0.0316141 -0.0587263 0.0532753 0.0632775 6.44318e-06 0.00516356 -0.0238091 -0.0775589 -0.126077 -0.257453 0.0912425
42 -0.372816 -0.076194 0.55967 0.396281 0.381033 -0.529056 0.0829933 -0.214034 0.159428 0.112669 0.275547 0.0733426 0.244994 0.518017 -0.205628 -0.206189 -0.183079 0.103077 -0.0851037 -0.0232318 0.203657 0.251479 0.650885 -0.181736
891 0.0428398 0.00299021 -0.175146 -0.0744694 -0.108744 0.233408 0.00494402 0.0542217 -0.020971 -0.106102 -0.140525 -0.0824115 -0.0601328 -0.0679524 -0.0456374 0.0704069 0.072262 -0.00938456 0.00802885 -0.0209463 -0.0861273 -0.158654 -0.285021 0.124814
11 0.0523696 0.0153983 -0.173473 -0.0556597 -0.0750586 0.204631 0.0323541 0.059136 -0.00554992 -0.116504 -0.108165 -0.0437642 -0.066006 -0.0602609 -0.0499439 0.0772012 0.0344857 -0.00683573 -0.00494325 -0.0433777 -0.0947081 -0.146913 -0.248233 0.0878017
875 0.0408955 -0.0133546 -0.167988 -0.0739138 -0.112704 0.200538 0.00328598 0.0272147 0.00705229 -0.115365 -0.107024 -0.0501145 -0.0503307 -0.0609827 -0.0489185 0.0763118 0.0299883 0.00622813 0.00650477 -0.0503283 -0.0815888 -0.122777 -0.285942 0.100976
3570 0.020109 -0.00870402 -0.134465 -0.0455673 -0.0948847 0.181767 0.0351566 0.0180568 0.000368762 -0.124087 -0.115151 -0.0750122 -0.0542897 -0.0103655 -0.061764 0.0413068 0.0390794 -0.0114911 -0.0258708 -0.0280205 -0.0807641 -0.141051 -0.232176 0.111515
3407 -0.14482 -0.0166971 0.137865 0.164773 0.100323 -0.144929 0.0540574 -0.0716476 0.0747524 -0.00993131 0.0480263 0.00679005 0.0768356 0.206489 -0.105445 -0.060447 -0.0672127 0.0332993 -0.0340235 -0.00303382 0.04 0.0527178 0.152929 -0.022781
4035 -0.0709664 0.00782427 -0.0575707 0.0348041 0.00347214 0.083388 0.051039 -0.0140357 0.0425361 -0.071135 -0.0602493 -0.0288221 0.00105336 0.0807911 -0.0883357 0.0171099 0.0270297 -0.0027751 -0.0313 -0.0337438 -0.0680163 -0.112955 -0.146099 0.0463997
255 -0.12146 -0.00557027 0.305027 0.155927 0.179241 -0.331119 0.0204514 -0.109917 0.0249805 0.158675 0.192095 0.0954895 0.119818 0.16537 0.0165859 -0.12702 -0.0798234 0.033028 -0.0241898 0.034442 0.158095 0.195771 0.425877 -0.142926
33 -0.336534 -0.0558822 0.446731 0.367781 0.307909 -0.38853 0.0742676 -0.203549 0.156478 0.0800749 0.211399 0.0586767 0.222048 0.489212 -0.221865 -0.163875 -0.124182 0.0796013 -0.0851723 -0.0149398 0.130175 0.17581 0.493911 -0.155753
3746 -0.153246 -0.0226723 0.182082 0.140808 0.132552 -0.171876 0.0549467 -0.0927572 0.0857089 0.0131122 0.0804636 0.0212328 0.0762666 0.207132 -0.0922846 -0.0576203 -0.0744321 0.048296 -0.0378167 -0.0200966 0.0465285 0.0680829 0.190128 -0.0539503
15 0.0260545 -0.00631029 -0.128417 -0.0700181 -0.0895831 0.17289 0.0177721 0.0444425 -0.00605364 -0.0895326 -0.100932 -0.0628433 -0.0375977 -0.0325303 -0.0477876 0.0484907 0.0313927 -0.0124494 -0.0236127 -0.0457966 -0.0657368 -0.134982 -0.222585 0.0865537
4008 -0.00478179 0.00804041 -0.0971055 -0.0288585 -0.0199476 0.117334 0.0225821 0.0112178 0.00248087 -0.0446961 -0.0480706 -0.00967954 -0.0390654 -0.00870456 -0.0141073 0.00491724 0.0339317 0.00510068 -0.0178297 -0.0305012 -0.0513626 -0.0873938 -0.113181 0.0479721
581 -0.378504 -0.0703986 0.505644 0.401245 0.358277 -0.477454 0.0993345 -0.237003 0.184798 0.105128 0.246537 0.0506863 0.265501 0.536169 -0.195976 -0.221606 -0.159415 0.0744627 -0.129692 -0.0298994 0.179829 0.238948 0.581719 -0.186483
642 -0.379275 -0.0545882 0.446691 0.363178 0.337005 -0.406584 0.0991629 -0.184218 0.172613 0.0701618 0.210787 0.066145 0.223427 0.521055 -0.211016 -0.178637 -0.130161 0.0621469 -0.135921 -0.0164738 0.166786 0.186025 0.515219 -0.167295
3885 -0.0282923 0.0143589 -0.00553894 0.0212298 -0.0123107 0.0159796 0.000532958 7.99351e-06 0.0317931 -0.051659 -0.026299 -0.0011234 -0.0124254 0.0408184 -0.0439763 0.0161968 0.0139053 0.0253381 -0.00191944 -0.0343296 0.00175699 -0.0322687 -0.0597772 0.0398167
3987 -0.373224 -0.0717439 0.492296 0.384665 0.334376 -0.45007 0.0672825 -0.22108 0.157893 0.107779 0.211916 0.0427016 0.254121 0.487731 -0.196963 -0.184832 -0.149471 0.0567161 -0.122511 -0.00193215 0.16992 0.192436 0.516868 -0.184223
233 -0.388188 -0.0654339 0.555873 0.417932 0.383845 -0.510074 0.0819847 -0.213374 0.186206 0.111111 0.223404 0.0502316 0.263877 0.5489 -0.229214 -0.222074 -0.158797 0.110178 -0.102665 -0.025852 0.189635 0.217074 0.629079 -0.182017
256 -0.310207 -0.0640278 0.407187 0.334328 0.276656 -0.358488 0.10402 -0.177108 0.179874 0.0740884 0.154351 0.0262216 0.219345 0.438843 -0.202421 -0.179445 -0.102295 0.0632414 -0.108386 -0.00673516 0.109851 0.171323 0.455653 -0.135955
114 0.0185826 -0.0188905 -0.158226 -0.0427939 -0.0779466 0.195068 0.0461433 0.0286644 0.0378922 -0.121685 -0.100048 -0.0780893 -0.021222 -0.017799 -0.0865793 0.0687004 0.0307776 -0.019968 -0.0231661 -0.022766 -0.080514 -0.156104 -0.277983 0.0871729
179 -0.282622 -0.042154 0.227933 0.238923 0.187896 -0.18179 0.0705987 -0.105168 0.145004 -0.0373058 0.080387 -0.00564016 0.153599 0.384376 -0.232401 -0.101147 -0.0825279 0.0391563 -0.100906 -0.0559216 0.0514287 -0.00137356 0.164957 -0.0411972
447 0.0659277 -0.00555901 -0.168107 -0.0899405 -0.0880186 0.214876 0.0163802 0.041565 -0.0161468 -0.0859814 -0.103074 -0.0610055 -0.0498173 -0.0563367 -0.0104268 0.051406 0.0443465 -0.00976772 -0.00748773 -0.0371046 -0.0943039 -0.146382 -0.277279 0.101999
4001 -0.0116284 -0.0143606 0.319677 0.107563 0.160372 -0.423295 -0.0581261 -0.0672828 -0.0357128 0.259583 0.244373 0.133635 0.0669955 0.02086 0.169868 -0.103308 -0.104191 0.0302002 0.0221345 0.0685936 0.204131 0.291322 0.564114 -0.195305
4029 0.0220742 0.0178196 0.344184 0.0954523 0.193863 -0.479726 -0.0530707 -0.0802241 -0.0533319 0.300867 0.273894 0.137903 0.1122 0.0228339 0.206232 -0.101204 -0.0790006 0.0192498 0.0602807 0.109924 0.195892 0.352351 0.654939 -0.253572
18 0.0145497 0.00864118 -0.0826054 -0.0547045 -0.0607398 0.102296 0.0091367 0.011497 0.00778909 -0.0560312 -0.0505822 -0.03016 -0.0322602 -0.0173677 -0.0102662 0.0213593 0.02908 0.0127344 0.00796953 0.00106758 -0.0506496 -0.0426409 -0.0964999 0.0509324
49 -0.236016 -0.0497311 0.255342 0.218054 0.174328 -0.222356 0.0636014 -0.133969 0.106357 0.0237784 0.11522 0.0345461 0.158647 0.294583 -0.164106 -0.129758 -0.0570591 0.0294286 -0.0666859 -0.00107567 0.110785 0.0784535 0.294919 -0.102321
241 -0.178931 -0.0259656 0.280035 0.19803 0.205654 -0.306798 0.00468251 -0.12606 0.0870026 0.109243 0.164072 0.0767788 0.143556 0.205771 -0.0429869 -0.134049 -0.0630885 0.013915 -0.0398865 0.00350452 0.138996 0.169686 0.387408 -0.122463
585 0.0482541 -0.00253548 -0.174444 -0.0738548 -0.0915339 0.18754 0.0078812 0.0475584 -0.00358099 -0.0933515 -0.103392 -0.0774976 -0.0580665 -0.0664089 -0.051368 0.0474888 0.0580721 0.00151192 -0.0135557 -0.0520746 -0.0909271 -0.151784 -0.277877 0.0860676
608 0.0249323 0.00179064 -0.164071 -0.0833733 -0.0911668 0.212124 0.0315834 0.0582106 -0.00259673 -0.0998852 -0.104323 -0.0684865 -0.0741026 -0.0575653 -0.0161613 0.0512564 0.0532827 -0.0112545 -0.00520885 -0.0152941 -0.0875175 -0.145716 -0.284793 0.075693
90 -0.239285 -0.0458082 0.207825 0.20449 0.1828 -0.183124 0.0633167 -0.11193 0.127117 -0.0121872 0.0760579 0.0096874 0.111024 0.317814 -0.181201 -0.0914244 -0.0805175 0.0328241 -0.0959232 -0.0511245 0.066965 0.0215603 0.18122 -0.0671845
209 0.0044578 -0.00951854 -0.114741 -0.0251533 -0.0716336 0.154579 0.0220636 0.0355939 0.0176595 -0.0816497 -0.0794615 -0.0504919 -0.0519254 -0.0134015 -0.0358985 0.0459502 0.02935 -0.0085364 -0.00790048 -0.0245091 -0.0549343 -0.100335 -0.235106 0.0901458
4036 -0.077166 -0.0260063 0.0815404 0.0743642 0.0640087 -0.0707819 0.0294022 -0.0531682 0.0241901 -0.0130406 0.0136781 -0.0045996 0.0375196 0.114137 -0.0582742 -0.0182976 -0.0333236 0.0360287 -0.0319956 -0.0218341 0.0293227 0.0190109 0.0681849 -0.0252326
3974 0.0600575 0.0104912 -0.212209 -0.104844 -0.109301 0.208137 0.000445919 0.0766207 -0.0408848 -0.0979338 -0.115411 -0.0637486 -0.0832495 -0.106988 0.00524552 0.0930883 0.0461511 -0.0180092 0.0115718 -0.0383183 -0.117306 -0.131558 -0.280619 0.0932716
4012 -0.351443 -0.0729266 0.458755 0.334559 0.322777 -0.416955 0.0733811 -0.196457 0.184145 0.0793135 0.207369 0.0428023 0.248732 0.500634 -0.239605 -0.175415 -0.125866 0.0627381 -0.0920937 -0.0217533 0.122313 0.177972 0.466098 -0.149024
