4039 24
4024 -0.0739073 0.410801 -0.36094 0.0140796 0.241825 0.140077 0.0778411 0.250803 0.0178081 -0.061324 -0.250048 -0.160586 -0.010818 0.0726194 -0.337529 0.231403 -0.250303 -0.14097 -0.259258 0.00924126 0.145098 -0.175518 -0.22379 -0.369542
0 -0.0807185 0.296011 -0.255618 0.0374585 0.181988 0.108255 0.064686 0.19822 0.0383476 -0.0301355 -0.20134 -0.125738 -0.000179845 0.0319681 -0.232041 0.176597 -0.186328 -0.0919849 -0.189587 0.0127299 0.122687 -0.140558 -0.15246 -0.26172
3991 -0.0689714 0.329032 -0.298297 0.0486011 0.198303 0.109876 0.0639106 0.212886 0.0212495 -0.0295496 -0.224597 -0.134014 -0.0175447 0.0263456 -0.25646 0.179293 -0.207302 -0.0998751 -0.227512 -0.00737343 0.152853 -0.165727 -0.175514 -0.281141
4028 -0.100521 0.463625 -0.411133 0.0362059 0.265222 0.162117 0.103904 0.309155 0.0369066 -0.042844 -0.286378 -0.193484 0.006496 0.0591364 -0.382633 0.270654 -0.301788 -0.146197 -0.336888 0.0147339 0.205454 -0.221562 -0.237219 -0.431486
4008 -0.0768237 0.324431 -0.257706 0.0344376 0.201206 0.093983 0.0814548 0.198389 0.041234 -0.0429585 -0.21203 -0.127441 -0.00536623 0.046191 -0.250219 0.200696 -0.191588 -0.101632 -0.224475 0.021126 0.130871 -0.16094 -0.169847 -0.28086
3268 -0.121227 0.450891 -0.391664 0.024645 0.239115 0.152458 0.0924364 0.296964 0.0248409 -0.0600046 -0.265306 -0.201203 -0.0227182 0.0634477 -0.342054 0.263873 -0.277356 -0.163111 -0.291748 0.012762 0.203212 -0.226837 -0.231564 -0.387841
3407 -0.0936952 0.433171 -0.376597 0.0188746 0.270618 0.144646 0.113428 0.29088 0.03148 -0.0488683 -0.278042 -0.167225 -0.0200945 0.0822649 -0.358681 0.269253 -0.284623 -0.153918 -0.291779 0.0128088 0.179055 -0.201646 -0.247402 -0.421724
282 -0.147255 0.552473 -0.484628 0.0466865 0.31413 0.219528 0.117335 0.370146 0.0325259 -0.0354903 -0.382805 -0.234374 -0.0390248 0.0912081 -0.452324 0.350465 -0.371705 -0.180869 -0.38602 0.00805903 0.233713 -0.300395 -0.293329 -0.498014
244 -0.136178 0.527729 -0.467352 0.0543425 0.320039 0.173299 0.130591 0.366762 0.0395237 -0.035169 -0.371406 -0.2342 -0.0370099 0.0725856 -0.463833 0.337506 -0.366667 -0.193116 -0.372849 0.0363506 0.210071 -0.277711 -0.293512 -0.517487
4022 -0.0929432 0.34279 -0.281538 0.0123482 0.19951 0.109361 0.0847951 0.229819 0.0372887 -0.0155624 -0.225158 -0.161704 0.00949909 0.0555873 -0.269521 0.205646 -0.217747 -0.123745 -0.238676 -0.00348482 0.122435 -0.156278 -0.188364 -0.294671
4035 -0.068634 0.327395 -0.301446 0.0286386 0.201583 0.10551 0.0818606 0.197813 0.0153272 -0.0188633 -0.195984 -0.139398 -0.0123528 0.0314275 -0.285947 0.202651 -0.190876 -0.126342 -0.214638 0.027675 0.127622 -0.156437 -0.170617 -0.282321
3996 -0.12962 0.548335 -0.485489 0.0565319 0.313758 0.17588 0.144579 0.349347 0.0581202 -0.0593518 -0.3686 -0.223473 -0.0208865 0.0633403 -0.441624 0.318343 -0.349904 -0.206295 -0.381606 0.0249334 0.219052 -0.283937 -0.292529 -0.508241
81 -0.154457 0.515639 -0.458983 0.0424808 0.2976 0.203147 0.132865 0.358314 0.0743575 -0.0589979 -0.344278 -0.231238 -0.0179695 0.0729665 -0.413349 0.328697 -0.351363 -0.192157 -0.357249 0.0169244 0.242442 -0.268504 -0.258673 -0.475995
286 -0.125248 0.521949 -0.469953 0.0762168 0.306709 0.210639 0.103155 0.340217 0.0679101 -0.0646509 -0.348798 -0.205159 -0.010192 0.0704444 -0.430009 0.334102 -0.325294 -0.192711 -0.367635 0.0050592 0.210048 -0.244116 -0.271047 -0.463972
4015 -0.0627291 0.310234 -0.303843 0.036573 0.193806 0.11377 0.0887786 0.217363 0.0180044 -0.0206164 -0.201369 -0.125204 0.0024081 0.0375722 -0.269798 0.186288 -0.19513 -0.135342 -0.246521 0.0206883 0.140199 -0.152062 -0.196834 -0.281998
3999 -0.191648 0.669275 -0.579149 0.0587487 0.401526 0.227393 0.15689 0.445493 0.0661152 -0.0626901 -0.414581 -0.252189 -0.00368712 0.108258 -0.556432 0.371973 -0.412782 -0.232917 -0.448727 0.0237743 0.289618 -0.311277 -0.358694 -0.608977
4036 -0.130633 0.53912 -0.484121 0.042617 0.311788 0.189691 0.138023 0.383928 0.0436636 -0.0457039 -0.344583 -0.214449 -0.0207663 0.0758715 -0.481499 0.342025 -0.345741 -0.187903 -0.371155 0.000615944 0.223466 -0.272918 -0.307969 -0.506446
4005 -0.119319 0.542424 -0.474892 0.0523436 0.298769 0.18963 0.139287 0.336416 0.0574844 -0.0679711 -0.360407 -0.239758 -0.00243035 0.0985872 -0.428748 0.328051 -0.35076 -0.20541 -0.350263 -0.00626764 0.245103 -0.256898 -0.282834 -0.48595
90 -0.093256 0.333134 -0.294736 0.0195734 0.19829 0.104567 0.0889367 0.219653 0.0232673 -0.0445859 -0.248807 -0.142675 -0.0175695 0.0499133 -0.277615 0.220932 -0.213007 -0.120404 -0.245496 0.012956 0.150066 -0.170867 -0.190219 -0.305408
4001 -0.106941 0.463922 -0.425523 0.0411018 0.27172 0.147905 0.129579 0.291404 0.0467137 -0.0382473 -0.283668 -0.179972 -0.0103377 0.0512246 -0.382471 0.293296 -0.298122 -0.151946 -0.305792 0.00365035 0.2129 -0.230829 -0.243312 -0.424987
3746 -0.136405 0.599335 -0.556327 0.0628618 0.362533 0.237645 0.133176 0.394636 0.053044 -0.0787972 -0.395191 -0.259832 -0.0198641 0.0919423 -0.479373 0.390323 -0.398579 -0.206903 -0.426318 0.0201288 0.283982 -0.310038 -0.34486 -0.553255
3846 -0.144567 0.612598 -0.550038 0.0510037 0.38921 0.244554 0.13711 0.392865 0.0728914 -0.0486201 -0.407983 -0.260637 0.00907926 0.107145 -0.488704 0.386319 -0.404122 -0.235278 -0.407913 0.035337 0.262032 -0.316388 -0.337383 -0.554528
4007 -0.098936 0.556755 -0.45304 0.0275895 0.352187 0.150279 0.101655 0.346291 0.0486119 -0.0874591 -0.348466 -0.252442 0.0389205 0.0511217 -0.431591 0.338817 -0.367132 -0.24279 -0.384445 -0.014023 0.203912 -0.240576 -0.321089 -0.483034
210 -0.033074 0.126103 -0.091409 0.0126944 0.0613348 0.0311463 0.00858527 0.052016 0.0167984 -0.0249951 -0.0733325 -0.0584564 -0.00807678 -0.00168995 -0.082821 0.0501007 -0.0803356 -0.0592127 -0.0556054 -0.0184002 0.0405685 -0.0496188 -0.0416488 -0.0996353
255 -0.0789549 0.33706 -0.284771 0.035082 0.18837 0.112384 0.0675849 0.225202 0.0405308 -0.0132311 -0.213332 -0.147357 0.0109412 0.0403365 -0.242107 0.204515 -0.191488 -0.102503 -0.20353 0.0111586 0.12029 -0.142057 -0.174286 -0.290433
3984 -0.0934328 0.361524 -0.32929 0.0528658 0.233529 0.116531 0.0774824 0.244024 0.0345842 -0.0438894 -0.245782 -0.169175 -0.0146744 0.062147 -0.327129 0.227145 -0.232647 -0.132195 -0.279248 0.00291115 0.156606 -0.177158 -0.212913 -0.321788
4032 -0.098427 0.338466 -0.298828 0.0314261 0.228749 0.104974 0.0640882 0.213813 0.0509359 -0.0257809 -0.217965 -0.146337 -0.00924587 0.0683181 -0.302941 0.209742 -0.242666 -0.121699 -0.244654 0.00198284 0.141491 -0.163986 -0.191015 -0.320045
3992 -0.0915988 0.34732 -0.319757 0.0396816 0.199064 0.117818 0.0867712 0.242779 0.0256486 -0.0547296 -0.201348 -0.126488 -0.0099297 0.068116 -0.284174 0.219697 -0.205022 -0.11698 -0.227922 0.027866 0.151758 -0.179838 -0.197012 -0.296439
3983 -0.0798869 0.375341 -0.328027 0.0446225 0.228396 0.143117 0.0915579 0.255866 0.0360052 -0.0252805 -0.233973 -0.154954 -0.00811557 0.0731499 -0.291821 0.202774 -0.214018 -0.127134 -0.243866 -0.0119033 0.164412 -0.191367 -0.215682 -0.342183
4012 -0.147057 0.600027 -0.554493 0.0686822 0.34394 0.206077 0.151375 0.404766 0.0389563 -0.0601974 -0.410412 -0.230921 -0.01997 0.0887045 -0.52103 0.364783 -0.380641 -0.22579 -0.418121 -0.00201383 0.25204 -0.301762 -0.348682 -0.569539
3987 -0.135213 0.610822 -0.543372 0.0414052 0.365664 0.212094 0.14412 0.408878 0.0513611 -0.0809237 -0.417435 -0.260112 -0.00362347 0.0879051 -0.52045 0.40089 -0.410014 -0.224462 -0.43325 -0.0015936 0.24587 -0.300751 -0.343311 -0.563187
33 -0.106711 0.510298 -0.431524 0.0418374 0.302418 0.159867 0.102878 0.341602 0.0485759 -0.0454529 -0.32416 -0.213827 0.0041992 0.0542195 -0.404849 0.282983 -0.331577 -0.175318 -0.344419 0.0282978 0.211954 -0.256152 -0.287303 -0.463944
42 -0.127489 0.509654 -0.422905 0.0407692 0.289506 0.188712 0.107519 0.317536 0.0439451 -0.0384712 -0.326093 -0.226435 -0.00274392 0.0759373 -0.416828 0.285084 -0.322261 -0.193879 -0.352097 -0.00581049 0.203135 -0.266244 -0.277449 -0.46675
4010 -0.0884177 0.349561 -0.299158 0.0278078 0.1963 0.125436 0.0616394 0.231923 0.0407213 -0.0324526 -0.236657 -0.125057 0.0154221 0.0371062 -0.279417 0.211623 -0.204665 -0.132693 -0.244028 0.000501235 0.132445 -0.149673 -0.167522 -0.315409
97 -0.0824821 0.254962 -0.226465 0.0398349 0.175606 0.104127 0.0617871 0.171237 0.0361643 -0.0470398 -0.189348 -0.104119 -0.0113009 0.0235998 -0.221974 0.148679 -0.181168 -0.0814664 -0.175643 0.0143012 0.125084 -0.139059 -0.130635 -0.233006
4016 -0.0989086 0.547055 -0.500085 0.0270871 0.372534 0.191699 0.0872005 0.348906 0.051764 -0.0794359 -0.384464 -0.26322 0.0348767 0.0375508 -0.473047 0.324715 -0.355327 -0.254504 -0.400852 -0.00295173 0.21311 -0.267747 -0.352611 -0.491063
4025 -0.0906036 0.569269 -0.483168 0.0211328 0.340473 0.149245 0.0783031 0.333046 0.0781619 -0.0658186 -0.3862 -0.225932 0.0296122 0.0456775 -0.429933 0.307836 -0.367735 -0.235862 -0.405376 -0.0163208 0.210222 -0.25817 -0.346108 -0.481882
602 -0.00386652 0.0154586 -0.0202604 -0.0171213 -0.00844015 -0.0202345 0.00273132 -0.0113516 0.00459674 0.00738733 -0.00783333 0.0119038 -0.0159145 -0.0171037 -0.0030498 -0.00790918 -0.0129599 0.0165015 0.00679602 0.0123503 -0.0113007 -0.0138081 0.0101907 -0.0164364
4006 -0.0801738 0.343239 -0.306922 0.014869 0.187352 0.139146 0.0758892 0.238018 0.0193732 -0.0347049 -0.24021 -0.138426 0.0143122 0.0605301 -0.301408 0.208114 -0.238447 -0.144483 -0.238924 0.00656345 0.147967 -0.157145 -0.19039 -0.325442
205 -0.0416163 0.274349 -0.245116 0.00584475 0.133864 0.102969 0.0659846 0.155385 0.00917364 -0.0201578 -0.164923 -0.109817 0.00450463 0.0575341 -0.192268 0.148363 -0.147671 -0.112391 -0.162794 0.0201914 0.0946629 -0.111748 -0.129023 -0.223302
891 -0.0134227 0.133071 -0.105797 -0.00410556 0.0863644 0.03406 0.0434402 0.0968695 -0.00862448 -0.0249678 -0.0934302 -0.0696003 0.00114396 0.0115868 -0.102365 0.0517322 -0.0937334 -0.055773 -0.0933648 0.0149662 0.0458212 -0.0499746 -0.0809447 -0.0871645
256 -0.0640529 0.354038 -0.284063 0.0409802 0.180356 0.0995583 0.0818177 0.219516 0.0167414 -0.039677 -0.222352 -0.142852 -0.0253431 0.0637658 -0.26937 0.201933 -0.196296 -0.10906 -0.216877 0.0273689 0.132075 -0.160727 -0.205983 -0.317874
6 -0.105848 0.446303 -0.378104 0.0410697 0.267487 0.153143 0.0937655 0.292994 0.0443153 -0.0441042 -0.29094 -0.189552 -0.00141161 0.051994 -0.362125 0.249932 -0.291646 -0.156495 -0.304145 0.0162716 0.188032 -0.229402 -0.245673 -0.406911
8 -0.033074 0.126103 -0.091409 0.0126944 0.0613348 0.0311463 0.00858527 0.052016 0.0167984 -0.0249951 -0.0733325 -0.0584564 -0.00807678 -0.00168995 -0.082821 0.0501007 -0.0803356 -0.0592127 -0.0556054 -0.0184002 0.0405685 -0.0496188 -0.0416488 -0.0996353
15 -0.106711 0.510298 -0.431524 0.0418374 0.302418 0.159867 0.102878 0.341602 0.0485759 -0.0454529 -0.32416 -0.213827 0.0041992 0.0542195 -0.404849 0.282983 -0.331577 -0.175318 -0.344419 0.0282978 0.211954 -0.256152 -0.287303 -0.463944
18 -0.111065 0.446206 -0.385507 0.0462647 0.257808 0.155557 0.103039 0.297726 0.0305352 -0.0382446 -0.306068 -0.189568 -0.0305795 0.0683884 -0.370432 0.275498 -0.292929 -0.149651 -0.303876 0.0225512 0.1824 -0.230961 -0.245184 -0.414251
23 -0.0640529 0.354038 -0.284063 0.0409802 0.180356 0.0995583 0.0818177 0.219516 0.0167414 -0.039677 -0.222352 -0.142852 -0.0253431 0.0637658 -0.26937 0.201933 -0.196296 -0.10906 -0.216877 0.0273689 0.132075 -0.160727 -0.205983 -0.317874
24 -0.033074 0.126103 -0.091409 0.0126944 0.0613348 0.0311463 0.00858527 0.052016 0.0167984 -0.0249951 -0.0733325 -0.0584564 -0.00807678 -0.00168995 -0.082821 0.0501007 -0.0803356 -0.0592127 -0.0556054 -0.0184002 0.0405685 -0.0496188 -0.0416488 -0.0996353
28 -0.0824821 0.254962 -0.226465 0.0398349 0.175606 0.104127 0.0617871 0.171237 0.0361643 -0.0470398 -0.189348 -0.104119 -0.0113009 0.0235998 -0.221974 0.148679 -0.181168 -0.0814664 -0.175643 0.0143012 0.125084 -0.139059 -0.130635 -0.233006
35 -0.0640529 0.354038 -0.284063 0.0409802 0.180356 0.0995583 0.0818177 0.219516 0.0167414 -0.039677 -0.222352 -0.142852 -0.0253431 0.0637658 -0.26937 0.201933 -0.196296 -0.10906 -0.216877 0.0273689 0.132075 -0.160727 -0.205983 -0.317874
49 -0.0769439 0.340689 -0.289296 0.0310214 0.187764 0.116807 0.0704106 0.221564 0.0359693 -0.0162383 -0.214558 -0.147664 0.00889827 0.0457208 -0.24788 0.202074 -0.194806 -0.111053 -0.208691 0.0112429 0.12272 -0.146947 -0.175258 -0.293668
50 -0.136178 0.527729 -0.467352 0.0543425 0.320039 0.173299 0.130591 0.366762 0.0395237 -0.035169 -0.371406 -0.2342 -0.0370099 0.0725856 -0.463833 0.337506 -0.366667 -0.193116 -0.372849 0.0363506 0.210071 -0.277711 -0.293512 -0.517487
52 -0.0789549 0.33706 -0.284771 0.035082 0.18837 0.112384 0.0675849 0.225202 0.0405308 -0.0132311 -0.213332 -0.147357 0.0109412 0.0403365 -0.242107 0.204515 -0.191488 -0.102503 -0.20353 0.0111586 0.12029 -0.142057 -0.174286 -0.290433
60 -0.0640529 0.354038 -0.284063 0.0409802 0.180356 0.0995583 0.0818177 0.219516 0.0167414 -0.039677 -0.222352 -0.142852 -0.0253431 0.0637658 -0.26937 0.201933 -0.196296 -0.10906 -0.216877 0.0273689 0.132075 -0.160727 -0.205983 -0.317874
65 -0.11598 0.516123 -0.450738 0.0590271 0.304564 0.185253 0.103016 0.340909 0.058243 -0.0550519 -0.336479 -0.209493 -0.00299641 0.062332 -0.417429 0.308542 -0.328435 -0.184014 -0.356027 0.0166785 0.211001 -0.250134 -0.279175 -0.463958
68 -0.033074 0.126103 -0.091409 0.0126944 0.0613348 0.0311463 0.00858527 0.052016 0.0167984 -0.0249951 -0.0733325 -0.0584564 -0.00807678 -0.00168995 -0.082821 0.0501007 -0.0803356 -0.0592127 -0.0556054 -0.0184002 0.0405685 -0.0496188 -0.0416488 -0.0996353
70 -0.0824821 0.254962 -0.226465 0.0398349 0.175606 0.104127 0.0617871 0.171237 0.0361643 -0.0470398 -0.189348 -0.104119 -0.0113009 0.0235998 -0.221974 0.148679 -0.181168 -0.0814664 -0.175643 0.0143012 0.125084 -0.139059 -0.130635 -0.233006
71 -0.0824821 0.254962 -0.226465 0.0398349 0.175606 0.104127 0.0617871 0.171237 0.0361643 -0.0470398 -0.189348 -0.104119 -0.0113009 0.0235998 -0.221974 0.148679 -0.181168 -0.0814664 -0.175643 0.0143012 0.125084 -0.139059 -0.130635 -0.233006
73 -0.154457 0.515639 -0.458983 0.0424808 0.2976 0.203147 0.132865 0.358314 0.0743575 -0.0589979 -0.344278 -0.231238 -0.0179695 0.0729665 -0.413349 0.328697 -0.351363 -0.192157 -0.357249 0.0169244 0.242442 -0.268504 -0.258673 -0.475995
85 -0.113105 0.444766 -0.3847 0.0408842 0.25125 0.165956 0.0924598 0.297674 0.0365284 -0.0243607 -0.298069 -0.190866 -0.0140418 0.0657723 -0.347215 0.27749 -0.281597 -0.141686 -0.294775 0.00960881 0.177001 -0.221226 -0.233807 -0.394224
89 -0.113637 0.510083 -0.428651 0.0414813 0.298114 0.169482 0.104425 0.33358 0.0470323 -0.0431257 -0.324804 -0.21803 0.00188483 0.0614588 -0.408842 0.283683 -0.328472 -0.181505 -0.346979 0.0169283 0.209014 -0.259516 -0.284018 -0.464879
100 -0.136178 0.527729 -0.467352 0.0543425 0.320039 0.173299 0.130591 0.366762 0.0395237 -0.035169 -0.371406 -0.2342 -0.0370099 0.0725856 -0.463833 0.337506 -0.366667 -0.193116 -0.372849 0.0363506 0.210071 -0.277711 -0.293512 -0.517487
109 -0.0789549 0.33706 -0.284771 0.035082 0.18837 0.112384 0.0675849 0.225202 0.0405308 -0.0132311 -0.213332 -0.147357 0.0109412 0.0403365 -0.242107 0.204515 -0.191488 -0.102503 -0.20353 0.0111586 0.12029 -0.142057 -0.174286 -0.290433
120 -0.147255 0.552473 -0.484628 0.0466865 0.31413 0.219528 0.117335 0.370146 0.0325259 -0.0354903 -0.382805 -0.234374 -0.0390248 0.0912081 -0.452324 0.350465 -0.371705 -0.180869 -0.38602 0.00805903 0.233713 -0.300395 -0.293329 -0.498014
124 -0.136178 0.527729 -0.467352 0.0543425 0.320039 0.173299 0.130591 0.366762 0.0395237 -0.035169 -0.371406 -0.2342 -0.0370099 0.0725856 -0.463833 0.337506 -0.366667 -0.193116 -0.372849 0.0363506 0.210071 -0.277711 -0.293512 -0.517487
126 -0.0640529 0.354038 -0.284063 0.0409802 0.180356 0.0995583 0.0818177 0.219516 0.0167414 -0.039677 -0.222352 -0.142852 -0.0253431 0.0637658 -0.26937 0.201933 -0.196296 -0.10906 -0.216877 0.0273689 0.132075 -0.160727 -0.205983 -0.317874
132 -0.0416163 0.274349 -0.245116 0.00584475 0.133864 0.102969 0.0659846 0.155385 0.00917364 -0.0201578 -0.164923 -0.109817 0.00450463 0.0575341 -0.192268 0.148363 -0.147671 -0.112391 -0.162794 0.0201914 0.0946629 -0.111748 -0.129023 -0.223302
134 -0.093256 0.333134 -0.294736 0.0195734 0.19829 0.104567 0.0889367 0.219653 0.0232673 -0.0445859 -0.248807 -0.142675 -0.0175695 0.0499133 -0.277615 0.220932 -0.213007 -0.120404 -0.245496 0.012956 0.150066 -0.170867 -0.190219 -0.305408
144 -0.0416163 0.274349 -0.245116 0.00584475 0.133864 0.102969 0.0659846 0.155385 0.00917364 -0.0201578 -0.164923 -0.109817 0.00450463 0.0575341 -0.192268 0.148363 -0.147671 -0.112391 -0.162794 0.0201914 0.0946629 -0.111748 -0.129023 -0.223302
145 -0.093256 0.333134 -0.294736 0.0195734 0.19829 0.104567 0.0889367 0.219653 0.0232673 -0.0445859 -0.248807 -0.142675 -0.0175695 0.0499133 -0.277615 0.220932 -0.213007 -0.120404 -0.245496 0.012956 0.150066 -0.170867 -0.190219 -0.305408
147 -0.147255 0.552473 -0.484628 0.0466865 0.31413 0.219528 0.117335 0.370146 0.0325259 -0.0354903 -0.382805 -0.234374 -0.0390248 0.0912081 -0.452324 0.350465 -0.371705 -0.180869 -0.38602 0.00805903 0.233713 -0.300395 -0.293329 -0.498014
151 -0.0416163 0.274349 -0.245116 0.00584475 0.133864 0.102969 0.0659846 0.155385 0.00917364 -0.0201578 -0.164923 -0.109817 0.00450463 0.0575341 -0.192268 0.148363 -0.147671 -0.112391 -0.162794 0.0201914 0.0946629 -0.111748 -0.129023 -0.223302
152 -0.139853 0.518794 -0.464468 0.0593488 0.302155 0.206893 0.11801 0.349266 0.0711338 -0.0618244 -0.346538 -0.218199 -0.0140808 0.0717054 -0.421679 0.331399 -0.338328 -0.192434 -0.362442 0.0109918 0.226245 -0.25631 -0.26486 -0.469984
153 -0.0789549 0.33706 -0.284771 0.035082 0.18837 0.112384 0.0675849 0.225202 0.0405308 -0.0132311 -0.213332 -0.147357 0.0109412 0.0403365 -0.242107 0.204515 -0.191488 -0.102503 -0.20353 0.0111586 0.12029 -0.142057 -0.174286 -0.290433
167 -0.127416 0.502136 -0.443008 0.0441331 0.29091 0.183064 0.11568 0.338015 0.0321889 -0.0331622 -0.346794 -0.216506 -0.0319427 0.0784164 -0.420106 0.316039 -0.337541 -0.176335 -0.348486 0.0219172 0.203716 -0.263724 -0.269935 -0.467115
168 -0.0789549 0.33706 -0.284771 0.035082 0.18837 0.112384 0.0675849 0.225202 0.0405308 -0.0132311 -0.213332 -0.147357 0.0109412 0.0403365 -0.242107 0.204515 -0.191488 -0.102503 -0.20353 0.0111586 0.12029 -0.142057 -0.174286 -0.290433
169 -0.1171 0.509976 -0.427214 0.0413033 0.295962 0.174289 0.105198 0.329569 0.0462605 -0.0419621 -0.325126 -0.220131 0.000727642 0.0650784 -0.410839 0.284033 -0.326919 -0.184599 -0.348258 0.0112436 0.207545 -0.261198 -0.282376 -0.465347
174 -0.093256 0.333134 -0.294736 0.0195734 0.19829 0.104567 0.0889367 0.219653 0.0232673 -0.0445859 -0.248807 -0.142675 -0.0175695 0.0499133 -0.277615 0.220932 -0.213007 -0.120404 -0.245496 0.012956 0.150066 -0.170867 -0.190219 -0.305408
175 -0.141716 0.540101 -0.47599 0.0505145 0.317084 0.196413 0.123963 0.368454 0.0360248 -0.0353296 -0.377106 -0.234287 -0.0380173 0.0818968 -0.458078 0.343985 -0.369186 -0.186992 -0.379434 0.0222048 0.221892 -0.289053 -0.293421 -0.507751
179 -0.093256 0.333134 -0.294736 0.0195734 0.19829 0.104567 0.0889367 0.219653 0.0232673 -0.0445859 -0.248807 -0.142675 -0.0175695 0.0499133 -0.277615 0.220932 -0.213007 -0.120404 -0.245496 0.012956 0.150066 -0.170867 -0.190219 -0.305408
182 -0.0824821 0.254962 -0.226465 0.0398349 0.175606 0.104127 0.0617871 0.171237 0.0361643 -0.0470398 -0.189348 -0.104119 -0.0113009 0.0235998 -0.221974 0.148679 -0.181168 -0.0814664 -0.175643 0.0143012 0.125084 -0.139059 -0.130635 -0.233006
192 -0.0645061 0.324304 -0.280087 0.0224065 0.173962 0.112421 0.070066 0.204049 0.0270089 -0.0193089 -0.201403 -0.136336 0.00740259 0.0494157 -0.234248 0.186125 -0.184307 -0.113617 -0.197822 0.0168225 0.116974 -0.138652 -0.163986 -0.275693
193 -0.0416163 0.274349 -0.245116 0.00584475 0.133864 0.102969 0.0659846 0.155385 0.00917364 -0.0201578 -0.164923 -0.109817 0.00450463 0.0575341 -0.192268 0.148363 -0.147671 -0.112391 -0.162794 0.0201914 0.0946629 -0.111748 -0.129023 -0.223302
201 -0.0789549 0.33706 -0.284771 0.035082 0.18837 0.112384 0.0675849 0.225202 0.0405308 -0.0132311 -0.213332 -0.147357 0.0109412 0.0403365 -0.242107 0.204515 -0.191488 -0.102503 -0.20353 0.0111586 0.12029 -0.142057 -0.174286 -0.290433
214 -0.0824821 0.254962 -0.226465 0.0398349 0.175606 0.104127 0.0617871 0.171237 0.0361643 -0.0470398 -0.189348 -0.104119 -0.0113009 0.0235998 -0.221974 0.148679 -0.181168 -0.0814664 -0.175643 0.0143012 0.125084 -0.139059 -0.130635 -0.233006
215 -0.123857 0.424387 -0.37686 0.0310271 0.247945 0.153857 0.110901 0.288984 0.0488124 -0.0517919 -0.296542 -0.186957 -0.0177695 0.0614399 -0.345482 0.274814 -0.282185 -0.156281 -0.301372 0.0149402 0.196254 -0.219686 -0.224446 -0.390702
219 -0.093256 0.333134 -0.294736 0.0195734 0.19829 0.104567 0.0889367 0.219653 0.0232673 -0.0445859 -0.248807 -0.142675 -0.0175695 0.0499133 -0.277615 0.220932 -0.213007 -0.120404 -0.245496 0.012956 0.150066 -0.170867 -0.190219 -0.305408
221 -0.0416163 0.274349 -0.245116 0.00584475 0.133864 0.102969 0.0659846 0.155385 0.00917364 -0.0201578 -0.164923 -0.109817 0.00450463 0.0575341 -0.192268 0.148363 -0.147671 -0.112391 -0.162794 0.0201914 0.0946629 -0.111748 -0.129023 -0.223302
224 -0.0416163 0.274349 -0.245116 0.00584475 0.133864 0.102969 0.0659846 0.155385 0.00917364 -0.0201578 -0.164923 -0.109817 0.00450463 0.0575341 -0.192268 0.148363 -0.147671 -0.112391 -0.162794 0.0201914 0.0946629 -0.111748 -0.129023 -0.223302
226 -0.0416163 0.274349 -0.245116 0.00584475 0.133864 0.102969 0.0659846 0.155385 0.00917364 -0.0201578 -0.164923 -0.109817 0.00450463 0.0575341 -0.192268 0.148363 -0.147671 -0.112391 -0.162794 0.0201914 0.0946629 -0.111748 -0.129023 -0.223302
230 -0.0803658 0.304221 -0.261449 0.0369832 0.183265 0.109081 0.0652658 0.203616 0.0387842 -0.0267546 -0.203738 -0.130062 0.00204437 0.0336418 -0.234054 0.182181 -0.18736 -0.0940886 -0.192375 0.0124156 0.122207 -0.140858 -0.156825 -0.267462
231 -0.147255 0.552473 -0.484628 0.0466865 0.31413 0.219528 0.117335 0.370146 0.0325259 -0.0354903 -0.382805 -0.234374 -0.0390248 0.0912081 -0.452324 0.350465 -0.371705 -0.180869 -0.38602 0.00805903 0.233713 -0.300395 -0.293329 -0.498014
233 -0.0640529 0.354038 -0.284063 0.0409802 0.180356 0.0995583 0.0818177 0.219516 0.0167414 -0.039677 -0.222352 -0.142852 -0.0253431 0.0637658 -0.26937 0.201933 -0.196296 -0.10906 -0.216877 0.0273689 0.132075 -0.160727 -0.205983 -0.317874
234 -0.0824821 0.254962 -0.226465 0.0398349 0.175606 0.104127 0.0617871 0.171237 0.0361643 -0.0470398 -0.189348 -0.104119 -0.0113009 0.0235998 -0.221974 0.148679 -0.181168 -0.0814664 -0.175643 0.0143012 0.125084 -0.139059 -0.130635 -0.233006
241 -0.0789549 0.33706 -0.284771 0.035082 0.18837 0.112384 0.0675849 0.225202 0.0405308 -0.0132311 -0.213332 -0.147357 0.0109412 0.0403365 -0.242107 0.204515 -0.191488 -0.102503 -0.20353 0.0111586 0.12029 -0.142057 -0.174286 -0.290433
242 -0.0416163 0.274349 -0.245116 0.00584475 0.133864 0.102969 0.0659846 0.155385 0.00917364 -0.0201578 -0.164923 -0.109817 0.00450463 0.0575341 -0.192268 0.148363 -0.147671 -0.112391 -0.162794 0.0201914 0.0946629 -0.111748 -0.129023 -0.223302
243 -0.0824821 0.254962 -0.226465 0.0398349 0.175606 0.104127 0.0617871 0.171237 0.0361643 -0.0470398 -0.189348 -0.104119 -0.0113009 0.0235998 -0.221974 0.148679 -0.181168 -0.0814664 -0.175643 0.0143012 0.125084 -0.139059 -0.130635 -0.233006
245 -0.0640529 0.354038 -0.284063 0.0409802 0.180356 0.0995583 0.0818177 0.219516 0.0167414 -0.039677 -0.222352 -0.142852 -0.0253431 0.0637658 -0.26937 0.201933 -0.196296 -0.10906 -0.216877 0.0273689 0.132075 -0.160727 -0.205983 -0.317874
249 -0.154457 0.515639 -0.458983 0.0424808 0.2976 0.203147 0.132865 0.358314 0.0743575 -0.0589979 -0.344278 -0.231238 -0.0179695 0.0729665 -0.413349 0.328697 -0.351363 -0.192157 -0.357249 0.0169244 0.242442 -0.268504 -0.258673 -0.475995
251 -0.109252 0.427541 -0.382345 0.0478951 0.252499 0.157603 0.0960458 0.279935 0.0455887 -0.0546184 -0.298802 -0.173917 -0.0138807 0.0601789 -0.353812 0.277517 -0.26915 -0.156557 -0.306565 0.00900762 0.180057 -0.207492 -0.230633 -0.38469
252 -0.093256 0.333134 -0.294736 0.0195734 0.19829 0.104567 0.0889367 0.219653 0.0232673 -0.0445859 -0.248807 -0.142675 -0.0175695 0.0499133 -0.277615 0.220932 -0.213007 -0.120404 -0.245496 0.012956 0.150066 -0.170867 -0.190219 -0.305408
253 -0.0963293 0.356968 -0.306765 0.0404223 0.223749 0.132192 0.0791516 0.23457 0.0402028 -0.0450087 -0.243659 -0.150524 -0.00648949 0.0401912 -0.29752 0.202821 -0.239468 -0.122719 -0.244689 0.0130782 0.158068 -0.187915 -0.191332 -0.325942
254 -0.0416163 0.274349 -0.245116 0.00584475 0.133864 0.102969 0.0659846 0.155385 0.00917364 -0.0201578 -0.164923 -0.109817 0.00450463 0.0575341 -0.192268 0.148363 -0.147671 -0.112391 -0.162794 0.0201914 0.0946629 -0.111748 -0.129023 -0.223302
264 -0.0640529 0.354038 -0.284063 0.0409802 0.180356 0.0995583 0.0818177 0.219516 0.0167414 -0.039677 -0.222352 -0.142852 -0.0253431 0.0637658 -0.26937 0.201933 -0.196296 -0.10906 -0.216877 0.0273689 0.132075 -0.160727 -0.205983 -0.317874
268 -0.147255 0.552473 -0.484628 0.0466865 0.31413 0.219528 0.117335 0.370146 0.0325259 -0.0354903 -0.382805 -0.234374 -0.0390248 0.0912081 -0.452324 0.350465 -0.371705 -0.180869 -0.38602 0.00805903 0.233713 -0.300395 -0.293329 -0.498014
269 -0.147155 0.517217 -0.461726 0.0509148 0.299878 0.20502 0.125438 0.35379 0.0727456 -0.0604112 -0.345408 -0.224718 -0.0160251 0.072336 -0.417514 0.330048 -0.344846 -0.192296 -0.359845 0.0139581 0.234344 -0.262407 -0.261766 -0.472989
275 -0.093256 0.333134 -0.294736 0.0195734 0.19829 0.104567 0.0889367 0.219653 0.0232673 -0.0445859 -0.248807 -0.142675 -0.0175695 0.0499133 -0.277615 0.220932 -0.213007 -0.120404 -0.245496 0.012956 0.150066 -0.170867 -0.190219 -0.305408
280 -0.0824821 0.254962 -0.226465 0.0398349 0.175606 0.104127 0.0617871 0.171237 0.0361643 -0.0470398 -0.189348 -0.104119 -0.0113009 0.0235998 -0.221974 0.148679 -0.181168 -0.0814664 -0.175643 0.0143012 0.125084 -0.139059 -0.130635 -0.233006
281 -0.0824821 0.254962 -0.226465 0.0398349 0.175606 0.104127 0.0617871 0.171237 0.0361643 -0.0470398 -0.189348 -0.104119 -0.0113009 0.0235998 -0.221974 0.148679 -0.181168 -0.0814664 -0.175643 0.0143012 0.125084 -0.139059 -0.130635 -0.233006
289 -0.0824821 0.254962 -0.226465 0.0398349 0.175606 0.104127 0.0617871 0.171237 0.0361643 -0.0470398 -0.189348 -0.104119 -0.0113009 0.0235998 -0.221974 0.148679 -0.181168 -0.0814664 -0.175643 0.0143012 0.125084 -0.139059 -0.130635 -0.233006
293 -0.0789549 0.33706 -0.284771 0.035082 0.18837 0.112384 0.0675849 0.225202 0.0405308 -0.0132311 -0.213332 -0.147357 0.0109412 0.0403365 -0.242107 0.204515 -0.191488 -0.102503 -0.20353 0.0111586 0.12029 -0.142057 -0.174286 -0.290433
294 -0.141716 0.540101 -0.47599 0.0505145 0.317084 0.196413 0.123963 0.368454 0.0360248 -0.0353296 -0.377106 -0.234287 -0.0380173 0.0818968 -0.458078 0.343985 -0.369186 -0.186992 -0.379434 0.0222048 0.221892 -0.289053 -0.293421 -0.507751
299 -0.125248 0.521949 -0.469953 0.0762168 0.306709 0.210639 0.103155 0.340217 0.0679101 -0.0646509 -0.348798 -0.205159 -0.010192 0.0704444 -0.430009 0.334102 -0.325294 -0.192711 -0.367635 0.0050592 0.210048 -0.244116 -0.271047 -0.463972
301 -0.033074 0.126103 -0.091409 0.0126944 0.0613348 0.0311463 0.00858527 0.052016 0.0167984 -0.0249951 -0.0733325 -0.0584564 -0.00807678 -0.00168995 -0.082821 0.0501007 -0.0803356 -0.0592127 -0.0556054 -0.0184002 0.0405685 -0.0496188 -0.0416488 -0.0996353
303 -0.136178 0.527729 -0.467352 0.0543425 0.320039 0.173299 0.130591 0.366762 0.0395237 -0.035169 -0.371406 -0.2342 -0.0370099 0.0725856 -0.463833 0.337506 -0.366667 -0.193116 -0.372849 0.0363506 0.210071 -0.277711 -0.293512 -0.517487
307 -0.033074 0.126103 -0.091409 0.0126944 0.0613348 0.0311463 0.00858527 0.052016 0.0167984 -0.0249951 -0.0733325 -0.0584564 -0.00807678 -0.00168995 -0.082821 0.0501007 -0.0803356 -0.0592127 -0.0556054 -0.0184002 0.0405685 -0.0496188 -0.0416488 -0.0996353
308 -0.106711 0.510298 -0.431524 0.0418374 0.302418 0.159867 0.102878 0.341602 0.0485759 -0.0454529 -0.32416 -0.213827 0.0041992 0.0542195 -0.404849 0.282983 -0.331577 -0.175318 -0.344419 0.0282978 0.211954 -0.256152 -0.287303 -0.463944
314 -0.147255 0.552473 -0.484628 0.0466865 0.31413 0.219528 0.117335 0.370146 0.0325259 -0.0354903 -0.382805 -0.234374 -0.0390248 0.0912081 -0.452324 0.350465 -0.371705 -0.180869 -0.38602 0.00805903 0.233713 -0.300395 -0.293329 -0.498014
315 -0.136178 0.527729 -0.467352 0.0543425 0.320039 0.173299 0.130591 0.366762 0.0395237 -0.035169 -0.371406 -0.2342 -0.0370099 0.0725856 -0.463833 0.337506 -0.366667 -0.193116 -0.372849 0.0363506 0.210071 -0.277711 -0.293512 -0.517487
316 -0.0416163 0.274349 -0.245116 0.00584475 0.133864 0.102969 0.0659846 0.155385 0.00917364 -0.0201578 -0.164923 -0.109817 0.00450463 0.0575341 -0.192268 0.148363 -0.147671 -0.112391 -0.162794 0.0201914 0.0946629 -0.111748 -0.129023 -0.223302
320 -0.139853 0.518794 -0.464468 0.0593488 0.302155 0.206893 0.11801 0.349266 0.0711338 -0.0618244 -0.346538 -0.218199 -0.0140808 0.0717054 -0.421679 0.331399 -0.338328 -0.192434 -0.362442 0.0109918 0.226245 -0.25631 -0.26486 -0.469984
321 -0.125248 0.521949 -0.469953 0.0762168 0.306709 0.210639 0.103155 0.340217 0.0679101 -0.0646509 -0.348798 -0.205159 -0.010192 0.0704444 -0.430009 0.334102 -0.325294 -0.192711 -0.367635 0.0050592 0.210048 -0.244116 -0.271047 -0.463972
324 -0.139853 0.518794 -0.464468 0.0593488 0.302155 0.206893 0.11801 0.349266 0.0711338 -0.0618244 -0.346538 -0.218199 -0.0140808 0.0717054 -0.421679 0.331399 -0.338328 -0.192434 -0.362442 0.0109918 0.226245 -0.25631 -0.26486 -0.469984
326 -0.125523 0.465723 -0.411449 0.0488016 0.282453 0.167563 0.110076 0.318727 0.0369344 -0.038217 -0.328742 -0.201724 -0.0310863 0.0649948 -0.400491 0.293539 -0.321552 -0.162142 -0.32684 0.0237654 0.194735 -0.248719 -0.252747 -0.441499
328 -0.0416163 0.274349 -0.245116 0.00584475 0.133864 0.102969 0.0659846 0.155385 0.00917364 -0.0201578 -0.164923 -0.109817 0.00450463 0.0575341 -0.192268 0.148363 -0.147671 -0.112391 -0.162794 0.0201914 0.0946629 -0.111748 -0.129023 -0.223302
343 -0.136178 0.527729 -0.467352 0.0543425 0.320039 0.173299 0.130591 0.366762 0.0395237 -0.035169 -0.371406 -0.2342 -0.0370099 0.0725856 -0.463833 0.337506 -0.366667 -0.193116 -0.372849 0.0363506 0.210071 -0.277711 -0.293512 -0.517487
346 -0.0824821 0.254962 -0.226465 0.0398349 0.175606 0.104127 0.0617871 0.171237 0.0361643 -0.0470398 -0.189348 -0.104119 -0.0113009 0.0235998 -0.221974 0.148679 -0.181168 -0.0814664 -0.175643 0.0143012 0.125084 -0.139059 -0.130635 -0.233006
414 -0.00386652 0.0154586 -0.0202604 -0.0171213 -0.00844015 -0.0202345 0.00273132 -0.0113516 0.00459674 0.00738733 -0.00783333 0.0119038 -0.0159145 -0.0171037 -0.0030498 -0.00790918 -0.0129599 0.0165015 0.00679602 0.0123503 -0.0113007 -0.0138081 0.0101907 -0.0164364
1374 -0.00386652 0.0154586 -0.0202604 -0.0171213 -0.00844015 -0.0202345 0.00273132 -0.0113516 0.00459674 0.00738733 -0.00783333 0.0119038 -0.0159145 -0.0171037 -0.0030498 -0.00790918 -0.0129599 0.0165015 0.00679602 0.0123503 -0.0113007 -0.0138081 0.0101907 -0.0164364
441 -0.125248 0.521949 -0.469953 0.0762168 0.306709 0.210639 0.103155 0.340217 0.0679101 -0.0646509 -0.348798 -0.205159 -0.010192 0.0704444 -0.430009 0.334102 -0.325294 -0.192711 -0.367635 0.0050592 0.210048 -0.244116 -0.271047 -0.463972
594 -0.0689714 0.329032 -0.298297 0.0486011 0.198303 0.109876 0.0639106 0.212886 0.0212495 -0.0295496 -0.224597 -0.134014 -0.0175447 0.0263456 -0.25646 0.179293 -0.207302 -0.0998751 -0.227512 -0.00737343 0.152853 -0.165727 -0.175514 -0.281141
608 -0.0627291 0.310234 -0.303843 0.036573 0.193806 0.11377 0.0887786 0.217363 0.0180044 -0.0206164 -0.201369 -0.125204 0.0024081 0.0375722 -0.269798 0.186288 -0.19513 -0.135342 -0.246521 0.0206883 0.140199 -0.152062 -0.196834 -0.281998
648 -0.00386652 0.0154586 -0.0202604 -0.0171213 -0.00844015 -0.0202345 0.00273132 -0.0113516 0.00459674 0.00738733 -0.00783333 0.0119038 -0.0159145 -0.0171037 -0.0030498 -0.00790918 -0.0129599 0.0165015 0.00679602 0.0123503 -0.0113007 -0.0138081 0.0101907 -0.0164364
653 -0.00386652 0.0154586 -0.0202604 -0.0171213 -0.00844015 -0.0202345 0.00273132 -0.0113516 0.00459674 0.00738733 -0.00783333 0.0119038 -0.0159145 -0.0171037 -0.0030498 -0.00790918 -0.0129599 0.0165015 0.00679602 0.0123503 -0.0113007 -0.0138081 0.0101907 -0.0164364
667 -0.0842112 0.335875 -0.288732 0.0370596 0.200135 0.1059 0.084113 0.220584 0.0334413 -0.048844 -0.206689 -0.126965 -0.00764797 0.0571535 -0.267197 0.210196 -0.198305 -0.109306 -0.226199 0.024496 0.141314 -0.170389 -0.183429 -0.28865
3980 -0.126054 0.517489 -0.453474 0.0433092 0.308106 0.169785 0.114844 0.34063 0.0504868 -0.0581348 -0.32965 -0.204616 0.00154446 0.0757238 -0.425481 0.304086 -0.324737 -0.191061 -0.35571 0.0101565 0.215965 -0.24484 -0.288776 -0.462105
3989 -0.120354 0.486564 -0.431952 0.0513581 0.286267 0.163512 0.115976 0.321809 0.0441832 -0.0494881 -0.316309 -0.195157 -0.0141645 0.066718 -0.401537 0.283137 -0.306478 -0.169835 -0.333386 0.00949137 0.209188 -0.240552 -0.264295 -0.439553
4011 -0.0756492 0.33424 -0.292744 0.0406368 0.198145 0.112051 0.065768 0.216254 0.0296678 -0.0322946 -0.226247 -0.130516 -0.00638586 0.0322551 -0.262128 0.191588 -0.204304 -0.109503 -0.231797 -0.00105218 0.143882 -0.160456 -0.172421 -0.290892
4031 -0.0891095 0.434847 -0.393298 0.0365131 0.264241 0.148903 0.094369 0.28141 0.0339755 -0.0488536 -0.285909 -0.18333 -0.00091142 0.0494274 -0.360182 0.251783 -0.276626 -0.163864 -0.308773 0.00987861 0.179295 -0.211092 -0.246416 -0.393912
725 -0.0134227 0.133071 -0.105797 -0.00410556 0.0863644 0.03406 0.0434402 0.0968695 -0.00862448 -0.0249678 -0.0934302 -0.0696003 0.00114396 0.0115868 -0.102365 0.0517322 -0.0937334 -0.055773 -0.0933648 0.0149662 0.0458212 -0.0499746 -0.0809447 -0.0871645
763 -0.0134227 0.133071 -0.105797 -0.00410556 0.0863644 0.03406 0.0434402 0.0968695 -0.00862448 -0.0249678 -0.0934302 -0.0696003 0.00114396 0.0115868 -0.102365 0.0517322 -0.0937334 -0.055773 -0.0933648 0.0149662 0.0458212 -0.0499746 -0.0809447 -0.0871645
875 -0.0134227 0.133071 -0.105797 -0.00410556 0.0863644 0.03406 0.0434402 0.0968695 -0.00862448 -0.0249678 -0.0934302 -0.0696003 0.00114396 0.0115868 -0.102365 0.0517322 -0.0937334 -0.055773 -0.0933648 0.0149662 0.0458212 -0.0499746 -0.0809447 -0.0871645
881 -0.0134227 0.133071 -0.105797 -0.00410556 0.0863644 0.03406 0.0434402 0.0968695 -0.00862448 -0.0249678 -0.0934302 -0.0696003 0.00114396 0.0115868 -0.102365 0.0517322 -0.0937334 -0.055773 -0.0933648 0.0149662 0.0458212 -0.0499746 -0.0809447 -0.0871645
883 -0.0134227 0.133071 -0.105797 -0.00410556 0.0863644 0.03406 0.0434402 0.0968695 -0.00862448 -0.0249678 -0.0934302 -0.0696003 0.00114396 0.0115868 -0.102365 0.0517322 -0.0937334 -0.055773 -0.0933648 0.0149662 0.0458212 -0.0499746 -0.0809447 -0.0871645
2732 -0.107461 0.442031 -0.384131 0.0217598 0.254866 0.148552 0.102932 0.293922 0.0281605 -0.0544364 -0.271674 -0.184214 -0.0214064 0.0728563 -0.350368 0.266563 -0.28099 -0.158515 -0.291764 0.0127854 0.191134 -0.214242 -0.239483 -0.404783
2825 -0.0936952 0.433171 -0.376597 0.0188746 0.270618 0.144646 0.113428 0.29088 0.03148 -0.0488683 -0.278042 -0.167225 -0.0200945 0.0822649 -0.358681 0.269253 -0.284623 -0.153918 -0.291779 0.0128088 0.179055 -0.201646 -0.247402 -0.421724
3157 -0.0936952 0.433171 -0.376597 0.0188746 0.270618 0.144646 0.113428 0.29088 0.03148 -0.0488683 -0.278042 -0.167225 -0.0200945 0.0822649 -0.358681 0.269253 -0.284623 -0.153918 -0.291779 0.0128088 0.179055 -0.201646 -0.247402 -0.421724
3235 -0.107461 0.442031 -0.384131 0.0217598 0.254866 0.148552 0.102932 0.293922 0.0281605 -0.0544364 -0.271674 -0.184214 -0.0214064 0.0728563 -0.350368 0.266563 -0.28099 -0.158515 -0.291764 0.0127854 0.191134 -0.214242 -0.239483 -0.404783
3462 -0.144567 0.612598 -0.550038 0.0510037 0.38921 0.244554 0.13711 0.392865 0.0728914 -0.0486201 -0.407983 -0.260637 0.00907926 0.107145 -0.488704 0.386319 -0.404122 -0.235278 -0.407913 0.035337 0.262032 -0.316388 -0.337383 -0.554528
3490 -0.136405 0.599335 -0.556327 0.0628618 0.362533 0.237645 0.133176 0.394636 0.053044 -0.0787972 -0.395191 -0.259832 -0.0198641 0.0919423 -0.479373 0.390323 -0.398579 -0.206903 -0.426318 0.0201288 0.283982 -0.310038 -0.34486 -0.553255
3518 -0.136405 0.599335 -0.556327 0.0628618 0.362533 0.237645 0.133176 0.394636 0.053044 -0.0787972 -0.395191 -0.259832 -0.0198641 0.0919423 -0.479373 0.390323 -0.398579 -0.206903 -0.426318 0.0201288 0.283982 -0.310038 -0.34486 -0.553255
3523 -0.144567 0.612598 -0.550038 0.0510037 0.38921 0.244554 0.13711 0.392865 0.0728914 -0.0486201 -0.407983 -0.260637 0.00907926 0.107145 -0.488704 0.386319 -0.404122 -0.235278 -0.407913 0.035337 0.262032 -0.316388 -0.337383 -0.554528
3591 -0.144567 0.612598 -0.550038 0.0510037 0.38921 0.244554 0.13711 0.392865 0.0728914 -0.0486201 -0.407983 -0.260637 0.00907926 0.107145 -0.488704 0.386319 -0.404122 -0.235278 -0.407913 0.035337 0.262032 -0.316388 -0.337383 -0.554528
3607 -0.136405 0.599335 -0.556327 0.0628618 0.362533 0.237645 0.133176 0.394636 0.053044 -0.0787972 -0.395191 -0.259832 -0.0198641 0.0919423 -0.479373 0.390323 -0.398579 -0.206903 -0.426318 0.0201288 0.283982 -0.310038 -0.34486 -0.553255
3645 -0.144567 0.612598 -0.550038 0.0510037 0.38921 0.244554 0.13711 0.392865 0.0728914 -0.0486201 -0.407983 -0.260637 0.00907926 0.107145 -0.488704 0.386319 -0.404122 -0.235278 -0.407913 0.035337 0.262032 -0.316388 -0.337383 -0.554528
3653 -0.136405 0.599335 -0.556327 0.0628618 0.362533 0.237645 0.133176 0.394636 0.053044 -0.0787972 -0.395191 -0.259832 -0.0198641 0.0919423 -0.479373 0.390323 -0.398579 -0.206903 -0.426318 0.0201288 0.283982 -0.310038 -0.34486 -0.553255
3749 -0.136405 0.599335 -0.556327 0.0628618 0.362533 0.237645 0.133176 0.394636 0.053044 -0.0787972 -0.395191 -0.259832 -0.0198641 0.0919423 -0.479373 0.390323 -0.398579 -0.206903 -0.426318 0.0201288 0.283982 -0.310038 -0.34486 -0.553255
3921 -0.144567 0.612598 -0.550038 0.0510037 0.38921 0.244554 0.13711 0.392865 0.0728914 -0.0486201 -0.407983 -0.260637 0.00907926 0.107145 -0.488704 0.386319 -0.404122 -0.235278 -0.407913 0.035337 0.262032 -0.316388 -0.337383 -0.554528
3981 -0.136772 0.551637 -0.482105 0.0474411 0.325223 0.188902 0.129828 0.366863 0.04916 -0.0565986 -0.353532 -0.220835 -0.00101232 0.0858599 -0.458377 0.322276 -0.348343 -0.203585 -0.372551 0.0049216 0.233973 -0.261611 -0.304748 -0.504392
3982 -0.09783 0.47361 -0.40629 0.0354295 0.287347 0.143109 0.0942468 0.296629 0.0531799 -0.0534424 -0.310435 -0.197649 0.00562124 0.0584152 -0.377633 0.276293 -0.306316 -0.181909 -0.328708 -0.00399322 0.189018 -0.224263 -0.269762 -0.419741
3985 -0.0889103 0.394328 -0.349364 0.0401964 0.235873 0.123332 0.0876416 0.252633 0.0374968 -0.0462363 -0.254486 -0.159051 -0.00763399 0.0514201 -0.319958 0.23442 -0.243762 -0.14202 -0.273587 0.0135854 0.162593 -0.195256 -0.220194 -0.343639
3986 -0.109552 0.476054 -0.426952 0.0393046 0.278699 0.166828 0.117132 0.316401 0.0388816 -0.0504336 -0.310956 -0.193267 -0.00478705 0.0713618 -0.400809 0.28593 -0.305357 -0.179236 -0.330692 0.0109604 0.199619 -0.229174 -0.26591 -0.436865
3988 -0.0968964 0.541672 -0.46153 0.0255501 0.333792 0.157782 0.0936599 0.335739 0.0548397 -0.0718108 -0.353677 -0.230375 0.0232101 0.0529377 -0.430738 0.315345 -0.350663 -0.22437 -0.377859 -0.00934733 0.202675 -0.245824 -0.320662 -0.473533
3990 -0.104136 0.537298 -0.466048 0.0306738 0.338209 0.165769 0.103026 0.338153 0.0527682 -0.0701783 -0.351782 -0.237269 0.02355 0.0514549 -0.436592 0.321123 -0.348911 -0.224517 -0.375534 -0.00605514 0.210821 -0.250084 -0.316433 -0.475623
3993 -0.0833252 0.367887 -0.330319 0.041528 0.216156 0.123273 0.0797599 0.237275 0.0324835 -0.0324498 -0.24238 -0.143264 -0.00750127 0.0352555 -0.293702 0.215876 -0.229348 -0.121097 -0.251211 -0.00264882 0.162763 -0.177989 -0.190465 -0.325669
3994 -0.112336 0.457354 -0.408327 0.0476603 0.264416 0.150175 0.115778 0.297328 0.0464274 -0.0550386 -0.295202 -0.184383 -0.0138902 0.0694016 -0.372301 0.274473 -0.28979 -0.167025 -0.311679 0.0198941 0.190897 -0.232905 -0.248334 -0.414253
3995 -0.0919868 0.479148 -0.416815 0.0320227 0.298531 0.150432 0.0890975 0.305378 0.0480383 -0.0625447 -0.31089 -0.204607 0.0170728 0.0551232 -0.382113 0.278768 -0.301847 -0.195454 -0.332492 -0.00346658 0.188683 -0.227539 -0.2865 -0.41892
3997 -0.108896 0.464802 -0.411818 0.033481 0.28225 0.160485 0.0940684 0.303981 0.0404114 -0.0581264 -0.29742 -0.185508 0.00517278 0.0647301 -0.38612 0.271882 -0.28562 -0.175613 -0.316157 0.0116862 0.186406 -0.216811 -0.259925 -0.416286
3998 -0.127897 0.520656 -0.461474 0.0530764 0.3044 0.174463 0.129937 0.338212 0.0504162 -0.0526966 -0.340167 -0.209222 -0.0109501 0.0711303 -0.424093 0.299075 -0.328559 -0.190668 -0.358321 0.0161745 0.221818 -0.256132 -0.28127 -0.473971
4000 -0.105475 0.422977 -0.380521 0.0432509 0.245768 0.143869 0.104419 0.281898 0.0383802 -0.0519694 -0.262907 -0.167626 -0.00687341 0.0724997 -0.347382 0.256252 -0.264148 -0.150396 -0.28665 0.018521 0.184351 -0.209665 -0.232618 -0.377022
4002 -0.102933 0.447033 -0.39762 0.0434581 0.269888 0.148313 0.102084 0.29259 0.0411786 -0.0493372 -0.28892 -0.184232 -0.00399684 0.0581465 -0.365315 0.261283 -0.283086 -0.165227 -0.311546 0.0105776 0.18747 -0.220823 -0.249699 -0.402762
4003 -0.0968578 0.403689 -0.354395 0.0389513 0.242314 0.133051 0.0938495 0.268466 0.0383265 -0.0465791 -0.255736 -0.169876 -0.00385744 0.0658927 -0.334289 0.24706 -0.254754 -0.143988 -0.279745 0.00709232 0.169664 -0.196797 -0.225452 -0.359813
4004 -0.12962 0.548335 -0.485489 0.0565319 0.313758 0.17588 0.144579 0.349347 0.0581202 -0.0593518 -0.3686 -0.223473 -0.0208865 0.0633403 -0.441624 0.318343 -0.349904 -0.206295 -0.381606 0.0249334 0.219052 -0.283937 -0.292529 -0.508241
4009 -0.075635 0.342788 -0.309056 0.0349478 0.208783 0.124627 0.0890936 0.235255 0.0290616 -0.0214713 -0.219169 -0.144404 -0.000383169 0.0554063 -0.278552 0.196754 -0.207209 -0.129739 -0.24389 0.00281704 0.146331 -0.168627 -0.202679 -0.308607
4013 -0.0932259 0.430291 -0.380634 0.0399185 0.261 0.140185 0.0895326 0.275728 0.0410528 -0.0468298 -0.285466 -0.178733 -0.00809346 0.0584276 -0.351594 0.250746 -0.275766 -0.154263 -0.300254 -0.000610663 0.176495 -0.209149 -0.241819 -0.385461
4014 -0.102178 0.46036 -0.404109 0.0495301 0.26733 0.162936 0.116745 0.299374 0.0469037 -0.044471 -0.299238 -0.193285 -0.009887 0.0770568 -0.363504 0.262985 -0.282175 -0.166493 -0.304901 -0.00128521 0.198245 -0.230892 -0.251682 -0.419639
4017 -0.0875308 0.432641 -0.383005 0.031895 0.265649 0.142331 0.0908988 0.278126 0.0364121 -0.0515568 -0.278327 -0.183108 0.00676175 0.0534981 -0.35423 0.255286 -0.271084 -0.17323 -0.298342 0.0065621 0.172278 -0.206584 -0.250911 -0.383812
4018 -0.123507 0.558979 -0.48362 0.0408678 0.334784 0.174656 0.116474 0.3546 0.0590986 -0.0650087 -0.361771 -0.229272 0.00897173 0.0716843 -0.450127 0.323857 -0.356501 -0.215378 -0.383692 0.0015191 0.228324 -0.261458 -0.315551 -0.495919
4020 -0.103492 0.461235 -0.418834 0.0396347 0.276647 0.161287 0.103398 0.30911 0.0376232 -0.0530285 -0.305438 -0.189212 0.00366853 0.0594416 -0.390078 0.282664 -0.293227 -0.176567 -0.329655 0.00817575 0.191554 -0.224771 -0.263313 -0.421303
4021 -0.103486 0.437622 -0.391044 0.0376881 0.25938 0.147166 0.104031 0.283829 0.0421127 -0.043986 -0.281752 -0.181088 -0.00799405 0.0664834 -0.370127 0.266528 -0.28647 -0.155522 -0.301658 0.00581798 0.186503 -0.212251 -0.237845 -0.403542
4023 -0.127394 0.52445 -0.450648 0.0420066 0.317592 0.165163 0.115105 0.344854 0.0467919 -0.0682929 -0.321465 -0.210373 0.00843456 0.075832 -0.424066 0.310162 -0.328312 -0.197562 -0.353698 0.0125391 0.215096 -0.243897 -0.292265 -0.462817
4026 -0.092378 0.447036 -0.385142 0.0324035 0.270675 0.139929 0.0909993 0.286859 0.043746 -0.0544564 -0.287305 -0.190598 0.0109244 0.0579351 -0.35254 0.262674 -0.281923 -0.174172 -0.306104 -0.00256545 0.178148 -0.210883 -0.257705 -0.388937
4027 -0.0960756 0.430531 -0.3746 0.0300683 0.261701 0.139176 0.087875 0.276115 0.0439969 -0.0486231 -0.286232 -0.182399 0.00757837 0.0584581 -0.358074 0.256859 -0.287476 -0.170822 -0.30466 0.00370451 0.173506 -0.203482 -0.243612 -0.391985
4029 -0.105176 0.456776 -0.416526 0.0434237 0.270834 0.149281 0.119639 0.291461 0.0437594 -0.0430031 -0.287743 -0.184181 -0.00925585 0.0566224 -0.379793 0.283541 -0.290676 -0.158874 -0.30769 0.00496805 0.202909 -0.227126 -0.247485 -0.416049
4030 -0.104144 0.44406 -0.395051 0.0503841 0.262493 0.150163 0.103475 0.292836 0.038558 -0.0411752 -0.292081 -0.178288 -0.0160579 0.0543714 -0.359871 0.252292 -0.277951 -0.151116 -0.304112 0.00365111 0.19189 -0.222927 -0.241051 -0.39985
4033 -0.101122 0.421476 -0.372734 0.0323179 0.246032 0.149416 0.0977602 0.277168 0.0343673 -0.0401622 -0.275378 -0.17283 -0.00128945 0.0707493 -0.354381 0.249215 -0.270467 -0.157951 -0.284998 0.00533583 0.175611 -0.198632 -0.231895 -0.386323
4034 -0.0888028 0.381834 -0.342134 0.0389732 0.227917 0.127689 0.0887845 0.244459 0.0321911 -0.0355301 -0.24956 -0.157178 -0.0080337 0.0507525 -0.320317 0.231537 -0.240521 -0.138048 -0.26188 0.00744091 0.162153 -0.18455 -0.205338 -0.342559
4037 -0.126717 0.567918 -0.496704 0.0394348 0.344284 0.183505 0.118952 0.366464 0.0560142 -0.064421 -0.369996 -0.232596 0.00482409 0.0687227 -0.468509 0.328613 -0.361015 -0.219357 -0.392912 0.0060842 0.22689 -0.270421 -0.324569 -0.511906
4038 -0.107467 0.446917 -0.39595 0.0374879 0.25756 0.154239 0.105908 0.295877 0.0428149 -0.0438052 -0.296867 -0.180733 -0.00468103 0.0612793 -0.374909 0.267256 -0.291274 -0.16626 -0.313266 0.0117512 0.183994 -0.21936 -0.240233 -0.416555
1 -0.0791705 0.332121 -0.293153 0.0344872 0.192228 0.127178 0.0731884 0.212567 0.0335204 -0.0342777 -0.220408 -0.136145 -0.00333068 0.0475345 -0.259812 0.197654 -0.204329 -0.116608 -0.216683 0.0137413 0.133175 -0.155291 -0.168078 -0.289475
2 -0.0825179 0.327475 -0.288726 0.033113 0.195663 0.120091 0.0772629 0.214482 0.0303408 -0.0328093 -0.223507 -0.138096 -0.00922537 0.0451133 -0.265714 0.195086 -0.211543 -0.114714 -0.216453 0.019126 0.134244 -0.160949 -0.169389 -0.295722
3 -0.0826171 0.340144 -0.294586 0.027943 0.193281 0.113593 0.0814129 0.220436 0.0256325 -0.0341914 -0.232958 -0.143581 -0.0117193 0.0519433 -0.268946 0.209571 -0.20859 -0.116802 -0.227938 0.016421 0.138658 -0.163743 -0.184776 -0.304213
4 -0.0859656 0.332686 -0.291818 0.0316126 0.197143 0.117093 0.0787898 0.219437 0.0325392 -0.0339571 -0.229222 -0.141479 -0.00747328 0.0450316 -0.266667 0.204488 -0.210424 -0.114986 -0.223157 0.0158671 0.137739 -0.161248 -0.175778 -0.299128
5 -0.0838737 0.326719 -0.283593 0.0329803 0.192308 0.116254 0.0728918 0.21249 0.0350569 -0.0342821 -0.219681 -0.139418 -0.00644128 0.0407639 -0.259457 0.194469 -0.20843 -0.114937 -0.214498 0.0120829 0.134148 -0.157792 -0.168164 -0.292377
7 -0.102295 0.411272 -0.358505 0.0432063 0.244332 0.147782 0.091199 0.273382 0.043178 -0.0441338 -0.276179 -0.172029 -0.0097117 0.05285 -0.333258 0.247119 -0.266548 -0.142499 -0.279598 0.0177497 0.17371 -0.205155 -0.2198 -0.372419
9 -0.0967471 0.400952 -0.350296 0.0333881 0.229369 0.142201 0.0928567 0.261343 0.0330607 -0.0391355 -0.269835 -0.16895 -0.01261 0.0601322 -0.321561 0.243585 -0.254308 -0.143291 -0.272573 0.0171104 0.165608 -0.198462 -0.214293 -0.361066
10 -0.0918557 0.365322 -0.315978 0.0346563 0.21593 0.127342 0.0828247 0.240653 0.0353046 -0.0368117 -0.247313 -0.154926 -0.00703552 0.047958 -0.29273 0.219 -0.232431 -0.125 -0.245927 0.0154496 0.152248 -0.180503 -0.196295 -0.329031
11 -0.0914405 0.345164 -0.300636 0.0378267 0.206637 0.125348 0.0772124 0.229686 0.0358406 -0.0321362 -0.23574 -0.147805 -0.0100671 0.0434446 -0.27852 0.209077 -0.224405 -0.116015 -0.228103 0.0144235 0.141977 -0.170833 -0.179381 -0.312182
12 -0.0930984 0.348006 -0.301102 0.0379948 0.206712 0.124841 0.075949 0.23159 0.0368587 -0.0309726 -0.236591 -0.150415 -0.0105736 0.0424473 -0.278997 0.211184 -0.226409 -0.116533 -0.228715 0.0118494 0.142253 -0.171978 -0.180261 -0.31461
13 -0.107325 0.388789 -0.342324 0.0382188 0.235272 0.140495 0.0920973 0.261865 0.0331058 -0.0392243 -0.276858 -0.166178 -0.0210752 0.0538223 -0.325861 0.244905 -0.2606 -0.132271 -0.272126 0.0160775 0.167725 -0.203981 -0.210209 -0.358516
14 -0.0878001 0.345324 -0.305406 0.0349143 0.207615 0.125854 0.0826304 0.227732 0.0305219 -0.0344948 -0.237819 -0.146213 -0.0131023 0.0479729 -0.285369 0.207456 -0.227219 -0.122536 -0.231785 0.0209929 0.142468 -0.173187 -0.180451 -0.31618
16 -0.0894927 0.354687 -0.308867 0.0389036 0.21049 0.125021 0.0804862 0.234737 0.0360326 -0.03404 -0.239779 -0.15106 -0.0101223 0.0456418 -0.287075 0.213839 -0.228176 -0.122565 -0.234493 0.0175647 0.143438 -0.172761 -0.186327 -0.322824
17 -0.0874601 0.346748 -0.30578 0.0347633 0.206956 0.125856 0.0819721 0.22868 0.0309687 -0.0329132 -0.237324 -0.147092 -0.0116689 0.0481434 -0.283767 0.208534 -0.225903 -0.121952 -0.231203 0.0202428 0.141613 -0.172093 -0.181001 -0.315977
19 -0.094309 0.368962 -0.319324 0.0359816 0.217779 0.131379 0.0818753 0.242445 0.0343011 -0.0356371 -0.250295 -0.157133 -0.0111798 0.0484839 -0.297999 0.220864 -0.239197 -0.126939 -0.24773 0.0136504 0.15303 -0.185257 -0.195537 -0.333511
20 -0.0869041 0.346815 -0.303608 0.0339439 0.205153 0.123965 0.0810929 0.227952 0.0309024 -0.0333882 -0.236484 -0.146891 -0.0105745 0.0482541 -0.280774 0.208578 -0.222782 -0.120292 -0.231005 0.0186082 0.141931 -0.171063 -0.182729 -0.313986
21 -0.0984996 0.379398 -0.331381 0.0403635 0.227685 0.135191 0.0876505 0.254644 0.0395288 -0.0345484 -0.257835 -0.16342 -0.00998108 0.0485739 -0.310028 0.230338 -0.247741 -0.131247 -0.254476 0.0188075 0.155924 -0.188576 -0.200602 -0.348378
22 -0.0831106 0.340121 -0.295193 0.0322039 0.196854 0.120804 0.0741399 0.218499 0.0333691 -0.0346573 -0.226088 -0.143807 -0.0068943 0.0442701 -0.268967 0.200618 -0.215675 -0.121961 -0.223485 0.0118983 0.137591 -0.163742 -0.175192 -0.302855
25 -0.0726965 0.334661 -0.286057 0.0331545 0.188708 0.114604 0.0746025 0.213179 0.0287784 -0.0344301 -0.216705 -0.137569 -0.00564098 0.0486095 -0.258256 0.192114 -0.201415 -0.113315 -0.213342 0.0194522 0.132231 -0.155769 -0.177844 -0.294716
26 -0.0893335 0.350682 -0.299202 0.0373486 0.203851 0.125497 0.073831 0.229659 0.0346224 -0.0309716 -0.233983 -0.149331 -0.00840663 0.045143 -0.275169 0.208425 -0.221368 -0.114085 -0.227819 0.0103224 0.142002 -0.171478 -0.18381 -0.311636
27 -0.0946817 0.3683 -0.319565 0.0388611 0.214071 0.131051 0.085032 0.242786 0.0374447 -0.0400352 -0.249521 -0.155848 -0.013531 0.0510988 -0.295401 0.225625 -0.234177 -0.126324 -0.246441 0.0152055 0.154086 -0.180807 -0.195126 -0.332706
29 -0.0990062 0.400557 -0.350171 0.0297751 0.228486 0.145358 0.0919344 0.261534 0.031485 -0.0362418 -0.270418 -0.169805 -0.0121194 0.0608691 -0.318553 0.243442 -0.25569 -0.141217 -0.272288 0.0146818 0.167331 -0.201143 -0.212213 -0.357778
30 -0.106211 0.399586 -0.352984 0.0384717 0.237051 0.141894 0.0965855 0.268882 0.0405402 -0.0401865 -0.276305 -0.172216 -0.0147203 0.0549486 -0.328677 0.25154 -0.26143 -0.142708 -0.275593 0.0184242 0.168625 -0.20006 -0.212746 -0.368202
31 -0.0830534 0.371328 -0.319544 0.0320259 0.212359 0.123199 0.0836027 0.242155 0.0312257 -0.0324155 -0.243674 -0.156585 -0.00519332 0.0514045 -0.291124 0.218077 -0.229861 -0.128447 -0.243235 0.0210272 0.147111 -0.176828 -0.200157 -0.332913
32 -0.0958119 0.38254 -0.336568 0.0356522 0.223994 0.138332 0.0889542 0.253297 0.0309583 -0.0315145 -0.261318 -0.163212 -0.0148547 0.0557374 -0.311699 0.233957 -0.248545 -0.133622 -0.257086 0.0193834 0.154714 -0.191209 -0.201478 -0.34851
34 -0.072761 0.275091 -0.24043 0.0245488 0.162161 0.0908124 0.0620948 0.178977 0.0291414 -0.0243884 -0.188441 -0.113094 -0.0105417 0.0291576 -0.221399 0.162579 -0.179592 -0.0863844 -0.181142 0.014843 0.110674 -0.139336 -0.142622 -0.250933
36 -0.10366 0.39421 -0.347972 0.0454927 0.234894 0.146815 0.089241 0.261467 0.0437677 -0.0448714 -0.270268 -0.165148 -0.0138916 0.0523215 -0.323846 0.245176 -0.256111 -0.13942 -0.270482 0.0137845 0.166169 -0.195473 -0.20681 -0.35812
37 -0.0901571 0.339486 -0.295504 0.0364199 0.203625 0.124492 0.0769782 0.226474 0.038779 -0.0339094 -0.229858 -0.144854 -0.00497833 0.0421867 -0.269731 0.2041 -0.217704 -0.112958 -0.223532 0.0147885 0.14258 -0.166192 -0.176137 -0.303946
38 -0.107834 0.408167 -0.359014 0.0432913 0.243203 0.153203 0.0920647 0.272183 0.0404347 -0.0405608 -0.280431 -0.172519 -0.0152324 0.0558623 -0.335268 0.251925 -0.268214 -0.141014 -0.280049 0.0145456 0.172312 -0.207604 -0.215306 -0.371036
39 -0.111039 0.41374 -0.367841 0.0374263 0.244633 0.148433 0.102465 0.277595 0.0410812 -0.045394 -0.288086 -0.1778 -0.0179655 0.0592422 -0.343146 0.262635 -0.272922 -0.151833 -0.290275 0.018497 0.178502 -0.209996 -0.220573 -0.382347
40 -0.100467 0.392889 -0.343069 0.0376906 0.229778 0.149116 0.0875473 0.257722 0.0390132 -0.0386109 -0.263105 -0.165924 -0.00929479 0.0549836 -0.314625 0.234948 -0.253622 -0.136872 -0.264344 0.0131331 0.165435 -0.197322 -0.20421 -0.351344
41 -0.0879126 0.374008 -0.325916 0.0342856 0.212774 0.131547 0.0862178 0.243287 0.0289152 -0.0312544 -0.249544 -0.158651 -0.0139202 0.0564107 -0.299382 0.224829 -0.236607 -0.132183 -0.246161 0.019812 0.147212 -0.181689 -0.19682 -0.338437
43 -0.0851641 0.335864 -0.288161 0.0371381 0.197096 0.118882 0.0746423 0.222029 0.0353185 -0.0327363 -0.225075 -0.14193 -0.00641654 0.0436068 -0.263004 0.200842 -0.209363 -0.107756 -0.217573 0.0151522 0.137706 -0.161425 -0.177397 -0.298742
44 -0.0885804 0.347891 -0.305283 0.0364847 0.208191 0.124585 0.0823052 0.229341 0.0305392 -0.0351502 -0.239335 -0.147531 -0.0151893 0.0478637 -0.287507 0.209089 -0.228661 -0.121978 -0.232935 0.020232 0.143239 -0.174823 -0.183244 -0.319403
45 -0.083719 0.352959 -0.307084 0.0307834 0.206275 0.124767 0.0795764 0.227689 0.0327666 -0.0371384 -0.235419 -0.147309 -0.00324164 0.0479994 -0.279745 0.207118 -0.221091 -0.125233 -0.236127 0.0157388 0.145489 -0.171042 -0.187126 -0.313604
46 -0.0760439 0.329732 -0.278685 0.0343411 0.1832 0.111733 0.0713381 0.208002 0.0299337 -0.035016 -0.213874 -0.138356 -0.0109625 0.046266 -0.255386 0.191079 -0.20117 -0.1139 -0.209332 0.0126899 0.12983 -0.154824 -0.17267 -0.29245
47 -0.0894038 0.337653 -0.292051 0.0351934 0.198271 0.119936 0.0733656 0.219888 0.0374032 -0.0360884 -0.227785 -0.145305 -0.0100335 0.0404389 -0.270022 0.202836 -0.219025 -0.119862 -0.223152 0.00857629 0.139578 -0.165402 -0.173007 -0.304016
48 -0.0899845 0.353844 -0.306066 0.0361439 0.20421 0.124784 0.0818496 0.231312 0.0348166 -0.038422 -0.238301 -0.150305 -0.0137793 0.0492524 -0.282765 0.213965 -0.225278 -0.122855 -0.234208 0.0152218 0.147056 -0.173372 -0.185967 -0.319579
51 -0.0803034 0.324378 -0.281801 0.0313838 0.188693 0.115681 0.0727374 0.212545 0.0323885 -0.0276354 -0.216946 -0.137803 -0.00225966 0.0435444 -0.251386 0.194893 -0.199572 -0.108295 -0.209361 0.0146192 0.129058 -0.152089 -0.168153 -0.285949
53 -0.095879 0.374932 -0.328017 0.0355665 0.217638 0.136959 0.0838069 0.243559 0.0344745 -0.0374724 -0.253713 -0.15984 -0.0153412 0.0517193 -0.304402 0.226576 -0.245372 -0.136214 -0.252428 0.0120115 0.154597 -0.187871 -0.193605 -0.339562
54 -0.102634 0.380555 -0.332776 0.0428195 0.230161 0.14086 0.0845224 0.254298 0.0414809 -0.0408932 -0.261073 -0.161624 -0.0138872 0.046795 -0.31287 0.231051 -0.25374 -0.130825 -0.258377 0.0138145 0.162615 -0.194185 -0.199094 -0.346998
55 -0.0764915 0.325575 -0.279799 0.0333854 0.186493 0.110154 0.074656 0.209203 0.0271712 -0.0320408 -0.216733 -0.137593 -0.0123285 0.0459623 -0.25926 0.191289 -0.203796 -0.113252 -0.20955 0.0183557 0.127939 -0.15552 -0.171518 -0.294102
56 -0.100343 0.398722 -0.344877 0.0384401 0.234449 0.137317 0.0880353 0.268126 0.0377062 -0.0309289 -0.269565 -0.171408 -0.00848527 0.051567 -0.318365 0.244264 -0.254823 -0.132335 -0.266877 0.01668 0.16147 -0.196294 -0.214732 -0.361145
57 -0.0904807 0.351628 -0.307583 0.0394185 0.208217 0.1326 0.0766335 0.228691 0.0408253 -0.0398292 -0.23541 -0.147169 -0.00625197 0.044582 -0.281275 0.209948 -0.224842 -0.12418 -0.23384 0.0108306 0.1465 -0.170773 -0.179704 -0.313126
58 -0.141667 0.522473 -0.464539 0.0526286 0.309958 0.189159 0.128014 0.360276 0.0561347 -0.0477901 -0.358407 -0.229459 -0.0265175 0.0724608 -0.440674 0.333777 -0.355757 -0.192706 -0.366347 0.0251543 0.222207 -0.270059 -0.277639 -0.495238
59 -0.0922613 0.374119 -0.323566 0.0361573 0.215734 0.126579 0.0849144 0.246987 0.0312362 -0.0297622 -0.252982 -0.161414 -0.0145847 0.0519248 -0.301183 0.228878 -0.238721 -0.129188 -0.247631 0.0172503 0.147271 -0.182643 -0.199519 -0.34175
61 -0.0816381 0.349987 -0.297195 0.0361221 0.196109 0.118281 0.0791311 0.226081 0.0301851 -0.0356942 -0.230757 -0.146245 -0.0122476 0.0518126 -0.27235 0.208202 -0.212502 -0.115353 -0.225888 0.0172297 0.140445 -0.166232 -0.188527 -0.311734
62 -0.0920713 0.384689 -0.336399 0.036156 0.222815 0.136968 0.0871517 0.251185 0.0328005 -0.0373696 -0.259303 -0.160645 -0.0113656 0.0555241 -0.309126 0.232809 -0.243646 -0.134843 -0.25919 0.0176872 0.156751 -0.1885 -0.204956 -0.345743
63 -0.0883052 0.349359 -0.306168 0.0355324 0.205259 0.127539 0.080692 0.228997 0.0330917 -0.0358304 -0.237831 -0.14667 -0.0104534 0.0492201 -0.280673 0.211962 -0.222223 -0.120366 -0.233015 0.0163364 0.144291 -0.171052 -0.183021 -0.313399
64 -0.0926879 0.359143 -0.313516 0.0380234 0.217444 0.124944 0.0831544 0.241121 0.0360132 -0.0338351 -0.246488 -0.1538 -0.00946107 0.0447715 -0.293749 0.217832 -0.234123 -0.122344 -0.241 0.0195648 0.147913 -0.178205 -0.191781 -0.329297
66 -0.0903535 0.376031 -0.323044 0.0343591 0.217441 0.121992 0.0867881 0.246566 0.0306593 -0.0349793 -0.253926 -0.16116 -0.0134992 0.0516296 -0.304003 0.226825 -0.238818 -0.131778 -0.252171 0.0187073 0.150997 -0.184605 -0.205514 -0.344702
67 -0.104986 0.428163 -0.371109 0.0413865 0.250351 0.147993 0.0973326 0.285246 0.0417599 -0.038676 -0.285585 -0.183471 -0.0105267 0.057287 -0.346748 0.258609 -0.275687 -0.150799 -0.289541 0.0196435 0.175131 -0.212106 -0.230762 -0.392451
69 -0.0904582 0.363337 -0.317606 0.0321706 0.212748 0.129523 0.0837643 0.237929 0.0331321 -0.035991 -0.24631 -0.153589 -0.00803431 0.0506223 -0.290903 0.219173 -0.231179 -0.127418 -0.244849 0.0160197 0.15072 -0.178909 -0.192473 -0.32603
72 -0.0997519 0.381178 -0.333109 0.0379241 0.229046 0.136359 0.0886171 0.253174 0.0371519 -0.0393691 -0.262209 -0.162623 -0.0118274 0.0503502 -0.313981 0.23153 -0.249782 -0.133651 -0.26138 0.0164468 0.160993 -0.193366 -0.204052 -0.349032
74 -0.0958843 0.351975 -0.306978 0.0382652 0.212643 0.127899 0.080538 0.236974 0.040369 -0.0361545 -0.241727 -0.150618 -0.00757663 0.0432761 -0.283035 0.215685 -0.22802 -0.116781 -0.235798 0.014493 0.149836 -0.17463 -0.184927 -0.317702
75 -0.109355 0.434843 -0.377684 0.047386 0.263814 0.153577 0.096208 0.290575 0.0443034 -0.0431757 -0.294007 -0.184625 -0.0112599 0.05324 -0.362243 0.259347 -0.288078 -0.153153 -0.29946 0.0188753 0.181121 -0.221862 -0.235984 -0.402368
76 -0.105093 0.401581 -0.352829 0.0429087 0.237897 0.148605 0.0912803 0.269623 0.0442699 -0.0383089 -0.271584 -0.171326 -0.0105951 0.0530933 -0.324712 0.247337 -0.260897 -0.138962 -0.270652 0.0163765 0.167551 -0.198849 -0.209611 -0.36455
77 -0.0921387 0.352759 -0.307754 0.037382 0.20831 0.128108 0.0807942 0.233602 0.0369917 -0.0368959 -0.240742 -0.148991 -0.00929736 0.047474 -0.281986 0.216331 -0.22393 -0.118823 -0.235782 0.0144175 0.147634 -0.172505 -0.185641 -0.316186
78 -0.0746781 0.323116 -0.284563 0.0238839 0.182369 0.115875 0.0762602 0.205183 0.027424 -0.0326833 -0.21479 -0.134672 -0.00302196 0.0495325 -0.249624 0.192579 -0.196109 -0.117401 -0.212043 0.0160789 0.130231 -0.150531 -0.166523 -0.282196
79 -0.087728 0.366921 -0.31929 0.032599 0.207252 0.129432 0.0830883 0.237828 0.0300564 -0.0310891 -0.244678 -0.156008 -0.0120044 0.0544801 -0.29012 0.222152 -0.230126 -0.129539 -0.241286 0.0157484 0.144962 -0.176642 -0.191653 -0.328849
80 -0.0901011 0.333841 -0.292652 0.0384149 0.197402 0.12626 0.0727496 0.215537 0.0420172 -0.0431835 -0.224964 -0.140864 -0.0101934 0.0400195 -0.26865 0.2006 -0.218004 -0.122371 -0.222258 0.00708081 0.142058 -0.163187 -0.166322 -0.298559
82 -0.100216 0.408493 -0.357407 0.0409563 0.234705 0.151199 0.0914126 0.268029 0.0382374 -0.0398916 -0.273212 -0.170678 -0.0133668 0.0599203 -0.326801 0.249019 -0.25957 -0.142109 -0.274519 0.0159683 0.168203 -0.200984 -0.214674 -0.366132
83 -0.0888931 0.34257 -0.297393 0.0354193 0.205478 0.122069 0.0779691 0.226777 0.0342423 -0.0350455 -0.234439 -0.145094 -0.00791418 0.0439654 -0.275771 0.205836 -0.219872 -0.114625 -0.228858 0.01552 0.1434 -0.169828 -0.181984 -0.308429
84 -0.0888411 0.36482 -0.316804 0.0359377 0.209927 0.130266 0.0823792 0.237504 0.0325561 -0.0359052 -0.244544 -0.153222 -0.0119728 0.0523013 -0.290591 0.219383 -0.230344 -0.126062 -0.241542 0.0161587 0.148495 -0.177878 -0.192196 -0.327001
86 -0.0885056 0.349393 -0.303027 0.034972 0.203201 0.127059 0.0744912 0.226685 0.032218 -0.032171 -0.235139 -0.148393 -0.0117631 0.0459123 -0.278782 0.208519 -0.225719 -0.12108 -0.229769 0.0106286 0.141324 -0.172466 -0.17956 -0.312293
87 -0.103578 0.428723 -0.373624 0.0429063 0.249575 0.149597 0.096808 0.285553 0.0386232 -0.0345604 -0.287075 -0.183173 -0.013245 0.0594997 -0.348506 0.261555 -0.275598 -0.150351 -0.288406 0.0207591 0.17055 -0.21093 -0.229803 -0.393289
88 -0.0996767 0.407661 -0.360424 0.0389051 0.234493 0.154531 0.0913595 0.266217 0.040606 -0.0412522 -0.271584 -0.169668 -0.00930551 0.0595249 -0.324899 0.248491 -0.258735 -0.146565 -0.275383 0.0148229 0.16871 -0.198657 -0.210694 -0.362829
91 -0.0640391 0.301593 -0.251164 0.0293366 0.161853 0.0965002 0.0630492 0.187592 0.0253809 -0.0263226 -0.190293 -0.127109 -0.00542604 0.0424997 -0.223188 0.171833 -0.174636 -0.101129 -0.18226 0.0126237 0.111038 -0.13307 -0.157054 -0.262127
92 -0.094107 0.370356 -0.322444 0.0368064 0.217509 0.131842 0.0840053 0.244566 0.0335064 -0.0337929 -0.251095 -0.15857 -0.0144323 0.050032 -0.300672 0.223237 -0.242015 -0.128892 -0.24665 0.0168627 0.151396 -0.185252 -0.194308 -0.337611
93 -0.0944043 0.347828 -0.304911 0.0382833 0.212785 0.124008 0.081459 0.23342 0.0346215 -0.0355778 -0.243541 -0.149059 -0.0138838 0.0436704 -0.288819 0.213426 -0.23091 -0.118526 -0.235977 0.017212 0.146331 -0.176525 -0.184633 -0.320273
94 -0.0958473 0.371322 -0.325718 0.0366824 0.214746 0.135517 0.0886881 0.245116 0.0393285 -0.0404133 -0.249548 -0.156895 -0.0141728 0.0526752 -0.298495 0.226021 -0.239495 -0.130246 -0.248473 0.0182041 0.157134 -0.18432 -0.192964 -0.337098
95 -0.100873 0.394128 -0.340765 0.0348811 0.232365 0.139573 0.0879442 0.260282 0.0350157 -0.0373498 -0.268747 -0.1677 -0.0100443 0.0532111 -0.317748 0.238121 -0.254073 -0.134178 -0.269543 0.0131048 0.166073 -0.200092 -0.213138 -0.355291
96 -0.0976486 0.37645 -0.326685 0.03434 0.22106 0.136351 0.0842499 0.248216 0.0335942 -0.0347037 -0.257462 -0.160087 -0.0103176 0.052177 -0.301753 0.229175 -0.241246 -0.126831 -0.25506 0.0121771 0.157494 -0.18949 -0.200728 -0.337269
98 -0.115935 0.437381 -0.382325 0.0418125 0.261073 0.1548 0.102268 0.295333 0.0391845 -0.0387464 -0.30245 -0.189582 -0.0193055 0.0596809 -0.364556 0.271203 -0.292096 -0.152919 -0.303506 0.0186223 0.183901 -0.227 -0.236839 -0.406777
99 -0.0946371 0.359182 -0.311462 0.0379823 0.212506 0.127486 0.0812569 0.236918 0.032341 -0.0361041 -0.247459 -0.153511 -0.0181941 0.0478432 -0.294548 0.218379 -0.23659 -0.123128 -0.241155 0.0143215 0.149285 -0.18239 -0.189807 -0.328452
101 -0.103474 0.384553 -0.340501 0.0399509 0.228848 0.146976 0.0894619 0.255729 0.0410688 -0.0427059 -0.264432 -0.16215 -0.0135253 0.0532527 -0.313714 0.237834 -0.252088 -0.134882 -0.263247 0.0144505 0.165918 -0.194206 -0.199569 -0.347408
102 -0.0831807 0.326229 -0.280519 0.0348709 0.190151 0.11331 0.0708694 0.211231 0.0314804 -0.031894 -0.219594 -0.140042 -0.0126865 0.0408253 -0.261337 0.193743 -0.210527 -0.113708 -0.21176 0.0115971 0.130518 -0.159117 -0.168223 -0.294851
103 -0.0791383 0.320533 -0.275965 0.0318981 0.188147 0.108613 0.0732428 0.20792 0.029794 -0.0350507 -0.216963 -0.135203 -0.00893176 0.0418677 -0.255452 0.189686 -0.202198 -0.109769 -0.210713 0.0158741 0.131611 -0.155359 -0.170531 -0.287921
104 -0.0886389 0.339437 -0.295343 0.0350774 0.200357 0.12622 0.0748083 0.224458 0.0339327 -0.0303633 -0.230662 -0.143649 -0.00677115 0.0453301 -0.267377 0.205662 -0.214936 -0.110346 -0.222768 0.0126354 0.139769 -0.165933 -0.176024 -0.300207
105 -0.0925442 0.364032 -0.316078 0.0361373 0.213104 0.127044 0.0834902 0.242005 0.0327445 -0.0315493 -0.248663 -0.155563 -0.0115468 0.0503616 -0.291895 0.223948 -0.231072 -0.121697 -0.242547 0.0167586 0.147609 -0.178444 -0.194577 -0.32933
106 -0.100502 0.416399 -0.354202 0.0416476 0.240275 0.145056 0.0904502 0.272734 0.036166 -0.0371676 -0.275826 -0.176527 -0.0121014 0.0579863 -0.3337 0.246115 -0.263724 -0.14 -0.278256 0.0152537 0.169256 -0.2082 -0.226798 -0.376902
108 -0.101308 0.371384 -0.326429 0.0428327 0.224972 0.138618 0.0849205 0.24918 0.0457331 -0.0426473 -0.254543 -0.15724 -0.00828042 0.0458515 -0.301926 0.228846 -0.241648 -0.127577 -0.252533 0.0137106 0.159948 -0.18433 -0.194071 -0.336056
110 -0.0696495 0.305784 -0.257881 0.0322721 0.171032 0.10121 0.0677722 0.193447 0.0263222 -0.0316365 -0.199746 -0.127921 -0.00931173 0.0432469 -0.235447 0.176794 -0.183651 -0.101978 -0.191481 0.0154168 0.119049 -0.141521 -0.161663 -0.270456
111 -0.083134 0.335181 -0.293987 0.0326582 0.196722 0.122444 0.0776063 0.218003 0.0290089 -0.0322801 -0.227217 -0.141295 -0.0109121 0.0476679 -0.269873 0.19956 -0.215198 -0.1172 -0.220734 0.0176852 0.13622 -0.164712 -0.173444 -0.301349
112 -0.085373 0.33417 -0.291893 0.035229 0.199462 0.121058 0.0754033 0.220362 0.0347852 -0.0335313 -0.227109 -0.140728 -0.00542208 0.0430661 -0.266341 0.201128 -0.211852 -0.112635 -0.220938 0.0152724 0.13768 -0.161811 -0.174655 -0.298233
113 -0.0895561 0.350573 -0.306973 0.0327719 0.206738 0.122739 0.0840532 0.230718 0.0288454 -0.0360046 -0.243354 -0.148481 -0.0146591 0.0505755 -0.286201 0.215292 -0.225501 -0.121503 -0.237908 0.0181552 0.145977 -0.175174 -0.188121 -0.318919
114 -0.0841339 0.333972 -0.290696 0.0348257 0.198478 0.117411 0.0757985 0.220995 0.0339413 -0.0298121 -0.225464 -0.142779 -0.00578374 0.0424125 -0.266395 0.200284 -0.21227 -0.113561 -0.218136 0.0171116 0.133939 -0.160432 -0.174426 -0.301045
115 -0.0804312 0.324761 -0.286002 0.0311764 0.191478 0.11961 0.0766978 0.210502 0.0280803 -0.0334497 -0.221006 -0.135939 -0.00985723 0.0469305 -0.261618 0.192768 -0.207805 -0.114037 -0.214427 0.0184748 0.133441 -0.159406 -0.167962 -0.291028
116 -0.0842982 0.341888 -0.298232 0.0352446 0.200863 0.122784 0.0801757 0.223247 0.0290015 -0.0346045 -0.232281 -0.14345 -0.0134118 0.0493113 -0.277037 0.203809 -0.219068 -0.117462 -0.225851 0.0198125 0.139834 -0.168961 -0.180229 -0.309434
117 -0.0873078 0.339704 -0.294217 0.0354409 0.197098 0.123528 0.0749857 0.220303 0.0335986 -0.0361627 -0.229267 -0.143347 -0.011865 0.0458187 -0.26999 0.204192 -0.216548 -0.116702 -0.223757 0.0111565 0.140495 -0.166442 -0.175637 -0.302866
118 -0.0993632 0.402534 -0.353415 0.0349478 0.236764 0.136279 0.0969797 0.267557 0.0314484 -0.0338542 -0.276445 -0.173945 -0.0158001 0.0576593 -0.333638 0.247804 -0.262509 -0.146057 -0.275946 0.0225819 0.16206 -0.201672 -0.218166 -0.374196
119 -0.115947 0.460832 -0.398984 0.0469922 0.26386 0.165713 0.105592 0.30673 0.0451962 -0.0449731 -0.306971 -0.19642 -0.0191449 0.0671944 -0.37272 0.282663 -0.296915 -0.160635 -0.312511 0.0180032 0.192566 -0.231382 -0.246893 -0.421587
121 -0.0995882 0.385525 -0.337237 0.0353208 0.228368 0.136477 0.0886877 0.255071 0.0342581 -0.0393462 -0.266986 -0.163078 -0.0126875 0.0531363 -0.314392 0.238097 -0.249003 -0.133606 -0.266439 0.0145448 0.162816 -0.19455 -0.208323 -0.349236
122 -0.0920306 0.370508 -0.32026 0.0340098 0.216358 0.124976 0.0832706 0.246134 0.0373132 -0.0323111 -0.247686 -0.160013 -0.00600119 0.0466108 -0.293565 0.223556 -0.235688 -0.128327 -0.245368 0.0163727 0.150052 -0.179145 -0.196777 -0.335271
123 -0.0858741 0.332776 -0.289468 0.0301315 0.199846 0.11328 0.0777552 0.219827 0.0325941 -0.0374564 -0.230311 -0.140626 -0.00582162 0.0420632 -0.266951 0.201817 -0.211666 -0.113228 -0.226152 0.0154832 0.142007 -0.164053 -0.180008 -0.29877
125 -0.0870964 0.370453 -0.319004 0.0328053 0.213387 0.131265 0.082123 0.239799 0.0335734 -0.0329324 -0.242738 -0.15688 -0.00390424 0.0514387 -0.291377 0.215221 -0.231729 -0.129269 -0.243344 0.0160877 0.149096 -0.179763 -0.19564 -0.330366
127 -0.101257 0.381879 -0.33648 0.0422905 0.22716 0.140865 0.0857237 0.25173 0.0445227 -0.0460731 -0.262329 -0.159668 -0.00947074 0.0493953 -0.310296 0.238749 -0.24408 -0.13562 -0.263807 0.00983893 0.162492 -0.186938 -0.201079 -0.343268
128 -0.10383 0.405017 -0.355207 0.0348041 0.236374 0.14183 0.0952372 0.269383 0.0328437 -0.0353927 -0.280014 -0.173917 -0.0161625 0.0589664 -0.330962 0.253434 -0.262077 -0.142219 -0.279077 0.0168421 0.167091 -0.204042 -0.218525 -0.370347
129 -0.0978874 0.374469 -0.326014 0.0390636 0.222044 0.136607 0.0834151 0.250076 0.0375983 -0.0327362 -0.25482 -0.159934 -0.00948768 0.0494082 -0.30062 0.228855 -0.240991 -0.124772 -0.25006 0.0143717 0.154197 -0.185704 -0.19715 -0.33746
130 -0.0651182 0.281222 -0.241055 0.0249917 0.160043 0.0966631 0.0618086 0.174156 0.0248938 -0.0328775 -0.184844 -0.117119 -0.00535954 0.0373547 -0.216859 0.158474 -0.173296 -0.100607 -0.17807 0.0122049 0.112897 -0.131788 -0.143339 -0.245488
131 -0.0875996 0.388266 -0.331138 0.0399825 0.215917 0.131248 0.0880755 0.251741 0.0276773 -0.0345597 -0.25655 -0.162192 -0.0187477 0.0612652 -0.307754 0.233108 -0.23847 -0.129328 -0.253048 0.021095 0.151917 -0.187217 -0.211425 -0.350589
133 -0.100874 0.390013 -0.344296 0.0387997 0.228205 0.147672 0.0900653 0.257119 0.0452552 -0.0440319 -0.261197 -0.164323 -0.00714675 0.0535754 -0.311686 0.238045 -0.249695 -0.140404 -0.264138 0.0140946 0.166497 -0.190923 -0.200914 -0.349164
135 -0.104334 0.377507 -0.334677 0.0447724 0.228898 0.146068 0.0874085 0.25313 0.0484196 -0.0462942 -0.258665 -0.158944 -0.0100785 0.0477657 -0.308657 0.233197 -0.248179 -0.132259 -0.257736 0.0139827 0.165112 -0.18858 -0.194106 -0.341727
137 -0.0941202 0.350071 -0.303998 0.0390669 0.21097 0.128083 0.0798307 0.231628 0.0376454 -0.0402814 -0.23939 -0.148734 -0.0131852 0.0439164 -0.286298 0.208914 -0.231534 -0.120027 -0.234683 0.014664 0.1504 -0.178011 -0.183107 -0.318668
138 -0.0980824 0.373271 -0.324357 0.0376877 0.223756 0.131168 0.0852033 0.248927 0.0385115 -0.0374579 -0.256207 -0.159615 -0.00844237 0.0474467 -0.303006 0.228325 -0.240545 -0.127487 -0.25421 0.0144735 0.156648 -0.18601 -0.200681 -0.339182
139 -0.0923053 0.337677 -0.295001 0.0410392 0.207604 0.126004 0.0756192 0.226392 0.0432291 -0.0396653 -0.230938 -0.142166 -0.0047068 0.0385595 -0.272009 0.203585 -0.219022 -0.111804 -0.225405 0.013733 0.145752 -0.166535 -0.175538 -0.302881
140 -0.0824155 0.320565 -0.280859 0.0338661 0.192135 0.117334 0.0748128 0.210238 0.0310305 -0.0339867 -0.219632 -0.134735 -0.00900732 0.0431649 -0.258785 0.191317 -0.205957 -0.109141 -0.211712 0.017284 0.133244 -0.157781 -0.166836 -0.288004
141 -0.0999491 0.381616 -0.329097 0.0368452 0.227374 0.135263 0.0862229 0.2545 0.0430867 -0.0387244 -0.256027 -0.164247 -0.00413341 0.046935 -0.304726 0.227945 -0.245731 -0.130632 -0.256961 0.0139768 0.162569 -0.190185 -0.203244 -0.344784
142 -0.0759418 0.325862 -0.287349 0.0233023 0.185129 0.11366 0.0784084 0.207713 0.024855 -0.0326258 -0.220401 -0.136407 -0.00597325 0.0504448 -0.255948 0.196898 -0.199499 -0.118908 -0.217145 0.0170516 0.131184 -0.153818 -0.171045 -0.287951
143 -0.0899359 0.364234 -0.314457 0.0371085 0.210949 0.129204 0.0782243 0.235298 0.0347554 -0.0364258 -0.243341 -0.153949 -0.0108887 0.0479638 -0.291466 0.217002 -0.232308 -0.12842 -0.241784 0.0110978 0.147297 -0.178148 -0.190651 -0.326987
146 -0.0879676 0.376974 -0.325583 0.0344205 0.215171 0.133154 0.0844978 0.24492 0.0359163 -0.0333619 -0.245588 -0.159843 -0.00415199 0.0530441 -0.295195 0.221481 -0.23403 -0.132511 -0.246413 0.0173187 0.150407 -0.179929 -0.198092 -0.336659
148 -0.0959259 0.370865 -0.320973 0.0406565 0.223067 0.132777 0.0810159 0.247999 0.0398288 -0.0345651 -0.251026 -0.157721 -0.00618622 0.0450703 -0.298144 0.222991 -0.238783 -0.122737 -0.247457 0.0148234 0.153394 -0.183426 -0.197093 -0.33464
149 -0.0850646 0.340636 -0.300705 0.0337285 0.202767 0.124122 0.0813829 0.223045 0.0291596 -0.0341616 -0.233233 -0.143618 -0.0126839 0.0485809 -0.279355 0.203606 -0.221888 -0.120877 -0.227214 0.0207705 0.139777 -0.169532 -0.177661 -0.310138
150 -0.112218 0.431611 -0.378821 0.0467502 0.254128 0.154014 0.100035 0.292079 0.0470512 -0.0394938 -0.292582 -0.185863 -0.0141143 0.0578176 -0.352327 0.270869 -0.279945 -0.151248 -0.29338 0.0187695 0.177484 -0.212625 -0.229126 -0.39759
154 -0.105181 0.399911 -0.348287 0.03865 0.237159 0.141699 0.0918512 0.268012 0.0370109 -0.0375222 -0.275718 -0.171299 -0.0146468 0.0541961 -0.326417 0.247285 -0.260925 -0.135887 -0.273963 0.0158561 0.168343 -0.203222 -0.215599 -0.365143
155 -0.0875318 0.341547 -0.295195 0.0392904 0.204665 0.1197 0.0777479 0.22669 0.0352078 -0.0357407 -0.232847 -0.144123 -0.00951143 0.043471 -0.275645 0.205531 -0.217736 -0.112701 -0.226078 0.0173036 0.141125 -0.167248 -0.182539 -0.309255
156 -0.0968557 0.351861 -0.308513 0.0349418 0.21326 0.124368 0.0835267 0.235998 0.0331406 -0.0371999 -0.249534 -0.150367 -0.0140763 0.0465006 -0.289914 0.220583 -0.230387 -0.11846 -0.242935 0.0148498 0.150981 -0.1792 -0.189798 -0.321161
157 -0.0866307 0.347907 -0.298333 0.0376612 0.20367 0.121686 0.0763952 0.228562 0.0353905 -0.0337828 -0.232161 -0.147317 -0.00760213 0.0447278 -0.275013 0.206614 -0.218909 -0.115407 -0.226927 0.0148725 0.141416 -0.168273 -0.18411 -0.311649
158 -0.0856397 0.35481 -0.308871 0.0346398 0.200814 0.129068 0.0799196 0.230239 0.0366912 -0.0336823 -0.232442 -0.149884 -0.00587335 0.0506712 -0.275105 0.212928 -0.218812 -0.12437 -0.229672 0.0148155 0.142163 -0.166271 -0.181665 -0.313852
159 -0.0999071 0.387411 -0.33805 0.0402399 0.230492 0.141201 0.0876013 0.257321 0.0432078 -0.0399212 -0.260471 -0.164714 -0.00673529 0.0497024 -0.312463 0.233659 -0.249858 -0.135385 -0.26142 0.0152144 0.162688 -0.191546 -0.203885 -0.350499
160 -0.0808313 0.320285 -0.274614 0.0360925 0.187762 0.112757 0.0704516 0.209633 0.0325487 -0.0309798 -0.214818 -0.135628 -0.00778066 0.041107 -0.251908 0.190169 -0.200505 -0.104444 -0.205675 0.0141746 0.128983 -0.153357 -0.167444 -0.285477
161 -0.0932939 0.364101 -0.315858 0.0362833 0.2158 0.129358 0.0826793 0.241124 0.0332534 -0.0358419 -0.249195 -0.153992 -0.0116067 0.0491217 -0.293871 0.220291 -0.23439 -0.121783 -0.244864 0.0161248 0.152225 -0.182449 -0.194978 -0.32867
162 -0.0999186 0.387957 -0.338839 0.0424366 0.23318 0.137054 0.0896685 0.260912 0.0376742 -0.0363686 -0.265704 -0.165773 -0.0145228 0.050576 -0.320141 0.236513 -0.255253 -0.132765 -0.261881 0.0207177 0.160098 -0.195179 -0.207528 -0.358027
163 -0.0884647 0.329985 -0.291102 0.0375843 0.200875 0.114743 0.0761781 0.22109 0.0358408 -0.0310296 -0.229122 -0.138721 -0.0142494 0.0377059 -0.275176 0.201683 -0.219879 -0.109801 -0.222283 0.0186763 0.134268 -0.166936 -0.173383 -0.306875
164 -0.113585 0.425712 -0.374653 0.0406237 0.250996 0.155291 0.10158 0.288589 0.0482721 -0.0419414 -0.287225 -0.184795 -0.0123953 0.0569881 -0.345215 0.263098 -0.280983 -0.151714 -0.289647 0.0193109 0.18257 -0.214179 -0.222584 -0.391001
165 -0.0921176 0.391534 -0.340395 0.0346762 0.221522 0.135746 0.0909946 0.256218 0.0275086 -0.0310288 -0.263151 -0.166287 -0.0166599 0.0610352 -0.313964 0.238646 -0.246869 -0.135947 -0.260066 0.0207183 0.154393 -0.191761 -0.20969 -0.355245
166 -0.0971313 0.380497 -0.33006 0.0440827 0.231068 0.13635 0.0827039 0.254048 0.0430172 -0.0384952 -0.256554 -0.160613 -0.00544752 0.0445769 -0.309171 0.227029 -0.246326 -0.128713 -0.255674 0.0158902 0.157814 -0.188103 -0.202718 -0.345235
170 -0.0916588 0.39181 -0.337014 0.0373702 0.225059 0.129558 0.0904448 0.258331 0.0306771 -0.034452 -0.262615 -0.166277 -0.0147973 0.0564078 -0.315243 0.236184 -0.247243 -0.133812 -0.260611 0.0223953 0.156335 -0.191799 -0.214426 -0.358104
171 -0.120063 0.447132 -0.394689 0.0482993 0.262547 0.167852 0.101268 0.300271 0.0511225 -0.0453457 -0.303017 -0.191838 -0.0176208 0.0597985 -0.366466 0.280402 -0.296017 -0.16112 -0.306919 0.0132495 0.189011 -0.224927 -0.231648 -0.409908
172 -0.105604 0.433693 -0.368362 0.0386219 0.259081 0.149348 0.0934868 0.283508 0.0417194 -0.0437699 -0.286366 -0.185044 -0.00359265 0.0529694 -0.353401 0.246827 -0.28239 -0.153516 -0.298055 0.0140083 0.183324 -0.223459 -0.238964 -0.395789
173 -0.0906823 0.344185 -0.302254 0.0386019 0.204709 0.124945 0.0752491 0.228541 0.037366 -0.0309556 -0.235283 -0.143391 -0.0114489 0.0418861 -0.278824 0.210794 -0.223141 -0.112235 -0.229738 0.013941 0.139552 -0.17098 -0.178889 -0.311612
176 -0.10373 0.388697 -0.341237 0.0392443 0.234362 0.138481 0.0899968 0.2606 0.0362108 -0.0402742 -0.272542 -0.164877 -0.0157288 0.0516861 -0.321859 0.242531 -0.255831 -0.13303 -0.270088 0.0158451 0.165672 -0.198769 -0.210251 -0.35584
177 -0.0866512 0.34763 -0.304343 0.0371188 0.204367 0.125691 0.0788765 0.227403 0.034455 -0.0346889 -0.23465 -0.146442 -0.00945092 0.0470461 -0.279527 0.209656 -0.22119 -0.121528 -0.229827 0.0162175 0.140587 -0.167941 -0.180735 -0.312961
178 -0.103124 0.41541 -0.366748 0.0342754 0.238098 0.152951 0.0974805 0.27278 0.0339973 -0.037038 -0.280949 -0.176725 -0.0156634 0.0639948 -0.336137 0.255179 -0.268522 -0.150515 -0.28301 0.0177516 0.171318 -0.208249 -0.217892 -0.376309
180 -0.0906522 0.369832 -0.321072 0.0387523 0.215909 0.130595 0.08273 0.241494 0.0356899 -0.0370354 -0.247366 -0.156453 -0.011718 0.049432 -0.298704 0.220775 -0.237285 -0.130825 -0.245532 0.0164007 0.149755 -0.180908 -0.194448 -0.335582
181 -0.0771726 0.320417 -0.283525 0.0212555 0.181489 0.112297 0.0789487 0.203862 0.0249077 -0.0350441 -0.219295 -0.13418 -0.00673272 0.0507446 -0.251398 0.196715 -0.195571 -0.117806 -0.216238 0.0151804 0.132171 -0.151877 -0.168357 -0.28214
183 -0.0897763 0.345302 -0.299688 0.0357086 0.2068 0.122844 0.0772764 0.229137 0.0373862 -0.0355573 -0.235162 -0.146155 -0.00452467 0.0427591 -0.274849 0.208701 -0.219162 -0.115102 -0.23071 0.0137258 0.144717 -0.168657 -0.183126 -0.308575
184 -0.0943646 0.348981 -0.304947 0.0412103 0.214037 0.128164 0.0785706 0.23432 0.0417584 -0.0390798 -0.239686 -0.147379 -0.00688012 0.0408845 -0.283398 0.211464 -0.227479 -0.11628 -0.23457 0.0149153 0.149326 -0.173449 -0.183347 -0.31531
185 -0.101469 0.405791 -0.352313 0.0400314 0.238778 0.143499 0.0905546 0.270113 0.0414781 -0.0360236 -0.271383 -0.173643 -0.00709946 0.0528972 -0.32606 0.245197 -0.260051 -0.140783 -0.272878 0.0164396 0.165946 -0.199705 -0.216152 -0.368222
186 -0.095274 0.36729 -0.321533 0.0361786 0.216841 0.131111 0.0858993 0.243929 0.0357061 -0.0371442 -0.252022 -0.156132 -0.0116485 0.0504833 -0.296969 0.226275 -0.235937 -0.126535 -0.248429 0.0164883 0.153675 -0.181928 -0.195028 -0.332693
187 -0.094491 0.373516 -0.32697 0.0324226 0.215201 0.134953 0.085844 0.244564 0.0347788 -0.0353742 -0.250849 -0.160205 -0.0122745 0.0525082 -0.298694 0.225753 -0.241917 -0.13449 -0.249246 0.0149933 0.15436 -0.185026 -0.192907 -0.337056
188 -0.0914711 0.366724 -0.320394 0.0310765 0.213722 0.128562 0.0846759 0.241445 0.0306687 -0.0334683 -0.25062 -0.155683 -0.0100228 0.0520359 -0.293367 0.224181 -0.233171 -0.126532 -0.247576 0.0163451 0.151001 -0.181063 -0.195884 -0.32949
189 -0.102874 0.392405 -0.343067 0.0439305 0.237405 0.137385 0.0915254 0.265428 0.0404859 -0.0386441 -0.270184 -0.168166 -0.014515 0.0497481 -0.3254 0.241564 -0.258816 -0.134845 -0.267069 0.02053 0.163469 -0.197418 -0.211015 -0.363825
190 -0.0856781 0.355029 -0.308311 0.032205 0.202805 0.123796 0.0823082 0.229783 0.0300529 -0.0349542 -0.238599 -0.149926 -0.0112846 0.0522434 -0.282285 0.214203 -0.222003 -0.12491 -0.235592 0.0164204 0.143622 -0.171714 -0.188074 -0.318638
191 -0.102686 0.387002 -0.338269 0.040219 0.230486 0.140617 0.0897466 0.25906 0.044873 -0.043367 -0.261404 -0.165425 -0.0107925 0.0490273 -0.313489 0.234655 -0.254237 -0.135972 -0.261605 0.0165963 0.166999 -0.194033 -0.202554 -0.35264
194 -0.0852419 0.332094 -0.291616 0.0352066 0.195975 0.12162 0.0749236 0.215066 0.0352765 -0.0372779 -0.224801 -0.140201 -0.00972283 0.0430224 -0.267908 0.1993 -0.21422 -0.120115 -0.220313 0.0127692 0.1368 -0.16133 -0.169261 -0.298522
195 -0.0771253 0.315826 -0.273041 0.0283706 0.181514 0.107782 0.0734078 0.202881 0.0277974 -0.034357 -0.213796 -0.132762 -0.00804507 0.0446437 -0.247958 0.189486 -0.194567 -0.109181 -0.207818 0.0145022 0.129136 -0.150497 -0.167376 -0.280205
196 -0.0809131 0.313556 -0.272464 0.0341235 0.18345 0.114754 0.069742 0.201974 0.0357511 -0.0373491 -0.210236 -0.131726 -0.00682235 0.0399701 -0.246964 0.186525 -0.197683 -0.109695 -0.20443 0.0106979 0.130449 -0.14969 -0.159303 -0.277379
197 -0.0958764 0.346484 -0.307782 0.0386584 0.21287 0.129668 0.0830874 0.230332 0.0386352 -0.0452385 -0.244146 -0.145078 -0.0127978 0.0448849 -0.288493 0.214465 -0.229102 -0.122081 -0.240453 0.0152062 0.152732 -0.175935 -0.182228 -0.315616
198 -0.125248 0.521949 -0.469953 0.0762168 0.306709 0.210639 0.103155 0.340217 0.0679101 -0.0646509 -0.348798 -0.205159 -0.010192 0.0704444 -0.430009 0.334102 -0.325294 -0.192711 -0.367635 0.0050592 0.210048 -0.244116 -0.271047 -0.463972
199 -0.0931752 0.357122 -0.311061 0.0393179 0.210877 0.129716 0.0783487 0.236529 0.0408316 -0.0350384 -0.240438 -0.152232 -0.00699454 0.0443804 -0.284168 0.217589 -0.227963 -0.122342 -0.23612 0.0120319 0.146482 -0.172456 -0.1846 -0.320245
200 -0.10162 0.412322 -0.365377 0.0434232 0.239681 0.151755 0.0934478 0.272046 0.042998 -0.040141 -0.277346 -0.173021 -0.0100453 0.0582271 -0.333282 0.256782 -0.261089 -0.149015 -0.27997 0.01623 0.166482 -0.197817 -0.215526 -0.372398
202 -0.10466 0.39297 -0.348024 0.0400356 0.228265 0.146856 0.0886385 0.261448 0.0456235 -0.0387872 -0.265851 -0.164664 -0.0133696 0.051883 -0.316571 0.245464 -0.255045 -0.135468 -0.267437 0.0126984 0.164631 -0.195821 -0.202288 -0.355429
203 -0.0949475 0.405378 -0.353613 0.0368991 0.233456 0.13969 0.0932809 0.267266 0.0361831 -0.0358867 -0.26917 -0.172031 -0.00997399 0.0573441 -0.324969 0.244463 -0.257085 -0.144531 -0.271048 0.0216766 0.16256 -0.196538 -0.216489 -0.368492
204 -0.085228 0.325089 -0.284516 0.0393791 0.193886 0.122082 0.0712026 0.209686 0.0383932 -0.0417889 -0.220044 -0.135186 -0.00993073 0.0399932 -0.26282 0.193845 -0.210042 -0.115813 -0.215588 0.0102853 0.136694 -0.158285 -0.164779 -0.29057
206 -0.0998749 0.382762 -0.333778 0.0364497 0.223582 0.137896 0.0879288 0.255065 0.0342317 -0.0340414 -0.26264 -0.163597 -0.0142849 0.0544348 -0.307966 0.237146 -0.246349 -0.128647 -0.258167 0.015272 0.159038 -0.191736 -0.203413 -0.345874
207 -0.0907546 0.37516 -0.328461 0.0318712 0.214999 0.134521 0.0868161 0.24573 0.0320867 -0.0302948 -0.250418 -0.160369 -0.00875486 0.0552917 -0.29771 0.226497 -0.237162 -0.132813 -0.248199 0.0180847 0.149896 -0.182048 -0.195823 -0.33721
208 -0.0977521 0.392303 -0.342114 0.0373364 0.229848 0.137984 0.0900448 0.260938 0.0361679 -0.0317337 -0.264324 -0.168971 -0.0100944 0.0537997 -0.316982 0.238515 -0.252137 -0.137019 -0.262485 0.0186915 0.157588 -0.193086 -0.208204 -0.358061
209 -0.0892918 0.350689 -0.303673 0.0366678 0.205918 0.12686 0.0775026 0.230846 0.0359825 -0.0326524 -0.235473 -0.148951 -0.0068661 0.0460336 -0.2777 0.210477 -0.221916 -0.117761 -0.230332 0.0136349 0.143069 -0.170361 -0.18312 -0.313203
211 -0.104159 0.424315 -0.366601 0.0424616 0.246879 0.151298 0.0909866 0.281383 0.0383358 -0.0386879 -0.285089 -0.177743 -0.0124852 0.0578778 -0.339516 0.257377 -0.271067 -0.141108 -0.286766 0.0150815 0.175326 -0.211973 -0.229064 -0.380959
212 -0.082197 0.326116 -0.283519 0.0292375 0.193365 0.114436 0.0755528 0.212203 0.0313384 -0.0353093 -0.222158 -0.137542 -0.00426354 0.0432078 -0.259271 0.194216 -0.205176 -0.112722 -0.218213 0.0146463 0.136545 -0.15899 -0.173179 -0.290479
213 -0.0981495 0.422814 -0.369718 0.0346929 0.241032 0.152915 0.0933859 0.27453 0.0367996 -0.0398462 -0.278983 -0.176392 -0.00752363 0.0616212 -0.334984 0.25267 -0.266877 -0.152014 -0.286114 0.0161691 0.173427 -0.207279 -0.223794 -0.376431
216 -0.0855489 0.30634 -0.26735 0.0380455 0.192298 0.113916 0.0711367 0.203835 0.0352047 -0.0388592 -0.21468 -0.128495 -0.00917455 0.0356799 -0.252818 0.182069 -0.202657 -0.100523 -0.205278 0.0154142 0.134112 -0.155753 -0.160691 -0.277573
217 -0.0929908 0.365315 -0.322434 0.0345727 0.213819 0.131731 0.0863583 0.240927 0.0364622 -0.0371091 -0.248921 -0.154994 -0.00920798 0.0514376 -0.2938 0.225687 -0.232254 -0.130225 -0.246789 0.0165587 0.151129 -0.177385 -0.191417 -0.329492
218 -0.0836968 0.327711 -0.286666 0.0283435 0.191636 0.114139 0.0772054 0.213232 0.0309912 -0.0362715 -0.225321 -0.138535 -0.00730442 0.0451202 -0.260338 0.200685 -0.205447 -0.115075 -0.220903 0.0135393 0.137269 -0.158562 -0.173447 -0.292031
220 -0.0888408 0.349647 -0.306453 0.036077 0.208779 0.126294 0.0815803 0.230688 0.0331775 -0.0362619 -0.238905 -0.147416 -0.011107 0.0473586 -0.284643 0.20999 -0.226638 -0.12098 -0.233957 0.0187793 0.145501 -0.173817 -0.184097 -0.317145
222 -0.100753 0.394233 -0.341726 0.0402956 0.235223 0.132412 0.0923381 0.264863 0.0358397 -0.0350192 -0.270934 -0.170426 -0.0145758 0.0519581 -0.325611 0.242256 -0.256583 -0.135721 -0.268149 0.0203631 0.160653 -0.197622 -0.215593 -0.366232
223 -0.0929104 0.374294 -0.326249 0.0373259 0.219462 0.129823 0.0859459 0.246848 0.0321256 -0.034062 -0.254772 -0.15973 -0.0151148 0.0515054 -0.305724 0.227461 -0.242456 -0.131395 -0.250862 0.0185846 0.150774 -0.18548 -0.199206 -0.342942
225 -0.0917003 0.353325 -0.303198 0.0350343 0.203768 0.123089 0.0761303 0.229511 0.0293607 -0.0329249 -0.241099 -0.151836 -0.0188453 0.0471528 -0.284932 0.213942 -0.230295 -0.12133 -0.234302 0.00932067 0.143566 -0.177815 -0.18533 -0.319895
227 -0.0875242 0.336156 -0.289366 0.0349355 0.196658 0.116427 0.0725288 0.217864 0.0346317 -0.0358611 -0.227866 -0.143975 -0.0112696 0.0408786 -0.26934 0.202406 -0.216273 -0.118241 -0.22292 0.00842554 0.137651 -0.164443 -0.175055 -0.302759
228 -0.0904026 0.364391 -0.316701 0.035157 0.213173 0.12879 0.0815034 0.241628 0.0343074 -0.0294683 -0.244928 -0.155586 -0.00663922 0.0488933 -0.288734 0.220375 -0.230421 -0.122749 -0.240078 0.0166774 0.146119 -0.176498 -0.192147 -0.327018
229 -0.092686 0.355862 -0.309979 0.0357286 0.210635 0.128153 0.0814638 0.237036 0.0374236 -0.0326518 -0.240892 -0.15271 -0.00671968 0.0465818 -0.283564 0.216107 -0.227331 -0.120529 -0.23583 0.0155057 0.14691 -0.174015 -0.186269 -0.320369
232 -0.0935232 0.377614 -0.326904 0.0389819 0.219559 0.132488 0.0855995 0.249681 0.0347107 -0.0337543 -0.254427 -0.160384 -0.0117228 0.0526882 -0.302624 0.229667 -0.238804 -0.127585 -0.25066 0.0174643 0.152286 -0.184346 -0.201695 -0.341759
235 -0.0943247 0.381723 -0.330562 0.0389151 0.224549 0.13548 0.0829259 0.254606 0.0400469 -0.0322016 -0.253478 -0.162385 -0.00402921 0.0481396 -0.301161 0.228737 -0.242033 -0.127597 -0.251252 0.0164918 0.154664 -0.184709 -0.201333 -0.34199
236 -0.092446 0.369903 -0.32382 0.0320037 0.215377 0.129537 0.087473 0.242309 0.0325538 -0.0368067 -0.252452 -0.157248 -0.0104318 0.0532059 -0.298357 0.226479 -0.234849 -0.131812 -0.251522 0.0165481 0.15282 -0.181996 -0.197668 -0.334588
237 -0.0742337 0.341481 -0.288022 0.034604 0.187057 0.111011 0.0787692 0.216445 0.02579 -0.0368482 -0.222076 -0.141548 -0.0147636 0.0534336 -0.265442 0.199368 -0.204269 -0.115478 -0.21771 0.0201855 0.134284 -0.159969 -0.185341 -0.305306
238 -0.0945042 0.379683 -0.332466 0.0310485 0.218033 0.132479 0.088478 0.250576 0.0295577 -0.0302121 -0.259841 -0.162695 -0.0123442 0.0565936 -0.303496 0.236451 -0.239924 -0.131691 -0.256193 0.0164051 0.152793 -0.186129 -0.202689 -0.342368
239 -0.0992724 0.366355 -0.320854 0.0393503 0.222882 0.12932 0.0858264 0.247751 0.0358735 -0.0348684 -0.256669 -0.157615 -0.0141252 0.0468692 -0.303237 0.227836 -0.241656 -0.123313 -0.249879 0.0176024 0.153425 -0.185588 -0.196583 -0.337595
240 -0.0887302 0.371935 -0.317118 0.0412493 0.21361 0.125017 0.0853306 0.244231 0.0323751 -0.0350135 -0.24792 -0.157462 -0.0149296 0.0533034 -0.298207 0.222848 -0.232003 -0.123795 -0.243283 0.020443 0.147866 -0.180228 -0.202361 -0.339246
246 -0.108346 0.430109 -0.376143 0.0412503 0.252918 0.153864 0.0976327 0.286922 0.0413467 -0.0393369 -0.290477 -0.18357 -0.0124903 0.0585367 -0.35042 0.262865 -0.279988 -0.15172 -0.293861 0.0178019 0.178219 -0.21584 -0.229698 -0.39301
247 -0.0892943 0.348229 -0.303573 0.0347926 0.203521 0.129403 0.0777431 0.229364 0.0336781 -0.0313662 -0.235339 -0.147224 -0.00798079 0.0483035 -0.274589 0.210711 -0.220374 -0.11562 -0.228859 0.0138206 0.143015 -0.170133 -0.180425 -0.30872
248 -0.0980433 0.375123 -0.328714 0.0321217 0.220333 0.135218 0.0874743 0.247256 0.0301081 -0.0364274 -0.26109 -0.159266 -0.0149654 0.0547111 -0.305086 0.232165 -0.242889 -0.129316 -0.25817 0.0140742 0.158536 -0.191052 -0.200971 -0.338662
250 -0.0838646 0.346089 -0.303358 0.0338242 0.201433 0.123481 0.0791458 0.226827 0.03267 -0.0296105 -0.231996 -0.146709 -0.00577684 0.0481439 -0.274252 0.20915 -0.216279 -0.120429 -0.226628 0.0176671 0.136506 -0.163851 -0.180017 -0.309827
257 -0.0952612 0.390904 -0.337685 0.0360087 0.226439 0.132651 0.0917954 0.256613 0.0348341 -0.0418383 -0.263475 -0.165337 -0.0130612 0.0554574 -0.315578 0.235842 -0.248288 -0.13721 -0.265176 0.0191414 0.163232 -0.193801 -0.213085 -0.356005
258 -0.0845958 0.351038 -0.301855 0.0315986 0.199011 0.121642 0.0807379 0.228053 0.0321023 -0.0334239 -0.232738 -0.148802 -0.00699126 0.0510323 -0.27287 0.210256 -0.215045 -0.119471 -0.229464 0.0157777 0.142259 -0.167279 -0.186388 -0.31186
259 -0.0672569 0.307735 -0.257123 0.0328644 0.168552 0.100287 0.0663852 0.193289 0.0261937 -0.0307592 -0.197515 -0.128135 -0.00846106 0.044148 -0.232672 0.176644 -0.180602 -0.101116 -0.189527 0.0148718 0.11734 -0.139385 -0.162983 -0.269851
260 -0.0961982 0.386118 -0.33366 0.0430585 0.225776 0.134317 0.089885 0.255559 0.0362074 -0.0404979 -0.261279 -0.16297 -0.0169829 0.054305 -0.314902 0.234477 -0.247168 -0.131664 -0.258741 0.0201632 0.159171 -0.191411 -0.208682 -0.354022
261 -0.0977521 0.384641 -0.334939 0.0361159 0.224793 0.135775 0.0882794 0.254859 0.034116 -0.0371798 -0.263207 -0.162957 -0.0132925 0.0541205 -0.30998 0.236593 -0.246307 -0.131013 -0.261056 0.0161224 0.160404 -0.191922 -0.206687 -0.347563
262 -0.0856335 0.346837 -0.304772 0.0319195 0.201667 0.12737 0.0802253 0.226652 0.030462 -0.0306995 -0.233788 -0.146791 -0.00881189 0.0502968 -0.276051 0.208402 -0.220345 -0.120818 -0.228292 0.0174899 0.140205 -0.168806 -0.179163 -0.31008
263 -0.0858092 0.338109 -0.289778 0.0363287 0.198299 0.118431 0.0714234 0.221903 0.0371626 -0.0289834 -0.22467 -0.145345 -0.00299583 0.0403181 -0.264507 0.201523 -0.211573 -0.113155 -0.218606 0.0103711 0.133971 -0.160409 -0.175818 -0.301127
265 -0.0910393 0.402772 -0.348052 0.0345918 0.230555 0.135291 0.0911876 0.263145 0.0312361 -0.0366568 -0.267146 -0.169108 -0.0110071 0.0578292 -0.321676 0.239186 -0.253905 -0.141071 -0.269581 0.0218135 0.162148 -0.197122 -0.219114 -0.364293
266 -0.0732496 0.303846 -0.265598 0.0270151 0.174474 0.110208 0.0690089 0.192689 0.0293222 -0.0319817 -0.201195 -0.127804 -0.0044176 0.0419315 -0.236384 0.17715 -0.189324 -0.109865 -0.19542 0.013612 0.122449 -0.14292 -0.152752 -0.266913
267 -0.0749571 0.334504 -0.280686 0.0375366 0.186625 0.108963 0.0767035 0.214635 0.0260284 -0.035645 -0.220048 -0.138334 -0.0148279 0.0510337 -0.261068 0.196199 -0.200094 -0.106965 -0.212723 0.0205125 0.132243 -0.157807 -0.183733 -0.299411
270 -0.0974373 0.369984 -0.322244 0.0398953 0.221521 0.133746 0.0834761 0.247166 0.0386975 -0.0343455 -0.252646 -0.158318 -0.00901168 0.0475409 -0.299733 0.225931 -0.238854 -0.124956 -0.24835 0.0148107 0.15277 -0.183428 -0.195611 -0.335682
271 -0.0841889 0.314095 -0.273502 0.0279865 0.185714 0.107871 0.0730863 0.203914 0.0280474 -0.0354212 -0.220303 -0.134383 -0.0125034 0.0412658 -0.254152 0.193084 -0.202549 -0.110415 -0.212956 0.0105201 0.132383 -0.156315 -0.166049 -0.283
272 -0.107815 0.409998 -0.358824 0.0435627 0.242992 0.149675 0.0931272 0.274522 0.0412449 -0.0409357 -0.281171 -0.173876 -0.0152906 0.0556859 -0.335068 0.254445 -0.267176 -0.140261 -0.280632 0.015389 0.172795 -0.206775 -0.218523 -0.373441
273 -0.0851422 0.33921 -0.299105 0.0298137 0.195377 0.124542 0.0792077 0.219172 0.0332949 -0.0368585 -0.229387 -0.142376 -0.00681279 0.049197 -0.267325 0.206972 -0.211732 -0.121705 -0.226724 0.0132186 0.140926 -0.162428 -0.174797 -0.299765
274 -0.100604 0.392961 -0.343686 0.0364085 0.232629 0.139789 0.0907259 0.261034 0.037677 -0.0396376 -0.268182 -0.167068 -0.0110023 0.0530282 -0.319208 0.239655 -0.255067 -0.137635 -0.268862 0.0167359 0.165911 -0.197472 -0.210177 -0.357
276 -0.101234 0.403767 -0.348782 0.038408 0.232853 0.14268 0.0896057 0.264893 0.0367688 -0.0386119 -0.271063 -0.172157 -0.0149009 0.055832 -0.325094 0.244136 -0.260347 -0.141282 -0.272115 0.0135712 0.166636 -0.202118 -0.214778 -0.366029
277 -0.100229 0.410048 -0.355583 0.0353113 0.237164 0.145651 0.0927421 0.269589 0.0362059 -0.0337131 -0.272765 -0.176181 -0.00888636 0.0579045 -0.328859 0.245068 -0.26256 -0.145148 -0.275399 0.0166929 0.166303 -0.203809 -0.217965 -0.371708
278 -0.0875127 0.335616 -0.289975 0.0396648 0.198201 0.121366 0.0701803 0.218102 0.0361615 -0.0350713 -0.226948 -0.142049 -0.0111812 0.0403235 -0.269486 0.201484 -0.216304 -0.115261 -0.220401 0.00847088 0.136084 -0.163596 -0.17243 -0.300874
279 -0.0900225 0.350726 -0.307235 0.0374816 0.207358 0.130287 0.0798423 0.231417 0.0361107 -0.0349608 -0.237368 -0.147827 -0.00885565 0.0476216 -0.280786 0.211896 -0.224232 -0.11948 -0.232056 0.0159142 0.14502 -0.171564 -0.181724 -0.314263
283 -0.0843522 0.357383 -0.305847 0.0353873 0.206168 0.123398 0.0780117 0.235092 0.0366466 -0.0319438 -0.232987 -0.151028 -0.00213931 0.0463376 -0.275733 0.209344 -0.220485 -0.118083 -0.229915 0.0174054 0.143729 -0.169038 -0.189087 -0.316791
284 -0.113819 0.42551 -0.376304 0.0445888 0.252582 0.158029 0.0973581 0.284996 0.0425511 -0.0440794 -0.295704 -0.179695 -0.0176852 0.0592593 -0.351068 0.269874 -0.278554 -0.148557 -0.296965 0.0135272 0.180853 -0.215712 -0.226581 -0.387812
285 -0.0966618 0.373452 -0.32683 0.0419957 0.224236 0.134794 0.0839303 0.247292 0.0396833 -0.0381228 -0.254071 -0.158968 -0.0115334 0.0468501 -0.30723 0.226019 -0.244728 -0.132255 -0.25178 0.0155471 0.153585 -0.185462 -0.195757 -0.341971
287 -0.0936161 0.367567 -0.320991 0.0392518 0.216916 0.135628 0.082018 0.242227 0.0387972 -0.0375907 -0.247863 -0.15435 -0.00773144 0.0490909 -0.293976 0.222423 -0.233779 -0.12566 -0.245568 0.0142786 0.15252 -0.179676 -0.192366 -0.328781
288 -0.110938 0.429226 -0.375708 0.0426085 0.255233 0.153511 0.0980872 0.288987 0.0378991 -0.0361658 -0.294738 -0.184362 -0.0178447 0.0586814 -0.355033 0.264709 -0.284489 -0.148271 -0.294205 0.0191665 0.177384 -0.21988 -0.230483 -0.396216
290 -0.0925183 0.363062 -0.317041 0.0355293 0.212325 0.135362 0.0795792 0.235579 0.0329308 -0.0362361 -0.246524 -0.152467 -0.0118078 0.0504451 -0.292044 0.218426 -0.233915 -0.12638 -0.243865 0.0111683 0.150364 -0.181352 -0.188719 -0.323994
291 -0.118139 0.47439 -0.413732 0.0430352 0.275363 0.172483 0.106103 0.315092 0.039475 -0.0374845 -0.319053 -0.203463 -0.0178189 0.0687724 -0.388887 0.28893 -0.311435 -0.16822 -0.325453 0.0172466 0.194028 -0.243025 -0.253864 -0.435189
292 -0.0864322 0.337774 -0.29441 0.0358056 0.198961 0.122851 0.0765171 0.221184 0.0339485 -0.0346076 -0.228696 -0.142752 -0.00979461 0.0451563 -0.270356 0.202939 -0.215899 -0.115923 -0.222515 0.0147872 0.138958 -0.164907 -0.17512 -0.303018
295 -0.0941879 0.383995 -0.337282 0.0370289 0.21984 0.144574 0.0848326 0.251241 0.0363452 -0.0326765 -0.255648 -0.161452 -0.00819257 0.0562141 -0.302393 0.23397 -0.240983 -0.13307 -0.253913 0.0140588 0.154291 -0.184999 -0.197614 -0.340163
296 -0.0900805 0.354778 -0.30476 0.0400849 0.205985 0.125801 0.0752822 0.230706 0.0354117 -0.0354503 -0.238045 -0.150447 -0.0134739 0.0454629 -0.283924 0.21299 -0.226994 -0.121337 -0.232986 0.0103118 0.143149 -0.173428 -0.185049 -0.319234
297 -0.0983422 0.398911 -0.346099 0.0394193 0.232824 0.141686 0.0882884 0.263871 0.0389775 -0.0361984 -0.266772 -0.169041 -0.00813839 0.0536584 -0.31872 0.241123 -0.253344 -0.136958 -0.267416 0.0158756 0.162796 -0.195469 -0.212559 -0.359363
298 -0.105667 0.406537 -0.356963 0.0356966 0.233991 0.157194 0.090449 0.268032 0.0317497 -0.0339171 -0.277815 -0.17165 -0.017977 0.062671 -0.325811 0.250195 -0.264684 -0.136902 -0.275122 0.0123424 0.170607 -0.208824 -0.211429 -0.362128
300 -0.0906454 0.360965 -0.316398 0.036858 0.210298 0.135326 0.080309 0.233616 0.0378903 -0.0405246 -0.241716 -0.150412 -0.00831565 0.0495488 -0.287823 0.216521 -0.229387 -0.128518 -0.241395 0.0122049 0.150655 -0.175887 -0.185859 -0.320734
302 -0.0950064 0.359204 -0.31543 0.0383918 0.21238 0.132458 0.0813351 0.23717 0.0407455 -0.0391171 -0.244352 -0.152244 -0.00896353 0.0466297 -0.288473 0.220971 -0.230552 -0.125971 -0.24147 0.0121367 0.150686 -0.175265 -0.185708 -0.322617
304 -0.0863041 0.353737 -0.304966 0.0323507 0.202017 0.117126 0.0807053 0.231459 0.0294757 -0.0295726 -0.238828 -0.152381 -0.0118557 0.0493656 -0.280984 0.216399 -0.221323 -0.122398 -0.233035 0.0156754 0.138895 -0.169559 -0.188996 -0.32031
305 -0.0821871 0.319131 -0.278775 0.0354598 0.191199 0.11733 0.073176 0.209859 0.0338899 -0.0336022 -0.216626 -0.134194 -0.00646652 0.041468 -0.254976 0.190071 -0.203154 -0.107313 -0.208624 0.0163731 0.131991 -0.154718 -0.165018 -0.285228
306 -0.0874395 0.352369 -0.310471 0.0307168 0.202823 0.129261 0.0819181 0.228879 0.0339596 -0.0364135 -0.237476 -0.147854 -0.00643912 0.051447 -0.277462 0.214932 -0.219825 -0.125215 -0.235706 0.0144081 0.145902 -0.169127 -0.182724 -0.311672
309 -0.0990606 0.350838 -0.312056 0.0420196 0.216205 0.136415 0.0825438 0.233704 0.0442988 -0.0485011 -0.245113 -0.146039 -0.0110032 0.0440051 -0.290154 0.216545 -0.232189 -0.12293 -0.242617 0.0131063 0.157307 -0.17769 -0.181423 -0.317105
310 -0.0930201 0.340752 -0.301049 0.0383326 0.210344 0.128592 0.0803165 0.227039 0.033123 -0.0381952 -0.239297 -0.143582 -0.0151963 0.044593 -0.285097 0.205781 -0.22936 -0.116376 -0.231718 0.0179391 0.146902 -0.176518 -0.178217 -0.311993
311 -0.0854897 0.335131 -0.292641 0.0349289 0.199678 0.118699 0.0780627 0.22178 0.0324701 -0.032124 -0.229006 -0.142513 -0.0087524 0.0445755 -0.270057 0.202675 -0.214004 -0.113848 -0.22155 0.0179726 0.136673 -0.163305 -0.176488 -0.303152
312 -0.0891617 0.344334 -0.301731 0.0370777 0.206508 0.124219 0.0805654 0.228356 0.034006 -0.0351177 -0.23632 -0.145922 -0.011015 0.0458861 -0.280576 0.208564 -0.222973 -0.117943 -0.22983 0.0182666 0.142731 -0.170416 -0.181085 -0.312989
313 -0.10547 0.385437 -0.337936 0.0431562 0.23475 0.142693 0.0878169 0.260917 0.0369818 -0.035594 -0.269248 -0.164834 -0.017539 0.050266 -0.320443 0.237969 -0.258439 -0.127884 -0.262737 0.0168341 0.162848 -0.199656 -0.20448 -0.354389
317 -0.105264 0.420523 -0.368055 0.0395399 0.244768 0.152009 0.0941554 0.277524 0.0372174 -0.0377019 -0.284783 -0.178685 -0.0146661 0.059391 -0.342053 0.257592 -0.272731 -0.148912 -0.286862 0.0152388 0.172419 -0.210946 -0.223165 -0.382086
318 -0.0840506 0.346532 -0.30182 0.0316007 0.201516 0.121849 0.0789792 0.22485 0.0319854 -0.032184 -0.230508 -0.148265 -0.00827453 0.0465374 -0.277121 0.203774 -0.222457 -0.125332 -0.227205 0.0170309 0.139015 -0.16839 -0.179196 -0.313196
319 -0.0886391 0.356715 -0.309485 0.0322187 0.208213 0.128115 0.0796113 0.23307 0.0332131 -0.0333899 -0.239271 -0.151098 -0.00622941 0.0484222 -0.282165 0.212106 -0.226171 -0.122452 -0.236673 0.0142749 0.146878 -0.175125 -0.187424 -0.317696
322 -0.0885311 0.354872 -0.314159 0.0285996 0.206937 0.125443 0.0870006 0.231573 0.0301392 -0.0378385 -0.243902 -0.150205 -0.0113351 0.0526285 -0.287598 0.217559 -0.226967 -0.1299 -0.2422 0.0186817 0.148357 -0.17488 -0.187705 -0.321167
