4039 24
3268 -0.229736 -0.380204 -0.327734 -0.0319403 0.111962 -0.335368 -0.312848 -0.330938 0.0434999 0.215469 0.0579802 -0.386899 0.262643 0.142583 -0.136492 -0.284667 0.374615 -0.0788667 0.181502 -0.00728558 -0.292191 0.150051 -0.415233 0.0906599
3407 -0.203097 -0.318259 -0.290311 -0.0139086 0.127132 -0.286502 -0.27766 -0.274129 0.00876303 0.198381 0.0259567 -0.328032 0.249538 0.108979 -0.135105 -0.259592 0.31861 -0.042225 0.153845 -0.0474468 -0.25788 0.119613 -0.36067 0.0968691
892 -0.00540184 0.00297017 0.00292555 0.00298295 0.00946453 -0.0130051 0.00728495 -0.0201873 0.0040575 -0.0139732 -0.0149247 -0.00641035 0.0112895 -0.00751003 -0.0127982 -0.0159663 -0.0118011 -0.00821942 -0.0187328 -0.00855308 -0.00165539 0.0111745 0.0180848 -0.00743129
0 -0.171099 -0.331172 -0.290552 -0.021543 0.12101 -0.28846 -0.285034 -0.284274 0.0335018 0.18825 0.0420601 -0.324826 0.237009 0.132392 -0.144624 -0.271183 0.342252 -0.0423064 0.147128 -0.00855251 -0.241104 0.146366 -0.345158 0.0873554
4006 -0.161121 -0.333436 -0.304054 -0.0345071 0.150462 -0.297782 -0.307421 -0.290723 0.0137601 0.199202 0.0259989 -0.352233 0.229947 0.11677 -0.134361 -0.294821 0.329763 -0.0600088 0.138998 0.00127306 -0.256185 0.165455 -0.344172 0.0912345
4036 -0.13896 -0.295529 -0.240552 -0.0285865 0.11841 -0.220548 -0.220888 -0.22795 0.0279697 0.174816 0.0509052 -0.271406 0.202493 0.0905283 -0.132442 -0.214717 0.297529 -0.0534892 0.124149 -0.0229128 -0.213149 0.116133 -0.28494 0.0693506
4024 -0.136043 -0.270314 -0.258152 -0.0320014 0.111352 -0.234526 -0.232032 -0.230573 0.0435488 0.16913 0.0219736 -0.289822 0.180183 0.120094 -0.110613 -0.220871 0.276226 -0.0590916 0.136014 -0.00802445 -0.222793 0.118519 -0.28867 0.0767998
4032 -0.173757 -0.307149 -0.268397 -0.0299395 0.118681 -0.269859 -0.274485 -0.253606 0.0231805 0.169011 0.0451144 -0.317882 0.20394 0.118913 -0.131693 -0.2297 0.323236 -0.0625415 0.122797 -0.0198964 -0.216641 0.125262 -0.316247 0.0779531
70 -0.0964527 -0.187357 -0.175061 -0.0228737 0.079772 -0.143733 -0.168327 -0.144631 0.0357723 0.121686 0.0416756 -0.173752 0.150089 0.0681945 -0.0883348 -0.163243 0.179022 -0.00698799 0.067683 -0.0175356 -0.136313 0.0900551 -0.189486 0.0302369
241 -0.0959092 -0.164105 -0.1677 -0.0263421 0.0662983 -0.146715 -0.138663 -0.158481 0.0292422 0.123051 0.0354296 -0.183234 0.144893 0.0684654 -0.0737064 -0.141962 0.179936 -0.0332802 0.0835375 -0.0127819 -0.119765 0.0739656 -0.189963 0.0437406
179 -0.250269 -0.504723 -0.419328 -0.0130752 0.174202 -0.419072 -0.448169 -0.434575 0.0370517 0.272951 0.0764961 -0.506079 0.365305 0.211509 -0.206247 -0.424371 0.518033 -0.0637989 0.208958 0.00546736 -0.357169 0.226491 -0.513618 0.143886
3990 -0.290877 -0.515729 -0.450012 -0.0459451 0.199154 -0.457704 -0.440158 -0.435073 0.0465933 0.272358 0.0382097 -0.507105 0.371451 0.219372 -0.220766 -0.411451 0.537173 -0.0525064 0.224591 -0.0156578 -0.354149 0.22227 -0.513916 0.131578
4016 -0.267925 -0.556856 -0.465663 -0.0373761 0.20291 -0.458365 -0.453508 -0.443016 0.0665795 0.290687 0.0692595 -0.544827 0.382064 0.203082 -0.21746 -0.418986 0.54105 -0.0669627 0.225253 -0.0128666 -0.39968 0.252262 -0.535972 0.131614
4001 -0.265055 -0.491 -0.446537 -0.00621513 0.205018 -0.439617 -0.405253 -0.440975 0.0406431 0.282391 0.0499992 -0.500672 0.361595 0.19858 -0.211226 -0.394498 0.499263 -0.078047 0.234254 0.0103034 -0.350025 0.211597 -0.49864 0.11892
4029 -0.263593 -0.49967 -0.458566 -0.0289365 0.187441 -0.44579 -0.432671 -0.444151 0.0579898 0.257582 0.0498801 -0.475938 0.322742 0.194629 -0.202291 -0.38541 0.510757 -0.0642808 0.239804 -0.0285641 -0.34344 0.226266 -0.522129 0.121117
253 -0.130868 -0.258517 -0.240177 -0.0113269 0.094898 -0.242901 -0.221346 -0.222925 0.0304613 0.142495 0.0127196 -0.253138 0.183183 0.110455 -0.104458 -0.201763 0.265466 -0.0322427 0.137153 0.0074042 -0.187089 0.101705 -0.259854 0.0494878
4015 -0.157439 -0.284554 -0.22689 0.00475534 0.117446 -0.249539 -0.224244 -0.206067 0.0142408 0.156305 0.0153014 -0.248669 0.166498 0.102228 -0.101498 -0.1959 0.270641 -0.0484518 0.136593 -0.0171814 -0.178458 0.101416 -0.286262 0.0679973
74 -0.0168568 -0.0204152 0.0073529 -0.00321174 0.020287 0.0050753 0.00898307 0.0201415 0.0188435 -0.00555382 -0.00964519 0.0182456 -0.013365 -1.57404e-06 0.0152117 -0.002868 0.00585143 0.0116134 0.0204784 0.0136054 -0.00075053 0.0108505 -0.0108572 -0.0178554
301 -0.221555 -0.393778 -0.349103 -0.0322322 0.148506 -0.354215 -0.354198 -0.31692 0.0257353 0.219218 0.0568017 -0.381662 0.276336 0.149167 -0.181619 -0.332825 0.417681 -0.0561353 0.194192 -0.0319904 -0.296999 0.1644 -0.415749 0.125358
145 -0.214035 -0.457782 -0.399437 -0.0331166 0.151114 -0.401733 -0.39415 -0.402046 0.0349844 0.258713 0.0629819 -0.432369 0.308815 0.163825 -0.204597 -0.366629 0.447556 -0.0730498 0.197997 -0.0309689 -0.329346 0.174038 -0.485942 0.109178
114 -0.0873067 -0.141687 -0.111437 -0.0152269 0.0306905 -0.120956 -0.103501 -0.114805 0.00811421 0.0622554 0.000719227 -0.124968 0.107002 0.0615686 -0.0725308 -0.0995578 0.130568 -0.0145106 0.039506 0.0117594 -0.103559 0.0459001 -0.137608 0.0410938
4002 -0.23746 -0.437698 -0.375901 -0.0266013 0.181977 -0.36472 -0.344719 -0.378235 0.0610879 0.259929 0.0354258 -0.423712 0.301664 0.158657 -0.176163 -0.33899 0.435123 -0.0430726 0.189464 -0.011913 -0.319245 0.167449 -0.423332 0.104768
33 -0.243499 -0.476898 -0.440637 -0.0260289 0.184654 -0.418651 -0.422811 -0.403607 0.0404761 0.26395 0.0653487 -0.472922 0.360382 0.173956 -0.223972 -0.401798 0.521209 -0.0806689 0.205163 -0.00926929 -0.377656 0.203542 -0.507642 0.132887
42 -0.264362 -0.482132 -0.421069 -0.0305021 0.173272 -0.453437 -0.418203 -0.433058 0.0578436 0.291456 0.0390775 -0.493068 0.343229 0.200359 -0.203519 -0.395273 0.529454 -0.0573517 0.225781 -0.0307741 -0.371113 0.22809 -0.531824 0.118797
3984 -0.142078 -0.272253 -0.23199 -0.00844116 0.0927241 -0.25314 -0.252766 -0.251478 0.0153629 0.146673 0.0126097 -0.288754 0.185258 0.108563 -0.114674 -0.239592 0.277863 -0.0470476 0.143442 -0.00703001 -0.188342 0.128966 -0.287711 0.0833864
3987 -0.17262 -0.352522 -0.323612 -0.0248048 0.153549 -0.285988 -0.305603 -0.305473 0.044136 0.209032 0.0581151 -0.356165 0.250902 0.118861 -0.162463 -0.284581 0.350402 -0.0652814 0.172244 -0.0204344 -0.250941 0.131315 -0.381409 0.100885
4008 -0.126655 -0.219254 -0.205913 -0.0104972 0.088388 -0.185658 -0.197174 -0.202726 0.00389517 0.133578 0.0106435 -0.207492 0.159676 0.0932872 -0.111076 -0.181278 0.2255 -0.0274701 0.113706 -0.02363 -0.175761 0.0804198 -0.222295 0.0698647
4010 -0.171433 -0.281627 -0.284421 -0.0342739 0.128041 -0.248486 -0.238625 -0.245857 0.0431133 0.188639 0.0280305 -0.292034 0.212484 0.116057 -0.127451 -0.237746 0.315535 -0.0587659 0.150768 -0.0134281 -0.232791 0.139869 -0.296807 0.0915885
4022 -0.111314 -0.218472 -0.202901 -0.0310439 0.0678055 -0.199094 -0.180544 -0.190528 0.0233299 0.107351 0.0445836 -0.239058 0.146248 0.108756 -0.109053 -0.194711 0.21615 -0.0150068 0.0983809 -0.0275661 -0.183502 0.0947818 -0.216627 0.0738141
233 -0.224435 -0.439449 -0.376452 -0.0238877 0.171564 -0.341124 -0.369185 -0.334815 0.028611 0.212768 0.0690547 -0.397541 0.270781 0.180917 -0.17242 -0.312472 0.443192 -0.0604164 0.193959 -0.00792977 -0.296006 0.165567 -0.422929 0.104154
256 -0.212925 -0.38927 -0.361554 -0.0319772 0.169301 -0.341961 -0.360852 -0.348711 0.0562731 0.225783 0.0508752 -0.382552 0.284853 0.158661 -0.191347 -0.339439 0.423183 -0.0521484 0.199315 -0.0103476 -0.282506 0.18692 -0.40085 0.129308
3453 -0.0195585 -0.0105546 -0.0164025 -0.0101045 0.00642228 -0.0190764 0.00874823 -0.0101068 0.0104947 0.00867756 0.0104328 0.0115408 0.00753778 0.0207694 -0.012008 0.0149206 0.020615 0.0178315 -0.0135498 0.0184017 -0.0143819 -0.00907521 0.014592 -0.00188117
3996 -0.238365 -0.453752 -0.400369 -0.0256277 0.194027 -0.415482 -0.39504 -0.41157 0.0452773 0.251268 0.0489392 -0.475648 0.345083 0.179949 -0.221902 -0.388646 0.458102 -0.0652715 0.226625 -0.00513568 -0.343572 0.21277 -0.496487 0.13162
642 -0.269499 -0.520647 -0.469541 -0.00849078 0.18286 -0.432786 -0.455533 -0.440424 0.0668144 0.272572 0.0792503 -0.525595 0.382341 0.199624 -0.25383 -0.418988 0.544328 -0.0922524 0.254061 -0.0258151 -0.353031 0.214921 -0.550115 0.143687
47 -0.192482 -0.403959 -0.332543 -0.0293915 0.164519 -0.361384 -0.323694 -0.329131 0.0362111 0.223167 0.0596066 -0.367657 0.278127 0.15784 -0.162591 -0.296324 0.406576 -0.0383426 0.171807 -0.0220815 -0.271686 0.189258 -0.395039 0.0931658
4035 -0.139508 -0.226758 -0.202956 0.00125367 0.0947751 -0.226845 -0.217212 -0.192707 0.0360762 0.142773 0.00931764 -0.258427 0.180582 0.10639 -0.0935303 -0.190489 0.233014 -0.0332358 0.109649 -0.0283355 -0.1986 0.0953318 -0.246192 0.0490049
292 -0.0486628 -0.111785 -0.0844259 -0.00430155 0.0250852 -0.099569 -0.0950319 -0.108751 -0.000100309 0.0705977 0.0242729 -0.116962 0.0936128 0.0279151 -0.0581591 -0.0987809 0.105814 -0.0146821 0.0561055 0.0067182 -0.0718997 0.0513361 -0.102032 0.045311
883 -0.101771 -0.178367 -0.163193 -0.00390548 0.0636277 -0.128314 -0.129581 -0.163304 0.00260795 0.0824831 0.00316249 -0.158885 0.12896 0.0779496 -0.0775838 -0.121145 0.161681 -0.0110689 0.0826821 -0.00642807 -0.129564 0.0516151 -0.16922 0.0330234
581 -0.249711 -0.507906 -0.454181 -0.0261064 0.200247 -0.456671 -0.429741 -0.430144 0.0589706 0.272803 0.0701165 -0.500766 0.354579 0.182605 -0.247625 -0.408962 0.532313 -0.0973209 0.223919 -0.0183927 -0.353487 0.227698 -0.550392 0.134558
182 -0.142145 -0.278643 -0.263515 -0.0259144 0.0911824 -0.250828 -0.233543 -0.260168 0.0347044 0.181746 0.0289389 -0.296403 0.192279 0.119283 -0.137293 -0.251278 0.27721 -0.0302504 0.116739 -0.0176697 -0.212523 0.14355 -0.319476 0.0866688
4028 -0.229962 -0.396017 -0.367189 -0.0104463 0.143858 -0.340636 -0.359736 -0.366736 0.0265004 0.239977 0.043879 -0.381609 0.264428 0.160999 -0.185909 -0.343424 0.397277 -0.0457851 0.200292 -0.0317052 -0.292264 0.181028 -0.41223 0.0985357
1 -0.142145 -0.278643 -0.263515 -0.0259144 0.0911824 -0.250828 -0.233543 -0.260168 0.0347044 0.181746 0.0289389 -0.296403 0.192279 0.119283 -0.137293 -0.251278 0.27721 -0.0302504 0.116739 -0.0176697 -0.212523 0.14355 -0.319476 0.0866688
2 -0.142145 -0.278643 -0.263515 -0.0259144 0.0911824 -0.250828 -0.233543 -0.260168 0.0347044 0.181746 0.0289389 -0.296403 0.192279 0.119283 -0.137293 -0.251278 0.27721 -0.0302504 0.116739 -0.0176697 -0.212523 0.14355 -0.319476 0.0866688
3 -0.142145 -0.278643 -0.263515 -0.0259144 0.0911824 -0.250828 -0.233543 -0.260168 0.0347044 0.181746 0.0289389 -0.296403 0.192279 0.119283 -0.137293 -0.251278 0.27721 -0.0302504 0.116739 -0.0176697 -0.212523 0.14355 -0.319476 0.0866688
4 -0.250269 -0.504723 -0.419328 -0.0130752 0.174202 -0.419072 -0.448169 -0.434575 0.0370517 0.272951 0.0764961 -0.506079 0.365305 0.211509 -0.206247 -0.424371 0.518033 -0.0637989 0.208958 0.00546736 -0.357169 0.226491 -0.513618 0.143886
7 -0.224435 -0.439449 -0.376452 -0.0238877 0.171564 -0.341124 -0.369185 -0.334815 0.028611 0.212768 0.0690547 -0.397541 0.270781 0.180917 -0.17242 -0.312472 0.443192 -0.0604164 0.193959 -0.00792977 -0.296006 0.165567 -0.422929 0.104154
8 -0.243499 -0.476898 -0.440637 -0.0260289 0.184654 -0.418651 -0.422811 -0.403607 0.0404761 0.26395 0.0653487 -0.472922 0.360382 0.173956 -0.223972 -0.401798 0.521209 -0.0806689 0.205163 -0.00926929 -0.377656 0.203542 -0.507642 0.132887
9 -0.169704 -0.320501 -0.304168 -0.0261855 0.125476 -0.282683 -0.280737 -0.281044 0.0348592 0.193501 0.0503892 -0.328078 0.252638 0.121211 -0.148839 -0.27188 0.350572 -0.0569745 0.14435 -0.0110256 -0.24871 0.138754 -0.348802 0.0883137
10 -0.243499 -0.476898 -0.440637 -0.0260289 0.184654 -0.418651 -0.422811 -0.403607 0.0404761 0.26395 0.0653487 -0.472922 0.360382 0.173956 -0.223972 -0.401798 0.521209 -0.0806689 0.205163 -0.00926929 -0.377656 0.203542 -0.507642 0.132887
11 -0.139895 -0.272823 -0.22199 -0.0223092 0.0976049 -0.24117 -0.213598 -0.221968 0.0221627 0.142711 0.0301629 -0.246312 0.192565 0.109704 -0.117561 -0.197941 0.268572 -0.0264266 0.105657 -0.00516106 -0.187622 0.117579 -0.266324 0.0671298
12 -0.264362 -0.482132 -0.421069 -0.0305021 0.173272 -0.453437 -0.418203 -0.433058 0.0578436 0.291456 0.0390775 -0.493068 0.343229 0.200359 -0.203519 -0.395273 0.529454 -0.0573517 0.225781 -0.0307741 -0.371113 0.22809 -0.531824 0.118797
13 -0.0168568 -0.0204152 0.0073529 -0.00321174 0.020287 0.0050753 0.00898307 0.0201415 0.0188435 -0.00555382 -0.00964519 0.0182456 -0.013365 -1.57404e-06 0.0152117 -0.002868 0.00585143 0.0116134 0.0204784 0.0136054 -0.00075053 0.0108505 -0.0108572 -0.0178554
14 -0.0884778 -0.175066 -0.144329 -0.0158117 0.0690475 -0.150648 -0.137102 -0.144056 0.0210491 0.102816 0.027416 -0.162402 0.125817 0.0635548 -0.0698112 -0.134984 0.174544 -0.0186729 0.0829822 -0.00363495 -0.116025 0.0813526 -0.174473 0.0410905
15 -0.0168568 -0.0204152 0.0073529 -0.00321174 0.020287 0.0050753 0.00898307 0.0201415 0.0188435 -0.00555382 -0.00964519 0.0182456 -0.013365 -1.57404e-06 0.0152117 -0.002868 0.00585143 0.0116134 0.0204784 0.0136054 -0.00075053 0.0108505 -0.0108572 -0.0178554
16 -0.13463 -0.250939 -0.223942 -0.0191959 0.0908626 -0.212924 -0.208174 -0.207756 0.0241072 0.135142 0.0294808 -0.23972 0.176465 0.105352 -0.105779 -0.188939 0.25479 -0.0351125 0.113539 -0.000387006 -0.176604 0.0967843 -0.252588 0.059619
17 -0.176293 -0.3385 -0.308222 -0.0196529 0.123724 -0.300289 -0.292617 -0.286236 0.029882 0.183163 0.0360341 -0.330988 0.252738 0.129984 -0.156233 -0.276229 0.359613 -0.0520228 0.146746 0.000156259 -0.26149 0.138672 -0.353186 0.0890888
18 -0.248072 -0.466623 -0.420953 -0.0287958 0.177583 -0.422604 -0.411985 -0.408387 0.050176 0.270286 0.052022 -0.468646 0.342241 0.183086 -0.210546 -0.390093 0.510739 -0.0666015 0.213164 -0.0186397 -0.361259 0.211688 -0.502749 0.126337
19 -0.104656 -0.195868 -0.178078 -0.0204928 0.0797665 -0.173226 -0.158674 -0.167893 0.0288738 0.121544 0.0281617 -0.192042 0.147104 0.0789484 -0.0788261 -0.154474 0.20295 -0.0264687 0.0966752 -0.00656958 -0.13647 0.087285 -0.20594 0.04267
20 -0.0851516 -0.162138 -0.143741 -0.0173333 0.0637471 -0.129828 -0.130962 -0.128219 0.0297734 0.0992928 0.0203231 -0.150637 0.109668 0.0624919 -0.0701386 -0.13913 0.154028 -0.00854165 0.0683001 -0.00719995 -0.116529 0.0814852 -0.173273 0.0330168
21 -0.159665 -0.323497 -0.285037 -0.0168335 0.112161 -0.28595 -0.280372 -0.283217 0.0295059 0.182696 0.0389537 -0.318964 0.231948 0.128887 -0.137138 -0.262979 0.327879 -0.0450631 0.150217 -0.00274499 -0.231305 0.133318 -0.333053 0.0793131
22 -0.224435 -0.439449 -0.376452 -0.0238877 0.171564 -0.341124 -0.369185 -0.334815 0.028611 0.212768 0.0690547 -0.397541 0.270781 0.180917 -0.17242 -0.312472 0.443192 -0.0604164 0.193959 -0.00792977 -0.296006 0.165567 -0.422929 0.104154
23 -0.114939 -0.219806 -0.198101 -0.017396 0.0836565 -0.191349 -0.185122 -0.183253 0.0330582 0.13058 0.0218955 -0.211823 0.154625 0.0886247 -0.0932781 -0.181689 0.220822 -0.0193016 0.101339 -0.0062997 -0.160715 0.101106 -0.230955 0.0450544
25 -0.175887 -0.326749 -0.29347 -0.025463 0.118013 -0.290303 -0.283431 -0.278865 0.0337743 0.190052 0.0387603 -0.323796 0.23822 0.128755 -0.151211 -0.273996 0.342524 -0.0409841 0.141511 -0.0159133 -0.249694 0.145923 -0.350297 0.0891737
26 -0.182416 -0.355718 -0.312515 -0.0229614 0.133147 -0.303232 -0.309135 -0.295569 0.0292251 0.191763 0.0493944 -0.337395 0.241195 0.138837 -0.155003 -0.280626 0.363726 -0.0498702 0.167526 -0.0107206 -0.251407 0.144219 -0.358612 0.0952788
27 -0.154431 -0.267732 -0.23027 -0.0237295 0.089598 -0.237585 -0.22885 -0.215862 0.0169248 0.140737 0.0287605 -0.253315 0.191669 0.105368 -0.127075 -0.216191 0.274124 -0.0353229 0.116849 -0.0101155 -0.200279 0.10515 -0.276678 0.0832261
28 -0.119215 -0.227046 -0.216018 -0.016332 0.0853648 -0.210839 -0.193785 -0.201444 0.0300549 0.136014 0.0202896 -0.229837 0.17042 0.0964588 -0.0942073 -0.18183 0.236956 -0.0325885 0.119281 0.000675515 -0.164647 0.0924582 -0.236557 0.0475721
29 -0.158773 -0.310903 -0.265152 -0.0199582 0.115418 -0.266591 -0.254432 -0.250419 0.0258494 0.160171 0.0355251 -0.285826 0.209774 0.127695 -0.128 -0.227529 0.311451 -0.0363781 0.135606 -0.00271193 -0.214585 0.125607 -0.303857 0.0719753
30 -0.214035 -0.457782 -0.399437 -0.0331166 0.151114 -0.401733 -0.39415 -0.402046 0.0349844 0.258713 0.0629819 -0.432369 0.308815 0.163825 -0.204597 -0.366629 0.447556 -0.0730498 0.197997 -0.0309689 -0.329346 0.174038 -0.485942 0.109178
31 -0.095404 -0.195214 -0.17397 -0.015108 0.0581338 -0.175198 -0.164287 -0.18446 0.0173021 0.126172 0.0266059 -0.206683 0.142946 0.073599 -0.0977259 -0.175029 0.191512 -0.0224663 0.0864222 -0.00547575 -0.142211 0.097443 -0.210754 0.0659899
32 -0.0964527 -0.187357 -0.175061 -0.0228737 0.079772 -0.143733 -0.168327 -0.144631 0.0357723 0.121686 0.0416756 -0.173752 0.150089 0.0681945 -0.0883348 -0.163243 0.179022 -0.00698799 0.067683 -0.0175356 -0.136313 0.0900551 -0.189486 0.0302369
34 -0.142145 -0.278643 -0.263515 -0.0259144 0.0911824 -0.250828 -0.233543 -0.260168 0.0347044 0.181746 0.0289389 -0.296403 0.192279 0.119283 -0.137293 -0.251278 0.27721 -0.0302504 0.116739 -0.0176697 -0.212523 0.14355 -0.319476 0.0866688
36 -0.130868 -0.258517 -0.240177 -0.0113269 0.094898 -0.242901 -0.221346 -0.222925 0.0304613 0.142495 0.0127196 -0.253138 0.183183 0.110455 -0.104458 -0.201763 0.265466 -0.0322427 0.137153 0.0074042 -0.187089 0.101705 -0.259854 0.0494878
38 -0.136507 -0.26858 -0.251846 -0.0186206 0.0930402 -0.246864 -0.227444 -0.241547 0.0325829 0.162121 0.0208293 -0.274771 0.187731 0.114869 -0.120875 -0.22652 0.271338 -0.0312466 0.126946 -0.00513275 -0.199806 0.122627 -0.289665 0.0680783
39 -0.221555 -0.393778 -0.349103 -0.0322322 0.148506 -0.354215 -0.354198 -0.31692 0.0257353 0.219218 0.0568017 -0.381662 0.276336 0.149167 -0.181619 -0.332825 0.417681 -0.0561353 0.194192 -0.0319904 -0.296999 0.1644 -0.415749 0.125358
40 -0.107925 -0.211077 -0.196766 -0.0190248 0.084814 -0.176789 -0.186 -0.170729 0.034002 0.128622 0.0320236 -0.200214 0.161121 0.0822815 -0.0937091 -0.176083 0.207836 -0.0154062 0.0908397 -0.0092223 -0.153238 0.0939383 -0.212942 0.0366539
41 -0.101634 -0.198339 -0.179766 -0.0161452 0.0792206 -0.16572 -0.170904 -0.158413 0.0300209 0.116348 0.0275292 -0.185481 0.147375 0.0747367 -0.0858588 -0.163738 0.196916 -0.0166674 0.0883079 -0.00456482 -0.143573 0.0875856 -0.199814 0.0368064
43 -0.177651 -0.348983 -0.308315 -0.0176073 0.133231 -0.292012 -0.295265 -0.27887 0.0295361 0.177631 0.0408872 -0.32534 0.226982 0.145686 -0.138439 -0.257118 0.354329 -0.0463296 0.165556 -0.000262786 -0.241547 0.133636 -0.341391 0.0768207
46 -0.144943 -0.296325 -0.2471 -0.0228127 0.103545 -0.256146 -0.241302 -0.245577 0.0266275 0.159459 0.0353289 -0.267823 0.197879 0.109411 -0.125821 -0.226401 0.287622 -0.0374679 0.125557 -0.0117309 -0.206937 0.118817 -0.303078 0.0669522
48 -0.0486628 -0.111785 -0.0844259 -0.00430155 0.0250852 -0.099569 -0.0950319 -0.108751 -0.000100309 0.0705977 0.0242729 -0.116962 0.0936128 0.0279151 -0.0581591 -0.0987809 0.105814 -0.0146821 0.0561055 0.0067182 -0.0718997 0.0513361 -0.102032 0.045311
49 -0.105298 -0.183065 -0.182185 -0.0263806 0.0729898 -0.16359 -0.155841 -0.172966 0.0311939 0.132331 0.0359793 -0.19992 0.156201 0.0757778 -0.0817309 -0.157217 0.199303 -0.0331568 0.0905591 -0.0140455 -0.134648 0.0834219 -0.208928 0.0471602
50 -0.103787 -0.227117 -0.18943 -0.0139066 0.0670948 -0.20029 -0.194738 -0.206516 0.0115946 0.133303 0.0371759 -0.222097 0.165347 0.0732183 -0.106972 -0.188063 0.219728 -0.034138 0.103403 -0.00584416 -0.157715 0.0922367 -0.230002 0.0666002
51 -0.197073 -0.403573 -0.350932 -0.0236975 0.137565 -0.345311 -0.351374 -0.352759 0.0356988 0.23113 0.0575541 -0.397989 0.284112 0.159196 -0.177272 -0.337644 0.403357 -0.053115 0.169114 -0.0143755 -0.291211 0.175416 -0.425235 0.106974
52 -0.198816 -0.391184 -0.335452 -0.0174975 0.138234 -0.328286 -0.345001 -0.342544 0.0344485 0.222985 0.0628073 -0.398464 0.291835 0.163828 -0.162067 -0.330235 0.405334 -0.053626 0.167151 -0.000615715 -0.278034 0.175649 -0.405733 0.110504
53 -0.0964527 -0.187357 -0.175061 -0.0228737 0.079772 -0.143733 -0.168327 -0.144631 0.0357723 0.121686 0.0416756 -0.173752 0.150089 0.0681945 -0.0883348 -0.163243 0.179022 -0.00698799 0.067683 -0.0175356 -0.136313 0.0900551 -0.189486 0.0302369
54 -0.221555 -0.393778 -0.349103 -0.0322322 0.148506 -0.354215 -0.354198 -0.31692 0.0257353 0.219218 0.0568017 -0.381662 0.276336 0.149167 -0.181619 -0.332825 0.417681 -0.0561353 0.194192 -0.0319904 -0.296999 0.1644 -0.415749 0.125358
55 -0.142145 -0.278643 -0.263515 -0.0259144 0.0911824 -0.250828 -0.233543 -0.260168 0.0347044 0.181746 0.0289389 -0.296403 0.192279 0.119283 -0.137293 -0.251278 0.27721 -0.0302504 0.116739 -0.0176697 -0.212523 0.14355 -0.319476 0.0866688
56 -0.204921 -0.388462 -0.341765 -0.0252337 0.150239 -0.324035 -0.340042 -0.321386 0.034254 0.21109 0.0596187 -0.374768 0.268825 0.158273 -0.166293 -0.31059 0.404203 -0.0543659 0.178987 -0.0109187 -0.274742 0.163818 -0.39434 0.108433
57 -0.0959092 -0.164105 -0.1677 -0.0263421 0.0662983 -0.146715 -0.138663 -0.158481 0.0292422 0.123051 0.0354296 -0.183234 0.144893 0.0684654 -0.0737064 -0.141962 0.179936 -0.0332802 0.0835375 -0.0127819 -0.119765 0.0739656 -0.189963 0.0437406
58 -0.130868 -0.258517 -0.240177 -0.0113269 0.094898 -0.242901 -0.221346 -0.222925 0.0304613 0.142495 0.0127196 -0.253138 0.183183 0.110455 -0.104458 -0.201763 0.265466 -0.0322427 0.137153 0.0074042 -0.187089 0.101705 -0.259854 0.0494878
59 -0.142671 -0.279476 -0.24985 -0.019681 0.103611 -0.240431 -0.240345 -0.24007 0.0267686 0.158232 0.0396811 -0.271667 0.197861 0.109799 -0.121343 -0.221602 0.285955 -0.0406441 0.133882 -0.0054495 -0.196137 0.11461 -0.283635 0.0723873
60 -0.128496 -0.252335 -0.236489 -0.0194713 0.0903866 -0.226238 -0.215621 -0.222163 0.0332207 0.154034 0.0249985 -0.254567 0.180203 0.105534 -0.114367 -0.213865 0.252875 -0.0263948 0.115093 -0.00761331 -0.187107 0.116113 -0.269629 0.06051
61 -0.153117 -0.295786 -0.270326 -0.0145228 0.10796 -0.27799 -0.254156 -0.257947 0.035025 0.167322 0.0171126 -0.293127 0.209858 0.125439 -0.120968 -0.234015 0.309464 -0.0364275 0.151924 0.00104115 -0.217759 0.122769 -0.305182 0.0610394
62 -0.187154 -0.361369 -0.313509 -0.0250381 0.124494 -0.327239 -0.315396 -0.315194 0.0296158 0.209996 0.0457835 -0.356015 0.255498 0.135317 -0.161973 -0.298377 0.375126 -0.0503047 0.168519 -0.0217538 -0.267339 0.154466 -0.383887 0.0996613
63 -0.0168568 -0.0204152 0.0073529 -0.00321174 0.020287 0.0050753 0.00898307 0.0201415 0.0188435 -0.00555382 -0.00964519 0.0182456 -0.013365 -1.57404e-06 0.0152117 -0.002868 0.00585143 0.0116134 0.0204784 0.0136054 -0.00075053 0.0108505 -0.0108572 -0.0178554
64 -0.122914 -0.201316 -0.165511 -0.0194053 0.0510083 -0.174559 -0.155838 -0.168838 0.0169606 0.100559 0.0150345 -0.190451 0.145913 0.0818223 -0.0885211 -0.145835 0.19158 -0.0305996 0.0750049 0.00699816 -0.150717 0.0719379 -0.207014 0.0534854
65 -0.0168568 -0.0204152 0.0073529 -0.00321174 0.020287 0.0050753 0.00898307 0.0201415 0.0188435 -0.00555382 -0.00964519 0.0182456 -0.013365 -1.57404e-06 0.0152117 -0.002868 0.00585143 0.0116134 0.0204784 0.0136054 -0.00075053 0.0108505 -0.0108572 -0.0178554
66 -0.130868 -0.258517 -0.240177 -0.0113269 0.094898 -0.242901 -0.221346 -0.222925 0.0304613 0.142495 0.0127196 -0.253138 0.183183 0.110455 -0.104458 -0.201763 0.265466 -0.0322427 0.137153 0.0074042 -0.187089 0.101705 -0.259854 0.0494878
67 -0.238441 -0.458466 -0.403023 -0.0237788 0.169121 -0.397313 -0.408393 -0.385034 0.0344211 0.25204 0.0662155 -0.453554 0.334008 0.178211 -0.203946 -0.386331 0.485641 -0.0668677 0.202771 -0.0119308 -0.343941 0.198144 -0.479003 0.134044
68 -0.192482 -0.403959 -0.332543 -0.0293915 0.164519 -0.361384 -0.323694 -0.329131 0.0362111 0.223167 0.0596066 -0.367657 0.278127 0.15784 -0.162591 -0.296324 0.406576 -0.0383426 0.171807 -0.0220815 -0.271686 0.189258 -0.395039 0.0931658
71 -0.167442 -0.334807 -0.297709 -0.0206638 0.118178 -0.291794 -0.290835 -0.291015 0.0354865 0.194552 0.0419078 -0.331467 0.238871 0.135241 -0.146052 -0.279026 0.337929 -0.0400888 0.146622 -0.00979101 -0.243743 0.147577 -0.351392 0.0827113
72 -0.195454 -0.407359 -0.344391 -0.019337 0.135144 -0.348236 -0.355934 -0.356399 0.0287944 0.226785 0.0606457 -0.398771 0.288371 0.155716 -0.175969 -0.336156 0.407399 -0.0576759 0.174003 -0.00885697 -0.288986 0.170479 -0.420231 0.110288
73 -0.0873067 -0.141687 -0.111437 -0.0152269 0.0306905 -0.120956 -0.103501 -0.114805 0.00811421 0.0622554 0.000719227 -0.124968 0.107002 0.0615686 -0.0725308 -0.0995578 0.130568 -0.0145106 0.039506 0.0117594 -0.103559 0.0459001 -0.137608 0.0410938
75 -0.0873067 -0.141687 -0.111437 -0.0152269 0.0306905 -0.120956 -0.103501 -0.114805 0.00811421 0.0622554 0.000719227 -0.124968 0.107002 0.0615686 -0.0725308 -0.0995578 0.130568 -0.0145106 0.039506 0.0117594 -0.103559 0.0459001 -0.137608 0.0410938
77 -0.192482 -0.403959 -0.332543 -0.0293915 0.164519 -0.361384 -0.323694 -0.329131 0.0362111 0.223167 0.0596066 -0.367657 0.278127 0.15784 -0.162591 -0.296324 0.406576 -0.0383426 0.171807 -0.0220815 -0.271686 0.189258 -0.395039 0.0931658
79 -0.250269 -0.504723 -0.419328 -0.0130752 0.174202 -0.419072 -0.448169 -0.434575 0.0370517 0.272951 0.0764961 -0.506079 0.365305 0.211509 -0.206247 -0.424371 0.518033 -0.0637989 0.208958 0.00546736 -0.357169 0.226491 -0.513618 0.143886
80 -0.25393 -0.479515 -0.430853 -0.0282655 0.178963 -0.436044 -0.420507 -0.418332 0.0491599 0.277703 0.0522131 -0.482995 0.351805 0.187157 -0.213745 -0.398535 0.525331 -0.0690103 0.215472 -0.0200217 -0.374384 0.215816 -0.519733 0.125842
82 -0.203133 -0.415789 -0.347179 -0.0275569 0.166867 -0.35463 -0.338858 -0.331026 0.0336777 0.219701 0.062756 -0.377618 0.275679 0.165532 -0.165867 -0.301707 0.418782 -0.0457005 0.179191 -0.0173643 -0.279793 0.181361 -0.404336 0.0968284
83 -0.0668721 -0.116486 -0.0930483 -0.0137708 0.0435832 -0.0865376 -0.0876152 -0.0797647 0.02091 0.0594625 0.0109165 -0.0934913 0.0812423 0.0432539 -0.0485513 -0.0885563 0.105147 -0.00329504 0.0425558 0.00260975 -0.0802074 0.0489352 -0.11265 0.0178251
84 -0.219294 -0.452308 -0.388544 -0.0234985 0.152447 -0.387606 -0.394357 -0.395719 0.0358304 0.25382 0.0639104 -0.444535 0.316377 0.177898 -0.195689 -0.374897 0.453425 -0.062971 0.191086 -0.0134535 -0.324581 0.192162 -0.474022 0.120837
85 -0.0873067 -0.141687 -0.111437 -0.0152269 0.0306905 -0.120956 -0.103501 -0.114805 0.00811421 0.0622554 0.000719227 -0.124968 0.107002 0.0615686 -0.0725308 -0.0995578 0.130568 -0.0145106 0.039506 0.0117594 -0.103559 0.0459001 -0.137608 0.0410938
86 -0.142145 -0.278643 -0.263515 -0.0259144 0.0911824 -0.250828 -0.233543 -0.260168 0.0347044 0.181746 0.0289389 -0.296403 0.192279 0.119283 -0.137293 -0.251278 0.27721 -0.0302504 0.116739 -0.0176697 -0.212523 0.14355 -0.319476 0.0866688
88 -0.154431 -0.267732 -0.23027 -0.0237295 0.089598 -0.237585 -0.22885 -0.215862 0.0169248 0.140737 0.0287605 -0.253315 0.191669 0.105368 -0.127075 -0.216191 0.274124 -0.0353229 0.116849 -0.0101155 -0.200279 0.10515 -0.276678 0.0832261
89 -0.0866936 -0.170658 -0.151258 -0.0126524 0.0657854 -0.144627 -0.144233 -0.137287 0.0252017 0.0989009 0.0205697 -0.158749 0.124466 0.0642023 -0.0714221 -0.13861 0.166773 -0.0135883 0.0810427 1.01494e-05 -0.119909 0.0742843 -0.168595 0.0311509
90 -0.237691 -0.484395 -0.407086 -0.0177452 0.165276 -0.407347 -0.426787 -0.419032 0.0360659 0.264697 0.0714279 -0.479824 0.345548 0.196898 -0.202448 -0.403209 0.491856 -0.0644332 0.202108 -0.00284647 -0.344288 0.210467 -0.497857 0.133526
91 -0.194302 -0.372634 -0.349658 -0.0261333 0.145202 -0.328006 -0.328095 -0.321899 0.0367315 0.216984 0.0553757 -0.376359 0.288553 0.138792 -0.173883 -0.315186 0.407451 -0.0648727 0.164621 -0.0104401 -0.291692 0.16035 -0.401749 0.103171
92 -0.0916079 -0.152896 -0.139568 -0.0207845 0.0484944 -0.133835 -0.121082 -0.136643 0.0186782 0.0926534 0.0180744 -0.154101 0.125948 0.065017 -0.0731186 -0.12076 0.155252 -0.0238954 0.0615218 -0.000511226 -0.111662 0.0599328 -0.163785 0.0424172
93 -0.167518 -0.338639 -0.291777 -0.0191668 0.128348 -0.291772 -0.290384 -0.282816 0.0348741 0.190075 0.0476245 -0.325156 0.244176 0.137 -0.140408 -0.271425 0.342274 -0.0353431 0.1464 -0.00668638 -0.238064 0.151877 -0.339499 0.079194
94 -0.201257 -0.374378 -0.343135 -0.0276244 0.141408 -0.339601 -0.326559 -0.331715 0.0425206 0.226153 0.0466186 -0.383075 0.282835 0.147593 -0.167066 -0.313011 0.410199 -0.0571003 0.171494 -0.0176084 -0.289511 0.168533 -0.409809 0.0984749
95 -0.125683 -0.2542 -0.215737 -0.0174929 0.0959976 -0.225621 -0.218652 -0.223836 0.0230709 0.147536 0.0397569 -0.246033 0.187551 0.0930828 -0.117564 -0.208331 0.260347 -0.0299638 0.120833 -0.00474819 -0.174498 0.119713 -0.249988 0.0782741
96 -0.192482 -0.403959 -0.332543 -0.0293915 0.164519 -0.361384 -0.323694 -0.329131 0.0362111 0.223167 0.0596066 -0.367657 0.278127 0.15784 -0.162591 -0.296324 0.406576 -0.0383426 0.171807 -0.0220815 -0.271686 0.189258 -0.395039 0.0931658
97 -0.135109 -0.265157 -0.249534 -0.0221516 0.0909804 -0.238741 -0.224428 -0.240297 0.0337959 0.166681 0.0262902 -0.274421 0.186095 0.112316 -0.124812 -0.231104 0.265063 -0.0285093 0.116927 -0.0116869 -0.199209 0.128492 -0.2929 0.0724417
98 -0.250269 -0.504723 -0.419328 -0.0130752 0.174202 -0.419072 -0.448169 -0.434575 0.0370517 0.272951 0.0764961 -0.506079 0.365305 0.211509 -0.206247 -0.424371 0.518033 -0.0637989 0.208958 0.00546736 -0.357169 0.226491 -0.513618 0.143886
99 -0.119597 -0.233106 -0.1895 -0.0192347 0.0794603 -0.199991 -0.183173 -0.188129 0.0212535 0.120167 0.0228763 -0.206343 0.157516 0.0889601 -0.0994075 -0.172987 0.224224 -0.02576 0.093859 -0.00318524 -0.16178 0.0931894 -0.233411 0.0533353
101 -0.25393 -0.479515 -0.430853 -0.0282655 0.178963 -0.436044 -0.420507 -0.418332 0.0491599 0.277703 0.0522131 -0.482995 0.351805 0.187157 -0.213745 -0.398535 0.525331 -0.0690103 0.215472 -0.0200217 -0.374384 0.215816 -0.519733 0.125842
102 -0.0959881 -0.176937 -0.137016 -0.0157643 0.0615468 -0.149555 -0.130428 -0.13465 0.0178208 0.085531 0.01285 -0.149837 0.119692 0.070244 -0.0731102 -0.124577 0.168391 -0.0139376 0.0678244 0.00376067 -0.119888 0.0729773 -0.170278 0.0393745
103 -0.196207 -0.391683 -0.341421 -0.0194948 0.132692 -0.33495 -0.340856 -0.347372 0.035878 0.227349 0.0527175 -0.401241 0.278792 0.165396 -0.17177 -0.337824 0.397622 -0.0470247 0.162848 -0.00610117 -0.284846 0.18502 -0.416547 0.115277
104 -0.191074 -0.339199 -0.29387 -0.0259871 0.117489 -0.309536 -0.291968 -0.288261 0.0305644 0.190976 0.0321995 -0.333232 0.242189 0.137032 -0.152556 -0.275885 0.359234 -0.0426659 0.15316 -0.0170017 -0.257223 0.14613 -0.361727 0.0950832
106 -0.139895 -0.272823 -0.22199 -0.0223092 0.0976049 -0.24117 -0.213598 -0.221968 0.0221627 0.142711 0.0301629 -0.246312 0.192565 0.109704 -0.117561 -0.197941 0.268572 -0.0264266 0.105657 -0.00516106 -0.187622 0.117579 -0.266324 0.0671298
108 -0.177756 -0.330941 -0.301902 -0.0274024 0.135721 -0.2766 -0.289567 -0.280669 0.0380421 0.187201 0.0517865 -0.321109 0.233509 0.136014 -0.145824 -0.264624 0.34877 -0.048615 0.158937 -0.0103531 -0.232759 0.142151 -0.337914 0.0924009
109 -0.0778587 -0.153086 -0.133474 -0.0129175 0.0599629 -0.124972 -0.12881 -0.120159 0.0241498 0.0901821 0.0221397 -0.139872 0.112722 0.0549516 -0.064815 -0.12598 0.147035 -0.00985747 0.0698206 -0.00146866 -0.106473 0.0688003 -0.150343 0.0274835
110 -0.130868 -0.258517 -0.240177 -0.0113269 0.094898 -0.242901 -0.221346 -0.222925 0.0304613 0.142495 0.0127196 -0.253138 0.183183 0.110455 -0.104458 -0.201763 0.265466 -0.0322427 0.137153 0.0074042 -0.187089 0.101705 -0.259854 0.0494878
111 -0.0725578 -0.149571 -0.129743 -0.0135876 0.0524286 -0.121651 -0.13168 -0.126691 0.017836 0.0961418 0.0329742 -0.145357 0.121851 0.0480548 -0.073247 -0.131012 0.142418 -0.010835 0.0618943 -0.00540868 -0.104106 0.0706956 -0.145759 0.037774
113 -0.214655 -0.42444 -0.367988 -0.024025 0.148935 -0.37042 -0.373483 -0.361429 0.0322863 0.234894 0.057897 -0.413337 0.297728 0.165637 -0.184198 -0.349916 0.433144 -0.0597444 0.191349 -0.0153685 -0.307731 0.175937 -0.441496 0.11519
115 -0.0929531 -0.167891 -0.153306 -0.0156294 0.0622284 -0.149185 -0.135756 -0.142913 0.0243941 0.0979657 0.0145621 -0.163244 0.124965 0.0699015 -0.0689412 -0.131646 0.171204 -0.0223238 0.0835609 0.00243492 -0.119669 0.0680151 -0.174683 0.0349492
116 -0.0486628 -0.111785 -0.0844259 -0.00430155 0.0250852 -0.099569 -0.0950319 -0.108751 -0.000100309 0.0705977 0.0242729 -0.116962 0.0936128 0.0279151 -0.0581591 -0.0987809 0.105814 -0.0146821 0.0561055 0.0067182 -0.0718997 0.0513361 -0.102032 0.045311
117 -0.0959092 -0.164105 -0.1677 -0.0263421 0.0662983 -0.146715 -0.138663 -0.158481 0.0292422 0.123051 0.0354296 -0.183234 0.144893 0.0684654 -0.0737064 -0.141962 0.179936 -0.0332802 0.0835375 -0.0127819 -0.119765 0.0739656 -0.189963 0.0437406
118 -0.157617 -0.306528 -0.278514 -0.0228115 0.105716 -0.266861 -0.263479 -0.278348 0.0339257 0.189874 0.0424509 -0.32053 0.223689 0.129635 -0.138635 -0.267222 0.313097 -0.039395 0.131493 -0.0106635 -0.225495 0.146889 -0.335633 0.0902409
119 -0.138153 -0.256164 -0.233075 -0.0259932 0.102683 -0.213893 -0.230284 -0.202061 0.0324266 0.154197 0.0467176 -0.243055 0.192172 0.0951854 -0.119429 -0.21977 0.258575 -0.0233704 0.109853 -0.0223538 -0.189875 0.114837 -0.264907 0.0619441
120 -0.243499 -0.476898 -0.440637 -0.0260289 0.184654 -0.418651 -0.422811 -0.403607 0.0404761 0.26395 0.0653487 -0.472922 0.360382 0.173956 -0.223972 -0.401798 0.521209 -0.0806689 0.205163 -0.00926929 -0.377656 0.203542 -0.507642 0.132887
121 -0.160959 -0.298651 -0.257625 -0.0207139 0.104091 -0.272201 -0.263333 -0.25688 0.0218227 0.174218 0.0402454 -0.298063 0.216625 0.110905 -0.136615 -0.251697 0.315289 -0.0397973 0.145275 -0.0162637 -0.221782 0.131913 -0.313477 0.0920273
122 -0.146457 -0.284099 -0.249183 -0.0203728 0.104815 -0.260801 -0.239388 -0.250469 0.0307316 0.170153 0.0342213 -0.282812 0.208609 0.113007 -0.120487 -0.226821 0.297449 -0.0351799 0.134877 -0.010303 -0.20431 0.128871 -0.295742 0.0701005
124 -0.206093 -0.410658 -0.349132 -0.0227374 0.154282 -0.367635 -0.347022 -0.349764 0.0395558 0.230647 0.0495013 -0.39752 0.289594 0.167601 -0.167881 -0.322811 0.425221 -0.0460157 0.183101 -0.0124131 -0.291748 0.18696 -0.419075 0.0997005
125 -0.221555 -0.393778 -0.349103 -0.0322322 0.148506 -0.354215 -0.354198 -0.31692 0.0257353 0.219218 0.0568017 -0.381662 0.276336 0.149167 -0.181619 -0.332825 0.417681 -0.0561353 0.194192 -0.0319904 -0.296999 0.1644 -0.415749 0.125358
128 -0.168502 -0.332625 -0.279346 -0.0213984 0.120959 -0.304797 -0.278977 -0.290313 0.0313181 0.195073 0.0409857 -0.325895 0.238323 0.128705 -0.141423 -0.263459 0.347282 -0.0367921 0.151231 -0.0153791 -0.238233 0.156228 -0.342965 0.0857581
129 -0.221555 -0.393778 -0.349103 -0.0322322 0.148506 -0.354215 -0.354198 -0.31692 0.0257353 0.219218 0.0568017 -0.381662 0.276336 0.149167 -0.181619 -0.332825 0.417681 -0.0561353 0.194192 -0.0319904 -0.296999 0.1644 -0.415749 0.125358
130 -0.21832 -0.40865 -0.365585 -0.0289755 0.16755 -0.343179 -0.363145 -0.339526 0.0420826 0.220082 0.0584333 -0.388062 0.278511 0.16582 -0.183033 -0.328499 0.429999 -0.0557473 0.196666 -0.0121463 -0.28938 0.176098 -0.410992 0.119382
132 -0.0168568 -0.0204152 0.0073529 -0.00321174 0.020287 0.0050753 0.00898307 0.0201415 0.0188435 -0.00555382 -0.00964519 0.0182456 -0.013365 -1.57404e-06 0.0152117 -0.002868 0.00585143 0.0116134 0.0204784 0.0136054 -0.00075053 0.0108505 -0.0108572 -0.0178554
133 -0.123866 -0.232991 -0.212822 -0.0223519 0.0710184 -0.207537 -0.190195 -0.211714 0.025841 0.141916 0.0195323 -0.239258 0.163853 0.100045 -0.115705 -0.200704 0.22833 -0.0250038 0.0909946 -0.00786 -0.176201 0.111 -0.258853 0.0714771
135 -0.191065 -0.345169 -0.316774 -0.0296072 0.13629 -0.314038 -0.305906 -0.313417 0.0477863 0.21343 0.0417941 -0.352951 0.257658 0.142495 -0.156191 -0.292225 0.377524 -0.0475934 0.169545 -0.0179679 -0.257794 0.162992 -0.374212 0.0972822
137 -0.0962715 -0.179606 -0.172607 -0.0240299 0.0752808 -0.144727 -0.158439 -0.149248 0.0335956 0.122141 0.0395936 -0.176912 0.148357 0.0682848 -0.0834587 -0.15615 0.179326 -0.015752 0.0729679 -0.015951 -0.130797 0.0846919 -0.189645 0.0347381
138 -0.0964527 -0.187357 -0.175061 -0.0228737 0.079772 -0.143733 -0.168327 -0.144631 0.0357723 0.121686 0.0416756 -0.173752 0.150089 0.0681945 -0.0883348 -0.163243 0.179022 -0.00698799 0.067683 -0.0175356 -0.136313 0.0900551 -0.189486 0.0302369
139 -0.197615 -0.370324 -0.330623 -0.0209145 0.134085 -0.348169 -0.319775 -0.327991 0.0441525 0.216975 0.0258986 -0.373103 0.263206 0.155407 -0.153988 -0.298518 0.39746 -0.0447972 0.181467 -0.0116849 -0.279101 0.164897 -0.395839 0.0841427
140 -0.113859 -0.216837 -0.201663 -0.0184014 0.0790512 -0.191833 -0.18455 -0.186436 0.0293737 0.129739 0.0233247 -0.21394 0.161738 0.089634 -0.0966966 -0.178072 0.217769 -0.0235932 0.098326 -0.00394383 -0.158717 0.0935799 -0.225697 0.0475551
141 -0.264362 -0.482132 -0.421069 -0.0305021 0.173272 -0.453437 -0.418203 -0.433058 0.0578436 0.291456 0.0390775 -0.493068 0.343229 0.200359 -0.203519 -0.395273 0.529454 -0.0573517 0.225781 -0.0307741 -0.371113 0.22809 -0.531824 0.118797
143 -0.217529 -0.409341 -0.367514 -0.0287414 0.170206 -0.341626 -0.364185 -0.343153 0.0452082 0.220577 0.058147 -0.388548 0.279224 0.167563 -0.183776 -0.328652 0.431187 -0.0554556 0.197173 -0.00938049 -0.287906 0.178379 -0.409681 0.119247
144 -0.0964527 -0.187357 -0.175061 -0.0228737 0.079772 -0.143733 -0.168327 -0.144631 0.0357723 0.121686 0.0416756 -0.173752 0.150089 0.0681945 -0.0883348 -0.163243 0.179022 -0.00698799 0.067683 -0.0175356 -0.136313 0.0900551 -0.189486 0.0302369
146 -0.136493 -0.260424 -0.226852 -0.0192258 0.0927098 -0.232246 -0.227188 -0.228813 0.0311719 0.161246 0.0350087 -0.26126 0.195644 0.0988229 -0.116671 -0.219099 0.27143 -0.0263406 0.116523 -0.0138638 -0.193108 0.12316 -0.274447 0.0647818
147 -0.0942997 -0.182432 -0.164625 -0.0143226 0.0739254 -0.153638 -0.154073 -0.142994 0.0302621 0.104562 0.019829 -0.167107 0.130636 0.0714597 -0.0740747 -0.146576 0.178965 -0.0133696 0.0860301 -0.00133146 -0.129511 0.078874 -0.181907 0.0283188
148 -0.192482 -0.403959 -0.332543 -0.0293915 0.164519 -0.361384 -0.323694 -0.329131 0.0362111 0.223167 0.0596066 -0.367657 0.278127 0.15784 -0.162591 -0.296324 0.406576 -0.0383426 0.171807 -0.0220815 -0.271686 0.189258 -0.395039 0.0931658
149 -0.0959092 -0.164105 -0.1677 -0.0263421 0.0662983 -0.146715 -0.138663 -0.158481 0.0292422 0.123051 0.0354296 -0.183234 0.144893 0.0684654 -0.0737064 -0.141962 0.179936 -0.0332802 0.0835375 -0.0127819 -0.119765 0.0739656 -0.189963 0.0437406
150 -0.198352 -0.365394 -0.329261 -0.0293591 0.13053 -0.332705 -0.318737 -0.317447 0.0357446 0.218677 0.0421117 -0.36984 0.256092 0.147452 -0.168268 -0.312695 0.383847 -0.0460246 0.169528 -0.0260189 -0.278031 0.168798 -0.400455 0.10857
151 -0.0486628 -0.111785 -0.0844259 -0.00430155 0.0250852 -0.099569 -0.0950319 -0.108751 -0.000100309 0.0705977 0.0242729 -0.116962 0.0936128 0.0279151 -0.0581591 -0.0987809 0.105814 -0.0146821 0.0561055 0.0067182 -0.0718997 0.0513361 -0.102032 0.045311
152 -0.253524 -0.482316 -0.429572 -0.0265777 0.178434 -0.434158 -0.423581 -0.420137 0.0478145 0.277175 0.0549112 -0.48556 0.353305 0.189863 -0.212912 -0.401406 0.52452 -0.0684313 0.214748 -0.0171896 -0.372471 0.217002 -0.519053 0.127847
153 -0.118936 -0.228223 -0.202782 -0.0173715 0.0949042 -0.185769 -0.194052 -0.176032 0.0316973 0.126694 0.0324597 -0.209476 0.165702 0.0807162 -0.0990316 -0.189303 0.235361 -0.0253478 0.0977749 -0.00439981 -0.171573 0.101483 -0.235995 0.0484228
155 -0.167657 -0.3497 -0.302347 -0.0284606 0.131802 -0.302283 -0.295391 -0.291936 0.035656 0.201189 0.0547547 -0.324592 0.245677 0.129953 -0.151841 -0.275398 0.344385 -0.0394601 0.145829 -0.0235287 -0.245781 0.151117 -0.356822 0.077527
157 -0.180319 -0.351794 -0.299944 -0.019841 0.132484 -0.31618 -0.295709 -0.298083 0.0381159 0.197704 0.0362073 -0.339445 0.245127 0.143602 -0.141521 -0.276745 0.36586 -0.0385074 0.162365 -0.00897876 -0.252212 0.159431 -0.362239 0.0811165
158 -0.196045 -0.370623 -0.32969 -0.0273448 0.137084 -0.315389 -0.318975 -0.303968 0.0296836 0.204577 0.0515984 -0.358536 0.246465 0.149789 -0.163777 -0.298858 0.379361 -0.0489341 0.168297 -0.0191966 -0.268509 0.157839 -0.386051 0.105394
159 -0.177651 -0.348983 -0.308315 -0.0176073 0.133231 -0.292012 -0.295265 -0.27887 0.0295361 0.177631 0.0408872 -0.32534 0.226982 0.145686 -0.138439 -0.257118 0.354329 -0.0463296 0.165556 -0.000262786 -0.241547 0.133636 -0.341391 0.0768207
162 -0.0486628 -0.111785 -0.0844259 -0.00430155 0.0250852 -0.099569 -0.0950319 -0.108751 -0.000100309 0.0705977 0.0242729 -0.116962 0.0936128 0.0279151 -0.0581591 -0.0987809 0.105814 -0.0146821 0.0561055 0.0067182 -0.0718997 0.0513361 -0.102032 0.045311
163 -0.209354 -0.384851 -0.344562 -0.0295496 0.137653 -0.352827 -0.335315 -0.336715 0.0394278 0.230807 0.041606 -0.390378 0.270614 0.15627 -0.174144 -0.326458 0.408115 -0.0479125 0.178904 -0.0268114 -0.293545 0.17868 -0.422349 0.110275
165 -0.221555 -0.393778 -0.349103 -0.0322322 0.148506 -0.354215 -0.354198 -0.31692 0.0257353 0.219218 0.0568017 -0.381662 0.276336 0.149167 -0.181619 -0.332825 0.417681 -0.0561353 0.194192 -0.0319904 -0.296999 0.1644 -0.415749 0.125358
166 -0.135109 -0.252781 -0.216765 -0.0182669 0.0867954 -0.226892 -0.224615 -0.212836 0.0128175 0.144908 0.0405373 -0.249312 0.184974 0.0885412 -0.119889 -0.215803 0.261747 -0.0354087 0.125149 -0.0126361 -0.184449 0.107868 -0.25889 0.0853347
168 -0.215007 -0.407741 -0.3518 -0.0294359 0.158274 -0.352734 -0.350319 -0.324446 0.0290732 0.218593 0.0605662 -0.38213 0.275395 0.159273 -0.174562 -0.318611 0.421282 -0.0527574 0.188537 -0.023498 -0.290422 0.170906 -0.412366 0.112009
169 -0.163924 -0.29978 -0.260877 -0.022922 0.107365 -0.269333 -0.267809 -0.24753 0.0171234 0.169678 0.0459588 -0.293428 0.215428 0.10875 -0.140466 -0.25481 0.313725 -0.0423176 0.148163 -0.0190875 -0.221966 0.126712 -0.311176 0.098676
170 -0.0964527 -0.187357 -0.175061 -0.0228737 0.079772 -0.143733 -0.168327 -0.144631 0.0357723 0.121686 0.0416756 -0.173752 0.150089 0.0681945 -0.0883348 -0.163243 0.179022 -0.00698799 0.067683 -0.0175356 -0.136313 0.0900551 -0.189486 0.0302369
171 -0.149922 -0.264932 -0.236293 -0.0252122 0.0959135 -0.225308 -0.228821 -0.224756 0.035899 0.152453 0.0382418 -0.256677 0.195474 0.103357 -0.118416 -0.215229 0.265977 -0.0346684 0.115966 -0.00715048 -0.196161 0.115101 -0.275093 0.0680928
172 -0.250269 -0.504723 -0.419328 -0.0130752 0.174202 -0.419072 -0.448169 -0.434575 0.0370517 0.272951 0.0764961 -0.506079 0.365305 0.211509 -0.206247 -0.424371 0.518033 -0.0637989 0.208958 0.00546736 -0.357169 0.226491 -0.513618 0.143886
173 -0.235633 -0.450842 -0.401642 -0.0291693 0.174376 -0.405443 -0.39197 -0.373532 0.042353 0.246011 0.0634591 -0.441214 0.315457 0.165886 -0.214622 -0.370893 0.474997 -0.0767281 0.209055 -0.0251916 -0.325243 0.196049 -0.48307 0.129958
175 -0.186582 -0.357089 -0.317284 -0.0268938 0.130856 -0.30905 -0.30846 -0.308572 0.0366242 0.199981 0.0429244 -0.345274 0.246295 0.143961 -0.162603 -0.289455 0.366338 -0.0475209 0.160011 -0.0126196 -0.258458 0.153913 -0.37219 0.099076
176 -0.198165 -0.381671 -0.338659 -0.0227699 0.151831 -0.316777 -0.330142 -0.310316 0.0359891 0.198454 0.0504261 -0.357693 0.2524 0.157738 -0.160161 -0.291537 0.393758 -0.051306 0.181097 -0.00470075 -0.265402 0.15494 -0.37664 0.0967759
177 -0.192482 -0.403959 -0.332543 -0.0293915 0.164519 -0.361384 -0.323694 -0.329131 0.0362111 0.223167 0.0596066 -0.367657 0.278127 0.15784 -0.162591 -0.296324 0.406576 -0.0383426 0.171807 -0.0220815 -0.271686 0.189258 -0.395039 0.0931658
178 -0.221555 -0.393778 -0.349103 -0.0322322 0.148506 -0.354215 -0.354198 -0.31692 0.0257353 0.219218 0.0568017 -0.381662 0.276336 0.149167 -0.181619 -0.332825 0.417681 -0.0561353 0.194192 -0.0319904 -0.296999 0.1644 -0.415749 0.125358
185 -0.224435 -0.439449 -0.376452 -0.0238877 0.171564 -0.341124 -0.369185 -0.334815 0.028611 0.212768 0.0690547 -0.397541 0.270781 0.180917 -0.17242 -0.312472 0.443192 -0.0604164 0.193959 -0.00792977 -0.296006 0.165567 -0.422929 0.104154
186 -0.200984 -0.390059 -0.343627 -0.0233489 0.147966 -0.340687 -0.337983 -0.331083 0.0351474 0.217313 0.0519398 -0.380374 0.278125 0.150614 -0.172186 -0.314019 0.413664 -0.0543089 0.176209 -0.0112917 -0.287745 0.170617 -0.402944 0.105242
187 -0.0873067 -0.141687 -0.111437 -0.0152269 0.0306905 -0.120956 -0.103501 -0.114805 0.00811421 0.0622554 0.000719227 -0.124968 0.107002 0.0615686 -0.0725308 -0.0995578 0.130568 -0.0145106 0.039506 0.0117594 -0.103559 0.0459001 -0.137608 0.0410938
189 -0.243499 -0.476898 -0.440637 -0.0260289 0.184654 -0.418651 -0.422811 -0.403607 0.0404761 0.26395 0.0653487 -0.472922 0.360382 0.173956 -0.223972 -0.401798 0.521209 -0.0806689 0.205163 -0.00926929 -0.377656 0.203542 -0.507642 0.132887
190 -0.101931 -0.203911 -0.16675 -0.0184923 0.0881928 -0.16668 -0.161013 -0.151207 0.0302756 0.1131 0.0305457 -0.174388 0.138284 0.0753444 -0.0785714 -0.154145 0.19715 -0.0112391 0.0866562 -0.00867056 -0.13625 0.0967213 -0.198461 0.0351824
191 -0.192482 -0.403959 -0.332543 -0.0293915 0.164519 -0.361384 -0.323694 -0.329131 0.0362111 0.223167 0.0596066 -0.367657 0.278127 0.15784 -0.162591 -0.296324 0.406576 -0.0383426 0.171807 -0.0220815 -0.271686 0.189258 -0.395039 0.0931658
192 -0.123985 -0.217109 -0.209928 -0.0270355 0.0841273 -0.197836 -0.185253 -0.204244 0.0340091 0.151119 0.0360376 -0.234873 0.177949 0.0904477 -0.0953419 -0.184181 0.238189 -0.0372921 0.107245 -0.0157806 -0.161656 0.099653 -0.246939 0.05625
193 -0.130868 -0.258517 -0.240177 -0.0113269 0.094898 -0.242901 -0.221346 -0.222925 0.0304613 0.142495 0.0127196 -0.253138 0.183183 0.110455 -0.104458 -0.201763 0.265466 -0.0322427 0.137153 0.0074042 -0.187089 0.101705 -0.259854 0.0494878
196 -0.187183 -0.367707 -0.340407 -0.0186779 0.139776 -0.330776 -0.322078 -0.313266 0.0354687 0.203223 0.0390342 -0.36303 0.271783 0.142206 -0.164215 -0.30178 0.393337 -0.0564558 0.171158 -0.000932542 -0.282372 0.152623 -0.383748 0.0911873
197 -0.202471 -0.379293 -0.337782 -0.0254894 0.145738 -0.331528 -0.327948 -0.323695 0.0412694 0.214254 0.0450413 -0.371449 0.262993 0.157162 -0.160198 -0.299808 0.401982 -0.0504582 0.179927 -0.0133047 -0.274799 0.164272 -0.39431 0.0954913
199 -0.163023 -0.310121 -0.278215 -0.02847 0.117626 -0.278285 -0.262525 -0.266175 0.0314733 0.186796 0.0451942 -0.307239 0.222909 0.123689 -0.138802 -0.255597 0.320351 -0.0395021 0.141569 -0.0211309 -0.225243 0.142794 -0.330057 0.0872334
200 -0.131359 -0.268257 -0.236 -0.0213805 0.0929923 -0.240652 -0.221453 -0.239555 0.0263799 0.164314 0.0354393 -0.269356 0.189074 0.10608 -0.123834 -0.224415 0.266703 -0.0283814 0.115348 -0.0126757 -0.192158 0.131924 -0.284006 0.0779536
201 -0.209714 -0.410813 -0.381596 -0.0259908 0.153497 -0.36271 -0.359721 -0.355794 0.0385522 0.236549 0.0532121 -0.414083 0.304348 0.155731 -0.195079 -0.351624 0.439876 -0.0638628 0.175688 -0.0120694 -0.322611 0.183545 -0.44492 0.117481
202 -0.221555 -0.393778 -0.349103 -0.0322322 0.148506 -0.354215 -0.354198 -0.31692 0.0257353 0.219218 0.0568017 -0.381662 0.276336 0.149167 -0.181619 -0.332825 0.417681 -0.0561353 0.194192 -0.0319904 -0.296999 0.1644 -0.415749 0.125358
203 -0.198948 -0.39801 -0.341994 -0.0235154 0.137616 -0.343293 -0.343975 -0.341731 0.0311456 0.22004 0.0554669 -0.386371 0.283588 0.155279 -0.173595 -0.324002 0.403493 -0.0560602 0.168681 -0.0110436 -0.287091 0.166077 -0.412989 0.1064
205 -0.168421 -0.319982 -0.286292 -0.0220714 0.119638 -0.273255 -0.282501 -0.285795 0.0355496 0.192105 0.0527602 -0.329215 0.245043 0.133381 -0.138114 -0.27255 0.337128 -0.0470832 0.145042 -0.00563412 -0.229134 0.145282 -0.337694 0.0919909
206 -0.242958 -0.437955 -0.385086 -0.0313672 0.160889 -0.403826 -0.386201 -0.374989 0.0417895 0.255337 0.0479396 -0.437365 0.309782 0.174763 -0.192569 -0.364049 0.473567 -0.0567435 0.209986 -0.0313822 -0.334056 0.196245 -0.473786 0.122078
207 -0.221555 -0.393778 -0.349103 -0.0322322 0.148506 -0.354215 -0.354198 -0.31692 0.0257353 0.219218 0.0568017 -0.381662 0.276336 0.149167 -0.181619 -0.332825 0.417681 -0.0561353 0.194192 -0.0319904 -0.296999 0.1644 -0.415749 0.125358
211 -0.178148 -0.359687 -0.321862 -0.024787 0.119773 -0.314658 -0.308589 -0.323425 0.0352299 0.21538 0.0452589 -0.365532 0.250191 0.146636 -0.164544 -0.308966 0.359444 -0.04552 0.151434 -0.0157021 -0.264816 0.166236 -0.391598 0.102614
212 -0.220598 -0.422723 -0.371486 -0.0265842 0.170809 -0.341403 -0.366407 -0.339447 0.0378317 0.217106 0.0629949 -0.392545 0.275472 0.173498 -0.178729 -0.321461 0.436522 -0.0576604 0.195745 -0.00873573 -0.291506 0.172685 -0.415569 0.112539
213 -0.180725 -0.3333 -0.285547 -0.0272707 0.123055 -0.297692 -0.283898 -0.269444 0.023949 0.180965 0.0434823 -0.313987 0.23445 0.129436 -0.14959 -0.265383 0.343126 -0.041281 0.149924 -0.0185757 -0.242311 0.14099 -0.341036 0.0962441
214 -0.11366 -0.222937 -0.207619 -0.0171003 0.087335 -0.193317 -0.194837 -0.183778 0.0331168 0.13209 0.0271976 -0.213445 0.166636 0.089325 -0.0963963 -0.182503 0.222244 -0.0196153 0.102418 -0.00506568 -0.161701 0.0958798 -0.22467 0.0398624
216 -0.259146 -0.480823 -0.425961 -0.0293838 0.176117 -0.444741 -0.419355 -0.425695 0.0535017 0.284579 0.0456453 -0.488031 0.347517 0.193758 -0.208632 -0.396904 0.527393 -0.063181 0.220626 -0.0253979 -0.372748 0.221953 -0.525778 0.12232
217 -0.0873067 -0.141687 -0.111437 -0.0152269 0.0306905 -0.120956 -0.103501 -0.114805 0.00811421 0.0622554 0.000719227 -0.124968 0.107002 0.0615686 -0.0725308 -0.0995578 0.130568 -0.0145106 0.039506 0.0117594 -0.103559 0.0459001 -0.137608 0.0410938
219 -0.101931 -0.203911 -0.16675 -0.0184923 0.0881928 -0.16668 -0.161013 -0.151207 0.0302756 0.1131 0.0305457 -0.174388 0.138284 0.0753444 -0.0785714 -0.154145 0.19715 -0.0112391 0.0866562 -0.00867056 -0.13625 0.0967213 -0.198461 0.0351824
221 -0.172171 -0.338019 -0.314776 -0.0210901 0.123578 -0.304126 -0.292566 -0.295567 0.035214 0.196064 0.0356691 -0.340821 0.245281 0.134565 -0.155241 -0.284946 0.354628 -0.0477207 0.153018 -0.0065116 -0.259089 0.149599 -0.362324 0.0896811
223 -0.0725578 -0.149571 -0.129743 -0.0135876 0.0524286 -0.121651 -0.13168 -0.126691 0.017836 0.0961418 0.0329742 -0.145357 0.121851 0.0480548 -0.073247 -0.131012 0.142418 -0.010835 0.0618943 -0.00540868 -0.104106 0.0706956 -0.145759 0.037774
224 -0.217795 -0.42578 -0.37427 -0.0326744 0.14981 -0.377974 -0.374174 -0.359483 0.0303599 0.238966 0.0598918 -0.407015 0.292576 0.156496 -0.193108 -0.349727 0.432618 -0.0645926 0.196094 -0.0314796 -0.313172 0.169219 -0.450845 0.117268
225 -0.166108 -0.338356 -0.308822 -0.0283151 0.11116 -0.301129 -0.287078 -0.307461 0.0347978 0.207402 0.0402865 -0.341725 0.231124 0.13413 -0.159727 -0.289728 0.333992 -0.0445169 0.143825 -0.0221028 -0.251464 0.153713 -0.374965 0.094172
226 -0.243499 -0.476898 -0.440637 -0.0260289 0.184654 -0.418651 -0.422811 -0.403607 0.0404761 0.26395 0.0653487 -0.472922 0.360382 0.173956 -0.223972 -0.401798 0.521209 -0.0806689 0.205163 -0.00926929 -0.377656 0.203542 -0.507642 0.132887
228 -0.0168568 -0.0204152 0.0073529 -0.00321174 0.020287 0.0050753 0.00898307 0.0201415 0.0188435 -0.00555382 -0.00964519 0.0182456 -0.013365 -1.57404e-06 0.0152117 -0.002868 0.00585143 0.0116134 0.0204784 0.0136054 -0.00075053 0.0108505 -0.0108572 -0.0178554
229 -0.0964527 -0.187357 -0.175061 -0.0228737 0.079772 -0.143733 -0.168327 -0.144631 0.0357723 0.121686 0.0416756 -0.173752 0.150089 0.0681945 -0.0883348 -0.163243 0.179022 -0.00698799 0.067683 -0.0175356 -0.136313 0.0900551 -0.189486 0.0302369
230 -0.118705 -0.232774 -0.217535 -0.0188197 0.0879415 -0.203289 -0.201646 -0.197405 0.0334496 0.141164 0.0277278 -0.228285 0.171162 0.0945867 -0.103876 -0.195 0.231834 -0.02141 0.104581 -0.00758456 -0.170776 0.10465 -0.241774 0.0484175
231 -0.160291 -0.324008 -0.277595 -0.028375 0.131779 -0.289828 -0.262017 -0.272248 0.0338882 0.189795 0.0515476 -0.306182 0.233716 0.128049 -0.132963 -0.24487 0.331029 -0.0366551 0.142384 -0.0189816 -0.221045 0.150827 -0.32668 0.0766907
232 -0.123866 -0.232991 -0.212822 -0.0223519 0.0710184 -0.207537 -0.190195 -0.211714 0.025841 0.141916 0.0195323 -0.239258 0.163853 0.100045 -0.115705 -0.200704 0.22833 -0.0250038 0.0909946 -0.00786 -0.176201 0.111 -0.258853 0.0714771
234 -0.203085 -0.384204 -0.346291 -0.025839 0.157655 -0.325172 -0.340379 -0.323115 0.0427504 0.207563 0.0505758 -0.36598 0.263217 0.158045 -0.170556 -0.307504 0.403566 -0.0515868 0.18717 -0.00658305 -0.271103 0.1656 -0.38471 0.10762
235 -0.192482 -0.403959 -0.332543 -0.0293915 0.164519 -0.361384 -0.323694 -0.329131 0.0362111 0.223167 0.0596066 -0.367657 0.278127 0.15784 -0.162591 -0.296324 0.406576 -0.0383426 0.171807 -0.0220815 -0.271686 0.189258 -0.395039 0.0931658
236 -0.135109 -0.252781 -0.216765 -0.0182669 0.0867954 -0.226892 -0.224615 -0.212836 0.0128175 0.144908 0.0405373 -0.249312 0.184974 0.0885412 -0.119889 -0.215803 0.261747 -0.0354087 0.125149 -0.0126361 -0.184449 0.107868 -0.25889 0.0853347
237 -0.148694 -0.300606 -0.275382 -0.0269548 0.103313 -0.26178 -0.257391 -0.266753 0.0350414 0.185973 0.0406338 -0.299732 0.210866 0.117646 -0.141879 -0.258107 0.29525 -0.0351347 0.124789 -0.020961 -0.222676 0.137798 -0.328595 0.0781882
238 -0.176212 -0.326147 -0.29464 -0.0217795 0.121702 -0.298558 -0.287772 -0.269922 0.0280983 0.180857 0.0347607 -0.3174 0.22976 0.129811 -0.143038 -0.267294 0.341573 -0.044189 0.165672 -0.0122931 -0.242044 0.133052 -0.337801 0.0874231
239 -0.119027 -0.229169 -0.204597 -0.0163181 0.0751909 -0.207721 -0.194693 -0.201927 0.0204975 0.133894 0.023673 -0.229955 0.165186 0.0907554 -0.106746 -0.192003 0.230654 -0.0281245 0.106712 -0.0034157 -0.167947 0.100435 -0.23951 0.0661734
242 -0.209529 -0.413964 -0.342355 -0.0136131 0.138324 -0.344543 -0.362002 -0.354633 0.0298173 0.220277 0.0575518 -0.410801 0.30073 0.174024 -0.172818 -0.343168 0.421167 -0.0514768 0.166595 0.00704037 -0.293766 0.181343 -0.419616 0.118188
243 -0.113389 -0.211311 -0.203939 -0.0188345 0.0805982 -0.194808 -0.180005 -0.190703 0.0298517 0.132773 0.0240746 -0.218186 0.164038 0.0894604 -0.0890821 -0.171863 0.222701 -0.0327614 0.110345 -0.00268883 -0.153427 0.0878351 -0.224908 0.0466142
245 -0.142145 -0.278643 -0.263515 -0.0259144 0.0911824 -0.250828 -0.233543 -0.260168 0.0347044 0.181746 0.0289389 -0.296403 0.192279 0.119283 -0.137293 -0.251278 0.27721 -0.0302504 0.116739 -0.0176697 -0.212523 0.14355 -0.319476 0.0866688
246 -0.167115 -0.313141 -0.264361 -0.0256169 0.114572 -0.278852 -0.260464 -0.253619 0.0233536 0.168213 0.0390425 -0.291429 0.220489 0.122859 -0.138914 -0.242902 0.318275 -0.0363295 0.135168 -0.0141042 -0.224081 0.133186 -0.316132 0.0865394
247 -0.243499 -0.476898 -0.440637 -0.0260289 0.184654 -0.418651 -0.422811 -0.403607 0.0404761 0.26395 0.0653487 -0.472922 0.360382 0.173956 -0.223972 -0.401798 0.521209 -0.0806689 0.205163 -0.00926929 -0.377656 0.203542 -0.507642 0.132887
248 -0.130868 -0.258517 -0.240177 -0.0113269 0.094898 -0.242901 -0.221346 -0.222925 0.0304613 0.142495 0.0127196 -0.253138 0.183183 0.110455 -0.104458 -0.201763 0.265466 -0.0322427 0.137153 0.0074042 -0.187089 0.101705 -0.259854 0.0494878
250 -0.0679847 -0.126736 -0.0979313 -0.00976423 0.0278879 -0.110262 -0.0992665 -0.111778 0.00400695 0.0664266 0.0124961 -0.120965 0.100308 0.0447419 -0.065345 -0.0991694 0.118191 -0.0145963 0.0478058 0.0092388 -0.0877292 0.0486181 -0.11982 0.0432024
251 -0.15426 -0.30375 -0.274246 -0.0144671 0.114064 -0.267456 -0.258306 -0.250897 0.0299987 0.160063 0.0268034 -0.289239 0.205083 0.128071 -0.121448 -0.22944 0.309897 -0.0392861 0.151355 0.00357071 -0.214318 0.11767 -0.300623 0.0631543
252 -0.135826 -0.26758 -0.239697 -0.0191095 0.0895902 -0.233402 -0.22979 -0.244429 0.0271205 0.166019 0.0388153 -0.279816 0.197674 0.109291 -0.12254 -0.233534 0.271641 -0.0344524 0.116416 -0.00718714 -0.194776 0.127778 -0.288913 0.0812549
255 -0.10798 -0.188482 -0.186323 -0.0263915 0.0749017 -0.168411 -0.160749 -0.177105 0.0317516 0.134983 0.0361363 -0.204687 0.159431 0.077867 -0.0840236 -0.161576 0.204836 -0.0331215 0.0925653 -0.0144066 -0.1389 0.0861237 -0.214347 0.0481372
257 -0.11366 -0.222937 -0.207619 -0.0171003 0.087335 -0.193317 -0.194837 -0.183778 0.0331168 0.13209 0.0271976 -0.213445 0.166636 0.089325 -0.0963963 -0.182503 0.222244 -0.0196153 0.102418 -0.00506568 -0.161701 0.0958798 -0.22467 0.0398624
258 -0.11366 -0.222937 -0.207619 -0.0171003 0.087335 -0.193317 -0.194837 -0.183778 0.0331168 0.13209 0.0271976 -0.213445 0.166636 0.089325 -0.0963963 -0.182503 0.222244 -0.0196153 0.102418 -0.00506568 -0.161701 0.0958798 -0.22467 0.0398624
259 -0.136722 -0.249031 -0.240117 -0.027644 0.0982699 -0.221555 -0.21793 -0.231461 0.0373655 0.163408 0.0376683 -0.261356 0.19173 0.103719 -0.119013 -0.21866 0.265066 -0.0372398 0.120782 -0.0133953 -0.183639 0.1196 -0.275063 0.0758646
260 -0.264362 -0.482132 -0.421069 -0.0305021 0.173272 -0.453437 -0.418203 -0.433058 0.0578436 0.291456 0.0390775 -0.493068 0.343229 0.200359 -0.203519 -0.395273 0.529454 -0.0573517 0.225781 -0.0307741 -0.371113 0.22809 -0.531824 0.118797
261 -0.175047 -0.363877 -0.318442 -0.0240793 0.119285 -0.317928 -0.313248 -0.324257 0.0301876 0.211883 0.049656 -0.358993 0.252846 0.138495 -0.164683 -0.303656 0.360134 -0.0511616 0.156076 -0.0165801 -0.263164 0.155291 -0.38749 0.0985813
262 -0.0889459 -0.170663 -0.145347 -0.0102851 0.0502246 -0.154475 -0.13996 -0.148827 0.0128251 0.0917827 0.0125706 -0.165023 0.127933 0.0666464 -0.0783826 -0.133367 0.167283 -0.0204785 0.0775882 0.00862727 -0.120849 0.0663136 -0.166498 0.0452976
263 -0.181384 -0.342593 -0.28835 -0.0250402 0.122827 -0.311926 -0.2818 -0.292331 0.0340563 0.192293 0.0331344 -0.328564 0.242786 0.139923 -0.146214 -0.263718 0.355533 -0.0367349 0.145698 -0.0136987 -0.248786 0.154416 -0.354824 0.0843524
264 -0.14101 -0.2824 -0.25508 -0.0138858 0.101546 -0.253707 -0.246396 -0.245094 0.0236124 0.159014 0.0341138 -0.281007 0.212393 0.104109 -0.128863 -0.234114 0.297496 -0.0425312 0.132807 0.00161771 -0.212215 0.118861 -0.289842 0.0758952
265 -0.0918797 -0.164522 -0.143249 -0.0190503 0.0552313 -0.132344 -0.135914 -0.129718 0.0219433 0.0919707 0.0211974 -0.14936 0.128546 0.0648816 -0.0804328 -0.1314 0.154795 -0.0107493 0.0535945 -0.00288807 -0.119936 0.0679776 -0.163547 0.0356654
266 -0.243499 -0.476898 -0.440637 -0.0260289 0.184654 -0.418651 -0.422811 -0.403607 0.0404761 0.26395 0.0653487 -0.472922 0.360382 0.173956 -0.223972 -0.401798 0.521209 -0.0806689 0.205163 -0.00926929 -0.377656 0.203542 -0.507642 0.132887
270 -0.0959092 -0.164105 -0.1677 -0.0263421 0.0662983 -0.146715 -0.138663 -0.158481 0.0292422 0.123051 0.0354296 -0.183234 0.144893 0.0684654 -0.0737064 -0.141962 0.179936 -0.0332802 0.0835375 -0.0127819 -0.119765 0.0739656 -0.189963 0.0437406
271 -0.122042 -0.223222 -0.20041 -0.0209586 0.079963 -0.200166 -0.195964 -0.194718 0.0182924 0.137622 0.0388348 -0.227286 0.171614 0.0818493 -0.104495 -0.191189 0.234477 -0.0346992 0.111278 -0.0126847 -0.162888 0.0965673 -0.235914 0.07147
272 -0.210539 -0.434602 -0.372265 -0.0246149 0.151056 -0.375637 -0.373646 -0.37709 0.0358313 0.244707 0.0612502 -0.423493 0.303108 0.171298 -0.186929 -0.354933 0.435828 -0.0570484 0.183743 -0.0151257 -0.30954 0.188978 -0.452273 0.114327
273 -0.234414 -0.438526 -0.391516 -0.0281343 0.163167 -0.399255 -0.383823 -0.383439 0.0497284 0.259344 0.0469547 -0.441695 0.320538 0.173935 -0.192908 -0.36399 0.477036 -0.0568189 0.197305 -0.0227386 -0.339439 0.201357 -0.476009 0.110171
274 -0.167314 -0.341301 -0.298029 -0.0276529 0.127851 -0.306106 -0.278618 -0.29465 0.0354578 0.202456 0.0442727 -0.33203 0.235203 0.138562 -0.149942 -0.273801 0.341893 -0.0342965 0.144273 -0.0198756 -0.242104 0.166404 -0.357258 0.0899173
275 -0.250269 -0.504723 -0.419328 -0.0130752 0.174202 -0.419072 -0.448169 -0.434575 0.0370517 0.272951 0.0764961 -0.506079 0.365305 0.211509 -0.206247 -0.424371 0.518033 -0.0637989 0.208958 0.00546736 -0.357169 0.226491 -0.513618 0.143886
276 -0.250269 -0.504723 -0.419328 -0.0130752 0.174202 -0.419072 -0.448169 -0.434575 0.0370517 0.272951 0.0764961 -0.506079 0.365305 0.211509 -0.206247 -0.424371 0.518033 -0.0637989 0.208958 0.00546736 -0.357169 0.226491 -0.513618 0.143886
277 -0.128387 -0.247685 -0.235017 -0.0201649 0.0876918 -0.226834 -0.209688 -0.224933 0.0319147 0.154307 0.0237493 -0.256463 0.179164 0.105588 -0.111441 -0.209609 0.253057 -0.0316533 0.118264 -0.00666257 -0.183797 0.112895 -0.269724 0.0632108
278 -0.110823 -0.214086 -0.195798 -0.0202387 0.0734585 -0.186852 -0.172911 -0.190091 0.0307392 0.134921 0.0192929 -0.217741 0.140868 0.0894617 -0.0991666 -0.189175 0.209371 -0.0197845 0.0926738 -0.00985093 -0.15958 0.110375 -0.242321 0.0605377
279 -0.142145 -0.278643 -0.263515 -0.0259144 0.0911824 -0.250828 -0.233543 -0.260168 0.0347044 0.181746 0.0289389 -0.296403 0.192279 0.119283 -0.137293 -0.251278 0.27721 -0.0302504 0.116739 -0.0176697 -0.212523 0.14355 -0.319476 0.0866688
280 -0.115645 -0.214256 -0.194072 -0.0214374 0.0799153 -0.186058 -0.189055 -0.182196 0.0226624 0.133638 0.039545 -0.213902 0.166233 0.0784356 -0.100455 -0.184203 0.220613 -0.0277714 0.100379 -0.0138974 -0.156244 0.0949392 -0.224307 0.0611617
281 -0.238643 -0.435701 -0.391312 -0.0312397 0.171286 -0.397699 -0.389528 -0.390884 0.0570583 0.258619 0.0449763 -0.43781 0.314041 0.17951 -0.197433 -0.367356 0.476318 -0.05475 0.212548 -0.0205609 -0.326809 0.207505 -0.466337 0.124053
283 -0.142145 -0.278643 -0.263515 -0.0259144 0.0911824 -0.250828 -0.233543 -0.260168 0.0347044 0.181746 0.0289389 -0.296403 0.192279 0.119283 -0.137293 -0.251278 0.27721 -0.0302504 0.116739 -0.0176697 -0.212523 0.14355 -0.319476 0.0866688
284 -0.21868 -0.414359 -0.369003 -0.0279325 0.170432 -0.341543 -0.365018 -0.341763 0.042442 0.219276 0.0599649 -0.390047 0.277817 0.169789 -0.181883 -0.325955 0.433188 -0.0562824 0.196637 -0.00913871 -0.289256 0.176243 -0.411889 0.116731
285 -0.172702 -0.354757 -0.314752 -0.0285842 0.1245 -0.316193 -0.296232 -0.312878 0.0351511 0.211343 0.0451166 -0.348208 0.242875 0.140058 -0.160443 -0.291377 0.352138 -0.0429733 0.150821 -0.0220975 -0.256519 0.162599 -0.379983 0.0939204
287 -0.150116 -0.265478 -0.236496 -0.0236021 0.0999955 -0.231459 -0.232176 -0.231758 0.0321936 0.144019 0.0257972 -0.25376 0.195928 0.110115 -0.131939 -0.219498 0.276876 -0.0333295 0.119411 0.000705882 -0.193032 0.11641 -0.269229 0.0852012
288 -0.192482 -0.403959 -0.332543 -0.0293915 0.164519 -0.361384 -0.323694 -0.329131 0.0362111 0.223167 0.0596066 -0.367657 0.278127 0.15784 -0.162591 -0.296324 0.406576 -0.0383426 0.171807 -0.0220815 -0.271686 0.189258 -0.395039 0.0931658
289 -0.113389 -0.211311 -0.203939 -0.0188345 0.0805982 -0.194808 -0.180005 -0.190703 0.0298517 0.132773 0.0240746 -0.218186 0.164038 0.0894604 -0.0890821 -0.171863 0.222701 -0.0327614 0.110345 -0.00268883 -0.153427 0.0878351 -0.224908 0.0466142
290 -0.250269 -0.504723 -0.419328 -0.0130752 0.174202 -0.419072 -0.448169 -0.434575 0.0370517 0.272951 0.0764961 -0.506079 0.365305 0.211509 -0.206247 -0.424371 0.518033 -0.0637989 0.208958 0.00546736 -0.357169 0.226491 -0.513618 0.143886
291 -0.232339 -0.458295 -0.402126 -0.0261132 0.164619 -0.398418 -0.404832 -0.389287 0.0345619 0.253708 0.0654071 -0.448258 0.32771 0.174614 -0.204109 -0.381405 0.47612 -0.0684133 0.201577 -0.0166903 -0.340292 0.192118 -0.480738 0.127827
293 -0.130868 -0.258517 -0.240177 -0.0113269 0.094898 -0.242901 -0.221346 -0.222925 0.0304613 0.142495 0.0127196 -0.253138 0.183183 0.110455 -0.104458 -0.201763 0.265466 -0.0322427 0.137153 0.0074042 -0.187089 0.101705 -0.259854 0.0494878
294 -0.10467 -0.212187 -0.162595 -0.0163016 0.0924031 -0.178154 -0.157356 -0.154495 0.0275273 0.108806 0.0249807 -0.174706 0.132381 0.0789193 -0.0736897 -0.149596 0.206214 -0.0133646 0.0961428 -0.00423807 -0.136218 0.100054 -0.202948 0.0376552
296 -0.115751 -0.212859 -0.180779 -0.0215469 0.0730497 -0.187503 -0.16734 -0.179305 0.0204204 0.117682 0.0241187 -0.200207 0.159256 0.0873607 -0.0953398 -0.15935 0.211912 -0.025161 0.0835892 -0.00283615 -0.149642 0.0887561 -0.215054 0.0547735
297 -0.221555 -0.393778 -0.349103 -0.0322322 0.148506 -0.354215 -0.354198 -0.31692 0.0257353 0.219218 0.0568017 -0.381662 0.276336 0.149167 -0.181619 -0.332825 0.417681 -0.0561353 0.194192 -0.0319904 -0.296999 0.1644 -0.415749 0.125358
298 -0.142145 -0.278643 -0.263515 -0.0259144 0.0911824 -0.250828 -0.233543 -0.260168 0.0347044 0.181746 0.0289389 -0.296403 0.192279 0.119283 -0.137293 -0.251278 0.27721 -0.0302504 0.116739 -0.0176697 -0.212523 0.14355 -0.319476 0.0866688
300 -0.21832 -0.40865 -0.365585 -0.0289755 0.16755 -0.343179 -0.363145 -0.339526 0.0420826 0.220082 0.0584333 -0.388062 0.278511 0.16582 -0.183033 -0.328499 0.429999 -0.0557473 0.196666 -0.0121463 -0.28938 0.176098 -0.410992 0.119382
302 -0.25393 -0.479515 -0.430853 -0.0282655 0.178963 -0.436044 -0.420507 -0.418332 0.0491599 0.277703 0.0522131 -0.482995 0.351805 0.187157 -0.213745 -0.398535 0.525331 -0.0690103 0.215472 -0.0200217 -0.374384 0.215816 -0.519733 0.125842
303 -0.154431 -0.267732 -0.23027 -0.0237295 0.089598 -0.237585 -0.22885 -0.215862 0.0169248 0.140737 0.0287605 -0.253315 0.191669 0.105368 -0.127075 -0.216191 0.274124 -0.0353229 0.116849 -0.0101155 -0.200279 0.10515 -0.276678 0.0832261
304 -0.150759 -0.273939 -0.247733 -0.0229741 0.101509 -0.244981 -0.239472 -0.226816 0.0264072 0.156205 0.0342086 -0.266652 0.19967 0.10833 -0.123543 -0.225845 0.284187 -0.0359588 0.130951 -0.0124651 -0.203101 0.113316 -0.285501 0.0737653
306 -0.253838 -0.492555 -0.42346 -0.0210431 0.175634 -0.430457 -0.433954 -0.428908 0.0445531 0.277619 0.0621653 -0.496216 0.357126 0.201533 -0.208292 -0.410909 0.522369 -0.0644615 0.213933 -0.00906923 -0.365231 0.223199 -0.518691 0.13369
307 -0.102189 -0.199217 -0.185914 -0.0209492 0.082293 -0.160261 -0.177164 -0.15768 0.0348871 0.125154 0.0368496 -0.186983 0.155605 0.075238 -0.091022 -0.169663 0.193429 -0.0111971 0.0792614 -0.0133789 -0.144775 0.0919967 -0.201214 0.0334454
309 -0.238643 -0.435701 -0.391312 -0.0312397 0.171286 -0.397699 -0.389528 -0.390884 0.0570583 0.258619 0.0449763 -0.43781 0.314041 0.17951 -0.197433 -0.367356 0.476318 -0.05475 0.212548 -0.0205609 -0.326809 0.207505 -0.466337 0.124053
311 -0.175834 -0.311909 -0.266253 -0.0228645 0.101981 -0.287196 -0.260852 -0.273931 0.0329789 0.176856 0.0198984 -0.309018 0.225115 0.130964 -0.138025 -0.247415 0.330011 -0.0359311 0.132643 -0.00950734 -0.237336 0.136995 -0.334716 0.0799457
312 -0.10301 -0.187638 -0.183668 -0.0226454 0.074713 -0.165356 -0.161133 -0.1686 0.030792 0.126667 0.0321368 -0.195318 0.153591 0.0768092 -0.0827824 -0.158179 0.196859 -0.0278142 0.0910897 -0.00969538 -0.136539 0.0827313 -0.203846 0.0421893
314 -0.14407 -0.285995 -0.25035 -0.0198901 0.0922342 -0.255196 -0.239666 -0.246592 0.02452 0.154488 0.0254736 -0.270158 0.199667 0.11195 -0.127195 -0.22265 0.281197 -0.0399344 0.124885 -0.00393509 -0.206664 0.107214 -0.294468 0.0665867
315 -0.159178 -0.302395 -0.279078 -0.023847 0.106442 -0.274693 -0.260657 -0.265045 0.0314014 0.181301 0.0318498 -0.306902 0.211019 0.124547 -0.140165 -0.259286 0.309392 -0.0372197 0.141206 -0.0149814 -0.227283 0.138301 -0.328639 0.087046
316 -0.218925 -0.421832 -0.367971 -0.0231639 0.146219 -0.374446 -0.366638 -0.375934 0.0431999 0.248718 0.0481708 -0.43185 0.300271 0.17705 -0.182353 -0.356974 0.441566 -0.050467 0.183826 -0.0143255 -0.313601 0.199377 -0.454973 0.116451
318 -0.264362 -0.482132 -0.421069 -0.0305021 0.173272 -0.453437 -0.418203 -0.433058 0.0578436 0.291456 0.0390775 -0.493068 0.343229 0.200359 -0.203519 -0.395273 0.529454 -0.0573517 0.225781 -0.0307741 -0.371113 0.22809 -0.531824 0.118797
319 -0.192482 -0.403959 -0.332543 -0.0293915 0.164519 -0.361384 -0.323694 -0.329131 0.0362111 0.223167 0.0596066 -0.367657 0.278127 0.15784 -0.162591 -0.296324 0.406576 -0.0383426 0.171807 -0.0220815 -0.271686 0.189258 -0.395039 0.0931658
320 -0.209838 -0.409773 -0.357351 -0.0216963 0.140808 -0.358647 -0.356325 -0.364509 0.0402712 0.24017 0.0499895 -0.419606 0.291679 0.172388 -0.17812 -0.349314 0.423988 -0.0490901 0.175435 -0.0110358 -0.302099 0.193634 -0.439602 0.115981
322 -0.146544 -0.270958 -0.248091 -0.0225645 0.0957701 -0.245445 -0.232542 -0.234164 0.0273948 0.159028 0.0291337 -0.271326 0.194436 0.110981 -0.124122 -0.226656 0.278902 -0.035631 0.127401 -0.0106918 -0.202068 0.117397 -0.289716 0.0759831
323 -0.146081 -0.294341 -0.262531 -0.0151652 0.104869 -0.25911 -0.258921 -0.256179 0.0201879 0.167274 0.0448108 -0.294942 0.226998 0.100935 -0.141065 -0.250289 0.313512 -0.0476755 0.130634 -0.00127554 -0.224778 0.127439 -0.304837 0.0890989
324 -0.205756 -0.372119 -0.329609 -0.0306294 0.136182 -0.333563 -0.330527 -0.30451 0.025778 0.208151 0.0512471 -0.360859 0.260557 0.141823 -0.172302 -0.312752 0.389273 -0.0525214 0.177882 -0.0277695 -0.279458 0.155135 -0.394019 0.11542
325 -0.189658 -0.391564 -0.32712 -0.0208311 0.13924 -0.332986 -0.333225 -0.330372 0.0331878 0.21349 0.0548195 -0.371051 0.268834 0.151418 -0.161511 -0.313532 0.390601 -0.0500711 0.167699 -0.0099132 -0.274244 0.166861 -0.400836 0.0969064
326 -0.134627 -0.265225 -0.247957 -0.0161894 0.0936595 -0.245543 -0.225412 -0.235339 0.0318757 0.155579 0.018126 -0.26756 0.186215 0.113398 -0.115403 -0.218268 0.269381 -0.0315786 0.130348 -0.000953766 -0.195567 0.115653 -0.279728 0.0618815
327 -0.129679 -0.25025 -0.215451 -0.0218635 0.10847 -0.210501 -0.210973 -0.200583 0.036775 0.14127 0.035628 -0.226429 0.174926 0.0961734 -0.106765 -0.200468 0.253658 -0.0214664 0.114821 -0.00908983 -0.172814 0.119271 -0.249058 0.0587139
328 -0.214882 -0.395712 -0.348553 -0.025565 0.140472 -0.36162 -0.34068 -0.346132 0.0410694 0.227279 0.0360557 -0.396006 0.28846 0.159061 -0.175885 -0.322975 0.427671 -0.0524707 0.174058 -0.0147645 -0.30586 0.176406 -0.427224 0.102894
329 -0.218925 -0.421832 -0.367971 -0.0231639 0.146219 -0.374446 -0.366638 -0.375934 0.0431999 0.248718 0.0481708 -0.43185 0.300271 0.17705 -0.182353 -0.356974 0.441566 -0.050467 0.183826 -0.0143255 -0.313601 0.199377 -0.454973 0.116451
330 -0.224435 -0.439449 -0.376452 -0.0238877 0.171564 -0.341124 -0.369185 -0.334815 0.028611 0.212768 0.0690547 -0.397541 0.270781 0.180917 -0.17242 -0.312472 0.443192 -0.0604164 0.193959 -0.00792977 -0.296006 0.165567 -0.422929 0.104154
331 -0.119717 -0.252308 -0.219641 -0.0200973 0.0853238 -0.215012 -0.21917 -0.218476 0.0235521 0.150332 0.0429768 -0.241027 0.184172 0.0866448 -0.11703 -0.209551 0.244131 -0.0315733 0.107262 -0.0139287 -0.179186 0.105143 -0.259153 0.0615754
332 -0.131468 -0.260862 -0.229393 -0.0196872 0.100356 -0.222571 -0.219375 -0.216456 0.0266996 0.148961 0.0404599 -0.248714 0.186781 0.102298 -0.109945 -0.202424 0.263334 -0.030992 0.118374 -0.00770105 -0.18046 0.111981 -0.259884 0.061016
333 -0.146081 -0.294341 -0.262531 -0.0151652 0.104869 -0.25911 -0.258921 -0.256179 0.0201879 0.167274 0.0448108 -0.294942 0.226998 0.100935 -0.141065 -0.250289 0.313512 -0.0476755 0.130634 -0.00127554 -0.224778 0.127439 -0.304837 0.0890989
337 -0.250269 -0.504723 -0.419328 -0.0130752 0.174202 -0.419072 -0.448169 -0.434575 0.0370517 0.272951 0.0764961 -0.506079 0.365305 0.211509 -0.206247 -0.424371 0.518033 -0.0637989 0.208958 0.00546736 -0.357169 0.226491 -0.513618 0.143886
338 -0.072286 -0.137945 -0.126063 -0.0153218 0.0456918 -0.123142 -0.116847 -0.133616 0.0145709 0.0968245 0.0298513 -0.150098 0.119253 0.0481903 -0.0659328 -0.120372 0.142875 -0.0239811 0.0698215 -0.00303183 -0.0958321 0.0626508 -0.145997 0.0445258
339 -0.183046 -0.351502 -0.317613 -0.0264266 0.123677 -0.309409 -0.297603 -0.309676 0.0381136 0.209892 0.0389898 -0.355964 0.238169 0.147825 -0.157563 -0.292316 0.360855 -0.0417039 0.153991 -0.0183426 -0.260937 0.164861 -0.382636 0.0965915
340 -0.221555 -0.393778 -0.349103 -0.0322322 0.148506 -0.354215 -0.354198 -0.31692 0.0257353 0.219218 0.0568017 -0.381662 0.276336 0.149167 -0.181619 -0.332825 0.417681 -0.0561353 0.194192 -0.0319904 -0.296999 0.1644 -0.415749 0.125358
341 -0.0959092 -0.164105 -0.1677 -0.0263421 0.0662983 -0.146715 -0.138663 -0.158481 0.0292422 0.123051 0.0354296 -0.183234 0.144893 0.0684654 -0.0737064 -0.141962 0.179936 -0.0332802 0.0835375 -0.0127819 -0.119765 0.0739656 -0.189963 0.0437406
342 -0.1879 -0.380857 -0.3299 -0.0223272 0.135161 -0.326911 -0.330485 -0.329841 0.0345074 0.216783 0.0566492 -0.373536 0.274071 0.150911 -0.161798 -0.311885 0.385478 -0.0515399 0.164462 -0.0107345 -0.270944 0.163085 -0.394717 0.0969541
343 -0.0928374 -0.174628 -0.165001 -0.0170782 0.063145 -0.158975 -0.148426 -0.16216 0.0222113 0.114799 0.026963 -0.184142 0.141646 0.0688254 -0.0775074 -0.146117 0.182788 -0.0283713 0.0900834 -0.00286033 -0.124629 0.0752429 -0.185453 0.04557
344 -0.251053 -0.467904 -0.406197 -0.0282973 0.172703 -0.415999 -0.401864 -0.40031 0.0480994 0.265227 0.0490699 -0.461226 0.319079 0.193878 -0.193153 -0.367673 0.5007 -0.0583732 0.215174 -0.0231593 -0.346077 0.207249 -0.495525 0.113916
345 -0.0873067 -0.141687 -0.111437 -0.0152269 0.0306905 -0.120956 -0.103501 -0.114805 0.00811421 0.0622554 0.000719227 -0.124968 0.107002 0.0615686 -0.0725308 -0.0995578 0.130568 -0.0145106 0.039506 0.0117594 -0.103559 0.0459001 -0.137608 0.0410938
346 -0.222995 -0.416613 -0.362778 -0.02806 0.160035 -0.347669 -0.361691 -0.325867 0.0271731 0.215993 0.0629282 -0.389602 0.273559 0.165042 -0.177019 -0.322648 0.430436 -0.0582759 0.194075 -0.0199601 -0.296502 0.164983 -0.419339 0.114756
347 -0.160172 -0.301777 -0.272076 -0.0251149 0.118931 -0.243919 -0.253924 -0.246648 0.0289266 0.16791 0.0522422 -0.290388 0.207837 0.124691 -0.123063 -0.227217 0.311564 -0.0468483 0.138748 -0.0103558 -0.207885 0.119766 -0.306446 0.0739471
414 -0.256789 -0.508246 -0.455384 -0.0189524 0.192368 -0.442276 -0.436024 -0.431905 0.0614676 0.271197 0.0717371 -0.507391 0.36389 0.188714 -0.246819 -0.410038 0.530546 -0.0920675 0.235354 -0.0205101 -0.35184 0.220082 -0.543932 0.137295
1684 -0.229736 -0.380204 -0.327734 -0.0319403 0.111962 -0.335368 -0.312848 -0.330938 0.0434999 0.215469 0.0579802 -0.386899 0.262643 0.142583 -0.136492 -0.284667 0.374615 -0.0788667 0.181502 -0.00728558 -0.292191 0.150051 -0.415233 0.0906599
2885 -0.130868 -0.258517 -0.240177 -0.0113269 0.094898 -0.242901 -0.221346 -0.222925 0.0304613 0.142495 0.0127196 -0.253138 0.183183 0.110455 -0.104458 -0.201763 0.265466 -0.0322427 0.137153 0.0074042 -0.187089 0.101705 -0.259854 0.0494878
3003 -0.163095 -0.283781 -0.251397 -0.027407 0.0958669 -0.23955 -0.240588 -0.237785 0.0396361 0.168578 0.0498279 -0.280325 0.206366 0.105389 -0.112413 -0.223955 0.276818 -0.0429274 0.124592 -0.0124106 -0.214252 0.120053 -0.30236 0.0604484
363 -0.269499 -0.520647 -0.469541 -0.00849078 0.18286 -0.432786 -0.455533 -0.440424 0.0668144 0.272572 0.0792503 -0.525595 0.382341 0.199624 -0.25383 -0.418988 0.544328 -0.0922524 0.254061 -0.0258151 -0.353031 0.214921 -0.550115 0.143687
483 -0.257626 -0.513002 -0.460325 -0.0190602 0.193292 -0.447117 -0.440058 -0.434256 0.0621081 0.27271 0.07377 -0.510697 0.365684 0.189412 -0.250107 -0.412973 0.537119 -0.0952935 0.235976 -0.0213617 -0.353304 0.222587 -0.550281 0.13821
563 -0.23746 -0.437698 -0.375901 -0.0266013 0.181977 -0.36472 -0.344719 -0.378235 0.0610879 0.259929 0.0354258 -0.423712 0.301664 0.158657 -0.176163 -0.33899 0.435123 -0.0430726 0.189464 -0.011913 -0.319245 0.167449 -0.423332 0.104768
601 -0.269499 -0.520647 -0.469541 -0.00849078 0.18286 -0.432786 -0.455533 -0.440424 0.0668144 0.272572 0.0792503 -0.525595 0.382341 0.199624 -0.25383 -0.418988 0.544328 -0.0922524 0.254061 -0.0258151 -0.353031 0.214921 -0.550115 0.143687
606 -0.269499 -0.520647 -0.469541 -0.00849078 0.18286 -0.432786 -0.455533 -0.440424 0.0668144 0.272572 0.0792503 -0.525595 0.382341 0.199624 -0.25383 -0.418988 0.544328 -0.0922524 0.254061 -0.0258151 -0.353031 0.214921 -0.550115 0.143687
904 -0.229736 -0.380204 -0.327734 -0.0319403 0.111962 -0.335368 -0.312848 -0.330938 0.0434999 0.215469 0.0579802 -0.386899 0.262643 0.142583 -0.136492 -0.284667 0.374615 -0.0788667 0.181502 -0.00728558 -0.292191 0.150051 -0.415233 0.0906599
1088 -0.212925 -0.38927 -0.361554 -0.0319772 0.169301 -0.341961 -0.360852 -0.348711 0.0562731 0.225783 0.0508752 -0.382552 0.284853 0.158661 -0.191347 -0.339439 0.423183 -0.0521484 0.199315 -0.0103476 -0.282506 0.18692 -0.40085 0.129308
1193 -0.212925 -0.38927 -0.361554 -0.0319772 0.169301 -0.341961 -0.360852 -0.348711 0.0562731 0.225783 0.0508752 -0.382552 0.284853 0.158661 -0.191347 -0.339439 0.423183 -0.0521484 0.199315 -0.0103476 -0.282506 0.18692 -0.40085 0.129308
1387 -0.0873067 -0.141687 -0.111437 -0.0152269 0.0306905 -0.120956 -0.103501 -0.114805 0.00811421 0.0622554 0.000719227 -0.124968 0.107002 0.0615686 -0.0725308 -0.0995578 0.130568 -0.0145106 0.039506 0.0117594 -0.103559 0.0459001 -0.137608 0.0410938
1506 -0.269499 -0.520647 -0.469541 -0.00849078 0.18286 -0.432786 -0.455533 -0.440424 0.0668144 0.272572 0.0792503 -0.525595 0.382341 0.199624 -0.25383 -0.418988 0.544328 -0.0922524 0.254061 -0.0258151 -0.353031 0.214921 -0.550115 0.143687
1540 -0.212925 -0.38927 -0.361554 -0.0319772 0.169301 -0.341961 -0.360852 -0.348711 0.0562731 0.225783 0.0508752 -0.382552 0.284853 0.158661 -0.191347 -0.339439 0.423183 -0.0521484 0.199315 -0.0103476 -0.282506 0.18692 -0.40085 0.129308
2704 -0.212925 -0.38927 -0.361554 -0.0319772 0.169301 -0.341961 -0.360852 -0.348711 0.0562731 0.225783 0.0508752 -0.382552 0.284853 0.158661 -0.191347 -0.339439 0.423183 -0.0521484 0.199315 -0.0103476 -0.282506 0.18692 -0.40085 0.129308
2740 -0.0964527 -0.187357 -0.175061 -0.0228737 0.079772 -0.143733 -0.168327 -0.144631 0.0357723 0.121686 0.0416756 -0.173752 0.150089 0.0681945 -0.0883348 -0.163243 0.179022 -0.00698799 0.067683 -0.0175356 -0.136313 0.0900551 -0.189486 0.0302369
427 -0.249711 -0.507906 -0.454181 -0.0261064 0.200247 -0.456671 -0.429741 -0.430144 0.0589706 0.272803 0.0701165 -0.500766 0.354579 0.182605 -0.247625 -0.408962 0.532313 -0.0973209 0.223919 -0.0183927 -0.353487 0.227698 -0.550392 0.134558
360 -0.249711 -0.507906 -0.454181 -0.0261064 0.200247 -0.456671 -0.429741 -0.430144 0.0589706 0.272803 0.0701165 -0.500766 0.354579 0.182605 -0.247625 -0.408962 0.532313 -0.0973209 0.223919 -0.0183927 -0.353487 0.227698 -0.550392 0.134558
362 -0.249711 -0.507906 -0.454181 -0.0261064 0.200247 -0.456671 -0.429741 -0.430144 0.0589706 0.272803 0.0701165 -0.500766 0.354579 0.182605 -0.247625 -0.408962 0.532313 -0.0973209 0.223919 -0.0183927 -0.353487 0.227698 -0.550392 0.134558
391 -0.249711 -0.507906 -0.454181 -0.0261064 0.200247 -0.456671 -0.429741 -0.430144 0.0589706 0.272803 0.0701165 -0.500766 0.354579 0.182605 -0.247625 -0.408962 0.532313 -0.0973209 0.223919 -0.0183927 -0.353487 0.227698 -0.550392 0.134558
400 -0.249711 -0.507906 -0.454181 -0.0261064 0.200247 -0.456671 -0.429741 -0.430144 0.0589706 0.272803 0.0701165 -0.500766 0.354579 0.182605 -0.247625 -0.408962 0.532313 -0.0973209 0.223919 -0.0183927 -0.353487 0.227698 -0.550392 0.134558
444 -0.249711 -0.507906 -0.454181 -0.0261064 0.200247 -0.456671 -0.429741 -0.430144 0.0589706 0.272803 0.0701165 -0.500766 0.354579 0.182605 -0.247625 -0.408962 0.532313 -0.0973209 0.223919 -0.0183927 -0.353487 0.227698 -0.550392 0.134558
482 -0.249711 -0.507906 -0.454181 -0.0261064 0.200247 -0.456671 -0.429741 -0.430144 0.0589706 0.272803 0.0701165 -0.500766 0.354579 0.182605 -0.247625 -0.408962 0.532313 -0.0973209 0.223919 -0.0183927 -0.353487 0.227698 -0.550392 0.134558
496 -0.249711 -0.507906 -0.454181 -0.0261064 0.200247 -0.456671 -0.429741 -0.430144 0.0589706 0.272803 0.0701165 -0.500766 0.354579 0.182605 -0.247625 -0.408962 0.532313 -0.0973209 0.223919 -0.0183927 -0.353487 0.227698 -0.550392 0.134558
497 -0.249711 -0.507906 -0.454181 -0.0261064 0.200247 -0.456671 -0.429741 -0.430144 0.0589706 0.272803 0.0701165 -0.500766 0.354579 0.182605 -0.247625 -0.408962 0.532313 -0.0973209 0.223919 -0.0183927 -0.353487 0.227698 -0.550392 0.134558
512 -0.249711 -0.507906 -0.454181 -0.0261064 0.200247 -0.456671 -0.429741 -0.430144 0.0589706 0.272803 0.0701165 -0.500766 0.354579 0.182605 -0.247625 -0.408962 0.532313 -0.0973209 0.223919 -0.0183927 -0.353487 0.227698 -0.550392 0.134558
541 -0.23746 -0.437698 -0.375901 -0.0266013 0.181977 -0.36472 -0.344719 -0.378235 0.0610879 0.259929 0.0354258 -0.423712 0.301664 0.158657 -0.176163 -0.33899 0.435123 -0.0430726 0.189464 -0.011913 -0.319245 0.167449 -0.423332 0.104768
567 -0.249711 -0.507906 -0.454181 -0.0261064 0.200247 -0.456671 -0.429741 -0.430144 0.0589706 0.272803 0.0701165 -0.500766 0.354579 0.182605 -0.247625 -0.408962 0.532313 -0.0973209 0.223919 -0.0183927 -0.353487 0.227698 -0.550392 0.134558
590 -0.249711 -0.507906 -0.454181 -0.0261064 0.200247 -0.456671 -0.429741 -0.430144 0.0589706 0.272803 0.0701165 -0.500766 0.354579 0.182605 -0.247625 -0.408962 0.532313 -0.0973209 0.223919 -0.0183927 -0.353487 0.227698 -0.550392 0.134558
620 -0.269499 -0.520647 -0.469541 -0.00849078 0.18286 -0.432786 -0.455533 -0.440424 0.0668144 0.272572 0.0792503 -0.525595 0.382341 0.199624 -0.25383 -0.418988 0.544328 -0.0922524 0.254061 -0.0258151 -0.353031 0.214921 -0.550115 0.143687
630 -0.259605 -0.514276 -0.461861 -0.0172986 0.191553 -0.444729 -0.442637 -0.435284 0.0628925 0.272687 0.0746834 -0.51318 0.36846 0.191114 -0.250728 -0.413975 0.53832 -0.0947866 0.23899 -0.0221039 -0.353259 0.221309 -0.550254 0.139122
678 -0.269499 -0.520647 -0.469541 -0.00849078 0.18286 -0.432786 -0.455533 -0.440424 0.0668144 0.272572 0.0792503 -0.525595 0.382341 0.199624 -0.25383 -0.418988 0.544328 -0.0922524 0.254061 -0.0258151 -0.353031 0.214921 -0.550115 0.143687
609 -0.262078 -0.515869 -0.463781 -0.0150966 0.18938 -0.441743 -0.445861 -0.436569 0.063873 0.272658 0.0758251 -0.516284 0.37193 0.193242 -0.251503 -0.415228 0.539822 -0.0941531 0.242758 -0.0230317 -0.353202 0.219712 -0.550219 0.140263
576 -0.269499 -0.520647 -0.469541 -0.00849078 0.18286 -0.432786 -0.455533 -0.440424 0.0668144 0.272572 0.0792503 -0.525595 0.382341 0.199624 -0.25383 -0.418988 0.544328 -0.0922524 0.254061 -0.0258151 -0.353031 0.214921 -0.550115 0.143687
577 -0.249711 -0.507906 -0.454181 -0.0261064 0.200247 -0.456671 -0.429741 -0.430144 0.0589706 0.272803 0.0701165 -0.500766 0.354579 0.182605 -0.247625 -0.408962 0.532313 -0.0973209 0.223919 -0.0183927 -0.353487 0.227698 -0.550392 0.134558
583 -0.249711 -0.507906 -0.454181 -0.0261064 0.200247 -0.456671 -0.429741 -0.430144 0.0589706 0.272803 0.0701165 -0.500766 0.354579 0.182605 -0.247625 -0.408962 0.532313 -0.0973209 0.223919 -0.0183927 -0.353487 0.227698 -0.550392 0.134558
584 -0.269499 -0.520647 -0.469541 -0.00849078 0.18286 -0.432786 -0.455533 -0.440424 0.0668144 0.272572 0.0792503 -0.525595 0.382341 0.199624 -0.25383 -0.418988 0.544328 -0.0922524 0.254061 -0.0258151 -0.353031 0.214921 -0.550115 0.143687
588 -0.269499 -0.520647 -0.469541 -0.00849078 0.18286 -0.432786 -0.455533 -0.440424 0.0668144 0.272572 0.0792503 -0.525595 0.382341 0.199624 -0.25383 -0.418988 0.544328 -0.0922524 0.254061 -0.0258151 -0.353031 0.214921 -0.550115 0.143687
592 -0.269499 -0.520647 -0.469541 -0.00849078 0.18286 -0.432786 -0.455533 -0.440424 0.0668144 0.272572 0.0792503 -0.525595 0.382341 0.199624 -0.25383 -0.418988 0.544328 -0.0922524 0.254061 -0.0258151 -0.353031 0.214921 -0.550115 0.143687
594 -0.212195 -0.406155 -0.356846 -0.0290418 0.173882 -0.352559 -0.34235 -0.355731 0.0421498 0.237954 0.0349862 -0.410273 0.286442 0.148953 -0.171377 -0.334198 0.404599 -0.0531578 0.180074 -0.00616217 -0.30309 0.175849 -0.411576 0.105627
598 -0.269499 -0.520647 -0.469541 -0.00849078 0.18286 -0.432786 -0.455533 -0.440424 0.0668144 0.272572 0.0792503 -0.525595 0.382341 0.199624 -0.25383 -0.418988 0.544328 -0.0922524 0.254061 -0.0258151 -0.353031 0.214921 -0.550115 0.143687
603 -0.259605 -0.514276 -0.461861 -0.0172986 0.191553 -0.444729 -0.442637 -0.435284 0.0628925 0.272687 0.0746834 -0.51318 0.36846 0.191114 -0.250728 -0.413975 0.53832 -0.0947866 0.23899 -0.0221039 -0.353259 0.221309 -0.550254 0.139122
605 -0.269499 -0.520647 -0.469541 -0.00849078 0.18286 -0.432786 -0.455533 -0.440424 0.0668144 0.272572 0.0792503 -0.525595 0.382341 0.199624 -0.25383 -0.418988 0.544328 -0.0922524 0.254061 -0.0258151 -0.353031 0.214921 -0.550115 0.143687
608 -0.259605 -0.514276 -0.461861 -0.0172986 0.191553 -0.444729 -0.442637 -0.435284 0.0628925 0.272687 0.0746834 -0.51318 0.36846 0.191114 -0.250728 -0.413975 0.53832 -0.0947866 0.23899 -0.0221039 -0.353259 0.221309 -0.550254 0.139122
611 -0.249711 -0.507906 -0.454181 -0.0261064 0.200247 -0.456671 -0.429741 -0.430144 0.0589706 0.272803 0.0701165 -0.500766 0.354579 0.182605 -0.247625 -0.408962 0.532313 -0.0973209 0.223919 -0.0183927 -0.353487 0.227698 -0.550392 0.134558
615 -0.249711 -0.507906 -0.454181 -0.0261064 0.200247 -0.456671 -0.429741 -0.430144 0.0589706 0.272803 0.0701165 -0.500766 0.354579 0.182605 -0.247625 -0.408962 0.532313 -0.0973209 0.223919 -0.0183927 -0.353487 0.227698 -0.550392 0.134558
617 -0.269499 -0.520647 -0.469541 -0.00849078 0.18286 -0.432786 -0.455533 -0.440424 0.0668144 0.272572 0.0792503 -0.525595 0.382341 0.199624 -0.25383 -0.418988 0.544328 -0.0922524 0.254061 -0.0258151 -0.353031 0.214921 -0.550115 0.143687
618 -0.269499 -0.520647 -0.469541 -0.00849078 0.18286 -0.432786 -0.455533 -0.440424 0.0668144 0.272572 0.0792503 -0.525595 0.382341 0.199624 -0.25383 -0.418988 0.544328 -0.0922524 0.254061 -0.0258151 -0.353031 0.214921 -0.550115 0.143687
619 -0.269499 -0.520647 -0.469541 -0.00849078 0.18286 -0.432786 -0.455533 -0.440424 0.0668144 0.272572 0.0792503 -0.525595 0.382341 0.199624 -0.25383 -0.418988 0.544328 -0.0922524 0.254061 -0.0258151 -0.353031 0.214921 -0.550115 0.143687
623 -0.269499 -0.520647 -0.469541 -0.00849078 0.18286 -0.432786 -0.455533 -0.440424 0.0668144 0.272572 0.0792503 -0.525595 0.382341 0.199624 -0.25383 -0.418988 0.544328 -0.0922524 0.254061 -0.0258151 -0.353031 0.214921 -0.550115 0.143687
631 -0.269499 -0.520647 -0.469541 -0.00849078 0.18286 -0.432786 -0.455533 -0.440424 0.0668144 0.272572 0.0792503 -0.525595 0.382341 0.199624 -0.25383 -0.418988 0.544328 -0.0922524 0.254061 -0.0258151 -0.353031 0.214921 -0.550115 0.143687
632 -0.249711 -0.507906 -0.454181 -0.0261064 0.200247 -0.456671 -0.429741 -0.430144 0.0589706 0.272803 0.0701165 -0.500766 0.354579 0.182605 -0.247625 -0.408962 0.532313 -0.0973209 0.223919 -0.0183927 -0.353487 0.227698 -0.550392 0.134558
636 -0.257626 -0.513002 -0.460325 -0.0190602 0.193292 -0.447117 -0.440058 -0.434256 0.0621081 0.27271 0.07377 -0.510697 0.365684 0.189412 -0.250107 -0.412973 0.537119 -0.0952935 0.235976 -0.0213617 -0.353304 0.222587 -0.550281 0.13821
638 -0.238063 -0.4484 -0.392213 -0.0259522 0.190011 -0.398561 -0.378266 -0.400458 0.0505475 0.254155 0.0444347 -0.458336 0.33061 0.172852 -0.206656 -0.372094 0.450442 -0.0578718 0.214238 -0.00739478 -0.335463 0.197663 -0.472102 0.122669
639 -0.269499 -0.520647 -0.469541 -0.00849078 0.18286 -0.432786 -0.455533 -0.440424 0.0668144 0.272572 0.0792503 -0.525595 0.382341 0.199624 -0.25383 -0.418988 0.544328 -0.0922524 0.254061 -0.0258151 -0.353031 0.214921 -0.550115 0.143687
640 -0.269499 -0.520647 -0.469541 -0.00849078 0.18286 -0.432786 -0.455533 -0.440424 0.0668144 0.272572 0.0792503 -0.525595 0.382341 0.199624 -0.25383 -0.418988 0.544328 -0.0922524 0.254061 -0.0258151 -0.353031 0.214921 -0.550115 0.143687
643 -0.259605 -0.514276 -0.461861 -0.0172986 0.191553 -0.444729 -0.442637 -0.435284 0.0628925 0.272687 0.0746834 -0.51318 0.36846 0.191114 -0.250728 -0.413975 0.53832 -0.0947866 0.23899 -0.0221039 -0.353259 0.221309 -0.550254 0.139122
653 -0.269499 -0.520647 -0.469541 -0.00849078 0.18286 -0.432786 -0.455533 -0.440424 0.0668144 0.272572 0.0792503 -0.525595 0.382341 0.199624 -0.25383 -0.418988 0.544328 -0.0922524 0.254061 -0.0258151 -0.353031 0.214921 -0.550115 0.143687
654 -0.269499 -0.520647 -0.469541 -0.00849078 0.18286 -0.432786 -0.455533 -0.440424 0.0668144 0.272572 0.0792503 -0.525595 0.382341 0.199624 -0.25383 -0.418988 0.544328 -0.0922524 0.254061 -0.0258151 -0.353031 0.214921 -0.550115 0.143687
659 -0.259605 -0.514276 -0.461861 -0.0172986 0.191553 -0.444729 -0.442637 -0.435284 0.0628925 0.272687 0.0746834 -0.51318 0.36846 0.191114 -0.250728 -0.413975 0.53832 -0.0947866 0.23899 -0.0221039 -0.353259 0.221309 -0.550254 0.139122
663 -0.249711 -0.507906 -0.454181 -0.0261064 0.200247 -0.456671 -0.429741 -0.430144 0.0589706 0.272803 0.0701165 -0.500766 0.354579 0.182605 -0.247625 -0.408962 0.532313 -0.0973209 0.223919 -0.0183927 -0.353487 0.227698 -0.550392 0.134558
667 -0.199291 -0.385567 -0.339977 -0.0305542 0.16622 -0.331251 -0.32607 -0.334479 0.037424 0.229565 0.0307124 -0.387972 0.265806 0.137714 -0.155262 -0.316906 0.382443 -0.0515407 0.164231 -0.00531996 -0.287715 0.166452 -0.383752 0.0980011
670 -0.249711 -0.507906 -0.454181 -0.0261064 0.200247 -0.456671 -0.429741 -0.430144 0.0589706 0.272803 0.0701165 -0.500766 0.354579 0.182605 -0.247625 -0.408962 0.532313 -0.0973209 0.223919 -0.0183927 -0.353487 0.227698 -0.550392 0.134558
674 -0.269499 -0.520647 -0.469541 -0.00849078 0.18286 -0.432786 -0.455533 -0.440424 0.0668144 0.272572 0.0792503 -0.525595 0.382341 0.199624 -0.25383 -0.418988 0.544328 -0.0922524 0.254061 -0.0258151 -0.353031 0.214921 -0.550115 0.143687
677 -0.269499 -0.520647 -0.469541 -0.00849078 0.18286 -0.432786 -0.455533 -0.440424 0.0668144 0.272572 0.0792503 -0.525595 0.382341 0.199624 -0.25383 -0.418988 0.544328 -0.0922524 0.254061 -0.0258151 -0.353031 0.214921 -0.550115 0.143687
681 -0.249711 -0.507906 -0.454181 -0.0261064 0.200247 -0.456671 -0.429741 -0.430144 0.0589706 0.272803 0.0701165 -0.500766 0.354579 0.182605 -0.247625 -0.408962 0.532313 -0.0973209 0.223919 -0.0183927 -0.353487 0.227698 -0.550392 0.134558
684 -0.249711 -0.507906 -0.454181 -0.0261064 0.200247 -0.456671 -0.429741 -0.430144 0.0589706 0.272803 0.0701165 -0.500766 0.354579 0.182605 -0.247625 -0.408962 0.532313 -0.0973209 0.223919 -0.0183927 -0.353487 0.227698 -0.550392 0.134558
3437 -0.0195585 -0.0105546 -0.0164025 -0.0101045 0.00642228 -0.0190764 0.00874823 -0.0101068 0.0104947 0.00867756 0.0104328 0.0115408 0.00753778 0.0207694 -0.012008 0.0149206 0.020615 0.0178315 -0.0135498 0.0184017 -0.0143819 -0.00907521 0.014592 -0.00188117
3980 -0.197309 -0.372451 -0.330882 -0.0242781 0.150244 -0.323208 -0.31726 -0.319247 0.0380719 0.212899 0.0382992 -0.373615 0.259853 0.143862 -0.159126 -0.299463 0.376142 -0.0553789 0.171927 -0.0140875 -0.272995 0.160835 -0.381451 0.0973174
3989 -0.202877 -0.379486 -0.334515 -0.0238857 0.154588 -0.332454 -0.319956 -0.3273 0.0392261 0.216609 0.0345853 -0.381856 0.264844 0.148339 -0.160478 -0.30427 0.383436 -0.0546943 0.174345 -0.0103632 -0.276434 0.160775 -0.387069 0.0984015
4011 -0.189274 -0.350474 -0.308951 -0.0179574 0.146187 -0.303161 -0.294005 -0.298946 0.0399417 0.206373 0.0333255 -0.350875 0.243817 0.132335 -0.145641 -0.276474 0.352113 -0.0525515 0.161491 -0.013923 -0.256124 0.140567 -0.357338 0.0889871
4031 -0.215455 -0.404087 -0.354798 -0.0266632 0.168167 -0.348807 -0.337927 -0.350812 0.0429607 0.234499 0.0374624 -0.404268 0.28156 0.15054 -0.168678 -0.323639 0.405906 -0.0541836 0.178592 -0.00918345 -0.295381 0.169551 -0.406145 0.102342
686 -0.00540184 0.00297017 0.00292555 0.00298295 0.00946453 -0.0130051 0.00728495 -0.0201873 0.0040575 -0.0139732 -0.0149247 -0.00641035 0.0112895 -0.00751003 -0.0127982 -0.0159663 -0.0118011 -0.00821942 -0.0187328 -0.00855308 -0.00165539 0.0111745 0.0180848 -0.00743129
697 -0.00540184 0.00297017 0.00292555 0.00298295 0.00946453 -0.0130051 0.00728495 -0.0201873 0.0040575 -0.0139732 -0.0149247 -0.00641035 0.0112895 -0.00751003 -0.0127982 -0.0159663 -0.0118011 -0.00821942 -0.0187328 -0.00855308 -0.00165539 0.0111745 0.0180848 -0.00743129
698 -0.0640612 -0.107409 -0.0981904 -0.00121001 0.0424334 -0.0831933 -0.0760249 -0.107302 0.00317517 0.0447393 -0.00391511 -0.099221 0.0829147 0.0445089 -0.0522329 -0.079988 0.0937966 -0.00995388 0.042998 -0.00725959 -0.0795128 0.0357905 -0.0959266 0.0171933
702 -0.00540184 0.00297017 0.00292555 0.00298295 0.00946453 -0.0130051 0.00728495 -0.0201873 0.0040575 -0.0139732 -0.0149247 -0.00641035 0.0112895 -0.00751003 -0.0127982 -0.0159663 -0.0118011 -0.00821942 -0.0187328 -0.00855308 -0.00165539 0.0111745 0.0180848 -0.00743129
708 -0.101771 -0.178367 -0.163193 -0.00390548 0.0636277 -0.128314 -0.129581 -0.163304 0.00260795 0.0824831 0.00316249 -0.158885 0.12896 0.0779496 -0.0775838 -0.121145 0.161681 -0.0110689 0.0826821 -0.00642807 -0.129564 0.0516151 -0.16922 0.0330234
709 -0.101771 -0.178367 -0.163193 -0.00390548 0.0636277 -0.128314 -0.129581 -0.163304 0.00260795 0.0824831 0.00316249 -0.158885 0.12896 0.0779496 -0.0775838 -0.121145 0.161681 -0.0110689 0.0826821 -0.00642807 -0.129564 0.0516151 -0.16922 0.0330234
715 -0.101771 -0.178367 -0.163193 -0.00390548 0.0636277 -0.128314 -0.129581 -0.163304 0.00260795 0.0824831 0.00316249 -0.158885 0.12896 0.0779496 -0.0775838 -0.121145 0.161681 -0.0110689 0.0826821 -0.00642807 -0.129564 0.0516151 -0.16922 0.0330234
720 -0.101771 -0.178367 -0.163193 -0.00390548 0.0636277 -0.128314 -0.129581 -0.163304 0.00260795 0.0824831 0.00316249 -0.158885 0.12896 0.0779496 -0.0775838 -0.121145 0.161681 -0.0110689 0.0826821 -0.00642807 -0.129564 0.0516151 -0.16922 0.0330234
724 -0.101771 -0.178367 -0.163193 -0.00390548 0.0636277 -0.128314 -0.129581 -0.163304 0.00260795 0.0824831 0.00316249 -0.158885 0.12896 0.0779496 -0.0775838 -0.121145 0.161681 -0.0110689 0.0826821 -0.00642807 -0.129564 0.0516151 -0.16922 0.0330234
729 -0.0696478 -0.117921 -0.10782 -0.00160934 0.0455733 -0.0898779 -0.0839592 -0.115599 0.00309113 0.050331 -0.00286658 -0.10806 0.0897362 0.0494631 -0.0559886 -0.0860853 0.103854 -0.0101191 0.0488772 -0.00713641 -0.0869278 0.0381349 -0.106785 0.0195385
730 -0.101771 -0.178367 -0.163193 -0.00390548 0.0636277 -0.128314 -0.129581 -0.163304 0.00260795 0.0824831 0.00316249 -0.158885 0.12896 0.0779496 -0.0775838 -0.121145 0.161681 -0.0110689 0.0826821 -0.00642807 -0.129564 0.0516151 -0.16922 0.0330234
732 -0.00540184 0.00297017 0.00292555 0.00298295 0.00946453 -0.0130051 0.00728495 -0.0201873 0.0040575 -0.0139732 -0.0149247 -0.00641035 0.0112895 -0.00751003 -0.0127982 -0.0159663 -0.0118011 -0.00821942 -0.0187328 -0.00855308 -0.00165539 0.0111745 0.0180848 -0.00743129
746 -0.00540184 0.00297017 0.00292555 0.00298295 0.00946453 -0.0130051 0.00728495 -0.0201873 0.0040575 -0.0139732 -0.0149247 -0.00641035 0.0112895 -0.00751003 -0.0127982 -0.0159663 -0.0118011 -0.00821942 -0.0187328 -0.00855308 -0.00165539 0.0111745 0.0180848 -0.00743129
753 -0.0535863 -0.0876984 -0.0801339 -0.000461265 0.0365461 -0.0706597 -0.0611482 -0.0917458 0.00333273 0.0342549 -0.00588111 -0.0826477 0.0701245 0.0352198 -0.045191 -0.0685555 0.0749399 -0.00964416 0.0319747 -0.00749057 -0.0656097 0.0313948 -0.0755675 0.0127961
756 -0.00540184 0.00297017 0.00292555 0.00298295 0.00946453 -0.0130051 0.00728495 -0.0201873 0.0040575 -0.0139732 -0.0149247 -0.00641035 0.0112895 -0.00751003 -0.0127982 -0.0159663 -0.0118011 -0.00821942 -0.0187328 -0.00855308 -0.00165539 0.0111745 0.0180848 -0.00743129
768 -0.00540184 0.00297017 0.00292555 0.00298295 0.00946453 -0.0130051 0.00728495 -0.0201873 0.0040575 -0.0139732 -0.0149247 -0.00641035 0.0112895 -0.00751003 -0.0127982 -0.0159663 -0.0118011 -0.00821942 -0.0187328 -0.00855308 -0.00165539 0.0111745 0.0180848 -0.00743129
769 -0.00540184 0.00297017 0.00292555 0.00298295 0.00946453 -0.0130051 0.00728495 -0.0201873 0.0040575 -0.0139732 -0.0149247 -0.00641035 0.0112895 -0.00751003 -0.0127982 -0.0159663 -0.0118011 -0.00821942 -0.0187328 -0.00855308 -0.00165539 0.0111745 0.0180848 -0.00743129
776 -0.0294941 -0.0423641 -0.0386042 0.00126084 0.0230053 -0.0418324 -0.0269316 -0.0559665 0.00369511 0.0101408 -0.0104029 -0.044529 0.040707 0.0138549 -0.0289946 -0.0422609 0.0315694 -0.00893179 0.00662095 -0.00802183 -0.0336326 0.0212846 -0.0287413 0.00268239
777 -0.101771 -0.178367 -0.163193 -0.00390548 0.0636277 -0.128314 -0.129581 -0.163304 0.00260795 0.0824831 0.00316249 -0.158885 0.12896 0.0779496 -0.0775838 -0.121145 0.161681 -0.0110689 0.0826821 -0.00642807 -0.129564 0.0516151 -0.16922 0.0330234
780 -0.00540184 0.00297017 0.00292555 0.00298295 0.00946453 -0.0130051 0.00728495 -0.0201873 0.0040575 -0.0139732 -0.0149247 -0.00641035 0.0112895 -0.00751003 -0.0127982 -0.0159663 -0.0118011 -0.00821942 -0.0187328 -0.00855308 -0.00165539 0.0111745 0.0180848 -0.00743129
781 -0.101771 -0.178367 -0.163193 -0.00390548 0.0636277 -0.128314 -0.129581 -0.163304 0.00260795 0.0824831 0.00316249 -0.158885 0.12896 0.0779496 -0.0775838 -0.121145 0.161681 -0.0110689 0.0826821 -0.00642807 -0.129564 0.0516151 -0.16922 0.0330234
784 -0.101771 -0.178367 -0.163193 -0.00390548 0.0636277 -0.128314 -0.129581 -0.163304 0.00260795 0.0824831 0.00316249 -0.158885 0.12896 0.0779496 -0.0775838 -0.121145 0.161681 -0.0110689 0.0826821 -0.00642807 -0.129564 0.0516151 -0.16922 0.0330234
789 -0.00540184 0.00297017 0.00292555 0.00298295 0.00946453 -0.0130051 0.00728495 -0.0201873 0.0040575 -0.0139732 -0.0149247 -0.00641035 0.0112895 -0.00751003 -0.0127982 -0.0159663 -0.0118011 -0.00821942 -0.0187328 -0.00855308 -0.00165539 0.0111745 0.0180848 -0.00743129
803 -0.101771 -0.178367 -0.163193 -0.00390548 0.0636277 -0.128314 -0.129581 -0.163304 0.00260795 0.0824831 0.00316249 -0.158885 0.12896 0.0779496 -0.0775838 -0.121145 0.161681 -0.0110689 0.0826821 -0.00642807 -0.129564 0.0516151 -0.16922 0.0330234
810 -0.101771 -0.178367 -0.163193 -0.00390548 0.0636277 -0.128314 -0.129581 -0.163304 0.00260795 0.0824831 0.00316249 -0.158885 0.12896 0.0779496 -0.0775838 -0.121145 0.161681 -0.0110689 0.0826821 -0.00642807 -0.129564 0.0516151 -0.16922 0.0330234
819 -0.101771 -0.178367 -0.163193 -0.00390548 0.0636277 -0.128314 -0.129581 -0.163304 0.00260795 0.0824831 0.00316249 -0.158885 0.12896 0.0779496 -0.0775838 -0.121145 0.161681 -0.0110689 0.0826821 -0.00642807 -0.129564 0.0516151 -0.16922 0.0330234
824 -0.00540184 0.00297017 0.00292555 0.00298295 0.00946453 -0.0130051 0.00728495 -0.0201873 0.0040575 -0.0139732 -0.0149247 -0.00641035 0.0112895 -0.00751003 -0.0127982 -0.0159663 -0.0118011 -0.00821942 -0.0187328 -0.00855308 -0.00165539 0.0111745 0.0180848 -0.00743129
830 -0.101771 -0.178367 -0.163193 -0.00390548 0.0636277 -0.128314 -0.129581 -0.163304 0.00260795 0.0824831 0.00316249 -0.158885 0.12896 0.0779496 -0.0775838 -0.121145 0.161681 -0.0110689 0.0826821 -0.00642807 -0.129564 0.0516151 -0.16922 0.0330234
834 -0.101771 -0.178367 -0.163193 -0.00390548 0.0636277 -0.128314 -0.129581 -0.163304 0.00260795 0.0824831 0.00316249 -0.158885 0.12896 0.0779496 -0.0775838 -0.121145 0.161681 -0.0110689 0.0826821 -0.00642807 -0.129564 0.0516151 -0.16922 0.0330234
840 -0.00540184 0.00297017 0.00292555 0.00298295 0.00946453 -0.0130051 0.00728495 -0.0201873 0.0040575 -0.0139732 -0.0149247 -0.00641035 0.0112895 -0.00751003 -0.0127982 -0.0159663 -0.0118011 -0.00821942 -0.0187328 -0.00855308 -0.00165539 0.0111745 0.0180848 -0.00743129
856 -0.0439494 -0.0695647 -0.063522 0.000227578 0.0311298 -0.0591287 -0.0474615 -0.0774341 0.00347768 0.0246093 -0.00768983 -0.0674002 0.0583575 0.0266738 -0.0387124 -0.0580377 0.0575917 -0.00935921 0.0218332 -0.00770308 -0.0528188 0.0273507 -0.056837 0.00875059
861 -0.101771 -0.178367 -0.163193 -0.00390548 0.0636277 -0.128314 -0.129581 -0.163304 0.00260795 0.0824831 0.00316249 -0.158885 0.12896 0.0779496 -0.0775838 -0.121145 0.161681 -0.0110689 0.0826821 -0.00642807 -0.129564 0.0516151 -0.16922 0.0330234
862 -0.00540184 0.00297017 0.00292555 0.00298295 0.00946453 -0.0130051 0.00728495 -0.0201873 0.0040575 -0.0139732 -0.0149247 -0.00641035 0.0112895 -0.00751003 -0.0127982 -0.0159663 -0.0118011 -0.00821942 -0.0187328 -0.00855308 -0.00165539 0.0111745 0.0180848 -0.00743129
865 -0.0535863 -0.0876984 -0.0801339 -0.000461265 0.0365461 -0.0706597 -0.0611482 -0.0917458 0.00333273 0.0342549 -0.00588111 -0.0826477 0.0701245 0.0352198 -0.045191 -0.0685555 0.0749399 -0.00964416 0.0319747 -0.00749057 -0.0656097 0.0313948 -0.0755675 0.0127961
866 -0.101771 -0.178367 -0.163193 -0.00390548 0.0636277 -0.128314 -0.129581 -0.163304 0.00260795 0.0824831 0.00316249 -0.158885 0.12896 0.0779496 -0.0775838 -0.121145 0.161681 -0.0110689 0.0826821 -0.00642807 -0.129564 0.0516151 -0.16922 0.0330234
