42 24
613 0.090744 0.0931028 -0.286176 -0.102699 -0.349278 -0.153498 0.101216 0.0789391 -0.344017 -0.32851 -0.251351 -0.124008 -0.0513242 0.508651 0.059284 0.0393407 -0.380632 -0.105516 0.0829696 -0.215997 -0.0604287 0.0378247 -0.188126 0.126424
668 0.222137 0.0401464 -0.417304 -0.141753 -0.324368 -0.0240054 0.168614 0.0852025 -0.439355 -0.22302 -0.304687 -0.0845016 -0.0482679 0.480656 -0.101507 0.100353 -0.232883 -0.193363 0.174504 -0.20295 -0.13473 0.0341501 -0.224411 0.122801
602 0.0786758 0.0814641 -0.236807 -0.0741102 -0.318626 -0.150114 0.0384646 0.102175 -0.314127 -0.280573 -0.198754 -0.159834 -0.0443507 0.435074 0.0396271 0.0387431 -0.388558 -0.0948543 0.0830499 -0.174752 -0.0989001 0.00898721 -0.197465 0.108963
74 -0.364393 0.00079937 0.0720235 -0.0793651 0.00548402 -0.369535 -0.213066 -0.241153 0.0977995 -0.353434 -0.077526 0.0423009 -0.29519 0.229882 0.386877 -0.193096 -0.35192 0.0576631 0.0789561 -0.355947 0.203862 0.217175 0.293102 0.0617995
0 -1.10659 0.0683715 0.168255 -0.305113 -0.323133 -1.56472 -0.692508 -0.802892 0.127158 -1.5544 -0.385641 -0.02849 -1.00478 1.40217 1.53912 -0.692943 -1.71936 0.1709 0.302556 -1.4533 0.67447 0.780055 0.891273 0.367517
4015 0.281041 0.1506 -0.13926 -0.0545312 -0.471347 -0.346654 0.239115 -0.0428047 -0.254695 -0.527939 -0.173425 -0.39783 -0.00545527 0.942246 0.236108 0.00375163 -0.781256 0.0578327 0.0259837 -0.304103 -0.171915 0.0109397 -0.131123 0.0858366
4008 0.195583 0.156561 -0.146637 -0.0462323 -0.486873 -0.359352 0.179182 -0.0484317 -0.269331 -0.552144 -0.186411 -0.362099 -0.00961885 0.89018 0.26221 -0.0232134 -0.768583 0.0111016 0.0492157 -0.348786 -0.140552 0.0452878 -0.122998 0.132182
4010 0.210345 0.100433 -0.146984 -0.0587357 -0.350987 -0.244389 0.213604 -0.0509917 -0.220104 -0.386967 -0.130349 -0.292864 0.00549021 0.725693 0.168345 0.0447217 -0.581207 0.0761305 0.0108765 -0.203986 -0.125861 0.0609715 -0.138404 0.0579771
4001 0.281795 0.0888625 -0.144274 -0.0150875 -0.350832 -0.22942 0.210258 -0.00517029 -0.267793 -0.385948 -0.0985159 -0.285257 0.0344171 0.743006 0.126842 0.0171686 -0.579624 0.0563085 0.0420206 -0.208927 -0.165504 0.0231999 -0.177824 0.0544751
4029 0.284516 0.12223 -0.170163 -0.0471531 -0.372433 -0.221998 0.234326 -0.027728 -0.259614 -0.372676 -0.14073 -0.298367 0.0689829 0.740759 0.127244 0.0318954 -0.603959 0.0551811 0.012909 -0.193819 -0.177412 0.00571419 -0.173955 0.0466427
3987 0.312442 0.103571 -0.122241 -0.0910494 -0.418589 -0.288996 0.320513 -0.0230712 -0.29885 -0.496429 -0.144685 -0.36975 0.00959989 0.847325 0.12681 0.0383598 -0.744541 0.101718 -0.00604685 -0.20015 -0.175713 0.0204951 -0.102127 0.0689997
4036 0.200811 0.108622 -0.131977 -0.0341328 -0.3596 -0.229434 0.208474 -0.0315414 -0.251407 -0.36994 -0.0942031 -0.304716 -0.00520282 0.71908 0.133136 0.0501883 -0.600887 0.0846692 0.0355904 -0.183194 -0.10456 0.0568471 -0.119942 0.0512098
4035 0.170991 0.0740649 -0.123313 -0.0355315 -0.329169 -0.232208 0.139551 -0.0433348 -0.156693 -0.355801 -0.118162 -0.260799 0.00793226 0.611871 0.139424 0.0194482 -0.515126 0.0216489 0.0253622 -0.185775 -0.0958355 0.0498529 -0.0706631 0.0808963
4022 0.199616 0.126489 -0.122838 -0.0425165 -0.453203 -0.334964 0.174826 -0.0760483 -0.247851 -0.469037 -0.168008 -0.330313 -0.00446724 0.832154 0.238295 0.0113222 -0.696937 0.0171928 0.0130581 -0.281476 -0.135216 0.0383955 -0.0797468 0.106468
90 -0.058463 0.296606 -0.0794749 0.221783 -0.323024 -0.344324 0.121071 0.211683 -0.224692 -0.494362 -0.282218 -0.390477 0.320282 0.493301 0.145716 -0.179747 -0.630633 0.00580105 -0.00495486 -0.323119 0.0742891 0.0658641 -0.441865 0.0351125
179 -0.134023 0.343521 -0.106018 0.206465 -0.335017 -0.442487 0.0588978 0.229829 -0.209158 -0.56621 -0.307818 -0.408086 0.348699 0.484033 0.140398 -0.188773 -0.678029 0.038722 -0.0359119 -0.375053 0.11404 0.0805317 -0.475777 0.0478283
244 0.114174 0.200236 -0.0932017 0.117576 -0.361055 -0.285144 0.0653297 0.0531356 -0.106202 -0.385642 -0.22172 -0.287168 0.102116 0.588701 0.16663 -0.0415353 -0.408806 -0.0196433 -0.0693186 -0.219135 -0.0731121 -0.0809755 -0.273141 0.231005
286 0.0465859 0.124609 -0.0845733 0.0613499 -0.27476 -0.243295 0.102364 0.0284331 -0.163803 -0.351991 -0.142047 -0.24355 0.0970238 0.485615 0.146925 -0.0451054 -0.437838 0.00284618 0.0180955 -0.232851 -0.0408261 0.00607246 -0.158915 0.060511
4024 0.269548 0.11113 -0.152881 -0.0290175 -0.393876 -0.268779 0.234229 -0.00568558 -0.266331 -0.456387 -0.127988 -0.315529 0.0121544 0.806057 0.162323 0.033281 -0.641732 0.048839 0.0460135 -0.230234 -0.149598 0.00796847 -0.153097 0.0531677
3846 0.617979 0.224705 0.032443 -0.0755339 -0.755116 -0.051575 -0.018431 -0.0501687 -0.108709 -0.266203 -0.230975 -0.592973 0.332312 0.875287 -0.0807117 -0.100651 -0.247328 -0.244972 -0.0468281 -0.139928 -0.62377 -0.353621 -0.205165 0.0590099
3746 0.634955 0.254759 0.12074 -0.0721741 -0.751487 0.0387978 -0.0690256 -0.0434939 -0.0946572 -0.233551 -0.233456 -0.615616 0.328483 0.85705 -0.133426 -0.145894 -0.220316 -0.22739 -0.0353211 -0.134697 -0.681125 -0.377725 -0.126015 0.0762965
4007 0.192077 0.155761 -0.161466 -0.0455502 -0.499537 -0.375856 0.169662 -0.0517697 -0.260155 -0.536534 -0.207593 -0.36376 -0.0282374 0.886161 0.268009 -0.00898683 -0.759518 0.00946598 0.0359785 -0.3359 -0.141939 0.0429532 -0.106958 0.0972315
3984 0.236444 0.142874 -0.13282 -0.0378286 -0.441008 -0.316916 0.210757 -0.0420881 -0.250401 -0.488416 -0.176793 -0.370884 0.0140587 0.851705 0.176947 0.0134842 -0.702018 0.0640486 0.0247146 -0.285481 -0.14064 0.0463486 -0.122528 0.0623503
42 0.335225 0.172781 -0.146962 0.148613 -0.517565 -0.213588 0.176311 -0.0188482 0.0293194 -0.153694 -0.02846 -0.150899 0.0674821 0.655108 0.26642 0.169237 -0.362419 -0.121759 -0.0688976 -0.0797692 -0.240067 -0.134585 -0.227816 0.0402305
33 0.382494 0.149132 -0.168753 0.160913 -0.536597 -0.159316 0.206809 -0.0152912 -0.01606 -0.179621 -0.012914 -0.190054 0.0665136 0.727155 0.244262 0.170954 -0.402262 -0.118451 -0.0108037 -0.0789158 -0.261594 -0.175562 -0.243232 0.0698796
4012 0.289381 0.123648 -0.150408 -0.104195 -0.391331 -0.32069 0.281821 -0.0472857 -0.241176 -0.483326 -0.152617 -0.36083 -0.0256318 0.857162 0.13368 0.0256818 -0.714919 0.10596 0.034633 -0.206395 -0.153278 0.0427382 -0.113973 0.048574
4028 0.200237 0.115236 -0.141757 -0.0599933 -0.438573 -0.331703 0.174234 -0.0385982 -0.24024 -0.516161 -0.16242 -0.313744 -0.0197335 0.846569 0.253445 -0.000924033 -0.689102 0.0461816 0.0474103 -0.310435 -0.137173 0.0444939 -0.127194 0.0864046
49 0.294641 0.208107 -0.245221 0.155249 -0.677679 -0.437223 0.175102 0.136737 -0.257732 -0.683437 -0.305509 -0.437988 0.091023 1.10708 0.332653 0.0393861 -0.853784 -0.0954138 0.0883391 -0.332882 -0.150773 -0.165573 -0.376688 0.262359
209 0.0887795 0.161269 -0.107779 0.0750084 -0.308521 -0.245377 0.11157 0.0480515 -0.15285 -0.40037 -0.196419 -0.256651 0.108037 0.525592 0.179193 -0.044536 -0.522066 -0.0103028 0.0302223 -0.232719 -0.0507953 -0.0194703 -0.225219 0.0832945
550 -0.357813 -0.00862201 0.0890645 -0.105457 0.00242086 -0.376053 -0.223366 -0.239998 0.0684963 -0.343136 -0.0746145 0.0552601 -0.299621 0.237655 0.390359 -0.207546 -0.360748 0.0604672 0.0901101 -0.343599 0.208641 0.226594 0.291531 0.0883306
2269 -0.389476 -0.00511431 0.0690634 -0.0789159 0.00856598 -0.397506 -0.240258 -0.243102 0.0916019 -0.354705 -0.0764026 0.0533511 -0.296956 0.21854 0.416104 -0.196054 -0.368722 0.0562986 0.0694737 -0.374106 0.221154 0.222497 0.278295 0.0991657
1394 -0.373288 -0.0347132 0.0806633 -0.0719899 -0.00822614 -0.397623 -0.224114 -0.240364 0.11048 -0.34539 -0.054744 0.0712083 -0.276305 0.199647 0.401842 -0.20857 -0.366495 0.0669584 0.0750768 -0.335461 0.235958 0.2267 0.289053 0.0707674
3820 0.258701 0.13364 -0.0255704 0.0101685 -0.363656 -0.119023 0.0766115 -0.00736899 -0.096676 -0.230734 -0.119762 -0.288248 0.104377 0.531146 0.054776 -0.0273029 -0.307706 -0.0815578 -0.0135354 -0.113286 -0.255226 -0.128417 -0.138084 0.0479958
3453 -0.365802 -0.00423777 0.0595556 -0.0724883 0.0233729 -0.378074 -0.218954 -0.217223 0.094381 -0.35094 -0.0533567 0.0606863 -0.30168 0.197461 0.395679 -0.187156 -0.347976 0.0716505 0.069487 -0.347081 0.211862 0.203755 0.273272 0.0920447
674 0.237016 0.0421119 -0.367072 -0.132142 -0.281281 -0.00937631 0.146637 0.03868 -0.336535 -0.206573 -0.275802 -0.0505821 0.00606905 0.465626 -0.0991802 0.0900114 -0.158823 -0.176621 0.163044 -0.132552 -0.151837 -0.00258871 -0.184388 0.0885941
12 -0.37575 -0.0303103 0.0959805 -0.0984644 0.0181828 -0.388847 -0.212708 -0.231084 0.101697 -0.382829 -0.0860117 0.066949 -0.285371 0.255858 0.403337 -0.193188 -0.375295 0.0501919 0.0733976 -0.355668 0.240466 0.249875 0.302201 0.0927465
11 -0.338247 -0.00195858 0.0955312 -0.0767796 0.0233298 -0.35991 -0.212932 -0.207688 0.0772732 -0.337314 -0.040464 0.0705522 -0.27324 0.203535 0.391151 -0.197242 -0.364366 0.0756703 0.0592313 -0.325263 0.216449 0.233373 0.273168 0.0763843
282 0.114031 0.186026 -0.11742 0.0722356 -0.378704 -0.246013 0.0415026 0.033326 -0.0664752 -0.39465 -0.164124 -0.311524 0.08558 0.559956 0.193239 -0.0547757 -0.393533 -0.0350335 -0.0597058 -0.240709 -0.0964696 -0.064864 -0.233842 0.212311
241 0.210613 0.189381 -0.24403 0.161605 -0.573142 -0.418819 0.134458 0.126337 -0.214153 -0.617247 -0.267145 -0.35649 0.0566067 0.961707 0.326358 0.0744211 -0.750325 -0.0930289 0.103583 -0.283136 -0.134371 -0.160117 -0.313765 0.259364
255 0.11332 0.151374 -0.182456 0.0942527 -0.490723 -0.397169 0.103347 0.0552719 -0.184465 -0.559657 -0.242045 -0.321728 -0.0172526 0.867163 0.335853 0.0116389 -0.703602 -0.0280645 0.0969004 -0.339174 -0.0932011 -0.0726008 -0.202985 0.216432
3183 -0.353181 -0.0138193 0.0579923 -0.077715 0.00461033 -0.374533 -0.237088 -0.225548 0.105505 -0.339626 -0.0629087 0.0661562 -0.298358 0.210354 0.380567 -0.200802 -0.377823 0.0713774 0.0637417 -0.347651 0.213951 0.219819 0.297722 0.0968812
875 -0.373491 -0.0271209 0.0863391 -0.079604 0.00536024 -0.416074 -0.244935 -0.242461 0.111938 -0.378152 -0.0708157 0.0648808 -0.312989 0.239807 0.41099 -0.222649 -0.384094 0.0823103 0.0715625 -0.361419 0.246756 0.231927 0.285845 0.0827296
