4039 24
3037 -0.351267 0.166892 -0.30318 -0.17751 0.201064 0.155874 -0.136567 0.207423 0.0461731 -0.237017 -0.202805 0.0836666 -0.260947 -0.100312 -0.218379 -0.113744 0.230199 0.113774 -0.105546 -0.129621 -0.112566 0.209355 -0.12521 -0.0844892
6 -0.156317 0.0851687 -0.156533 -0.0747536 0.0789002 0.0752923 -0.0779245 0.105111 0.00129501 -0.119906 -0.0902511 0.0463919 -0.12286 -0.0690668 -0.0936484 -0.0469282 0.106362 0.060952 -0.0368122 -0.0623858 -0.06662 0.0902967 -0.0496778 -0.0443246
3987 -0.610261 0.312383 -0.595951 -0.310245 0.332187 0.29865 -0.296749 0.443121 0.0605587 -0.457445 -0.38396 0.178736 -0.508069 -0.218888 -0.382455 -0.178054 0.41822 0.202476 -0.155259 -0.241058 -0.219095 0.352171 -0.192102 -0.129746
4033 -0.353561 0.172618 -0.329756 -0.151848 0.194344 0.172696 -0.148946 0.251748 0.020449 -0.23416 -0.215234 0.0824177 -0.248475 -0.108077 -0.219844 -0.118755 0.225645 0.119686 -0.0672069 -0.141055 -0.134008 0.206094 -0.128752 -0.0445391
4010 -0.343111 0.158959 -0.293973 -0.142373 0.180514 0.152791 -0.143332 0.206065 0.0298493 -0.247182 -0.218143 0.0752798 -0.254727 -0.117158 -0.223356 -0.0836558 0.191531 0.115604 -0.0689944 -0.123943 -0.134135 0.205663 -0.119838 -0.0716489
4016 -0.693894 0.297386 -0.665287 -0.311095 0.351423 0.295862 -0.349642 0.464742 0.0725661 -0.437544 -0.434651 0.149374 -0.477064 -0.279679 -0.45476 -0.187073 0.417482 0.239515 -0.165973 -0.255818 -0.190979 0.408514 -0.234636 -0.0712084
4007 -0.622148 0.269694 -0.593414 -0.299279 0.3281 0.258795 -0.306002 0.393928 0.0643947 -0.409117 -0.379242 0.160825 -0.458524 -0.225358 -0.382605 -0.157779 0.364926 0.209445 -0.137929 -0.219452 -0.186083 0.353878 -0.195748 -0.0692301
3990 -0.645552 0.276701 -0.623637 -0.29675 0.335043 0.274309 -0.322941 0.434713 0.0808749 -0.425121 -0.420505 0.157478 -0.452782 -0.240093 -0.426164 -0.161962 0.390619 0.2364 -0.141284 -0.260157 -0.187734 0.374526 -0.220238 -0.0970331
4025 -0.618499 0.284706 -0.588206 -0.299068 0.294177 0.274122 -0.310427 0.396056 0.0584212 -0.402038 -0.395774 0.164451 -0.443846 -0.255158 -0.397573 -0.168322 0.364638 0.22416 -0.1449 -0.213928 -0.164769 0.355178 -0.232133 -0.0673744
883 -0.172123 0.0775128 -0.145204 -0.0758311 0.106537 0.0892747 -0.0882409 0.120322 -0.00249549 -0.137777 -0.0871074 0.0436085 -0.123731 -0.0536244 -0.117261 -0.0300743 0.110208 0.0422407 -0.0332975 -0.0558187 -0.0407025 0.0760635 -0.0471734 -0.0356894
4012 -0.576919 0.307638 -0.560076 -0.271462 0.316718 0.292907 -0.256213 0.407189 0.0619543 -0.42646 -0.379047 0.136918 -0.448225 -0.199162 -0.367867 -0.183216 0.395144 0.184789 -0.135805 -0.260415 -0.198956 0.337229 -0.189556 -0.134884
3999 -0.6182 0.311504 -0.561417 -0.307698 0.312247 0.283023 -0.294401 0.402869 0.064262 -0.456781 -0.404763 0.133363 -0.468996 -0.232181 -0.38835 -0.179609 0.37056 0.199332 -0.1583 -0.234411 -0.237075 0.320964 -0.189209 -0.138881
42 -0.65283 0.298755 -0.629109 -0.316917 0.347853 0.280085 -0.310496 0.447293 0.0451724 -0.483136 -0.390971 0.174148 -0.516181 -0.255143 -0.399725 -0.209306 0.411842 0.257487 -0.155536 -0.257199 -0.250617 0.374632 -0.207091 -0.137203
154 -0.267635 0.12116 -0.251775 -0.124827 0.117843 0.114507 -0.135122 0.164345 0.0415873 -0.169698 -0.174829 0.0830469 -0.212197 -0.0868944 -0.166368 -0.0691247 0.139997 0.0894882 -0.0748719 -0.0902252 -0.110022 0.126425 -0.0699776 -0.034296
4015 -0.308033 0.140838 -0.290902 -0.127922 0.159177 0.126957 -0.122001 0.19544 0.00481044 -0.217163 -0.190808 0.0904468 -0.251919 -0.120343 -0.210788 -0.106335 0.180687 0.119311 -0.070726 -0.108007 -0.105446 0.19222 -0.0971563 -0.0795934
377 -0.241219 0.10492 -0.217541 -0.0937787 0.135562 0.0971729 -0.0936635 0.170616 0.0244137 -0.170799 -0.129234 0.0543437 -0.169758 -0.0717658 -0.144339 -0.0620674 0.160725 0.101569 -0.0497956 -0.10602 -0.087202 0.136279 -0.0884776 -0.047978
3729 -0.00223586 0.00520607 -0.00159621 0.00591451 -0.011543 -0.00240786 -0.0106385 -0.0101382 -0.018174 0.00826775 -0.00221299 0.0146794 0.00823967 -0.0159473 0.0148483 0.0129177 -0.0168338 -0.00905829 0.00728311 -0.0093927 0.0118099 -0.010284 -0.00936802 0.00995911
11 -0.177555 0.0922806 -0.179423 -0.0897983 0.115713 0.0967701 -0.0923877 0.144699 0.0149293 -0.133447 -0.108485 0.0654839 -0.156713 -0.05437 -0.129253 -0.0433977 0.111361 0.0627811 -0.0332743 -0.0560734 -0.0546888 0.0891982 -0.0724545 -0.0380099
90 -0.608418 0.300927 -0.52581 -0.28325 0.317159 0.252534 -0.290925 0.392144 0.04265 -0.43403 -0.362887 0.142778 -0.433327 -0.207966 -0.375023 -0.183833 0.38026 0.182855 -0.176839 -0.232802 -0.218224 0.343273 -0.189667 -0.0978495
3846 -0.55081 0.255876 -0.521375 -0.246926 0.281437 0.268301 -0.254975 0.371708 0.0518206 -0.419471 -0.35421 0.122586 -0.432126 -0.181042 -0.335566 -0.171635 0.365328 0.193018 -0.130652 -0.248355 -0.205424 0.294403 -0.19147 -0.127797
3746 -0.57566 0.290864 -0.540767 -0.276253 0.305311 0.290183 -0.245732 0.379489 0.0536329 -0.420036 -0.383816 0.152897 -0.428306 -0.18365 -0.35981 -0.187958 0.35648 0.1869 -0.137857 -0.236413 -0.22565 0.300913 -0.192704 -0.135031
33 -0.637548 0.298304 -0.635338 -0.311789 0.347296 0.303054 -0.303964 0.458439 0.0486046 -0.469925 -0.406278 0.169547 -0.529039 -0.257915 -0.409776 -0.180884 0.397413 0.260576 -0.174403 -0.270887 -0.224584 0.371319 -0.235797 -0.114192
3983 -0.34564 0.170789 -0.294143 -0.169666 0.158816 0.159178 -0.16928 0.236939 0.0409772 -0.213805 -0.226437 0.0799594 -0.252438 -0.105183 -0.196986 -0.113244 0.187888 0.0981461 -0.076516 -0.134467 -0.111599 0.191832 -0.112312 -0.0493255
4001 -0.633379 0.310085 -0.6446 -0.281791 0.292728 0.281156 -0.328999 0.435931 0.0500189 -0.57361 -0.36915 0.168661 -0.600996 -0.312376 -0.43537 -0.158678 0.3599 0.301448 -0.171144 -0.221699 -0.309308 0.357595 -0.222172 -0.189677
4005 -0.453136 0.232633 -0.418645 -0.219367 0.239562 0.206252 -0.225695 0.308697 0.0203984 -0.312046 -0.268499 0.110077 -0.329722 -0.157597 -0.289932 -0.145385 0.291011 0.177247 -0.105117 -0.182884 -0.147588 0.266649 -0.143237 -0.0933783
4024 -0.277073 0.121286 -0.25972 -0.140188 0.13963 0.140076 -0.124613 0.193649 0.0361028 -0.225422 -0.182518 0.0735565 -0.224669 -0.119516 -0.198394 -0.0963985 0.187794 0.0833277 -0.0559724 -0.121031 -0.0859973 0.147856 -0.0951711 -0.0736942
4029 -0.676744 0.354199 -0.669095 -0.295148 0.328805 0.29708 -0.355121 0.464794 0.0365529 -0.567907 -0.401448 0.155265 -0.622091 -0.314667 -0.449951 -0.17865 0.389954 0.299271 -0.19625 -0.252796 -0.290409 0.395562 -0.244101 -0.188647
4006 -0.367814 0.152405 -0.352868 -0.163403 0.209754 0.157913 -0.181028 0.234542 0.0297597 -0.275265 -0.223602 0.0949184 -0.259293 -0.14279 -0.222058 -0.0929059 0.20861 0.111905 -0.0827327 -0.125178 -0.145581 0.181218 -0.109106 -0.0869672
3984 -0.321397 0.167084 -0.310216 -0.152376 0.179644 0.17064 -0.138322 0.211421 0.014147 -0.232196 -0.199368 0.0645667 -0.272187 -0.13671 -0.227855 -0.091882 0.188068 0.129843 -0.0806038 -0.120614 -0.127261 0.204592 -0.0981219 -0.0508408
3407 -0.549489 0.264068 -0.517875 -0.25071 0.29506 0.276552 -0.272459 0.360813 0.0240488 -0.394099 -0.345007 0.161954 -0.412418 -0.210628 -0.363976 -0.160981 0.348789 0.209051 -0.124142 -0.247676 -0.213069 0.317821 -0.196483 -0.107807
3268 -0.553541 0.266478 -0.529002 -0.241606 0.290127 0.23887 -0.270109 0.392957 0.0343306 -0.406152 -0.333004 0.14463 -0.439241 -0.223263 -0.328447 -0.15843 0.350405 0.19595 -0.154675 -0.249878 -0.181543 0.324807 -0.207799 -0.112358
443 -0.0203335 0.00458446 0.00932789 -0.0177993 0.0142998 0.00290854 0.00889355 0.0155579 -0.0180455 0.00111192 -0.020361 0.000369586 0.00329306 0.0131523 0.0098571 0.00155177 -0.00271742 -0.00506613 0.0202734 -0.0155935 0.00278941 0.00654567 0.0131 0.00582376
256 -0.459135 0.251332 -0.421777 -0.203358 0.260882 0.234362 -0.212245 0.295693 0.0490931 -0.340194 -0.292098 0.116687 -0.376516 -0.185324 -0.302181 -0.123229 0.30357 0.167962 -0.135146 -0.200479 -0.175486 0.275918 -0.138605 -0.085721
179 -0.764819 0.37856 -0.694642 -0.368674 0.402482 0.327797 -0.325338 0.498332 0.0319465 -0.566877 -0.453818 0.203825 -0.576521 -0.291843 -0.481208 -0.211847 0.487292 0.238781 -0.210395 -0.328954 -0.286135 0.42647 -0.273965 -0.164324
145 -0.595212 0.319758 -0.550904 -0.302662 0.354164 0.302309 -0.301612 0.418095 0.0261513 -0.485518 -0.399145 0.163505 -0.469677 -0.218176 -0.410406 -0.179861 0.3881 0.225779 -0.191065 -0.27833 -0.255803 0.336775 -0.223195 -0.112913
3992 -0.34257 0.181292 -0.341862 -0.158883 0.191059 0.165743 -0.18184 0.252107 0.024676 -0.248138 -0.238802 0.110562 -0.280863 -0.151939 -0.233166 -0.106163 0.203683 0.110098 -0.109956 -0.136499 -0.116297 0.205003 -0.10361 -0.075468
335 -0.131343 0.0405139 -0.117933 -0.0442349 0.0542343 0.0629867 -0.0529314 0.0824732 0.0216 -0.0938878 -0.0849539 0.0374256 -0.100113 -0.0634424 -0.0838435 -0.0314481 0.0593918 0.0588452 -0.0467974 -0.0639978 -0.0365928 0.0677961 -0.0328232 -0.0313569
209 -0.169692 0.0768744 -0.138488 -0.0891254 0.102781 0.0957056 -0.0678616 0.121802 -0.00162437 -0.10146 -0.0921557 0.0618358 -0.107207 -0.0496985 -0.100676 -0.0556958 0.0843449 0.0766309 -0.0234166 -0.0852698 -0.072849 0.101042 -0.0469071 -0.0323461
4036 -0.552513 0.300018 -0.54181 -0.26081 0.316587 0.248219 -0.251616 0.38158 0.0658143 -0.398414 -0.34313 0.13397 -0.420286 -0.231907 -0.357261 -0.176313 0.353254 0.208305 -0.16142 -0.225166 -0.1977 0.310733 -0.194197 -0.111902
233 -0.492487 0.223188 -0.455572 -0.23624 0.261111 0.224956 -0.221647 0.339768 0.0604225 -0.341561 -0.313331 0.127204 -0.367125 -0.192443 -0.325692 -0.155003 0.289242 0.167384 -0.130799 -0.193941 -0.18224 0.28906 -0.18202 -0.0792969
210 -0.167548 0.0790074 -0.155293 -0.0733644 0.0691157 0.0745973 -0.0838277 0.120875 -0.00212353 -0.135565 -0.0873338 0.0524705 -0.131321 -0.0612993 -0.0933748 -0.0549118 0.101611 0.073655 -0.0556869 -0.0671162 -0.0696057 0.103605 -0.0570953 -0.0491426
581 -0.364187 0.183072 -0.36357 -0.190982 0.218547 0.162602 -0.161875 0.265427 0.0271842 -0.265685 -0.244772 0.0969397 -0.302391 -0.155523 -0.246713 -0.134005 0.25738 0.139562 -0.110001 -0.165093 -0.140133 0.211801 -0.125896 -0.077949
15 -0.145086 0.0913301 -0.157774 -0.0761428 0.0886846 0.0759874 -0.0720214 0.0893478 0.00471354 -0.104247 -0.0931684 0.0403134 -0.114398 -0.0768344 -0.093922 -0.0389445 0.111113 0.0482489 -0.0179375 -0.0576554 -0.0636344 0.0769884 -0.0422604 -0.0395066
12 -0.167548 0.0790074 -0.155293 -0.0733644 0.0691157 0.0745973 -0.0838277 0.120875 -0.00212353 -0.135565 -0.0873338 0.0524705 -0.131321 -0.0612993 -0.0933748 -0.0549118 0.101611 0.073655 -0.0556869 -0.0671162 -0.0696057 0.103605 -0.0570953 -0.0491426
13 -0.267635 0.12116 -0.251775 -0.124827 0.117843 0.114507 -0.135122 0.164345 0.0415873 -0.169698 -0.174829 0.0830469 -0.212197 -0.0868944 -0.166368 -0.0691247 0.139997 0.0894882 -0.0748719 -0.0902252 -0.110022 0.126425 -0.0699776 -0.034296
23 -0.169692 0.0768744 -0.138488 -0.0891254 0.102781 0.0957056 -0.0678616 0.121802 -0.00162437 -0.10146 -0.0921557 0.0618358 -0.107207 -0.0496985 -0.100676 -0.0556958 0.0843449 0.0766309 -0.0234166 -0.0852698 -0.072849 0.101042 -0.0469071 -0.0323461
28 -0.608418 0.300927 -0.52581 -0.28325 0.317159 0.252534 -0.290925 0.392144 0.04265 -0.43403 -0.362887 0.142778 -0.433327 -0.207966 -0.375023 -0.183833 0.38026 0.182855 -0.176839 -0.232802 -0.218224 0.343273 -0.189667 -0.0978495
29 -0.177555 0.0922806 -0.179423 -0.0897983 0.115713 0.0967701 -0.0923877 0.144699 0.0149293 -0.133447 -0.108485 0.0654839 -0.156713 -0.05437 -0.129253 -0.0433977 0.111361 0.0627811 -0.0332743 -0.0560734 -0.0546888 0.0891982 -0.0724545 -0.0380099
34 -0.65283 0.298755 -0.629109 -0.316917 0.347853 0.280085 -0.310496 0.447293 0.0451724 -0.483136 -0.390971 0.174148 -0.516181 -0.255143 -0.399725 -0.209306 0.411842 0.257487 -0.155536 -0.257199 -0.250617 0.374632 -0.207091 -0.137203
35 -0.520911 0.256215 -0.493842 -0.253911 0.279673 0.227957 -0.235952 0.344991 0.0272775 -0.384753 -0.312652 0.139429 -0.402367 -0.20794 -0.324952 -0.153366 0.336749 0.181506 -0.127956 -0.214603 -0.200129 0.292697 -0.174439 -0.113678
37 -0.637559 0.316008 -0.573271 -0.301731 0.33768 0.278254 -0.284537 0.416392 0.0415222 -0.464349 -0.384665 0.162989 -0.477123 -0.238461 -0.403077 -0.183063 0.402173 0.202486 -0.178687 -0.263841 -0.236083 0.361562 -0.217408 -0.121956
48 -0.645189 0.29853 -0.632224 -0.314353 0.347574 0.29157 -0.30723 0.452866 0.0468885 -0.47653 -0.398625 0.171848 -0.52261 -0.256529 -0.404751 -0.195095 0.404628 0.259032 -0.16497 -0.264043 -0.237601 0.372975 -0.221444 -0.125697
53 -0.764819 0.37856 -0.694642 -0.368674 0.402482 0.327797 -0.325338 0.498332 0.0319465 -0.566877 -0.453818 0.203825 -0.576521 -0.291843 -0.481208 -0.211847 0.487292 0.238781 -0.210395 -0.328954 -0.286135 0.42647 -0.273965 -0.164324
61 -0.145086 0.0913301 -0.157774 -0.0761428 0.0886846 0.0759874 -0.0720214 0.0893478 0.00471354 -0.104247 -0.0931684 0.0403134 -0.114398 -0.0768344 -0.093922 -0.0389445 0.111113 0.0482489 -0.0179375 -0.0576554 -0.0636344 0.0769884 -0.0422604 -0.0395066
63 -0.33109 0.150031 -0.29703 -0.162683 0.181946 0.160331 -0.144754 0.230785 0.0293991 -0.221511 -0.202743 0.0945198 -0.237166 -0.121071 -0.213184 -0.105349 0.186793 0.122007 -0.077108 -0.139605 -0.127544 0.195051 -0.114464 -0.0558215
70 -0.608418 0.300927 -0.52581 -0.28325 0.317159 0.252534 -0.290925 0.392144 0.04265 -0.43403 -0.362887 0.142778 -0.433327 -0.207966 -0.375023 -0.183833 0.38026 0.182855 -0.176839 -0.232802 -0.218224 0.343273 -0.189667 -0.0978495
71 -0.145086 0.0913301 -0.157774 -0.0761428 0.0886846 0.0759874 -0.0720214 0.0893478 0.00471354 -0.104247 -0.0931684 0.0403134 -0.114398 -0.0768344 -0.093922 -0.0389445 0.111113 0.0482489 -0.0179375 -0.0576554 -0.0636344 0.0769884 -0.0422604 -0.0395066
74 -0.177555 0.0922806 -0.179423 -0.0897983 0.115713 0.0967701 -0.0923877 0.144699 0.0149293 -0.133447 -0.108485 0.0654839 -0.156713 -0.05437 -0.129253 -0.0433977 0.111361 0.0627811 -0.0332743 -0.0560734 -0.0546888 0.0891982 -0.0724545 -0.0380099
85 -0.595212 0.319758 -0.550904 -0.302662 0.354164 0.302309 -0.301612 0.418095 0.0261513 -0.485518 -0.399145 0.163505 -0.469677 -0.218176 -0.410406 -0.179861 0.3881 0.225779 -0.191065 -0.27833 -0.255803 0.336775 -0.223195 -0.112913
86 -0.167548 0.0790074 -0.155293 -0.0733644 0.0691157 0.0745973 -0.0838277 0.120875 -0.00212353 -0.135565 -0.0873338 0.0524705 -0.131321 -0.0612993 -0.0933748 -0.0549118 0.101611 0.073655 -0.0556869 -0.0671162 -0.0696057 0.103605 -0.0570953 -0.0491426
89 -0.233562 0.100999 -0.218315 -0.104679 0.101941 0.101627 -0.114575 0.143877 0.0365905 -0.150745 -0.152361 0.0716416 -0.184176 -0.0810314 -0.145737 -0.0597055 0.119846 0.0818274 -0.0678533 -0.0836683 -0.091665 0.111768 -0.060689 -0.0335613
91 -0.131343 0.0405139 -0.117933 -0.0442349 0.0542343 0.0629867 -0.0529314 0.0824732 0.0216 -0.0938878 -0.0849539 0.0374256 -0.100113 -0.0634424 -0.0838435 -0.0314481 0.0593918 0.0588452 -0.0467974 -0.0639978 -0.0365928 0.0677961 -0.0328232 -0.0313569
95 -0.267635 0.12116 -0.251775 -0.124827 0.117843 0.114507 -0.135122 0.164345 0.0415873 -0.169698 -0.174829 0.0830469 -0.212197 -0.0868944 -0.166368 -0.0691247 0.139997 0.0894882 -0.0748719 -0.0902252 -0.110022 0.126425 -0.0699776 -0.034296
99 -0.311915 0.131851 -0.286753 -0.140238 0.157673 0.143972 -0.137289 0.211121 0.0410112 -0.217725 -0.199142 0.0823147 -0.233619 -0.127942 -0.204768 -0.0932256 0.174317 0.113115 -0.0887984 -0.128969 -0.109416 0.178428 -0.107422 -0.0553269
100 -0.459135 0.251332 -0.421777 -0.203358 0.260882 0.234362 -0.212245 0.295693 0.0490931 -0.340194 -0.292098 0.116687 -0.376516 -0.185324 -0.302181 -0.123229 0.30357 0.167962 -0.135146 -0.200479 -0.175486 0.275918 -0.138605 -0.085721
102 -0.595212 0.319758 -0.550904 -0.302662 0.354164 0.302309 -0.301612 0.418095 0.0261513 -0.485518 -0.399145 0.163505 -0.469677 -0.218176 -0.410406 -0.179861 0.3881 0.225779 -0.191065 -0.27833 -0.255803 0.336775 -0.223195 -0.112913
115 -0.764819 0.37856 -0.694642 -0.368674 0.402482 0.327797 -0.325338 0.498332 0.0319465 -0.566877 -0.453818 0.203825 -0.576521 -0.291843 -0.481208 -0.211847 0.487292 0.238781 -0.210395 -0.328954 -0.286135 0.42647 -0.273965 -0.164324
124 -0.267635 0.12116 -0.251775 -0.124827 0.117843 0.114507 -0.135122 0.164345 0.0415873 -0.169698 -0.174829 0.0830469 -0.212197 -0.0868944 -0.166368 -0.0691247 0.139997 0.0894882 -0.0748719 -0.0902252 -0.110022 0.126425 -0.0699776 -0.034296
126 -0.267635 0.12116 -0.251775 -0.124827 0.117843 0.114507 -0.135122 0.164345 0.0415873 -0.169698 -0.174829 0.0830469 -0.212197 -0.0868944 -0.166368 -0.0691247 0.139997 0.0894882 -0.0748719 -0.0902252 -0.110022 0.126425 -0.0699776 -0.034296
130 -0.459135 0.251332 -0.421777 -0.203358 0.260882 0.234362 -0.212245 0.295693 0.0490931 -0.340194 -0.292098 0.116687 -0.376516 -0.185324 -0.302181 -0.123229 0.30357 0.167962 -0.135146 -0.200479 -0.175486 0.275918 -0.138605 -0.085721
144 -0.492487 0.223188 -0.455572 -0.23624 0.261111 0.224956 -0.221647 0.339768 0.0604225 -0.341561 -0.313331 0.127204 -0.367125 -0.192443 -0.325692 -0.155003 0.289242 0.167384 -0.130799 -0.193941 -0.18224 0.28906 -0.18202 -0.0792969
148 -0.65283 0.298755 -0.629109 -0.316917 0.347853 0.280085 -0.310496 0.447293 0.0451724 -0.483136 -0.390971 0.174148 -0.516181 -0.255143 -0.399725 -0.209306 0.411842 0.257487 -0.155536 -0.257199 -0.250617 0.374632 -0.207091 -0.137203
149 -0.167548 0.0790074 -0.155293 -0.0733644 0.0691157 0.0745973 -0.0838277 0.120875 -0.00212353 -0.135565 -0.0873338 0.0524705 -0.131321 -0.0612993 -0.0933748 -0.0549118 0.101611 0.073655 -0.0556869 -0.0671162 -0.0696057 0.103605 -0.0570953 -0.0491426
157 -0.492487 0.223188 -0.455572 -0.23624 0.261111 0.224956 -0.221647 0.339768 0.0604225 -0.341561 -0.313331 0.127204 -0.367125 -0.192443 -0.325692 -0.155003 0.289242 0.167384 -0.130799 -0.193941 -0.18224 0.28906 -0.18202 -0.0792969
158 -0.177555 0.0922806 -0.179423 -0.0897983 0.115713 0.0967701 -0.0923877 0.144699 0.0149293 -0.133447 -0.108485 0.0654839 -0.156713 -0.05437 -0.129253 -0.0433977 0.111361 0.0627811 -0.0332743 -0.0560734 -0.0546888 0.0891982 -0.0724545 -0.0380099
164 -0.131343 0.0405139 -0.117933 -0.0442349 0.0542343 0.0629867 -0.0529314 0.0824732 0.0216 -0.0938878 -0.0849539 0.0374256 -0.100113 -0.0634424 -0.0838435 -0.0314481 0.0593918 0.0588452 -0.0467974 -0.0639978 -0.0365928 0.0677961 -0.0328232 -0.0313569
166 -0.167548 0.0790074 -0.155293 -0.0733644 0.0691157 0.0745973 -0.0838277 0.120875 -0.00212353 -0.135565 -0.0873338 0.0524705 -0.131321 -0.0612993 -0.0933748 -0.0549118 0.101611 0.073655 -0.0556869 -0.0671162 -0.0696057 0.103605 -0.0570953 -0.0491426
167 -0.492487 0.223188 -0.455572 -0.23624 0.261111 0.224956 -0.221647 0.339768 0.0604225 -0.341561 -0.313331 0.127204 -0.367125 -0.192443 -0.325692 -0.155003 0.289242 0.167384 -0.130799 -0.193941 -0.18224 0.28906 -0.18202 -0.0792969
174 -0.614648 0.283461 -0.596893 -0.29873 0.330282 0.278247 -0.290113 0.430246 0.0495953 -0.449537 -0.381566 0.162919 -0.491513 -0.243711 -0.388939 -0.187076 0.381551 0.240702 -0.158136 -0.250023 -0.226528 0.356192 -0.213559 -0.116417
182 -0.637548 0.298304 -0.635338 -0.311789 0.347296 0.303054 -0.303964 0.458439 0.0486046 -0.469925 -0.406278 0.169547 -0.529039 -0.257915 -0.409776 -0.180884 0.397413 0.260576 -0.174403 -0.270887 -0.224584 0.371319 -0.235797 -0.114192
183 -0.683317 0.344451 -0.6165 -0.330815 0.369072 0.30261 -0.310803 0.451726 0.0331736 -0.513325 -0.417417 0.178483 -0.514011 -0.252457 -0.436961 -0.196847 0.435736 0.221549 -0.197173 -0.29226 -0.261574 0.383247 -0.240198 -0.134853
192 -0.145086 0.0913301 -0.157774 -0.0761428 0.0886846 0.0759874 -0.0720214 0.0893478 0.00471354 -0.104247 -0.0931684 0.0403134 -0.114398 -0.0768344 -0.093922 -0.0389445 0.111113 0.0482489 -0.0179375 -0.0576554 -0.0636344 0.0769884 -0.0422604 -0.0395066
204 -0.131343 0.0405139 -0.117933 -0.0442349 0.0542343 0.0629867 -0.0529314 0.0824732 0.0216 -0.0938878 -0.0849539 0.0374256 -0.100113 -0.0634424 -0.0838435 -0.0314481 0.0593918 0.0588452 -0.0467974 -0.0639978 -0.0365928 0.0677961 -0.0328232 -0.0313569
205 -0.701183 0.338432 -0.66499 -0.340231 0.374889 0.315426 -0.314651 0.478385 0.0402756 -0.518401 -0.430048 0.186686 -0.55278 -0.274879 -0.445492 -0.196365 0.442353 0.249679 -0.192399 -0.29992 -0.25536 0.398894 -0.254881 -0.139258
218 -0.459135 0.251332 -0.421777 -0.203358 0.260882 0.234362 -0.212245 0.295693 0.0490931 -0.340194 -0.292098 0.116687 -0.376516 -0.185324 -0.302181 -0.123229 0.30357 0.167962 -0.135146 -0.200479 -0.175486 0.275918 -0.138605 -0.085721
219 -0.206361 0.106245 -0.204775 -0.100485 0.103264 0.0952471 -0.103572 0.126846 0.0231504 -0.136973 -0.133999 0.0616801 -0.163297 -0.0818644 -0.130145 -0.0540346 0.125555 0.0688685 -0.0464047 -0.0739403 -0.0868284 0.101707 -0.056119 -0.0369013
225 -0.177555 0.0922806 -0.179423 -0.0897983 0.115713 0.0967701 -0.0923877 0.144699 0.0149293 -0.133447 -0.108485 0.0654839 -0.156713 -0.05437 -0.129253 -0.0433977 0.111361 0.0627811 -0.0332743 -0.0560734 -0.0546888 0.0891982 -0.0724545 -0.0380099
227 -0.267635 0.12116 -0.251775 -0.124827 0.117843 0.114507 -0.135122 0.164345 0.0415873 -0.169698 -0.174829 0.0830469 -0.212197 -0.0868944 -0.166368 -0.0691247 0.139997 0.0894882 -0.0748719 -0.0902252 -0.110022 0.126425 -0.0699776 -0.034296
229 -0.65283 0.298755 -0.629109 -0.316917 0.347853 0.280085 -0.310496 0.447293 0.0451724 -0.483136 -0.390971 0.174148 -0.516181 -0.255143 -0.399725 -0.209306 0.411842 0.257487 -0.155536 -0.257199 -0.250617 0.374632 -0.207091 -0.137203
240 -0.145086 0.0913301 -0.157774 -0.0761428 0.0886846 0.0759874 -0.0720214 0.0893478 0.00471354 -0.104247 -0.0931684 0.0403134 -0.114398 -0.0768344 -0.093922 -0.0389445 0.111113 0.0482489 -0.0179375 -0.0576554 -0.0636344 0.0769884 -0.0422604 -0.0395066
241 -0.169692 0.0768744 -0.138488 -0.0891254 0.102781 0.0957056 -0.0678616 0.121802 -0.00162437 -0.10146 -0.0921557 0.0618358 -0.107207 -0.0496985 -0.100676 -0.0556958 0.0843449 0.0766309 -0.0234166 -0.0852698 -0.072849 0.101042 -0.0469071 -0.0323461
243 -0.475811 0.23726 -0.438675 -0.219799 0.260997 0.229659 -0.216946 0.31773 0.0547578 -0.340878 -0.302714 0.121945 -0.371821 -0.188883 -0.313937 -0.139116 0.296406 0.167673 -0.132973 -0.19721 -0.178863 0.282489 -0.160313 -0.0825089
249 -0.65283 0.298755 -0.629109 -0.316917 0.347853 0.280085 -0.310496 0.447293 0.0451724 -0.483136 -0.390971 0.174148 -0.516181 -0.255143 -0.399725 -0.209306 0.411842 0.257487 -0.155536 -0.257199 -0.250617 0.374632 -0.207091 -0.137203
252 -0.167548 0.0790074 -0.155293 -0.0733644 0.0691157 0.0745973 -0.0838277 0.120875 -0.00212353 -0.135565 -0.0873338 0.0524705 -0.131321 -0.0612993 -0.0933748 -0.0549118 0.101611 0.073655 -0.0556869 -0.0671162 -0.0696057 0.103605 -0.0570953 -0.0491426
258 -0.131343 0.0405139 -0.117933 -0.0442349 0.0542343 0.0629867 -0.0529314 0.0824732 0.0216 -0.0938878 -0.0849539 0.0374256 -0.100113 -0.0634424 -0.0838435 -0.0314481 0.0593918 0.0588452 -0.0467974 -0.0639978 -0.0365928 0.0677961 -0.0328232 -0.0313569
259 -0.131343 0.0405139 -0.117933 -0.0442349 0.0542343 0.0629867 -0.0529314 0.0824732 0.0216 -0.0938878 -0.0849539 0.0374256 -0.100113 -0.0634424 -0.0838435 -0.0314481 0.0593918 0.0588452 -0.0467974 -0.0639978 -0.0365928 0.0677961 -0.0328232 -0.0313569
278 -0.645189 0.29853 -0.632224 -0.314353 0.347574 0.29157 -0.30723 0.452866 0.0468885 -0.47653 -0.398625 0.171848 -0.52261 -0.256529 -0.404751 -0.195095 0.404628 0.259032 -0.16497 -0.264043 -0.237601 0.372975 -0.221444 -0.125697
280 -0.145086 0.0913301 -0.157774 -0.0761428 0.0886846 0.0759874 -0.0720214 0.0893478 0.00471354 -0.104247 -0.0931684 0.0403134 -0.114398 -0.0768344 -0.093922 -0.0389445 0.111113 0.0482489 -0.0179375 -0.0576554 -0.0636344 0.0769884 -0.0422604 -0.0395066
281 -0.595212 0.319758 -0.550904 -0.302662 0.354164 0.302309 -0.301612 0.418095 0.0261513 -0.485518 -0.399145 0.163505 -0.469677 -0.218176 -0.410406 -0.179861 0.3881 0.225779 -0.191065 -0.27833 -0.255803 0.336775 -0.223195 -0.112913
284 -0.764819 0.37856 -0.694642 -0.368674 0.402482 0.327797 -0.325338 0.498332 0.0319465 -0.566877 -0.453818 0.203825 -0.576521 -0.291843 -0.481208 -0.211847 0.487292 0.238781 -0.210395 -0.328954 -0.286135 0.42647 -0.273965 -0.164324
286 -0.313342 0.16517 -0.288535 -0.138361 0.164999 0.15448 -0.148036 0.208284 0.0234848 -0.23788 -0.189716 0.0845789 -0.253918 -0.123312 -0.197778 -0.0890703 0.202591 0.120809 -0.0954164 -0.133798 -0.122546 0.189762 -0.0978501 -0.0674318
292 -0.764819 0.37856 -0.694642 -0.368674 0.402482 0.327797 -0.325338 0.498332 0.0319465 -0.566877 -0.453818 0.203825 -0.576521 -0.291843 -0.481208 -0.211847 0.487292 0.238781 -0.210395 -0.328954 -0.286135 0.42647 -0.273965 -0.164324
301 -0.267635 0.12116 -0.251775 -0.124827 0.117843 0.114507 -0.135122 0.164345 0.0415873 -0.169698 -0.174829 0.0830469 -0.212197 -0.0868944 -0.166368 -0.0691247 0.139997 0.0894882 -0.0748719 -0.0902252 -0.110022 0.126425 -0.0699776 -0.034296
308 -0.131343 0.0405139 -0.117933 -0.0442349 0.0542343 0.0629867 -0.0529314 0.0824732 0.0216 -0.0938878 -0.0849539 0.0374256 -0.100113 -0.0634424 -0.0838435 -0.0314481 0.0593918 0.0588452 -0.0467974 -0.0639978 -0.0365928 0.0677961 -0.0328232 -0.0313569
319 -0.267635 0.12116 -0.251775 -0.124827 0.117843 0.114507 -0.135122 0.164345 0.0415873 -0.169698 -0.174829 0.0830469 -0.212197 -0.0868944 -0.166368 -0.0691247 0.139997 0.0894882 -0.0748719 -0.0902252 -0.110022 0.126425 -0.0699776 -0.034296
322 -0.267635 0.12116 -0.251775 -0.124827 0.117843 0.114507 -0.135122 0.164345 0.0415873 -0.169698 -0.174829 0.0830469 -0.212197 -0.0868944 -0.166368 -0.0691247 0.139997 0.0894882 -0.0748719 -0.0902252 -0.110022 0.126425 -0.0699776 -0.034296
324 -0.131343 0.0405139 -0.117933 -0.0442349 0.0542343 0.0629867 -0.0529314 0.0824732 0.0216 -0.0938878 -0.0849539 0.0374256 -0.100113 -0.0634424 -0.0838435 -0.0314481 0.0593918 0.0588452 -0.0467974 -0.0639978 -0.0365928 0.0677961 -0.0328232 -0.0313569
327 -0.267635 0.12116 -0.251775 -0.124827 0.117843 0.114507 -0.135122 0.164345 0.0415873 -0.169698 -0.174829 0.0830469 -0.212197 -0.0868944 -0.166368 -0.0691247 0.139997 0.0894882 -0.0748719 -0.0902252 -0.110022 0.126425 -0.0699776 -0.034296
336 -0.65283 0.298755 -0.629109 -0.316917 0.347853 0.280085 -0.310496 0.447293 0.0451724 -0.483136 -0.390971 0.174148 -0.516181 -0.255143 -0.399725 -0.209306 0.411842 0.257487 -0.155536 -0.257199 -0.250617 0.374632 -0.207091 -0.137203
339 -0.145086 0.0913301 -0.157774 -0.0761428 0.0886846 0.0759874 -0.0720214 0.0893478 0.00471354 -0.104247 -0.0931684 0.0403134 -0.114398 -0.0768344 -0.093922 -0.0389445 0.111113 0.0482489 -0.0179375 -0.0576554 -0.0636344 0.0769884 -0.0422604 -0.0395066
3003 -0.267635 0.12116 -0.251775 -0.124827 0.117843 0.114507 -0.135122 0.164345 0.0415873 -0.169698 -0.174829 0.0830469 -0.212197 -0.0868944 -0.166368 -0.0691247 0.139997 0.0894882 -0.0748719 -0.0902252 -0.110022 0.126425 -0.0699776 -0.034296
1171 -0.549489 0.264068 -0.517875 -0.25071 0.29506 0.276552 -0.272459 0.360813 0.0240488 -0.394099 -0.345007 0.161954 -0.412418 -0.210628 -0.363976 -0.160981 0.348789 0.209051 -0.124142 -0.247676 -0.213069 0.317821 -0.196483 -0.107807
1645 -0.0203335 0.00458446 0.00932789 -0.0177993 0.0142998 0.00290854 0.00889355 0.0155579 -0.0180455 0.00111192 -0.020361 0.000369586 0.00329306 0.0131523 0.0098571 0.00155177 -0.00271742 -0.00506613 0.0202734 -0.0155935 0.00278941 0.00654567 0.0131 0.00582376
549 -0.693894 0.297386 -0.665287 -0.311095 0.351423 0.295862 -0.349642 0.464742 0.0725661 -0.437544 -0.434651 0.149374 -0.477064 -0.279679 -0.45476 -0.187073 0.417482 0.239515 -0.165973 -0.255818 -0.190979 0.408514 -0.234636 -0.0712084
364 -0.241219 0.10492 -0.217541 -0.0937787 0.135562 0.0971729 -0.0936635 0.170616 0.0244137 -0.170799 -0.129234 0.0543437 -0.169758 -0.0717658 -0.144339 -0.0620674 0.160725 0.101569 -0.0497956 -0.10602 -0.087202 0.136279 -0.0884776 -0.047978
564 -0.364187 0.183072 -0.36357 -0.190982 0.218547 0.162602 -0.161875 0.265427 0.0271842 -0.265685 -0.244772 0.0969397 -0.302391 -0.155523 -0.246713 -0.134005 0.25738 0.139562 -0.110001 -0.165093 -0.140133 0.211801 -0.125896 -0.077949
369 -0.241219 0.10492 -0.217541 -0.0937787 0.135562 0.0971729 -0.0936635 0.170616 0.0244137 -0.170799 -0.129234 0.0543437 -0.169758 -0.0717658 -0.144339 -0.0620674 0.160725 0.101569 -0.0497956 -0.10602 -0.087202 0.136279 -0.0884776 -0.047978
383 -0.241219 0.10492 -0.217541 -0.0937787 0.135562 0.0971729 -0.0936635 0.170616 0.0244137 -0.170799 -0.129234 0.0543437 -0.169758 -0.0717658 -0.144339 -0.0620674 0.160725 0.101569 -0.0497956 -0.10602 -0.087202 0.136279 -0.0884776 -0.047978
437 -0.0203335 0.00458446 0.00932789 -0.0177993 0.0142998 0.00290854 0.00889355 0.0155579 -0.0180455 0.00111192 -0.020361 0.000369586 0.00329306 0.0131523 0.0098571 0.00155177 -0.00271742 -0.00506613 0.0202734 -0.0155935 0.00278941 0.00654567 0.0131 0.00582376
453 -0.0203335 0.00458446 0.00932789 -0.0177993 0.0142998 0.00290854 0.00889355 0.0155579 -0.0180455 0.00111192 -0.020361 0.000369586 0.00329306 0.0131523 0.0098571 0.00155177 -0.00271742 -0.00506613 0.0202734 -0.0155935 0.00278941 0.00654567 0.0131 0.00582376
467 -0.0203335 0.00458446 0.00932789 -0.0177993 0.0142998 0.00290854 0.00889355 0.0155579 -0.0180455 0.00111192 -0.020361 0.000369586 0.00329306 0.0131523 0.0098571 0.00155177 -0.00271742 -0.00506613 0.0202734 -0.0155935 0.00278941 0.00654567 0.0131 0.00582376
468 -0.0203335 0.00458446 0.00932789 -0.0177993 0.0142998 0.00290854 0.00889355 0.0155579 -0.0180455 0.00111192 -0.020361 0.000369586 0.00329306 0.0131523 0.0098571 0.00155177 -0.00271742 -0.00506613 0.0202734 -0.0155935 0.00278941 0.00654567 0.0131 0.00582376
482 -0.241219 0.10492 -0.217541 -0.0937787 0.135562 0.0971729 -0.0936635 0.170616 0.0244137 -0.170799 -0.129234 0.0543437 -0.169758 -0.0717658 -0.144339 -0.0620674 0.160725 0.101569 -0.0497956 -0.10602 -0.087202 0.136279 -0.0884776 -0.047978
499 -0.0203335 0.00458446 0.00932789 -0.0177993 0.0142998 0.00290854 0.00889355 0.0155579 -0.0180455 0.00111192 -0.020361 0.000369586 0.00329306 0.0131523 0.0098571 0.00155177 -0.00271742 -0.00506613 0.0202734 -0.0155935 0.00278941 0.00654567 0.0131 0.00582376
502 -0.241219 0.10492 -0.217541 -0.0937787 0.135562 0.0971729 -0.0936635 0.170616 0.0244137 -0.170799 -0.129234 0.0543437 -0.169758 -0.0717658 -0.144339 -0.0620674 0.160725 0.101569 -0.0497956 -0.10602 -0.087202 0.136279 -0.0884776 -0.047978
532 -0.0203335 0.00458446 0.00932789 -0.0177993 0.0142998 0.00290854 0.00889355 0.0155579 -0.0180455 0.00111192 -0.020361 0.000369586 0.00329306 0.0131523 0.0098571 0.00155177 -0.00271742 -0.00506613 0.0202734 -0.0155935 0.00278941 0.00654567 0.0131 0.00582376
545 -0.241219 0.10492 -0.217541 -0.0937787 0.135562 0.0971729 -0.0936635 0.170616 0.0244137 -0.170799 -0.129234 0.0543437 -0.169758 -0.0717658 -0.144339 -0.0620674 0.160725 0.101569 -0.0497956 -0.10602 -0.087202 0.136279 -0.0884776 -0.047978
562 -0.241219 0.10492 -0.217541 -0.0937787 0.135562 0.0971729 -0.0936635 0.170616 0.0244137 -0.170799 -0.129234 0.0543437 -0.169758 -0.0717658 -0.144339 -0.0620674 0.160725 0.101569 -0.0497956 -0.10602 -0.087202 0.136279 -0.0884776 -0.047978
656 -0.364187 0.183072 -0.36357 -0.190982 0.218547 0.162602 -0.161875 0.265427 0.0271842 -0.265685 -0.244772 0.0969397 -0.302391 -0.155523 -0.246713 -0.134005 0.25738 0.139562 -0.110001 -0.165093 -0.140133 0.211801 -0.125896 -0.077949
594 -0.483474 0.221892 -0.466927 -0.224563 0.257344 0.222475 -0.230631 0.323067 0.0475109 -0.328658 -0.309937 0.111023 -0.362484 -0.188401 -0.327009 -0.126922 0.289343 0.183121 -0.110944 -0.190386 -0.157498 0.289559 -0.15918 -0.0739369
600 -0.364187 0.183072 -0.36357 -0.190982 0.218547 0.162602 -0.161875 0.265427 0.0271842 -0.265685 -0.244772 0.0969397 -0.302391 -0.155523 -0.246713 -0.134005 0.25738 0.139562 -0.110001 -0.165093 -0.140133 0.211801 -0.125896 -0.077949
642 -0.364187 0.183072 -0.36357 -0.190982 0.218547 0.162602 -0.161875 0.265427 0.0271842 -0.265685 -0.244772 0.0969397 -0.302391 -0.155523 -0.246713 -0.134005 0.25738 0.139562 -0.110001 -0.165093 -0.140133 0.211801 -0.125896 -0.077949
3980 -0.418247 0.21178 -0.399 -0.187905 0.209464 0.187239 -0.20706 0.28732 0.0267541 -0.311753 -0.264374 0.109058 -0.351828 -0.173033 -0.272723 -0.126098 0.240553 0.156707 -0.113362 -0.157942 -0.155938 0.246154 -0.139295 -0.0982586
3989 -0.367814 0.152405 -0.352868 -0.163403 0.209754 0.157913 -0.181028 0.234542 0.0297597 -0.275265 -0.223602 0.0949184 -0.259293 -0.14279 -0.222058 -0.0929059 0.20861 0.111905 -0.0827327 -0.125178 -0.145581 0.181218 -0.109106 -0.0869672
4011 -0.610322 0.263213 -0.583653 -0.28526 0.315705 0.259683 -0.302276 0.399811 0.0658061 -0.39996 -0.380438 0.14694 -0.438082 -0.233342 -0.391029 -0.161188 0.365618 0.208451 -0.138543 -0.225161 -0.176778 0.351493 -0.200256 -0.0734747
4031 -0.348066 0.176955 -0.335809 -0.155366 0.192702 0.169219 -0.165393 0.251927 0.0225625 -0.241149 -0.227018 0.0964896 -0.264669 -0.130008 -0.226505 -0.112459 0.214664 0.114892 -0.0885815 -0.138777 -0.125152 0.205548 -0.116181 -0.0600035
867 -0.172123 0.0775128 -0.145204 -0.0758311 0.106537 0.0892747 -0.0882409 0.120322 -0.00249549 -0.137777 -0.0871074 0.0436085 -0.123731 -0.0536244 -0.117261 -0.0300743 0.110208 0.0422407 -0.0332975 -0.0558187 -0.0407025 0.0760635 -0.0471734 -0.0356894
879 -0.172123 0.0775128 -0.145204 -0.0758311 0.106537 0.0892747 -0.0882409 0.120322 -0.00249549 -0.137777 -0.0871074 0.0436085 -0.123731 -0.0536244 -0.117261 -0.0300743 0.110208 0.0422407 -0.0332975 -0.0558187 -0.0407025 0.0760635 -0.0471734 -0.0356894
3501 -0.57566 0.290864 -0.540767 -0.276253 0.305311 0.290183 -0.245732 0.379489 0.0536329 -0.420036 -0.383816 0.152897 -0.428306 -0.18365 -0.35981 -0.187958 0.35648 0.1869 -0.137857 -0.236413 -0.22565 0.300913 -0.192704 -0.135031
2691 -0.351267 0.166892 -0.30318 -0.17751 0.201064 0.155874 -0.136567 0.207423 0.0461731 -0.237017 -0.202805 0.0836666 -0.260947 -0.100312 -0.218379 -0.113744 0.230199 0.113774 -0.105546 -0.129621 -0.112566 0.209355 -0.12521 -0.0844892
2723 -0.549489 0.264068 -0.517875 -0.25071 0.29506 0.276552 -0.272459 0.360813 0.0240488 -0.394099 -0.345007 0.161954 -0.412418 -0.210628 -0.363976 -0.160981 0.348789 0.209051 -0.124142 -0.247676 -0.213069 0.317821 -0.196483 -0.107807
2792 -0.351267 0.166892 -0.30318 -0.17751 0.201064 0.155874 -0.136567 0.207423 0.0461731 -0.237017 -0.202805 0.0836666 -0.260947 -0.100312 -0.218379 -0.113744 0.230199 0.113774 -0.105546 -0.129621 -0.112566 0.209355 -0.12521 -0.0844892
2811 -0.553541 0.266478 -0.529002 -0.241606 0.290127 0.23887 -0.270109 0.392957 0.0343306 -0.406152 -0.333004 0.14463 -0.439241 -0.223263 -0.328447 -0.15843 0.350405 0.19595 -0.154675 -0.249878 -0.181543 0.324807 -0.207799 -0.112358
2889 -0.553541 0.266478 -0.529002 -0.241606 0.290127 0.23887 -0.270109 0.392957 0.0343306 -0.406152 -0.333004 0.14463 -0.439241 -0.223263 -0.328447 -0.15843 0.350405 0.19595 -0.154675 -0.249878 -0.181543 0.324807 -0.207799 -0.112358
3216 -0.351267 0.166892 -0.30318 -0.17751 0.201064 0.155874 -0.136567 0.207423 0.0461731 -0.237017 -0.202805 0.0836666 -0.260947 -0.100312 -0.218379 -0.113744 0.230199 0.113774 -0.105546 -0.129621 -0.112566 0.209355 -0.12521 -0.0844892
3252 -0.553541 0.266478 -0.529002 -0.241606 0.290127 0.23887 -0.270109 0.392957 0.0343306 -0.406152 -0.333004 0.14463 -0.439241 -0.223263 -0.328447 -0.15843 0.350405 0.19595 -0.154675 -0.249878 -0.181543 0.324807 -0.207799 -0.112358
3336 -0.351267 0.166892 -0.30318 -0.17751 0.201064 0.155874 -0.136567 0.207423 0.0461731 -0.237017 -0.202805 0.0836666 -0.260947 -0.100312 -0.218379 -0.113744 0.230199 0.113774 -0.105546 -0.129621 -0.112566 0.209355 -0.12521 -0.0844892
3344 -0.553541 0.266478 -0.529002 -0.241606 0.290127 0.23887 -0.270109 0.392957 0.0343306 -0.406152 -0.333004 0.14463 -0.439241 -0.223263 -0.328447 -0.15843 0.350405 0.19595 -0.154675 -0.249878 -0.181543 0.324807 -0.207799 -0.112358
3467 -0.00223586 0.00520607 -0.00159621 0.00591451 -0.011543 -0.00240786 -0.0106385 -0.0101382 -0.018174 0.00826775 -0.00221299 0.0146794 0.00823967 -0.0159473 0.0148483 0.0129177 -0.0168338 -0.00905829 0.00728311 -0.0093927 0.0118099 -0.010284 -0.00936802 0.00995911
3474 -0.567377 0.279201 -0.534303 -0.266477 0.297353 0.282889 -0.248813 0.376895 0.0530288 -0.419848 -0.373947 0.142793 -0.429579 -0.182781 -0.351729 -0.182517 0.35943 0.188939 -0.135455 -0.240394 -0.218908 0.298743 -0.192293 -0.13262
3485 -0.55081 0.255876 -0.521375 -0.246926 0.281437 0.268301 -0.254975 0.371708 0.0518206 -0.419471 -0.35421 0.122586 -0.432126 -0.181042 -0.335566 -0.171635 0.365328 0.193018 -0.130652 -0.248355 -0.205424 0.294403 -0.19147 -0.127797
3486 -0.57566 0.290864 -0.540767 -0.276253 0.305311 0.290183 -0.245732 0.379489 0.0536329 -0.420036 -0.383816 0.152897 -0.428306 -0.18365 -0.35981 -0.187958 0.35648 0.1869 -0.137857 -0.236413 -0.22565 0.300913 -0.192704 -0.135031
3539 -0.55081 0.255876 -0.521375 -0.246926 0.281437 0.268301 -0.254975 0.371708 0.0518206 -0.419471 -0.35421 0.122586 -0.432126 -0.181042 -0.335566 -0.171635 0.365328 0.193018 -0.130652 -0.248355 -0.205424 0.294403 -0.19147 -0.127797
3616 -0.00223586 0.00520607 -0.00159621 0.00591451 -0.011543 -0.00240786 -0.0106385 -0.0101382 -0.018174 0.00826775 -0.00221299 0.0146794 0.00823967 -0.0159473 0.0148483 0.0129177 -0.0168338 -0.00905829 0.00728311 -0.0093927 0.0118099 -0.010284 -0.00936802 0.00995911
3646 -0.57566 0.290864 -0.540767 -0.276253 0.305311 0.290183 -0.245732 0.379489 0.0536329 -0.420036 -0.383816 0.152897 -0.428306 -0.18365 -0.35981 -0.187958 0.35648 0.1869 -0.137857 -0.236413 -0.22565 0.300913 -0.192704 -0.135031
3748 -0.57566 0.290864 -0.540767 -0.276253 0.305311 0.290183 -0.245732 0.379489 0.0536329 -0.420036 -0.383816 0.152897 -0.428306 -0.18365 -0.35981 -0.187958 0.35648 0.1869 -0.137857 -0.236413 -0.22565 0.300913 -0.192704 -0.135031
3754 -0.563235 0.27337 -0.531071 -0.261589 0.293374 0.279242 -0.250354 0.375598 0.0527267 -0.419754 -0.369013 0.137742 -0.430216 -0.182346 -0.347688 -0.179797 0.360904 0.189959 -0.134254 -0.242384 -0.215537 0.297658 -0.192087 -0.131414
3776 -0.57566 0.290864 -0.540767 -0.276253 0.305311 0.290183 -0.245732 0.379489 0.0536329 -0.420036 -0.383816 0.152897 -0.428306 -0.18365 -0.35981 -0.187958 0.35648 0.1869 -0.137857 -0.236413 -0.22565 0.300913 -0.192704 -0.135031
3777 -0.55081 0.255876 -0.521375 -0.246926 0.281437 0.268301 -0.254975 0.371708 0.0518206 -0.419471 -0.35421 0.122586 -0.432126 -0.181042 -0.335566 -0.171635 0.365328 0.193018 -0.130652 -0.248355 -0.205424 0.294403 -0.19147 -0.127797
3798 -0.55081 0.255876 -0.521375 -0.246926 0.281437 0.268301 -0.254975 0.371708 0.0518206 -0.419471 -0.35421 0.122586 -0.432126 -0.181042 -0.335566 -0.171635 0.365328 0.193018 -0.130652 -0.248355 -0.205424 0.294403 -0.19147 -0.127797
3880 -0.00223586 0.00520607 -0.00159621 0.00591451 -0.011543 -0.00240786 -0.0106385 -0.0101382 -0.018174 0.00826775 -0.00221299 0.0146794 0.00823967 -0.0159473 0.0148483 0.0129177 -0.0168338 -0.00905829 0.00728311 -0.0093927 0.0118099 -0.010284 -0.00936802 0.00995911
3885 -0.00223586 0.00520607 -0.00159621 0.00591451 -0.011543 -0.00240786 -0.0106385 -0.0101382 -0.018174 0.00826775 -0.00221299 0.0146794 0.00823967 -0.0159473 0.0148483 0.0129177 -0.0168338 -0.00905829 0.00728311 -0.0093927 0.0118099 -0.010284 -0.00936802 0.00995911
3894 -0.00223586 0.00520607 -0.00159621 0.00591451 -0.011543 -0.00240786 -0.0106385 -0.0101382 -0.018174 0.00826775 -0.00221299 0.0146794 0.00823967 -0.0159473 0.0148483 0.0129177 -0.0168338 -0.00905829 0.00728311 -0.0093927 0.0118099 -0.010284 -0.00936802 0.00995911
3929 -0.57566 0.290864 -0.540767 -0.276253 0.305311 0.290183 -0.245732 0.379489 0.0536329 -0.420036 -0.383816 0.152897 -0.428306 -0.18365 -0.35981 -0.187958 0.35648 0.1869 -0.137857 -0.236413 -0.22565 0.300913 -0.192704 -0.135031
3981 -0.422819 0.204979 -0.402108 -0.204376 0.216107 0.196548 -0.210644 0.287627 0.0348996 -0.296911 -0.271398 0.114662 -0.319775 -0.171052 -0.279766 -0.129067 0.261781 0.148708 -0.103986 -0.163585 -0.128663 0.243672 -0.143538 -0.0774787
3982 -0.522252 0.251237 -0.505067 -0.243936 0.271044 0.237668 -0.252205 0.352327 0.0442906 -0.377358 -0.319385 0.129965 -0.410719 -0.208328 -0.339487 -0.146872 0.317053 0.197888 -0.126649 -0.194192 -0.187188 0.302889 -0.175838 -0.0909372
3985 -0.404674 0.201025 -0.375951 -0.194295 0.213085 0.194537 -0.186395 0.273677 0.0310718 -0.292121 -0.254076 0.0927962 -0.30881 -0.150816 -0.264875 -0.126406 0.252616 0.141887 -0.09344 -0.159999 -0.146386 0.229231 -0.130898 -0.0802666
3986 -0.440034 0.224675 -0.415147 -0.206482 0.236655 0.21095 -0.20327 0.302384 0.0368365 -0.314475 -0.283284 0.104828 -0.335865 -0.164338 -0.28331 -0.135875 0.271628 0.148677 -0.109846 -0.173702 -0.16365 0.249155 -0.143214 -0.0845682
3988 -0.520995 0.262618 -0.49699 -0.24205 0.267852 0.236465 -0.261281 0.354091 0.0344391 -0.382956 -0.320664 0.12207 -0.414718 -0.211404 -0.341537 -0.150909 0.314748 0.201008 -0.135854 -0.200176 -0.188355 0.30335 -0.171499 -0.110425
3991 -0.519327 0.27046 -0.489219 -0.25146 0.279479 0.239896 -0.242675 0.348169 0.0491163 -0.375772 -0.327275 0.118218 -0.396746 -0.203747 -0.334835 -0.158185 0.321118 0.187061 -0.137527 -0.203775 -0.190733 0.289106 -0.168028 -0.107631
3993 -0.405355 0.200167 -0.37077 -0.188058 0.209748 0.1868 -0.184878 0.274573 0.0285577 -0.278019 -0.253496 0.0964469 -0.300004 -0.138576 -0.254291 -0.130347 0.246906 0.138901 -0.0908455 -0.15698 -0.144954 0.230642 -0.133236 -0.0750427
3994 -0.566689 0.28412 -0.532086 -0.274399 0.290676 0.264076 -0.271684 0.378703 0.051259 -0.399331 -0.362021 0.136202 -0.422697 -0.211024 -0.360931 -0.169133 0.355338 0.196382 -0.13603 -0.22291 -0.187097 0.320005 -0.188534 -0.108629
3995 -0.348066 0.176955 -0.335809 -0.155366 0.192702 0.169219 -0.165393 0.251927 0.0225625 -0.241149 -0.227018 0.0964896 -0.264669 -0.130008 -0.226505 -0.112459 0.214664 0.114892 -0.0885815 -0.138777 -0.125152 0.205548 -0.116181 -0.0600035
3996 -0.541223 0.279539 -0.520881 -0.264098 0.292452 0.267244 -0.252651 0.386971 0.0543915 -0.395236 -0.346073 0.14312 -0.430874 -0.187366 -0.338917 -0.165985 0.363539 0.175789 -0.130242 -0.224555 -0.190984 0.313144 -0.175349 -0.113056
3997 -0.330797 0.156728 -0.310329 -0.139885 0.176761 0.149826 -0.135473 0.223594 0.0126297 -0.225662 -0.203021 0.0864322 -0.250197 -0.11421 -0.215316 -0.112545 0.203166 0.119499 -0.0689665 -0.124531 -0.119727 0.199157 -0.112954 -0.0620662
3998 -0.580189 0.28902 -0.554795 -0.267997 0.290515 0.260396 -0.285291 0.39012 0.0492348 -0.450937 -0.357789 0.135792 -0.475245 -0.242115 -0.378898 -0.161639 0.344341 0.225755 -0.15056 -0.216943 -0.232961 0.324673 -0.195158 -0.135323
4000 -0.472262 0.23858 -0.43771 -0.227744 0.243109 0.219799 -0.229086 0.320598 0.0404702 -0.330233 -0.303101 0.115011 -0.3541 -0.172767 -0.298495 -0.14493 0.288714 0.159605 -0.116239 -0.185324 -0.162117 0.26577 -0.152279 -0.0917817
4002 -0.361503 0.159627 -0.350117 -0.162273 0.20508 0.159871 -0.181231 0.238933 0.0284888 -0.268484 -0.227402 0.0988292 -0.264685 -0.145077 -0.224835 -0.0962202 0.207378 0.111454 -0.0895386 -0.128009 -0.13826 0.187164 -0.107732 -0.0840924
4003 -0.582851 0.263062 -0.557687 -0.272939 0.304213 0.254807 -0.286766 0.38539 0.0592932 -0.391314 -0.366785 0.143594 -0.420085 -0.218365 -0.372192 -0.157376 0.354219 0.203256 -0.13255 -0.221938 -0.177279 0.333955 -0.193404 -0.087371
4004 -0.53501 0.233395 -0.50587 -0.248039 0.276627 0.229212 -0.265779 0.352973 0.0577145 -0.35217 -0.336888 0.128511 -0.38002 -0.19862 -0.336515 -0.142593 0.313905 0.179082 -0.120887 -0.199014 -0.164395 0.301994 -0.174408 -0.0747529
4008 -0.487583 0.241809 -0.46436 -0.223756 0.240809 0.219474 -0.244956 0.328655 0.0372705 -0.366389 -0.302607 0.123465 -0.397812 -0.202011 -0.318048 -0.1363 0.284087 0.189425 -0.124697 -0.180888 -0.182015 0.282498 -0.168201 -0.105074
4009 -0.463283 0.237429 -0.450111 -0.214816 0.248653 0.211923 -0.232527 0.320015 0.038631 -0.348969 -0.298478 0.121314 -0.373322 -0.196766 -0.302445 -0.135138 0.276204 0.164158 -0.132653 -0.17815 -0.174237 0.260498 -0.149635 -0.107543
4013 -0.539756 0.256669 -0.517253 -0.249095 0.281461 0.239929 -0.262909 0.364353 0.0505179 -0.389118 -0.334942 0.128782 -0.407202 -0.213087 -0.349218 -0.152585 0.327135 0.19923 -0.131647 -0.205796 -0.193747 0.303287 -0.180193 -0.104198
4014 -0.454403 0.226238 -0.423908 -0.216155 0.23433 0.211413 -0.213889 0.309461 0.0403035 -0.333353 -0.284672 0.107477 -0.34884 -0.171113 -0.291604 -0.14053 0.280559 0.16047 -0.108291 -0.17812 -0.169156 0.251565 -0.150721 -0.0950238
4017 -0.376716 0.187239 -0.359852 -0.177358 0.197429 0.175456 -0.193246 0.262779 0.0326128 -0.260623 -0.251807 0.108011 -0.290259 -0.152001 -0.242159 -0.11317 0.218604 0.120317 -0.103383 -0.143393 -0.123892 0.216119 -0.120435 -0.070037
4018 -0.416157 0.204585 -0.387712 -0.19467 0.224557 0.189873 -0.201412 0.282476 0.0222808 -0.289113 -0.248867 0.101513 -0.299387 -0.144731 -0.26234 -0.129563 0.261458 0.152667 -0.0930579 -0.162977 -0.144471 0.237452 -0.133514 -0.0823282
4019 -0.468653 0.243532 -0.451897 -0.226591 0.253819 0.229451 -0.224894 0.328135 0.0417123 -0.34486 -0.307457 0.122451 -0.376534 -0.181803 -0.305476 -0.140848 0.29656 0.156106 -0.12498 -0.188249 -0.169163 0.270827 -0.146035 -0.100881
4020 -0.360688 0.162511 -0.341312 -0.157626 0.202049 0.165305 -0.164987 0.243145 0.0251044 -0.254713 -0.219418 0.088668 -0.253884 -0.125434 -0.220951 -0.10583 0.217127 0.115796 -0.0749698 -0.133117 -0.139794 0.193656 -0.118929 -0.0657531
4021 -0.351581 0.172161 -0.320853 -0.156303 0.185462 0.169317 -0.154029 0.248045 0.0255811 -0.229071 -0.218034 0.0818031 -0.249466 -0.107354 -0.21413 -0.117377 0.216206 0.114301 -0.0695342 -0.139408 -0.128406 0.202529 -0.124642 -0.0457357
4022 -0.619267 0.311259 -0.602897 -0.297276 0.3276 0.289216 -0.302167 0.43043 0.0568039 -0.463675 -0.385531 0.162096 -0.508996 -0.235393 -0.393067 -0.175151 0.397293 0.219692 -0.1561 -0.242956 -0.222728 0.358202 -0.202722 -0.130451
4023 -0.506683 0.214553 -0.488253 -0.230077 0.272398 0.216111 -0.251985 0.334628 0.0553173 -0.350193 -0.322054 0.126198 -0.356037 -0.191441 -0.324111 -0.127434 0.299614 0.174153 -0.112008 -0.192668 -0.166658 0.277872 -0.164672 -0.0920001
4026 -0.44919 0.216473 -0.428479 -0.205396 0.241841 0.205129 -0.208193 0.303135 0.0389786 -0.308808 -0.278595 0.111635 -0.324075 -0.169202 -0.283316 -0.13501 0.275558 0.156749 -0.104693 -0.169276 -0.155213 0.251863 -0.158588 -0.0710644
4027 -0.448281 0.195484 -0.425778 -0.204863 0.235697 0.193392 -0.219078 0.292892 0.0427775 -0.309368 -0.28316 0.114388 -0.321215 -0.170226 -0.282878 -0.120383 0.260988 0.151338 -0.100627 -0.164159 -0.148845 0.245906 -0.1465 -0.0820254
4028 -0.465734 0.228408 -0.432822 -0.219703 0.241002 0.212715 -0.227929 0.317971 0.0376753 -0.31636 -0.293841 0.110833 -0.34104 -0.170322 -0.296139 -0.142231 0.283897 0.160182 -0.112598 -0.181145 -0.155019 0.266529 -0.150713 -0.0808826
4030 -0.371235 0.177191 -0.361444 -0.175629 0.197913 0.175281 -0.186281 0.263055 0.0378514 -0.270063 -0.250324 0.106046 -0.290785 -0.155824 -0.253741 -0.112208 0.229543 0.122225 -0.0971829 -0.151953 -0.118103 0.214208 -0.120235 -0.0784709
4032 -0.375452 0.17396 -0.358144 -0.170051 0.209038 0.169738 -0.183261 0.252696 0.0258004 -0.270023 -0.232223 0.0979685 -0.272823 -0.140997 -0.234853 -0.10817 0.224361 0.123791 -0.088413 -0.139329 -0.139106 0.203567 -0.117153 -0.0790478
4034 -0.53993 0.268542 -0.51267 -0.256428 0.282341 0.244214 -0.261831 0.364145 0.0512197 -0.391285 -0.342284 0.130298 -0.414851 -0.213808 -0.347444 -0.157774 0.327314 0.190883 -0.140256 -0.206299 -0.195712 0.30062 -0.175153 -0.107561
4035 -0.548843 0.265261 -0.527066 -0.250321 0.281261 0.247712 -0.265144 0.366292 0.0508626 -0.420791 -0.342022 0.133052 -0.442689 -0.219316 -0.356574 -0.147455 0.328893 0.205458 -0.133489 -0.209465 -0.211971 0.311557 -0.183776 -0.124834
4037 -0.501254 0.247512 -0.480632 -0.231941 0.258848 0.228249 -0.243004 0.336142 0.0400624 -0.370536 -0.319178 0.126561 -0.396462 -0.20232 -0.324251 -0.145029 0.301897 0.17841 -0.128381 -0.190177 -0.17979 0.283911 -0.16641 -0.110259
4038 -0.472367 0.230022 -0.456472 -0.217433 0.263236 0.22541 -0.218621 0.320866 0.045857 -0.350863 -0.301325 0.115918 -0.353759 -0.170976 -0.294963 -0.138061 0.301877 0.148347 -0.109269 -0.192797 -0.172269 0.259224 -0.149331 -0.110926
0 -0.387854 0.192627 -0.360547 -0.188572 0.209119 0.18257 -0.186377 0.2619 0.0255262 -0.291495 -0.246094 0.110222 -0.302527 -0.143183 -0.252338 -0.11193 0.238681 0.141183 -0.111596 -0.165286 -0.156093 0.212557 -0.131516 -0.0753179
1 -0.48057 0.232848 -0.451183 -0.229276 0.250007 0.215933 -0.225227 0.318665 0.0384362 -0.349001 -0.298115 0.132282 -0.37887 -0.180691 -0.303762 -0.13683 0.295555 0.171954 -0.13223 -0.195526 -0.185785 0.266102 -0.157099 -0.090973
2 -0.357842 0.173144 -0.325161 -0.167676 0.181361 0.157185 -0.16791 0.240614 0.0229829 -0.261171 -0.212826 0.0939023 -0.266194 -0.133555 -0.222048 -0.109704 0.221074 0.122393 -0.101175 -0.141482 -0.135374 0.207296 -0.121158 -0.0707928
3 -0.365735 0.17873 -0.33784 -0.169979 0.181002 0.16338 -0.17113 0.234656 0.0339464 -0.258622 -0.22629 0.103687 -0.286825 -0.133192 -0.229311 -0.0995602 0.218744 0.124811 -0.104307 -0.144537 -0.143549 0.197545 -0.113266 -0.0670126
4 -0.351264 0.189177 -0.327493 -0.158428 0.195665 0.176803 -0.165683 0.229342 0.0353665 -0.258412 -0.22164 0.0941438 -0.287373 -0.139134 -0.2296 -0.0945751 0.22855 0.128195 -0.0992646 -0.147394 -0.135087 0.205173 -0.107342 -0.0675281
5 -0.35629 0.169064 -0.334365 -0.168118 0.188415 0.16685 -0.167921 0.246624 0.022492 -0.271577 -0.221065 0.099386 -0.280441 -0.138292 -0.229015 -0.10442 0.218572 0.137062 -0.103999 -0.153237 -0.135049 0.202139 -0.124067 -0.0751062
7 -0.204243 0.0895469 -0.189244 -0.084989 0.101625 0.0996551 -0.0930686 0.133519 0.0274299 -0.145556 -0.130747 0.0592743 -0.163697 -0.0829083 -0.133311 -0.0516491 0.113214 0.0793732 -0.0614974 -0.0861098 -0.0695097 0.108961 -0.0589043 -0.0404935
8 -0.174428 0.069945 -0.156919 -0.0736209 0.0858532 0.0864278 -0.0753878 0.114761 0.0186075 -0.122612 -0.110194 0.0518401 -0.130014 -0.0725834 -0.111453 -0.0474642 0.0901087 0.0730449 -0.0509774 -0.0814649 -0.061026 0.0941787 -0.0495458 -0.0368375
9 -0.273207 0.136232 -0.263514 -0.130595 0.141538 0.123852 -0.127963 0.179158 0.0154913 -0.200172 -0.165191 0.076464 -0.212525 -0.112726 -0.169358 -0.0787327 0.17462 0.0984908 -0.0670723 -0.110523 -0.107712 0.151049 -0.0867089 -0.0623491
10 -0.341172 0.165944 -0.317407 -0.161007 0.175697 0.155762 -0.159257 0.223285 0.0285601 -0.246784 -0.213948 0.0973808 -0.266397 -0.12757 -0.218911 -0.0928635 0.205543 0.117569 -0.0959637 -0.139388 -0.131851 0.182246 -0.110771 -0.065534
14 -0.438714 0.208967 -0.401873 -0.209086 0.228047 0.194879 -0.199348 0.293949 0.0304532 -0.315381 -0.265267 0.117832 -0.330289 -0.164636 -0.275615 -0.129699 0.267515 0.151144 -0.118879 -0.179387 -0.164784 0.249168 -0.149381 -0.0842378
16 -0.192098 0.0951997 -0.187072 -0.0892571 0.10701 0.0969461 -0.0919825 0.135149 0.0166721 -0.141451 -0.119083 0.0584828 -0.155811 -0.077094 -0.127844 -0.0516673 0.119234 0.07154 -0.0464391 -0.0750947 -0.0681099 0.104806 -0.0649932 -0.0430454
17 -0.39574 0.189084 -0.366207 -0.18877 0.20635 0.178473 -0.18003 0.265169 0.0287791 -0.283884 -0.240725 0.10789 -0.300594 -0.151207 -0.249462 -0.116469 0.241379 0.138865 -0.10514 -0.16222 -0.150238 0.224452 -0.133767 -0.0772209
18 -0.409405 0.201174 -0.382027 -0.194685 0.214905 0.185663 -0.188235 0.271811 0.028308 -0.297338 -0.248547 0.114171 -0.319929 -0.154802 -0.257478 -0.116109 0.254368 0.144815 -0.10884 -0.167531 -0.157203 0.228838 -0.134226 -0.0825567
19 -0.384912 0.181404 -0.362625 -0.185928 0.203474 0.176408 -0.177248 0.263803 0.0284101 -0.27592 -0.235076 0.107234 -0.296967 -0.147635 -0.243298 -0.114759 0.233727 0.141914 -0.0982971 -0.157084 -0.146025 0.219229 -0.131542 -0.0751179
20 -0.498196 0.239939 -0.450262 -0.233353 0.260685 0.220748 -0.224647 0.32993 0.039903 -0.359615 -0.303779 0.12814 -0.372902 -0.188701 -0.316894 -0.146596 0.30674 0.164589 -0.140449 -0.203693 -0.183712 0.285399 -0.170185 -0.0928458
21 -0.500426 0.248863 -0.468923 -0.242941 0.27257 0.231469 -0.23778 0.341914 0.0293033 -0.380583 -0.31044 0.137575 -0.394239 -0.188786 -0.321722 -0.147889 0.317334 0.184342 -0.140361 -0.211719 -0.196763 0.283404 -0.172951 -0.101831
22 -0.247797 0.111684 -0.237004 -0.112914 0.119641 0.111632 -0.118285 0.163296 0.0234382 -0.176898 -0.153285 0.0712976 -0.195645 -0.0983206 -0.153101 -0.0705213 0.144306 0.0961246 -0.0674885 -0.0982945 -0.0943536 0.133876 -0.0737148 -0.050731
24 -0.515131 0.253192 -0.484184 -0.242298 0.277087 0.236489 -0.237801 0.343447 0.0413834 -0.378291 -0.317154 0.137821 -0.409803 -0.200741 -0.327156 -0.147432 0.325445 0.18812 -0.138599 -0.213368 -0.194068 0.294084 -0.167598 -0.101787
25 -0.32119 0.159451 -0.302866 -0.154149 0.172606 0.148418 -0.156816 0.216513 0.0221549 -0.238197 -0.199438 0.0888317 -0.249814 -0.122329 -0.205093 -0.094419 0.201643 0.116377 -0.0855494 -0.129006 -0.124758 0.177298 -0.104092 -0.0644205
26 -0.284114 0.145998 -0.267 -0.136883 0.155568 0.140867 -0.140622 0.196055 0.012471 -0.225952 -0.181568 0.0803404 -0.223202 -0.111898 -0.186687 -0.0845103 0.181014 0.111249 -0.0869725 -0.127965 -0.117668 0.161071 -0.0991039 -0.0627895
27 -0.219125 0.096095 -0.202008 -0.0950199 0.104498 0.101516 -0.0998284 0.143491 0.019648 -0.161631 -0.13661 0.0628223 -0.16941 -0.0891484 -0.138411 -0.0598041 0.123874 0.0848446 -0.0680811 -0.095454 -0.0802217 0.118474 -0.0674159 -0.0479398
30 -0.350366 0.169234 -0.330072 -0.161661 0.184411 0.166592 -0.167463 0.232886 0.0366633 -0.25379 -0.223954 0.0976579 -0.282163 -0.134249 -0.226622 -0.0967126 0.211256 0.131786 -0.0999711 -0.144059 -0.133001 0.193484 -0.109481 -0.063624
31 -0.294193 0.140293 -0.277611 -0.137724 0.152338 0.133374 -0.134736 0.197351 0.0192686 -0.216521 -0.177406 0.0841275 -0.22974 -0.115466 -0.185626 -0.0823828 0.180982 0.105419 -0.0773374 -0.119924 -0.109119 0.161305 -0.0974684 -0.0651951
32 -0.467182 0.22339 -0.424364 -0.220313 0.246109 0.210203 -0.214808 0.314556 0.0412857 -0.333678 -0.286597 0.120405 -0.349627 -0.17556 -0.298047 -0.142058 0.285007 0.159175 -0.129152 -0.187464 -0.173806 0.271597 -0.159888 -0.0828865
36 -0.307498 0.151718 -0.286296 -0.144007 0.153081 0.142987 -0.15275 0.201615 0.0296683 -0.221954 -0.195654 0.0896651 -0.244703 -0.109209 -0.195601 -0.0861765 0.18186 0.112376 -0.092134 -0.121743 -0.126324 0.165701 -0.0944876 -0.0542629
38 -0.275099 0.128559 -0.264154 -0.12858 0.139359 0.12507 -0.132053 0.179614 0.0297939 -0.192233 -0.173444 0.0789452 -0.217694 -0.107256 -0.173852 -0.0771951 0.162864 0.100943 -0.0697255 -0.105584 -0.105705 0.145829 -0.0814725 -0.051933
39 -0.348679 0.159294 -0.322491 -0.159348 0.176872 0.156033 -0.152179 0.230207 0.0257954 -0.255528 -0.212587 0.0944511 -0.266592 -0.141792 -0.22034 -0.0975525 0.209602 0.124441 -0.0985663 -0.150277 -0.125465 0.194524 -0.11705 -0.0749813
40 -0.348993 0.170021 -0.334466 -0.168461 0.183038 0.155602 -0.16506 0.235823 0.0204431 -0.257324 -0.208898 0.0984689 -0.274359 -0.135518 -0.216764 -0.10341 0.220865 0.127759 -0.0863179 -0.137688 -0.135396 0.194727 -0.114366 -0.0764815
41 -0.438167 0.207522 -0.400497 -0.206646 0.228551 0.197072 -0.203176 0.292218 0.0433735 -0.308224 -0.271524 0.115587 -0.330689 -0.163236 -0.279372 -0.131622 0.262907 0.150583 -0.11917 -0.173159 -0.165179 0.249732 -0.144844 -0.0752009
43 -0.359125 0.174174 -0.324601 -0.166115 0.189936 0.166024 -0.163232 0.239894 0.0248109 -0.26048 -0.216454 0.0971932 -0.272614 -0.134607 -0.226494 -0.103076 0.219548 0.127447 -0.100046 -0.150946 -0.132222 0.205447 -0.117066 -0.0706965
44 -0.439385 0.207798 -0.404341 -0.209185 0.226798 0.195651 -0.199271 0.292672 0.0340346 -0.313344 -0.268068 0.120178 -0.334189 -0.164381 -0.276889 -0.127735 0.264705 0.152162 -0.118911 -0.17927 -0.166257 0.246378 -0.147776 -0.0829229
45 -0.346714 0.168097 -0.327308 -0.165954 0.186016 0.160501 -0.164013 0.238584 0.0225772 -0.259399 -0.212925 0.0987489 -0.273393 -0.131261 -0.222837 -0.0997085 0.215123 0.126813 -0.0935646 -0.141792 -0.13077 0.192223 -0.119103 -0.0724672
46 -0.399323 0.188477 -0.377678 -0.192244 0.208925 0.181943 -0.190712 0.270481 0.0340785 -0.286542 -0.249635 0.112258 -0.31383 -0.148371 -0.253654 -0.115798 0.239808 0.147545 -0.106693 -0.159915 -0.15303 0.219702 -0.130976 -0.0727409
47 -0.353076 0.166326 -0.328924 -0.169472 0.181938 0.159827 -0.164877 0.235003 0.0319804 -0.248037 -0.220793 0.100831 -0.272341 -0.129867 -0.224571 -0.102225 0.208424 0.125367 -0.0946926 -0.141556 -0.137307 0.191868 -0.11392 -0.063733
49 -0.232217 0.113736 -0.213287 -0.115984 0.130248 0.115604 -0.103758 0.157435 0.00826516 -0.158937 -0.137316 0.071058 -0.169229 -0.087035 -0.143336 -0.0697532 0.138496 0.0905712 -0.0472901 -0.102375 -0.0942138 0.131652 -0.0709394 -0.0486502
50 -0.299945 0.147151 -0.281287 -0.141899 0.159799 0.140124 -0.138238 0.201291 0.0194661 -0.223466 -0.185593 0.0858786 -0.234067 -0.116899 -0.194204 -0.0822183 0.185618 0.105423 -0.0821024 -0.126086 -0.112844 0.162959 -0.102175 -0.0645086
51 -0.335725 0.156368 -0.311314 -0.162179 0.170992 0.151458 -0.156335 0.222509 0.0261459 -0.231393 -0.204067 0.0991564 -0.256734 -0.119528 -0.206995 -0.0974704 0.194632 0.123594 -0.0838294 -0.13429 -0.133041 0.182207 -0.102768 -0.0616803
52 -0.340489 0.171157 -0.32194 -0.165612 0.182972 0.155898 -0.155616 0.223009 0.0202759 -0.244082 -0.207717 0.0938632 -0.260295 -0.135608 -0.214133 -0.096792 0.216095 0.1175 -0.0823016 -0.140608 -0.132347 0.188464 -0.110556 -0.0707588
54 -0.399294 0.188897 -0.381296 -0.191804 0.209964 0.178444 -0.185945 0.267399 0.0305658 -0.288282 -0.244878 0.110513 -0.312982 -0.156217 -0.250711 -0.116332 0.246449 0.146105 -0.0999848 -0.160289 -0.151512 0.220757 -0.129492 -0.080565
55 -0.324319 0.149951 -0.303824 -0.15104 0.166241 0.149579 -0.156153 0.219259 0.0256646 -0.243615 -0.203698 0.091337 -0.254934 -0.124733 -0.20626 -0.0960165 0.193389 0.12735 -0.0951257 -0.136811 -0.126539 0.179505 -0.103834 -0.0660447
56 -0.378261 0.17823 -0.365855 -0.184573 0.205379 0.171918 -0.182101 0.264375 0.0262433 -0.276699 -0.227954 0.108547 -0.301883 -0.142911 -0.237146 -0.115099 0.235262 0.147112 -0.0882373 -0.146777 -0.143354 0.212263 -0.123617 -0.0786524
57 -0.32609 0.153293 -0.311553 -0.154234 0.171345 0.148406 -0.152467 0.22274 0.0241243 -0.239072 -0.198562 0.0931471 -0.258688 -0.126417 -0.206554 -0.092892 0.199799 0.120995 -0.083954 -0.130534 -0.120018 0.179508 -0.108239 -0.0688903
58 -0.348145 0.16851 -0.323812 -0.159974 0.179147 0.16276 -0.163679 0.228947 0.0278336 -0.250433 -0.215169 0.100492 -0.272249 -0.130087 -0.223321 -0.0955079 0.211501 0.123757 -0.0943982 -0.143093 -0.131953 0.191707 -0.113923 -0.0681192
59 -0.244832 0.11529 -0.229613 -0.112288 0.120751 0.113456 -0.117282 0.162833 0.0181588 -0.182025 -0.151953 0.0708208 -0.191376 -0.0955422 -0.15397 -0.0699545 0.14536 0.0938192 -0.0721959 -0.102216 -0.0962006 0.133956 -0.0772368 -0.0523808
60 -0.277619 0.139856 -0.263853 -0.134856 0.144072 0.131258 -0.140243 0.185255 0.0233624 -0.202717 -0.178494 0.0827747 -0.220707 -0.100122 -0.179708 -0.0780379 0.16775 0.100466 -0.0780844 -0.10945 -0.115241 0.146339 -0.0889537 -0.0510512
62 -0.247618 0.11273 -0.232479 -0.114534 0.108098 0.106525 -0.124863 0.155651 0.0328452 -0.162871 -0.15733 0.0769316 -0.196021 -0.0817753 -0.151769 -0.0662821 0.13232 0.0863216 -0.0710349 -0.0856034 -0.101939 0.121861 -0.0674011 -0.0372653
64 -0.359149 0.168706 -0.340217 -0.1685 0.177483 0.159981 -0.174699 0.235092 0.0388527 -0.250769 -0.225124 0.102384 -0.286279 -0.131105 -0.224007 -0.102238 0.210951 0.131916 -0.0976515 -0.136216 -0.141372 0.193608 -0.10736 -0.0622182
65 -0.171905 0.0853604 -0.169138 -0.0799293 0.0866217 0.0822637 -0.0840214 0.112498 0.0141737 -0.122613 -0.106854 0.0520567 -0.136506 -0.0713618 -0.108374 -0.0463768 0.105256 0.063614 -0.0417943 -0.0663066 -0.0674244 0.090255 -0.0510262 -0.0386934
66 -0.232558 0.117907 -0.221428 -0.112299 0.127707 0.115446 -0.112923 0.162062 0.0121575 -0.176749 -0.144542 0.0683127 -0.181888 -0.0916658 -0.15141 -0.0684711 0.146387 0.0891526 -0.0619367 -0.0984437 -0.0926387 0.131251 -0.080206 -0.051925
67 -0.324903 0.151027 -0.304337 -0.149368 0.168592 0.147979 -0.1476 0.21715 0.0266486 -0.237737 -0.198618 0.0905547 -0.254215 -0.128639 -0.206263 -0.091611 0.196785 0.11905 -0.0878023 -0.134305 -0.118376 0.180059 -0.105406 -0.0687407
68 -0.325031 0.153099 -0.307936 -0.157782 0.173508 0.152708 -0.155885 0.22371 0.0290242 -0.229583 -0.203267 0.0964416 -0.256438 -0.116976 -0.20882 -0.0930194 0.191291 0.121428 -0.0822052 -0.128223 -0.12425 0.176186 -0.106361 -0.0584596
69 -0.379032 0.181297 -0.367527 -0.182916 0.200105 0.17365 -0.181771 0.254997 0.0310328 -0.275102 -0.238621 0.104707 -0.302099 -0.15036 -0.240204 -0.109475 0.234355 0.143395 -0.0978653 -0.153596 -0.145882 0.208909 -0.122679 -0.0735346
72 -0.249317 0.127865 -0.241578 -0.121089 0.129558 0.114663 -0.119501 0.161433 0.0188368 -0.176197 -0.15468 0.0732173 -0.195874 -0.0975533 -0.157863 -0.0673308 0.156471 0.0836678 -0.0595722 -0.095344 -0.0995034 0.13065 -0.0782489 -0.0512391
73 -0.453362 0.218088 -0.429508 -0.217884 0.237006 0.207256 -0.218299 0.30341 0.0401343 -0.328947 -0.287838 0.126229 -0.360811 -0.169078 -0.289768 -0.129347 0.275017 0.167035 -0.126508 -0.184049 -0.177138 0.248234 -0.147733 -0.0811509
75 -0.348182 0.161414 -0.32502 -0.162072 0.176386 0.15614 -0.163031 0.235036 0.0225872 -0.26152 -0.211509 0.0971238 -0.271369 -0.134675 -0.21719 -0.103502 0.211098 0.13332 -0.0995324 -0.145932 -0.133799 0.19574 -0.113734 -0.0752216
76 -0.436663 0.218017 -0.427081 -0.215129 0.244227 0.209179 -0.211684 0.305674 0.029229 -0.324544 -0.277514 0.11709 -0.351907 -0.174267 -0.283555 -0.124746 0.280271 0.165847 -0.11526 -0.182372 -0.161796 0.248549 -0.155529 -0.0824062
77 -0.287192 0.13037 -0.275747 -0.132427 0.144788 0.129927 -0.135164 0.196226 0.0197763 -0.213689 -0.172897 0.0795962 -0.226423 -0.117882 -0.176718 -0.0868638 0.175216 0.11592 -0.0766539 -0.118158 -0.107597 0.164374 -0.091821 -0.0648751
78 -0.373399 0.18485 -0.344081 -0.174774 0.193921 0.169476 -0.177847 0.24094 0.040009 -0.259905 -0.235191 0.098846 -0.28596 -0.139393 -0.238259 -0.106543 0.227363 0.124238 -0.101744 -0.144221 -0.143271 0.206349 -0.115418 -0.0618277
79 -0.351753 0.171229 -0.328418 -0.168649 0.188142 0.167528 -0.169675 0.239731 0.0335124 -0.257664 -0.226554 0.0987743 -0.27466 -0.131353 -0.232317 -0.102808 0.211727 0.127011 -0.100783 -0.143939 -0.138428 0.195392 -0.120836 -0.062812
80 -0.485677 0.236452 -0.454247 -0.23018 0.256934 0.220414 -0.226 0.323803 0.0356763 -0.359276 -0.299457 0.131722 -0.382212 -0.186488 -0.307612 -0.140694 0.303261 0.177063 -0.134201 -0.202267 -0.18701 0.274004 -0.159486 -0.0968498
81 -0.34862 0.175238 -0.324074 -0.157206 0.182691 0.167539 -0.164055 0.230763 0.03321 -0.255653 -0.216566 0.0941718 -0.279908 -0.136223 -0.222241 -0.0985877 0.217408 0.131109 -0.101729 -0.144918 -0.133854 0.203507 -0.109084 -0.0677226
82 -0.294283 0.147136 -0.275662 -0.139371 0.155679 0.13619 -0.141777 0.199161 0.0237412 -0.212259 -0.179621 0.0861247 -0.232834 -0.104825 -0.188861 -0.0806647 0.180838 0.100365 -0.0776464 -0.111469 -0.110116 0.158918 -0.096803 -0.0569703
83 -0.217756 0.106847 -0.207039 -0.106913 0.113162 0.104111 -0.104135 0.142376 0.016709 -0.145785 -0.13429 0.0670709 -0.166065 -0.0811395 -0.134656 -0.061946 0.127772 0.0811918 -0.0479938 -0.0861731 -0.0901603 0.115864 -0.0625019 -0.0410553
84 -0.295886 0.148149 -0.277941 -0.14285 0.158775 0.139857 -0.143413 0.20861 0.0153447 -0.225459 -0.179472 0.08936 -0.235833 -0.10488 -0.191763 -0.0839734 0.183812 0.10704 -0.0825794 -0.118564 -0.113872 0.16312 -0.106199 -0.0636656
87 -0.249897 0.12597 -0.234496 -0.115438 0.131604 0.120088 -0.115615 0.165441 0.0168568 -0.182792 -0.151778 0.0714835 -0.195932 -0.0996243 -0.15796 -0.0693563 0.156221 0.0919292 -0.0661941 -0.104556 -0.0962552 0.140882 -0.0788734 -0.0549342
88 -0.382676 0.178599 -0.358524 -0.18058 0.194366 0.171228 -0.178539 0.255042 0.0320519 -0.277153 -0.237474 0.106437 -0.297889 -0.145838 -0.241765 -0.110395 0.229048 0.13884 -0.106595 -0.155793 -0.146464 0.210812 -0.12565 -0.073961
92 -0.470362 0.223553 -0.435236 -0.223401 0.23645 0.20348 -0.212466 0.304581 0.0367465 -0.335129 -0.288454 0.130892 -0.362708 -0.174711 -0.295024 -0.12905 0.283016 0.156404 -0.129791 -0.190453 -0.178986 0.252616 -0.154547 -0.089621
93 -0.483221 0.229197 -0.446374 -0.228888 0.252252 0.217612 -0.217419 0.322605 0.045024 -0.344773 -0.300076 0.128859 -0.369338 -0.185976 -0.31079 -0.141135 0.292793 0.164506 -0.132517 -0.196707 -0.181365 0.274692 -0.167526 -0.0886099
94 -0.49658 0.233289 -0.468889 -0.237159 0.26134 0.218181 -0.226008 0.333378 0.0330177 -0.365136 -0.300484 0.134794 -0.38748 -0.194339 -0.310894 -0.145038 0.309153 0.180012 -0.128759 -0.20429 -0.185021 0.277897 -0.165642 -0.103962
96 -0.349445 0.175458 -0.333932 -0.167574 0.188512 0.163971 -0.170308 0.23542 0.0267711 -0.258797 -0.217701 0.0979766 -0.279427 -0.134566 -0.223002 -0.102293 0.221194 0.13104 -0.0915708 -0.140541 -0.138789 0.195577 -0.111623 -0.0704754
97 -0.48506 0.230972 -0.461295 -0.23393 0.25802 0.223133 -0.227264 0.333045 0.0402561 -0.348725 -0.3039 0.129128 -0.380572 -0.187815 -0.310172 -0.140768 0.297683 0.177629 -0.131343 -0.198552 -0.178685 0.27681 -0.169447 -0.0863125
98 -0.350435 0.165241 -0.331213 -0.166106 0.180183 0.155471 -0.162998 0.237427 0.0206949 -0.259169 -0.208361 0.0980625 -0.272748 -0.136313 -0.216251 -0.10523 0.217176 0.131347 -0.0908939 -0.14175 -0.134193 0.198319 -0.114935 -0.0773903
101 -0.495527 0.240572 -0.45985 -0.235369 0.261516 0.218981 -0.220409 0.32656 0.0310462 -0.364309 -0.299194 0.134446 -0.382694 -0.192293 -0.312685 -0.139649 0.311152 0.16885 -0.132144 -0.207046 -0.185302 0.275826 -0.16715 -0.104329
103 -0.248445 0.113086 -0.230469 -0.110816 0.120118 0.111693 -0.110729 0.160046 0.020132 -0.179721 -0.152002 0.0702761 -0.190682 -0.101028 -0.1552 -0.0670246 0.145456 0.0895299 -0.0713262 -0.105135 -0.0913108 0.13384 -0.0773954 -0.0544772
104 -0.409776 0.185631 -0.384611 -0.191519 0.206049 0.177565 -0.18892 0.269508 0.0355237 -0.294332 -0.250761 0.113295 -0.319072 -0.157543 -0.25444 -0.118801 0.244251 0.15006 -0.109258 -0.164543 -0.154371 0.223454 -0.127678 -0.0814336
105 -0.284181 0.133125 -0.274303 -0.133646 0.143163 0.126692 -0.136549 0.189706 0.0207432 -0.207386 -0.171845 0.080134 -0.223871 -0.113885 -0.173961 -0.0854332 0.174806 0.110372 -0.0716015 -0.111874 -0.111139 0.158009 -0.0865339 -0.0622201
106 -0.17403 0.0838064 -0.169446 -0.0809272 0.0923453 0.0858738 -0.0863948 0.125066 0.0140785 -0.128108 -0.105533 0.0570704 -0.1431 -0.0635318 -0.11391 -0.0463285 0.103687 0.0658943 -0.0434266 -0.0638185 -0.0621298 0.0916124 -0.058806 -0.0391286
108 -0.564963 0.286592 -0.522172 -0.277389 0.313563 0.265826 -0.266188 0.385608 0.0266328 -0.439473 -0.357099 0.153704 -0.439272 -0.213425 -0.370693 -0.165118 0.360728 0.203343 -0.168542 -0.252152 -0.225566 0.318878 -0.204476 -0.114885
109 -0.366884 0.179427 -0.346073 -0.17587 0.194904 0.168473 -0.170187 0.24406 0.0261513 -0.269538 -0.229072 0.102733 -0.28686 -0.142464 -0.235917 -0.101916 0.227243 0.128938 -0.0990283 -0.152737 -0.140078 0.199483 -0.123195 -0.0741443
110 -0.22912 0.101406 -0.217872 -0.101124 0.114673 0.105993 -0.102461 0.150083 0.0198188 -0.167665 -0.141831 0.0632112 -0.178075 -0.100365 -0.144066 -0.0634121 0.135764 0.0894669 -0.0625728 -0.0993284 -0.0813568 0.125755 -0.069826 -0.0526646
111 -0.4037 0.197069 -0.372885 -0.192351 0.213151 0.183363 -0.183735 0.271227 0.0277094 -0.292775 -0.24462 0.107966 -0.306124 -0.156092 -0.255306 -0.120083 0.251364 0.140381 -0.107833 -0.166069 -0.15344 0.232953 -0.138467 -0.0803795
112 -0.509488 0.239782 -0.485817 -0.245547 0.267452 0.228443 -0.237636 0.345028 0.043776 -0.366031 -0.316809 0.13774 -0.401081 -0.197173 -0.322868 -0.149287 0.312166 0.186045 -0.133759 -0.204813 -0.191788 0.286677 -0.172282 -0.0945743
113 -0.3009 0.14405 -0.27909 -0.140388 0.156309 0.142804 -0.144528 0.203855 0.0201912 -0.23092 -0.190589 0.0851893 -0.235211 -0.116012 -0.19449 -0.0873755 0.181594 0.116266 -0.0929693 -0.131968 -0.118972 0.16703 -0.100385 -0.0629063
114 -0.372423 0.179146 -0.345606 -0.175657 0.192334 0.167978 -0.175706 0.24653 0.0276601 -0.272994 -0.231454 0.101568 -0.287247 -0.141332 -0.235911 -0.106564 0.227178 0.132502 -0.106023 -0.153735 -0.142423 0.204853 -0.121323 -0.0720739
116 -0.634437 0.307935 -0.574851 -0.304755 0.335172 0.274796 -0.279628 0.418576 0.036781 -0.46142 -0.379872 0.166575 -0.473618 -0.23806 -0.39909 -0.184479 0.396579 0.205607 -0.171383 -0.26414 -0.236767 0.358263 -0.220097 -0.125815
117 -0.244418 0.128111 -0.235067 -0.113363 0.134015 0.121519 -0.117867 0.160752 0.0245859 -0.175563 -0.155 0.0703073 -0.198916 -0.0973122 -0.159908 -0.0644413 0.155016 0.0877149 -0.0620555 -0.0967561 -0.093676 0.133782 -0.0745026 -0.0484875
118 -0.207553 0.0995422 -0.197279 -0.0990901 0.10325 0.0972455 -0.10328 0.139968 0.019505 -0.142252 -0.127628 0.0670246 -0.164646 -0.0705449 -0.130532 -0.0567758 0.118139 0.0755705 -0.0518764 -0.0750205 -0.0825162 0.106934 -0.0628177 -0.0383342
119 -0.255546 0.128454 -0.237663 -0.111961 0.130499 0.124335 -0.120122 0.166834 0.023041 -0.1889 -0.15762 0.0705685 -0.205033 -0.103048 -0.161464 -0.0705387 0.158544 0.098028 -0.0758902 -0.107866 -0.0982116 0.147758 -0.0764985 -0.0541107
120 -0.357373 0.182019 -0.333278 -0.165901 0.191982 0.170072 -0.162373 0.236136 0.0250619 -0.263717 -0.218987 0.0961896 -0.280688 -0.143952 -0.227715 -0.100219 0.228363 0.128819 -0.0981259 -0.153042 -0.136234 0.207014 -0.117333 -0.0750202
121 -0.296163 0.149102 -0.282427 -0.141504 0.15782 0.141146 -0.141842 0.193176 0.0308243 -0.209575 -0.191382 0.0818483 -0.231544 -0.118164 -0.193122 -0.0836587 0.182767 0.103615 -0.077117 -0.118472 -0.117966 0.162116 -0.0940126 -0.0537207
122 -0.269191 0.132412 -0.259424 -0.129559 0.139876 0.125228 -0.133151 0.178238 0.0238516 -0.193591 -0.170809 0.0788467 -0.213832 -0.102543 -0.171987 -0.0760214 0.163803 0.0984373 -0.0696383 -0.104715 -0.108192 0.142389 -0.0832792 -0.0520274
123 -0.407758 0.20873 -0.378766 -0.199403 0.224357 0.19535 -0.19676 0.276207 0.0220222 -0.315854 -0.261442 0.113449 -0.317948 -0.154355 -0.268742 -0.118232 0.257963 0.148295 -0.12236 -0.180367 -0.166675 0.226451 -0.143213 -0.0821708
125 -0.354669 0.16883 -0.322396 -0.163426 0.185757 0.165443 -0.157924 0.232649 0.02655 -0.260617 -0.220568 0.0982427 -0.271909 -0.137755 -0.227742 -0.0977396 0.212816 0.12728 -0.103248 -0.15682 -0.13328 0.196429 -0.115791 -0.0719352
127 -0.441797 0.218326 -0.411485 -0.213097 0.239956 0.206801 -0.207248 0.296542 0.0294975 -0.330218 -0.277975 0.12171 -0.344543 -0.168744 -0.285379 -0.127621 0.275226 0.161495 -0.123881 -0.190428 -0.173793 0.246662 -0.14853 -0.0870834
128 -0.319044 0.156698 -0.301306 -0.152645 0.168771 0.148825 -0.150788 0.214668 0.025774 -0.227351 -0.196242 0.0933717 -0.252599 -0.117359 -0.203066 -0.0885356 0.194116 0.114394 -0.0817014 -0.126031 -0.12225 0.174061 -0.103193 -0.0614223
129 -0.189648 0.106283 -0.192816 -0.0954718 0.111131 0.0969449 -0.0944738 0.125603 0.0115442 -0.139587 -0.122458 0.0555547 -0.151786 -0.083483 -0.12603 -0.0512664 0.129302 0.0667082 -0.0386229 -0.0759713 -0.0774647 0.100164 -0.0608035 -0.0435818
131 -0.385206 0.18383 -0.368641 -0.186617 0.207513 0.178497 -0.183501 0.267035 0.0300568 -0.281788 -0.239266 0.109295 -0.306422 -0.145723 -0.247655 -0.111858 0.236473 0.143589 -0.0999318 -0.154424 -0.144797 0.21423 -0.132046 -0.0749176
132 -0.245456 0.115554 -0.236862 -0.116306 0.125309 0.112909 -0.121539 0.166497 0.0255 -0.172361 -0.152836 0.075727 -0.198267 -0.087946 -0.156736 -0.0673911 0.143457 0.089503 -0.061388 -0.0886445 -0.093146 0.126938 -0.0760494 -0.0462202
133 -0.339863 0.167506 -0.319808 -0.157243 0.178231 0.159503 -0.159562 0.220865 0.0341996 -0.243041 -0.215307 0.0925225 -0.268924 -0.134146 -0.217887 -0.0938062 0.208743 0.122236 -0.0932911 -0.139038 -0.129961 0.188283 -0.104939 -0.0632597
134 -0.314795 0.150192 -0.295734 -0.143681 0.164102 0.147911 -0.14874 0.209954 0.0263951 -0.234831 -0.195982 0.0863985 -0.249597 -0.126093 -0.199741 -0.0914319 0.19314 0.122854 -0.0895231 -0.133215 -0.120558 0.178437 -0.0978698 -0.0658674
135 -0.51945 0.257033 -0.483036 -0.252087 0.287464 0.244047 -0.243947 0.353764 0.0304923 -0.396004 -0.326073 0.141168 -0.405436 -0.198855 -0.336829 -0.153743 0.327846 0.193613 -0.147173 -0.227955 -0.204295 0.294987 -0.179038 -0.104707
136 -0.267635 0.12116 -0.251775 -0.124827 0.117843 0.114507 -0.135122 0.164345 0.0415873 -0.169698 -0.174829 0.0830469 -0.212197 -0.0868944 -0.166368 -0.0691247 0.139997 0.0894882 -0.0748719 -0.0902252 -0.110022 0.126425 -0.0699776 -0.034296
137 -0.386394 0.180828 -0.351692 -0.180645 0.20133 0.174296 -0.172877 0.256485 0.0316101 -0.275529 -0.235944 0.103538 -0.289431 -0.148382 -0.244807 -0.113305 0.231815 0.134451 -0.10478 -0.160502 -0.143154 0.218904 -0.128033 -0.0740466
138 -0.320466 0.15256 -0.29953 -0.150645 0.15953 0.143479 -0.150244 0.207594 0.0332579 -0.222471 -0.201063 0.0900003 -0.247068 -0.12082 -0.203074 -0.0899801 0.189046 0.108966 -0.0868182 -0.124219 -0.124556 0.172626 -0.1012 -0.0570916
139 -0.523372 0.260673 -0.484384 -0.251909 0.285748 0.241853 -0.24082 0.35092 0.0302863 -0.397481 -0.32664 0.140474 -0.405747 -0.202668 -0.338853 -0.150676 0.332067 0.185625 -0.149907 -0.229022 -0.20256 0.294903 -0.18212 -0.107069
140 -0.435216 0.20981 -0.392451 -0.202633 0.223668 0.1917 -0.199206 0.289576 0.0310935 -0.316919 -0.26162 0.112971 -0.325451 -0.162777 -0.273149 -0.129609 0.268035 0.146408 -0.124885 -0.176505 -0.161726 0.250577 -0.147343 -0.0838383
141 -0.282835 0.133793 -0.263242 -0.132457 0.138507 0.130569 -0.140623 0.185746 0.0283983 -0.204011 -0.182653 0.0837569 -0.22295 -0.1006 -0.181121 -0.0789324 0.161516 0.104457 -0.0863608 -0.113353 -0.115345 0.147909 -0.0871744 -0.0493835
142 -0.352646 0.182706 -0.336721 -0.174465 0.195969 0.16941 -0.17506 0.243418 0.014665 -0.276257 -0.221466 0.0981037 -0.278139 -0.138252 -0.227876 -0.108106 0.230499 0.136122 -0.0978449 -0.151915 -0.146958 0.201338 -0.121742 -0.0771897
143 -0.281984 0.131448 -0.265652 -0.13461 0.149235 0.133403 -0.134165 0.194858 0.0252973 -0.201016 -0.175382 0.0833525 -0.220333 -0.104092 -0.181613 -0.0820096 0.165295 0.106069 -0.0726999 -0.112122 -0.106964 0.154987 -0.0931226 -0.0534549
146 -0.438137 0.208035 -0.416763 -0.210166 0.227709 0.192166 -0.20337 0.291845 0.0298648 -0.319753 -0.265621 0.11988 -0.342401 -0.171487 -0.272012 -0.1291 0.273164 0.159753 -0.111706 -0.176702 -0.167936 0.244003 -0.142087 -0.0911715
147 -0.243692 0.117404 -0.232038 -0.114766 0.116463 0.109535 -0.119948 0.154737 0.0256824 -0.167597 -0.1547 0.0728002 -0.191624 -0.08986 -0.152356 -0.0658964 0.141182 0.0851462 -0.0658924 -0.0913113 -0.0994189 0.124296 -0.0706326 -0.043548
150 -0.306338 0.147894 -0.292663 -0.141896 0.165079 0.146065 -0.144454 0.206432 0.0247823 -0.228744 -0.1915 0.0839404 -0.244342 -0.126189 -0.196411 -0.0882755 0.191676 0.119445 -0.0821349 -0.129617 -0.115236 0.17335 -0.0972798 -0.0654322
151 -0.475294 0.229291 -0.430917 -0.225954 0.248384 0.208342 -0.219668 0.314984 0.0370331 -0.338373 -0.289597 0.124016 -0.354537 -0.173716 -0.300095 -0.13954 0.290766 0.15551 -0.130368 -0.188598 -0.175894 0.266765 -0.159197 -0.0844099
152 -0.375704 0.200067 -0.357155 -0.173765 0.21039 0.185053 -0.176811 0.246305 0.0323174 -0.278113 -0.235306 0.0983236 -0.304523 -0.155541 -0.242058 -0.105549 0.249109 0.139922 -0.0995688 -0.158738 -0.145769 0.220757 -0.116065 -0.0764369
153 -0.320683 0.164886 -0.310935 -0.157887 0.178361 0.150976 -0.149962 0.215136 0.0196046 -0.235781 -0.199459 0.0893608 -0.251728 -0.130954 -0.207564 -0.0900366 0.208776 0.111215 -0.0765388 -0.131192 -0.123576 0.176495 -0.109671 -0.0686966
155 -0.224012 0.105168 -0.205351 -0.110489 0.121172 0.110673 -0.102415 0.151541 0.0169173 -0.146825 -0.136376 0.0705841 -0.165191 -0.0790384 -0.140398 -0.0657065 0.12515 0.0856553 -0.047675 -0.0927475 -0.0899586 0.122506 -0.0670105 -0.0401168
156 -0.28289 0.14978 -0.270133 -0.136933 0.159217 0.14158 -0.13958 0.191232 0.0191529 -0.215657 -0.18255 0.0803064 -0.225941 -0.111818 -0.18776 -0.0798666 0.182547 0.104904 -0.0781719 -0.120752 -0.114891 0.156746 -0.0944127 -0.0582873
159 -0.573099 0.288971 -0.52387 -0.278343 0.307061 0.258125 -0.259029 0.383908 0.0219802 -0.438709 -0.348528 0.155906 -0.43851 -0.21579 -0.366549 -0.164617 0.366074 0.194249 -0.166885 -0.250838 -0.22442 0.32333 -0.207055 -0.122676
160 -0.16322 0.0878324 -0.166801 -0.0789389 0.0878027 0.0802405 -0.0793565 0.100702 0.0136736 -0.113429 -0.105409 0.0469543 -0.128317 -0.0762791 -0.104317 -0.0427251 0.107307 0.0568882 -0.0322366 -0.0641407 -0.0668588 0.0836959 -0.0453071 -0.0372799
161 -0.250924 0.114863 -0.238257 -0.117563 0.125951 0.114635 -0.120728 0.168384 0.0232343 -0.176304 -0.153943 0.0754849 -0.19757 -0.0928138 -0.156508 -0.0717413 0.145121 0.0955554 -0.0636455 -0.096441 -0.0964262 0.133939 -0.0753913 -0.0492613
162 -0.485323 0.235731 -0.446396 -0.230431 0.255386 0.218013 -0.221492 0.325371 0.0363074 -0.354369 -0.296615 0.129394 -0.371427 -0.18395 -0.309221 -0.142549 0.300816 0.166424 -0.134831 -0.198966 -0.183523 0.277276 -0.167679 -0.0938625
163 -0.519637 0.256378 -0.48514 -0.242548 0.278532 0.238389 -0.237812 0.343064 0.0418806 -0.381902 -0.319671 0.137729 -0.41149 -0.20383 -0.329596 -0.148262 0.328779 0.188341 -0.141735 -0.217499 -0.196333 0.297552 -0.167343 -0.10339
165 -0.314298 0.146506 -0.286887 -0.143741 0.159203 0.139225 -0.14567 0.207421 0.0262949 -0.225931 -0.191233 0.0867727 -0.239626 -0.116409 -0.198169 -0.0875867 0.18665 0.107659 -0.0885536 -0.12499 -0.112932 0.170135 -0.100076 -0.060991
168 -0.198172 0.0893197 -0.184882 -0.0873461 0.100926 0.0935725 -0.093643 0.134431 0.0199679 -0.142777 -0.12237 0.0585157 -0.155162 -0.0761097 -0.127972 -0.0528539 0.113669 0.0730681 -0.0549287 -0.0780006 -0.0673764 0.104739 -0.0617067 -0.0409674
169 -0.354829 0.175195 -0.336816 -0.168635 0.18956 0.163973 -0.166755 0.23541 0.0245284 -0.26372 -0.219882 0.0969686 -0.278501 -0.142601 -0.225203 -0.103109 0.224698 0.13109 -0.0938036 -0.148372 -0.138531 0.198751 -0.114121 -0.0751697
170 -0.263428 0.129098 -0.259319 -0.128047 0.142441 0.125034 -0.130496 0.186139 0.0201541 -0.192156 -0.161821 0.0797744 -0.215658 -0.0983828 -0.169487 -0.0741452 0.163345 0.099331 -0.0633357 -0.0985311 -0.0983734 0.143065 -0.089281 -0.0541104
171 -0.369165 0.172148 -0.346438 -0.165759 0.187729 0.180291 -0.181543 0.241688 0.0222017 -0.263575 -0.230356 0.109801 -0.280148 -0.140587 -0.239252 -0.106405 0.224561 0.141524 -0.0916306 -0.160728 -0.142571 0.208548 -0.124891 -0.073036
172 -0.260804 0.117707 -0.243163 -0.118151 0.122718 0.11524 -0.121122 0.163636 0.03044 -0.178233 -0.165353 0.0760244 -0.202422 -0.0987614 -0.163787 -0.068134 0.145642 0.0903346 -0.0736065 -0.102317 -0.0991302 0.132432 -0.0755295 -0.0468647
173 -0.249716 0.110234 -0.223234 -0.114957 0.131753 0.117941 -0.112906 0.16911 0.0160594 -0.161853 -0.152332 0.0659033 -0.173703 -0.0921129 -0.154646 -0.0695719 0.140906 0.0945608 -0.0557911 -0.106624 -0.0821709 0.145784 -0.0743372 -0.0381443
175 -0.296954 0.139103 -0.27602 -0.140435 0.151145 0.139208 -0.143226 0.198625 0.02764 -0.213076 -0.189378 0.0863967 -0.230644 -0.108921 -0.190427 -0.0854342 0.1713 0.111614 -0.0853687 -0.122263 -0.118247 0.160721 -0.0944485 -0.0533333
176 -0.357858 0.165349 -0.329031 -0.165641 0.173101 0.154949 -0.162129 0.227374 0.0341803 -0.25004 -0.222108 0.101836 -0.275257 -0.132269 -0.224447 -0.0953861 0.20667 0.119151 -0.101734 -0.14335 -0.135693 0.186779 -0.111686 -0.0660683
177 -0.2574 0.125228 -0.24403 -0.124393 0.14257 0.126656 -0.124592 0.181282 0.022776 -0.18745 -0.162913 0.0776754 -0.203567 -0.0944326 -0.171788 -0.0729347 0.154303 0.0941667 -0.0664947 -0.102066 -0.0970478 0.139865 -0.0896313 -0.0493792
178 -0.357945 0.173031 -0.338666 -0.170984 0.188777 0.161104 -0.165902 0.24237 0.0228447 -0.263259 -0.215783 0.101209 -0.280679 -0.137091 -0.225988 -0.102182 0.223218 0.127284 -0.0922967 -0.143556 -0.133965 0.198004 -0.120691 -0.0762576
180 -0.458858 0.216912 -0.431678 -0.216458 0.239018 0.20393 -0.208912 0.304033 0.0344102 -0.334676 -0.280745 0.124203 -0.358771 -0.180368 -0.288067 -0.131365 0.283405 0.165793 -0.12253 -0.189995 -0.171699 0.255984 -0.149875 -0.0933331
181 -0.493036 0.238905 -0.462502 -0.232289 0.264474 0.229372 -0.227075 0.335035 0.0440958 -0.359345 -0.306235 0.129662 -0.387392 -0.194211 -0.316734 -0.146061 0.307403 0.180574 -0.134995 -0.203665 -0.184896 0.28901 -0.168852 -0.0931754
184 -0.428101 0.220138 -0.401927 -0.209004 0.234388 0.200657 -0.203722 0.285503 0.0255234 -0.32318 -0.269587 0.117577 -0.334898 -0.164944 -0.277186 -0.123523 0.274557 0.152133 -0.118762 -0.182393 -0.172795 0.238557 -0.145157 -0.0866589
185 -0.318468 0.153466 -0.308981 -0.151296 0.176129 0.149352 -0.151891 0.219574 0.0256387 -0.23511 -0.195156 0.0900966 -0.256747 -0.126765 -0.204059 -0.0929204 0.20129 0.122087 -0.0755496 -0.125782 -0.117442 0.177907 -0.102492 -0.0684623
186 -0.388677 0.184506 -0.363103 -0.184478 0.206646 0.178206 -0.181546 0.26253 0.0289981 -0.289493 -0.242451 0.109266 -0.304502 -0.147616 -0.250664 -0.110919 0.236768 0.141715 -0.108391 -0.162682 -0.147207 0.212728 -0.130333 -0.0784943
187 -0.41321 0.196282 -0.396093 -0.193732 0.225251 0.193155 -0.195058 0.284605 0.0355367 -0.305439 -0.255027 0.113119 -0.334427 -0.162962 -0.263951 -0.120495 0.258159 0.161222 -0.107145 -0.168359 -0.150997 0.236104 -0.134483 -0.0835976
188 -0.235104 0.119461 -0.226235 -0.113278 0.126315 0.11472 -0.116998 0.158847 0.0176487 -0.174861 -0.150467 0.0698776 -0.187322 -0.0908397 -0.153903 -0.0654926 0.145691 0.0869054 -0.0633342 -0.0954888 -0.0945324 0.125465 -0.0766741 -0.0482507
189 -0.390217 0.188422 -0.363996 -0.176479 0.209156 0.183438 -0.17834 0.258383 0.0357239 -0.288009 -0.241365 0.104155 -0.310995 -0.157032 -0.249317 -0.110436 0.243266 0.147204 -0.107999 -0.165267 -0.143538 0.223876 -0.121655 -0.0799554
190 -0.306214 0.143637 -0.280189 -0.148714 0.165698 0.145426 -0.139508 0.207336 0.0229525 -0.209427 -0.185994 0.0878958 -0.226775 -0.1129 -0.191887 -0.0930451 0.179091 0.115142 -0.0715693 -0.127544 -0.119091 0.174078 -0.0960113 -0.0559576
191 -0.495404 0.246009 -0.457403 -0.234278 0.263035 0.227131 -0.225507 0.32633 0.0388 -0.360402 -0.306341 0.133926 -0.38612 -0.188525 -0.316563 -0.139448 0.308623 0.171533 -0.137888 -0.207267 -0.189907 0.279665 -0.164976 -0.0948392
193 -0.15442 0.0605841 -0.143661 -0.0606664 0.071789 0.0740222 -0.0658199 0.0986749 0.018527 -0.111712 -0.097773 0.0440121 -0.118809 -0.0717997 -0.0986287 -0.0388979 0.0823535 0.0631305 -0.0472287 -0.0707165 -0.0494121 0.0813798 -0.0431829 -0.037185
194 -0.344558 0.158897 -0.326814 -0.163498 0.180664 0.15852 -0.163523 0.232073 0.0285862 -0.250463 -0.215414 0.0967427 -0.27009 -0.134149 -0.217588 -0.101891 0.206367 0.134562 -0.0907815 -0.142922 -0.132813 0.190299 -0.107856 -0.0679574
195 -0.482818 0.254754 -0.445639 -0.218769 0.267461 0.235847 -0.22257 0.312838 0.0468952 -0.355512 -0.303123 0.125222 -0.390005 -0.191317 -0.313009 -0.132505 0.313449 0.17426 -0.137866 -0.206244 -0.184741 0.283593 -0.149006 -0.0917718
196 -0.46775 0.226036 -0.435716 -0.22425 0.246796 0.207801 -0.212652 0.310284 0.0300231 -0.344936 -0.285968 0.128757 -0.361835 -0.179055 -0.296791 -0.133027 0.290939 0.161814 -0.12602 -0.194671 -0.177933 0.257427 -0.157966 -0.0964182
197 -0.437787 0.224528 -0.407059 -0.21428 0.242701 0.206824 -0.207833 0.293957 0.025451 -0.334195 -0.279531 0.120173 -0.339368 -0.165007 -0.287911 -0.124883 0.279045 0.155117 -0.12621 -0.191997 -0.177626 0.24116 -0.153517 -0.0864976
198 -0.416729 0.189367 -0.401633 -0.194082 0.220411 0.180195 -0.199541 0.289208 0.0354908 -0.283513 -0.260241 0.099803 -0.307863 -0.166663 -0.270612 -0.126125 0.265393 0.154012 -0.109899 -0.166998 -0.135528 0.244937 -0.142696 -0.0659706
199 -0.315396 0.151949 -0.294556 -0.146283 0.155056 0.141519 -0.148683 0.198619 0.0350322 -0.217077 -0.199798 0.0903873 -0.247615 -0.11688 -0.199222 -0.0834546 0.184595 0.106809 -0.0871817 -0.122468 -0.123551 0.164367 -0.0930602 -0.0547099
200 -0.399916 0.199027 -0.371051 -0.193955 0.216635 0.188741 -0.192018 0.270055 0.0291362 -0.300663 -0.256458 0.114263 -0.313871 -0.145685 -0.263979 -0.112095 0.244891 0.141563 -0.117477 -0.169448 -0.158438 0.215695 -0.137941 -0.0754442
201 -0.215624 0.0892686 -0.20003 -0.0909257 0.104708 0.101412 -0.0950091 0.141117 0.0245146 -0.154377 -0.135741 0.0610365 -0.167969 -0.0910829 -0.137232 -0.0571095 0.118406 0.0860537 -0.063893 -0.0947473 -0.072975 0.116305 -0.0635956 -0.0455599
202 -0.273087 0.124771 -0.253206 -0.127028 0.132329 0.118771 -0.12954 0.18315 0.0191159 -0.19183 -0.165599 0.076596 -0.207837 -0.0982654 -0.166339 -0.0769391 0.159374 0.0983441 -0.0718344 -0.105607 -0.100097 0.150214 -0.0850098 -0.0508345
203 -0.314191 0.153422 -0.298951 -0.150751 0.168859 0.146427 -0.149307 0.211405 0.0244482 -0.230736 -0.196983 0.0903653 -0.248111 -0.120749 -0.203465 -0.0878948 0.193724 0.112798 -0.0820689 -0.127308 -0.120221 0.168972 -0.103571 -0.0637072
206 -0.361581 0.177037 -0.337471 -0.168939 0.190168 0.166701 -0.164072 0.239312 0.0254068 -0.264735 -0.220201 0.0985124 -0.281096 -0.143847 -0.22804 -0.103268 0.225949 0.130625 -0.097374 -0.152264 -0.137384 0.205823 -0.118084 -0.0759496
207 -0.229433 0.107816 -0.218935 -0.106121 0.107416 0.102005 -0.112854 0.151555 0.0178409 -0.16478 -0.138327 0.0682108 -0.180806 -0.0866406 -0.138751 -0.0669001 0.1355 0.0876199 -0.0627793 -0.087153 -0.0925074 0.124625 -0.0684478 -0.0484977
208 -0.350217 0.165669 -0.335414 -0.167373 0.179505 0.155684 -0.166711 0.23307 0.0291817 -0.250759 -0.215447 0.0993972 -0.276709 -0.13377 -0.218861 -0.100746 0.213091 0.127886 -0.0890428 -0.136215 -0.134863 0.189922 -0.110492 -0.0691641
211 -0.390719 0.18273 -0.369414 -0.18625 0.201272 0.175582 -0.189944 0.263531 0.0313068 -0.288663 -0.24329 0.109685 -0.308266 -0.146713 -0.245687 -0.117583 0.236112 0.150319 -0.107766 -0.157756 -0.154754 0.215756 -0.123893 -0.07663
212 -0.266302 0.125282 -0.256613 -0.126763 0.142878 0.12704 -0.125525 0.186841 0.0192345 -0.194198 -0.162552 0.0770102 -0.210387 -0.105591 -0.169721 -0.078191 0.162483 0.104095 -0.0659623 -0.108082 -0.0982777 0.150936 -0.0900902 -0.0565892
213 -0.345665 0.167158 -0.319608 -0.162457 0.184015 0.159372 -0.154426 0.227596 0.0287465 -0.246906 -0.21384 0.0916505 -0.260189 -0.139351 -0.221835 -0.0996755 0.212964 0.118113 -0.0905956 -0.144367 -0.128705 0.195633 -0.115257 -0.0681175
214 -0.437492 0.21051 -0.402781 -0.205964 0.225827 0.197518 -0.198428 0.290894 0.0389036 -0.31364 -0.269706 0.118084 -0.335435 -0.16651 -0.279554 -0.127193 0.265955 0.14924 -0.122038 -0.177464 -0.166599 0.248963 -0.149732 -0.0819678
215 -0.302233 0.145687 -0.27928 -0.140708 0.154344 0.138833 -0.143384 0.197294 0.0283508 -0.211116 -0.187265 0.0839494 -0.231989 -0.112722 -0.189523 -0.086294 0.18 0.107956 -0.081409 -0.119885 -0.116478 0.166656 -0.0912094 -0.0542611
216 -0.396235 0.189311 -0.369415 -0.184269 0.205534 0.180527 -0.181137 0.261371 0.0361621 -0.285294 -0.245749 0.107183 -0.308803 -0.155143 -0.252081 -0.113037 0.241652 0.141265 -0.108884 -0.162693 -0.149315 0.222899 -0.128824 -0.0765225
217 -0.356793 0.175739 -0.331354 -0.161683 0.188482 0.171027 -0.168771 0.232384 0.0381048 -0.260016 -0.228155 0.0971516 -0.285738 -0.138802 -0.230791 -0.09865 0.217699 0.133343 -0.104349 -0.15001 -0.137351 0.199812 -0.107759 -0.0658299
220 -0.521286 0.26271 -0.474846 -0.249649 0.279264 0.23472 -0.238733 0.345964 0.0292499 -0.389219 -0.318129 0.138748 -0.397368 -0.194837 -0.33293 -0.149621 0.3309 0.173735 -0.148669 -0.219831 -0.199791 0.29408 -0.180525 -0.104206
221 -0.221031 0.104298 -0.213187 -0.103683 0.113814 0.10376 -0.108422 0.152531 0.0207464 -0.158325 -0.136117 0.0682755 -0.178063 -0.081498 -0.141771 -0.0611966 0.130489 0.0820896 -0.0559291 -0.0817828 -0.0823799 0.116952 -0.0710082 -0.0449399
222 -0.259075 0.116242 -0.244116 -0.117679 0.121213 0.113562 -0.125005 0.176122 0.0169982 -0.192236 -0.152126 0.0753388 -0.203742 -0.0982295 -0.15501 -0.0791023 0.152677 0.104464 -0.0740443 -0.102128 -0.101008 0.146611 -0.0801962 -0.0583806
223 -0.383702 0.184206 -0.365606 -0.185209 0.201453 0.172317 -0.183715 0.255504 0.0312247 -0.278187 -0.238844 0.108115 -0.302242 -0.145731 -0.242862 -0.111451 0.235684 0.139469 -0.0987309 -0.151936 -0.150187 0.207986 -0.122165 -0.0749546
224 -0.285722 0.135866 -0.277008 -0.136603 0.146992 0.128798 -0.13956 0.192061 0.0242146 -0.204857 -0.175222 0.0832605 -0.22778 -0.109219 -0.178367 -0.0832878 0.174279 0.107125 -0.0696418 -0.107723 -0.111202 0.154264 -0.0879924 -0.0581983
226 -0.467636 0.229685 -0.422865 -0.220313 0.248233 0.21093 -0.210015 0.309023 0.0335736 -0.33776 -0.283586 0.122469 -0.351086 -0.177036 -0.296579 -0.136345 0.290582 0.156536 -0.128684 -0.194366 -0.17504 0.268349 -0.157584 -0.089571
228 -0.369357 0.176944 -0.347973 -0.177932 0.196217 0.169678 -0.174653 0.249793 0.0337541 -0.266065 -0.232515 0.104478 -0.28843 -0.138312 -0.239841 -0.106298 0.223245 0.129828 -0.0978744 -0.146403 -0.141392 0.201538 -0.124851 -0.0685671
230 -0.502704 0.246027 -0.467696 -0.239928 0.268319 0.225758 -0.232139 0.337324 0.0326525 -0.367811 -0.304943 0.131949 -0.387442 -0.193217 -0.315672 -0.147757 0.317472 0.178096 -0.134648 -0.207115 -0.188085 0.288275 -0.168577 -0.0987048
231 -0.356273 0.170987 -0.326659 -0.170666 0.195882 0.171127 -0.16224 0.243382 0.0240333 -0.252963 -0.213543 0.100869 -0.271267 -0.133347 -0.222558 -0.109777 0.215906 0.139846 -0.0861516 -0.151749 -0.139545 0.209794 -0.111814 -0.0703671
232 -0.366029 0.183264 -0.349434 -0.174411 0.199042 0.171204 -0.166932 0.242147 0.0280114 -0.266474 -0.227791 0.0972412 -0.28576 -0.152511 -0.23493 -0.104182 0.234683 0.129594 -0.0927399 -0.153048 -0.13862 0.207898 -0.121955 -0.0756145
234 -0.314334 0.160472 -0.314886 -0.156401 0.175074 0.14402 -0.151513 0.208663 0.0181998 -0.230544 -0.192436 0.0849251 -0.248326 -0.13627 -0.195856 -0.0957316 0.211356 0.117995 -0.0638036 -0.12417 -0.125962 0.176203 -0.0972038 -0.072072
235 -0.447283 0.217864 -0.420465 -0.217837 0.240663 0.208178 -0.220458 0.302709 0.0350179 -0.336201 -0.287647 0.125042 -0.353122 -0.165438 -0.290402 -0.133002 0.274152 0.168847 -0.128409 -0.187118 -0.181701 0.245185 -0.147391 -0.0830434
236 -0.444501 0.21712 -0.429365 -0.218646 0.241848 0.201292 -0.216038 0.300431 0.0303833 -0.330446 -0.276175 0.121375 -0.351316 -0.174881 -0.280542 -0.136399 0.283693 0.169175 -0.109774 -0.179352 -0.177849 0.248725 -0.142709 -0.0911187
237 -0.243288 0.117527 -0.219201 -0.116442 0.131877 0.120032 -0.111272 0.161616 0.0190579 -0.162922 -0.148128 0.0734439 -0.180602 -0.0861602 -0.152798 -0.0699158 0.139472 0.0910509 -0.0569348 -0.102059 -0.0960022 0.134927 -0.0709632 -0.0434476
238 -0.33611 0.160313 -0.311156 -0.158831 0.168966 0.151333 -0.15649 0.218649 0.0287054 -0.239758 -0.210314 0.0960419 -0.258986 -0.124802 -0.213295 -0.0931754 0.198536 0.116337 -0.094657 -0.136903 -0.131704 0.179468 -0.107729 -0.0630943
239 -0.428223 0.204476 -0.404698 -0.208079 0.224913 0.195392 -0.209138 0.290244 0.0348328 -0.31361 -0.269841 0.120576 -0.337418 -0.157556 -0.272458 -0.128199 0.259355 0.161744 -0.117314 -0.172975 -0.171607 0.236377 -0.139408 -0.0789161
242 -0.377625 0.178027 -0.35408 -0.182297 0.197436 0.168508 -0.173901 0.251645 0.024586 -0.269857 -0.226944 0.106838 -0.289763 -0.143278 -0.232969 -0.112477 0.229888 0.139679 -0.0922598 -0.153726 -0.147301 0.209953 -0.118837 -0.0773061
244 -0.533829 0.255431 -0.50292 -0.257297 0.28135 0.231795 -0.250233 0.355946 0.0368758 -0.388236 -0.32361 0.141444 -0.413059 -0.204336 -0.331532 -0.159636 0.335282 0.190483 -0.136583 -0.212583 -0.202407 0.299342 -0.173071 -0.105154
245 -0.272833 0.12407 -0.247598 -0.125407 0.138516 0.126175 -0.121773 0.177988 0.0231691 -0.191682 -0.168709 0.0779891 -0.204371 -0.104435 -0.172417 -0.0759365 0.155749 0.0988536 -0.0748957 -0.116852 -0.102028 0.147779 -0.0843717 -0.0531097
246 -0.223871 0.10455 -0.217362 -0.103848 0.113259 0.103391 -0.107555 0.145499 0.0239822 -0.156371 -0.141665 0.0656354 -0.177547 -0.0900933 -0.141943 -0.0610232 0.132246 0.0827287 -0.0552391 -0.0862643 -0.0850959 0.116133 -0.0649753 -0.0446083
247 -0.223471 0.106947 -0.214806 -0.10747 0.117482 0.106544 -0.11037 0.152297 0.0261396 -0.151887 -0.14175 0.0711846 -0.179383 -0.0774296 -0.146564 -0.0591275 0.127964 0.0779145 -0.0533688 -0.079252 -0.0842911 0.112891 -0.0706023 -0.0383414
248 -0.232445 0.116178 -0.223535 -0.110665 0.120738 0.108227 -0.110637 0.155335 0.016043 -0.168266 -0.141779 0.0694721 -0.183663 -0.0900833 -0.14771 -0.0631815 0.144178 0.0812929 -0.058061 -0.0902497 -0.0892968 0.123972 -0.0756931 -0.0506452
250 -0.389474 0.188882 -0.358676 -0.183461 0.194792 0.172717 -0.180322 0.253096 0.029963 -0.281276 -0.23984 0.110097 -0.301866 -0.142734 -0.245057 -0.107678 0.234414 0.132653 -0.112103 -0.158326 -0.152435 0.210715 -0.126566 -0.0749875
251 -0.479942 0.233258 -0.446574 -0.23108 0.25341 0.215864 -0.221615 0.321112 0.0302135 -0.357377 -0.296133 0.131312 -0.371379 -0.183 -0.305731 -0.139328 0.298571 0.169717 -0.133977 -0.202135 -0.186263 0.267652 -0.164454 -0.0971577
253 -0.4475 0.216164 -0.431105 -0.213435 0.240101 0.211051 -0.208591 0.307189 0.0376328 -0.325844 -0.281968 0.119528 -0.358762 -0.18015 -0.287818 -0.127073 0.278881 0.168723 -0.121836 -0.187259 -0.164533 0.257655 -0.155908 -0.083942
254 -0.533908 0.25565 -0.500113 -0.256327 0.283565 0.237362 -0.240837 0.359742 0.0319247 -0.396311 -0.324261 0.143987 -0.414191 -0.208226 -0.337671 -0.154685 0.334897 0.189379 -0.14347 -0.224684 -0.19954 0.301213 -0.185391 -0.111448
255 -0.346694 0.173596 -0.324698 -0.169349 0.184119 0.158718 -0.159601 0.22674 0.0240348 -0.246883 -0.214727 0.0986823 -0.265514 -0.131613 -0.221156 -0.096571 0.214383 0.116094 -0.0877001 -0.141402 -0.136904 0.187089 -0.114233 -0.0679061
257 -0.221173 0.102833 -0.206724 -0.0948623 0.112093 0.107766 -0.102164 0.142408 0.0280912 -0.156993 -0.141843 0.0629448 -0.177191 -0.0902594 -0.14359 -0.0567536 0.12787 0.0836507 -0.0641122 -0.0922842 -0.0793003 0.119078 -0.0632724 -0.0431214
260 -0.265846 0.118302 -0.250869 -0.121625 0.126557 0.118093 -0.126867 0.172202 0.0317435 -0.182889 -0.167818 0.0768039 -0.207529 -0.100876 -0.16634 -0.0748444 0.149331 0.0975627 -0.0728926 -0.101586 -0.102166 0.139983 -0.0780687 -0.0475583
261 -0.312032 0.150707 -0.294059 -0.143658 0.164104 0.146626 -0.147025 0.21001 0.0262768 -0.228642 -0.190743 0.0868774 -0.247896 -0.122531 -0.196827 -0.091052 0.192668 0.119941 -0.0834569 -0.127303 -0.118695 0.178564 -0.0975565 -0.0647625
262 -0.50426 0.250077 -0.45832 -0.23939 0.265804 0.222423 -0.225135 0.329246 0.0295901 -0.367329 -0.303446 0.132889 -0.379992 -0.191058 -0.317002 -0.142798 0.317468 0.164538 -0.138336 -0.210648 -0.188752 0.283266 -0.169884 -0.10073
263 -0.30453 0.140591 -0.285397 -0.144363 0.158343 0.143179 -0.143361 0.20699 0.0273777 -0.215451 -0.190078 0.0880131 -0.236588 -0.114187 -0.193526 -0.0886993 0.177171 0.116694 -0.0807238 -0.124801 -0.116774 0.168898 -0.0976925 -0.056326
264 -0.291474 0.12969 -0.272385 -0.134669 0.150881 0.135338 -0.132525 0.195443 0.0241521 -0.209596 -0.180051 0.0822789 -0.224328 -0.116317 -0.183356 -0.0847367 0.169904 0.114722 -0.0770689 -0.125065 -0.108135 0.161788 -0.0904408 -0.0599068
265 -0.296237 0.144882 -0.286776 -0.141701 0.158748 0.135387 -0.137863 0.198257 0.0179228 -0.218811 -0.179469 0.0823801 -0.232249 -0.122911 -0.18606 -0.0861311 0.189744 0.109171 -0.0705247 -0.120469 -0.112672 0.164735 -0.0956713 -0.0678747
266 -0.41668 0.197477 -0.395088 -0.195355 0.219213 0.187829 -0.191946 0.279627 0.0293403 -0.308607 -0.252988 0.112032 -0.328217 -0.167667 -0.260286 -0.122837 0.261187 0.157816 -0.109867 -0.173405 -0.15632 0.237868 -0.1348 -0.0890568
267 -0.395263 0.188758 -0.362157 -0.190698 0.211878 0.180805 -0.177323 0.266363 0.0262692 -0.28081 -0.238462 0.1105 -0.297502 -0.146988 -0.24962 -0.115996 0.239284 0.139193 -0.099838 -0.164224 -0.149603 0.223049 -0.132465 -0.0768985
268 -0.305218 0.147907 -0.28625 -0.141923 0.163433 0.144125 -0.139668 0.204648 0.0289802 -0.219694 -0.190458 0.0863217 -0.240046 -0.118774 -0.199507 -0.0830933 0.185858 0.106124 -0.0810325 -0.123488 -0.11112 0.16765 -0.101932 -0.0602087
269 -0.410823 0.208424 -0.378619 -0.187224 0.222598 0.199587 -0.189382 0.273952 0.0422486 -0.299678 -0.257515 0.106999 -0.32466 -0.162655 -0.267473 -0.119098 0.25888 0.148927 -0.11795 -0.171845 -0.156336 0.245398 -0.135328 -0.0764781
270 -0.196759 0.10159 -0.196324 -0.0969227 0.107414 0.0957547 -0.0998438 0.132797 0.02041 -0.135798 -0.125494 0.062948 -0.161103 -0.0726996 -0.129848 -0.050489 0.120824 0.0668394 -0.0420279 -0.0679846 -0.0761152 0.0975374 -0.0615642 -0.0372708
271 -0.291734 0.148683 -0.274816 -0.138765 0.153871 0.140605 -0.144133 0.19344 0.0229943 -0.217622 -0.187349 0.0832574 -0.231274 -0.111097 -0.189139 -0.0826804 0.180418 0.10824 -0.0850852 -0.121941 -0.120021 0.159793 -0.0933148 -0.0566446
272 -0.259078 0.119848 -0.246138 -0.120507 0.134453 0.121263 -0.123455 0.176139 0.0218887 -0.189921 -0.160955 0.0750635 -0.20406 -0.101502 -0.165182 -0.0749306 0.154335 0.100314 -0.0692219 -0.105557 -0.0978499 0.141912 -0.0823254 -0.0542256
273 -0.29783 0.148658 -0.285754 -0.141255 0.163028 0.143856 -0.140334 0.198266 0.0248807 -0.21342 -0.185707 0.0833096 -0.236594 -0.120155 -0.1898 -0.0844355 0.187011 0.112966 -0.072447 -0.122781 -0.11467 0.167389 -0.0916092 -0.0598501
274 -0.336946 0.170401 -0.315448 -0.164023 0.180895 0.162669 -0.168776 0.226668 0.0252673 -0.255483 -0.22082 0.0966516 -0.265717 -0.124087 -0.222385 -0.0969178 0.206267 0.125172 -0.102026 -0.143826 -0.140812 0.181999 -0.112411 -0.0624038
275 -0.326768 0.174056 -0.305208 -0.14821 0.183856 0.165984 -0.153939 0.215498 0.0297033 -0.245536 -0.207984 0.0874662 -0.265064 -0.132796 -0.215512 -0.0891021 0.212577 0.12186 -0.0938747 -0.142131 -0.125651 0.190358 -0.102657 -0.0658553
276 -0.373318 0.166917 -0.355246 -0.175425 0.183912 0.161113 -0.179882 0.245016 0.0394511 -0.261542 -0.231897 0.105811 -0.294844 -0.139068 -0.2304 -0.109572 0.217178 0.140381 -0.0970808 -0.141512 -0.144649 0.199389 -0.109489 -0.0681084
277 -0.312805 0.14928 -0.296187 -0.147961 0.164118 0.145687 -0.151105 0.21074 0.0291324 -0.225785 -0.196175 0.0902533 -0.248259 -0.117079 -0.200279 -0.0898065 0.187758 0.116922 -0.0831764 -0.123909 -0.121064 0.170486 -0.0986844 -0.0595619
279 -0.33844 0.152969 -0.31486 -0.157325 0.170015 0.151563 -0.15979 0.225224 0.0396561 -0.234285 -0.213752 0.0936559 -0.260794 -0.125513 -0.216528 -0.0970793 0.193985 0.119016 -0.0932135 -0.129889 -0.124807 0.183607 -0.108382 -0.0562813
282 -0.236819 0.11546 -0.232369 -0.112532 0.129293 0.113329 -0.112205 0.162092 0.0179709 -0.17332 -0.146546 0.0691212 -0.189907 -0.0972995 -0.153082 -0.0652311 0.148593 0.0882009 -0.055783 -0.0943558 -0.0864748 0.128268 -0.0777218 -0.052639
283 -0.238592 0.119924 -0.230338 -0.114102 0.12271 0.109966 -0.113449 0.154255 0.019088 -0.168715 -0.148341 0.0699636 -0.187168 -0.0944524 -0.151134 -0.0640688 0.147646 0.0814112 -0.0584108 -0.0924944 -0.0937843 0.124936 -0.0741193 -0.0494316
285 -0.322936 0.155769 -0.29685 -0.146878 0.165003 0.151152 -0.15001 0.211739 0.0276527 -0.238709 -0.202663 0.0899437 -0.253269 -0.124407 -0.206921 -0.0891512 0.194133 0.11825 -0.0977845 -0.138112 -0.12394 0.178877 -0.102914 -0.0642196
287 -0.371466 0.186152 -0.345625 -0.17735 0.194077 0.170433 -0.173727 0.243347 0.0255324 -0.273887 -0.23179 0.103789 -0.288815 -0.141281 -0.237502 -0.103673 0.230742 0.128605 -0.105086 -0.155364 -0.147321 0.203163 -0.122823 -0.0741579
288 -0.386396 0.182885 -0.356132 -0.18211 0.195942 0.170795 -0.177514 0.260337 0.0213413 -0.28343 -0.229332 0.106449 -0.295441 -0.14476 -0.237959 -0.113801 0.235933 0.139978 -0.107381 -0.159394 -0.146042 0.219589 -0.129224 -0.0802651
289 -0.440859 0.213668 -0.420932 -0.214957 0.239781 0.201212 -0.20236 0.30075 0.0337351 -0.31953 -0.272343 0.118846 -0.342408 -0.17557 -0.283613 -0.130073 0.27769 0.155082 -0.109486 -0.178096 -0.165084 0.250316 -0.155171 -0.0873837
290 -0.371004 0.178839 -0.351193 -0.177996 0.198683 0.172873 -0.180117 0.252254 0.0255583 -0.281622 -0.233941 0.102888 -0.292206 -0.144283 -0.237957 -0.111579 0.230154 0.143957 -0.103921 -0.157117 -0.147699 0.20727 -0.121728 -0.0762101
